{"learner":{"attributes":{"scikit_learn":"{\"_estimator_type\": \"regressor\"}"},"feature_names":["latitude","longitude","TMP","RH","UGRD","VGRD","CAPE","PWAT","PRES","WAVE_H","WAVE_DIR","WAVE_P","CURRENT_VEL","CURRENT_DIR","SST","storm_severity","TMP_lag1","TMP_lag2","RH_lag1","RH_lag2","UGRD_lag1","UGRD_lag2","VGRD_lag1","VGRD_lag2","CAPE_lag1","CAPE_lag2","PWAT_lag1","PWAT_lag2","APCP_lag1","APCP_lag2","WAVE_H_lag1","WAVE_H_lag2","CURRENT_VEL_lag1","CURRENT_VEL_lag2","RH_rolling_mean_12h","TMP_rolling_mean_12h","hour","month"],"feature_types":["float","float","float","float","float","float","float","float","float","float","float","float","float","float","float","int","float","float","float","float","float","float","float","float","float","float","float","float","float","float","float","float","float","float","float","float","int","int"],"gradient_booster":{"model":{"cats":{"enc":[],"feature_segments":[],"sorted_idx":[]},"gbtree_model_param":{"num_parallel_tree":"1","num_trees":"200"},"iteration_indptr":[0,1,2,3,4,5,6,7,8,9,10,11,12,13,14,15,16,17,18,19,20,21,22,23,24,25,26,27,28,29,30,31,32,33,34,35,36,37,38,39,40,41,42,43,44,45,46,47,48,49,50,51,52,53,54,55,56,57,58,59,60,61,62,63,64,65,66,67,68,69,70,71,72,73,74,75,76,77,78,79,80,81,82,83,84,85,86,87,88,89,90,91,92,93,94,95,96,97,98,99,100,101,102,103,104,105,106,107,108,109,110,111,112,113,114,115,116,117,118,119,120,121,122,123,124,125,126,127,128,129,130,131,132,133,134,135,136,137,138,139,140,141,142,143,144,145,146,147,148,149,150,151,152,153,154,155,156,157,158,159,160,161,162,163,164,165,166,167,168,169,170,171,172,173,174,175,176,177,178,179,180,181,182,183,184,185,186,187,188,189,190,191,192,193,194,195,196,197,198,199,200],"tree_info":[0,0,0,0,0,0,0,0,0,0,0,0,0,0,0,0,0,0,0,0,0,0,0,0,0,0,0,0,0,0,0,0,0,0,0,0,0,0,0,0,0,0,0,0,0,0,0,0,0,0,0,0,0,0,0,0,0,0,0,0,0,0,0,0,0,0,0,0,0,0,0,0,0,0,0,0,0,0,0,0,0,0,0,0,0,0,0,0,0,0,0,0,0,0,0,0,0,0,0,0,0,0,0,0,0,0,0,0,0,0,0,0,0,0,0,0,0,0,0,0,0,0,0,0,0,0,0,0,0,0,0,0,0,0,0,0,0,0,0,0,0,0,0,0,0,0,0,0,0,0,0,0,0,0,0,0,0,0,0,0,0,0,0,0,0,0,0,0,0,0,0,0,0,0,0,0,0,0,0,0,0,0,0,0,0,0,0,0,0,0,0,0,0,0,0,0,0,0,0,0],"trees":[{"base_weights":[4.1839806E-3,-4.9931973E-2,4.155795E0,-1.6945283E-1,5.367488E-1,3.3507721E0,8.304191E0,-2.0288673E-1,-1.89793E-2,2.1632607E0,4.797711E-1,5.1619296E0,2.4702384E0,1.0706273E1,8.4000625E-2,-2.1690533E-1,-5.6556452E-2,-1.19046874E-1,1.437943E-1,1.3839539E0,1.4914352E-1,3.5238892E-1,9.8108673E-1,5.412525E0,2.2503939E-3,1.5828826E0,4.6692553E0,3.5442924E-1,4.425039E-2,-2.230432E-1,-1.9443003E-2,-1.1312411E-1,1.5791907E0,4.250244E-1,-1.3272926E-1,1.1723686E-1,1.1222456E0,2.8216723E-1,2.3200245E0,3.3624417E-1,3.4125197E0,8.237915E-1,1.6432688E0,1.5750391E-2,5.6421304E0,7.6192975E-1,2.626691E0,6.7503937E-3,5.0208573E0,-2.3300213E-1,-1.939066E-1,-1.00464195E-1,6.7085737E-1,-1.5242481E-1,1.8295245E-1,1.0237559E-1,5.8891225E-1,-4.6129607E-2,9.82504E-2,2.6250392E-2,-1.3617124E-1,4.984434E-2,4.0954965E-1,-5.9978995E-2,6.2400624E-2,-1.3997899E-1,4.6502364E-1,1.6000242E0,1.4000054E-1,1.4704796E0,3.0292478E-1,2.6250392E-2,1.1900052E-1,3.887756E-1,9.585626E-1,1.3328379E0,9.075065E-2,7.2000526E-2,1.7647132E-1,1.3752407E-1,1.4350235E0,3.190933E0,8.60021E-1,7.462559E-2,5.5889125E0,1.1255903E-3,-6.9995862E-3,2.8007354E-3,-5.953009E-3,-4.447497E-3,4.9694884E-3,6.4000525E-2,4.950709E-3,-5.963714E-3,-2.8361746E-3,-1.9992497E-3,1.2715036E-2,2.1000676E-2,4.000525E-3,-3.449291E-3,4.125591E-3,-4.4276486E-3,3.5632548E-3,-3.5013337E-4,8.405946E-3,2.2966277E-2,3.0864794E-3,7.50394E-4,-2.624409E-3,-5.624409E-3,7.50394E-4,-2.999475E-3,1.8563189E-2,9.375591E-3,5.865071E-2,2.392504E-1,2.3429321E-2,7.1593765E-3,2.5595713E-2,1.7173173E-2,-2.624278E-3,4.5844488E-2,2.5959112E-2,1.706319E-2,4.5720756E-2,7.002552E-7,1.237559E-2,2.3572104E-2,6.637559E-2,1.009507E-1,2.1750394E-2,3.0005253E-3,4.000052E-2,1.764382E-1,4.8750393E-2],"categories":[],"categories_nodes":[],"categories_segments":[],"categories_sizes":[],"default_left":[0,0,0,0,0,0,0,0,0,0,0,0,0,0,0,0,0,0,0,0,0,0,0,0,0,0,0,0,0,0,0,0,0,0,0,0,0,0,0,0,0,0,0,0,0,0,0,0,0,0,0,0,0,0,0,0,0,0,0,0,0,0,0,0,0,0,0,0,0,0,0,0,0,0,0,0,0,0,0,0,0,0,0,0,0,0,0,0,0,0,0,0,0,0,0,0,0,0,0,0,0,0,0,0,0,0,0,0,0,0,0,0,0,0,0,0,0,0,0,0,0,0,0,0,0,0,0,0,0,0,0,0,0,0,0],"id":0,"left_children":[1,3,5,7,9,11,13,15,17,19,21,23,25,27,-1,29,31,33,35,37,-1,39,41,43,-1,45,47,-1,-1,49,51,53,55,57,59,61,63,65,67,69,71,73,75,-1,77,79,81,-1,83,85,87,89,91,93,95,-1,97,99,-1,-1,101,103,105,107,-1,109,111,113,-1,115,117,-1,-1,119,121,123,-1,-1,-1,125,127,129,131,-1,133,-1,-1,-1,-1,-1,-1,-1,-1,-1,-1,-1,-1,-1,-1,-1,-1,-1,-1,-1,-1,-1,-1,-1,-1,-1,-1,-1,-1,-1,-1,-1,-1,-1,-1,-1,-1,-1,-1,-1,-1,-1,-1,-1,-1,-1,-1,-1,-1,-1,-1],"loss_changes":[1.3619227E3,4.1969257E2,2.3265979E2,2.5009872E1,9.284186E1,9.409949E1,1.2867981E2,8.332596E0,1.4758082E1,6.7526764E1,6.223578E1,2.6363892E1,8.432068E1,6.440222E1,0E0,4.4946136E0,3.3211994E1,4.2326074E0,8.833309E0,2.8223171E1,0E0,3.7536728E1,1.9269577E1,1.948175E1,0E0,2.7990768E1,1.9184113E1,0E0,0E0,9.994354E-1,6.3873706E0,4.0539474E0,1.97764E1,1.8950047E1,2.0199528E0,6.618384E0,1.0315508E1,1.1457832E0,1.7877129E1,2.9032341E1,2.153885E0,9.125008E0,1.1838875E1,0E0,6.814575E-1,8.628606E0,1.2208168E1,0E0,3.3663635E0,2.387085E-1,1.2188416E0,1.321634E0,8.52529E0,8.024821E-1,2.4932778E0,0E0,3.6220932E-1,1.8017909E-1,0E0,0E0,1.609704E0,3.9001088E0,6.7990294E0,1.3875132E-2,0E0,4.3876186E-2,9.305599E-1,5.3308372E0,0E0,9.24393E1,2.664257E1,0E0,0E0,3.5488763E0,5.211319E0,3.8077164E0,0E0,0E0,0E0,4.5373553E-1,3.309721E0,2.2825394E0,1.6653032E0,0E0,8.7286377E-1,0E0,0E0,0E0,0E0,0E0,0E0,0E0,0E0,0E0,0E0,0E0,0E0,0E0,0E0,0E0,0E0,0E0,0E0,0E0,0E0,0E0,0E0,0E0,0E0,0E0,0E0,0E0,0E0,0E0,0E0,0E0,0E0,0E0,0E0,0E0,0E0,0E0,0E0,0E0,0E0,0E0,0E0,0E0,0E0,0E0,0E0,0E0,0E0,0E0,0E0],"parents":[2147483647,0,0,1,1,2,2,3,3,4,4,5,5,6,6,7,7,8,8,9,9,10,10,11,11,12,12,13,13,15,15,16,16,17,17,18,18,19,19,21,21,22,22,23,23,25,25,26,26,29,29,30,30,31,31,32,32,33,33,34,34,35,35,36,36,37,37,38,38,39,39,40,40,41,41,42,42,44,44,45,45,46,46,48,48,49,49,50,50,51,51,52,52,53,53,54,54,56,56,57,57,60,60,61,61,62,62,63,63,65,65,66,66,67,67,69,69,70,70,73,73,74,74,75,75,79,79,80,80,81,81,82,82,84,84],"right_children":[2,4,6,8,10,12,14,16,18,20,22,24,26,28,-1,30,32,34,36,38,-1,40,42,44,-1,46,48,-1,-1,50,52,54,56,58,60,62,64,66,68,70,72,74,76,-1,78,80,82,-1,84,86,88,90,92,94,96,-1,98,100,-1,-1,102,104,106,108,-1,110,112,114,-1,116,118,-1,-1,120,122,124,-1,-1,-1,126,128,130,132,-1,134,-1,-1,-1,-1,-1,-1,-1,-1,-1,-1,-1,-1,-1,-1,-1,-1,-1,-1,-1,-1,-1,-1,-1,-1,-1,-1,-1,-1,-1,-1,-1,-1,-1,-1,-1,-1,-1,-1,-1,-1,-1,-1,-1,-1,-1,-1,-1,-1,-1,-1],"split_conditions":[3.3E0,3E-1,5.7525E1,1E-1,-1.2778168E1,-1.1479898E1,4.969492E-1,4.199183E0,8.5E1,8.9E1,8.9E1,6.45E2,9.712269E0,8.41E2,8.4000625E-2,3E-1,9E1,-1.0571542E1,7.1E0,-2.2212384E0,1.4914352E-1,1.056E3,1.7E0,8.2E1,2.2503939E-3,8.8E1,2.9475E2,3.5442924E-1,4.425039E-2,4.8925E1,8.9E1,8.6E1,5.8055553E0,-1.0890437E1,3.2675E1,5.08937E0,1.143E1,5E-1,1.3E0,-1.2045762E1,3.0145E2,4.9825E1,2.4840895E2,1.5750391E-2,1.5417097E1,2.1E0,2.9945E2,6.7503937E-3,6E0,1.0042E5,-9.607406E0,8.6E1,6.0442203E-1,8.2E1,6.9961257E0,1.0237559E-1,7.517541E0,8.525E1,9.82504E-2,2.6250392E-2,7.8042955E0,5E-1,3.0005E2,-1.0890437E1,6.2400624E-2,2.013E1,-8.189452E0,5E-1,1.4000054E-1,5.0595345E0,1.8E0,2.6250392E-2,1.1900052E-1,-5.426821E0,1.72E2,4.4839626E1,9.075065E-2,7.2000526E-2,1.7647132E-1,-2.5141096E0,5.4975E1,1.0141E5,2.589497E0,7.462559E-2,1.0022E5,1.1255903E-3,-6.9995862E-3,2.8007354E-3,-5.953009E-3,-4.447497E-3,4.9694884E-3,6.4000525E-2,4.950709E-3,-5.963714E-3,-2.8361746E-3,-1.9992497E-3,1.2715036E-2,2.1000676E-2,4.000525E-3,-3.449291E-3,4.125591E-3,-4.4276486E-3,3.5632548E-3,-3.5013337E-4,8.405946E-3,2.2966277E-2,3.0864794E-3,7.50394E-4,-2.624409E-3,-5.624409E-3,7.50394E-4,-2.999475E-3,1.8563189E-2,9.375591E-3,5.865071E-2,2.392504E-1,2.3429321E-2,7.1593765E-3,2.5595713E-2,1.7173173E-2,-2.624278E-3,4.5844488E-2,2.5959112E-2,1.706319E-2,4.5720756E-2,7.002552E-7,1.237559E-2,2.3572104E-2,6.637559E-2,1.009507E-1,2.1750394E-2,3.0005253E-3,4.000052E-2,1.764382E-1,4.8750393E-2],"split_indices":[28,28,7,28,5,5,33,4,3,3,3,6,4,6,0,29,3,4,11,4,0,25,28,3,0,3,2,0,0,7,3,3,4,4,7,4,0,28,29,4,2,7,10,0,13,29,2,0,36,8,4,34,9,3,4,0,4,34,0,0,4,29,2,4,0,0,21,28,0,11,28,0,0,5,24,10,0,0,0,4,27,8,5,0,8,0,0,0,0,0,0,0,0,0,0,0,0,0,0,0,0,0,0,0,0,0,0,0,0,0,0,0,0,0,0,0,0,0,0,0,0,0,0,0,0,0,0,0,0,0,0,0,0,0,0],"split_type":[0,0,0,0,0,0,0,0,0,0,0,0,0,0,0,0,0,0,0,0,0,0,0,0,0,0,0,0,0,0,0,0,0,0,0,0,0,0,0,0,0,0,0,0,0,0,0,0,0,0,0,0,0,0,0,0,0,0,0,0,0,0,0,0,0,0,0,0,0,0,0,0,0,0,0,0,0,0,0,0,0,0,0,0,0,0,0,0,0,0,0,0,0,0,0,0,0,0,0,0,0,0,0,0,0,0,0,0,0,0,0,0,0,0,0,0,0,0,0,0,0,0,0,0,0,0,0,0,0,0,0,0,0,0,0],"sum_hessian":[6.06E3,5.983E3,7.7E1,4.971E3,1.012E3,6.6E1,1.1E1,4.067E3,9.04E2,3.3E1,9.79E2,2E1,4.6E1,7E0,4E0,3.711E3,3.56E2,5.6E2,3.44E2,2.7E1,6E0,7.82E2,1.97E2,1.9E1,1E0,3.4E1,1.2E1,6E0,1E0,3.599E3,1.12E2,3.45E2,1.1E1,1.3E1,5.47E2,3.36E2,8E0,1.3E1,1.4E1,7.79E2,3E0,1.61E2,3.6E1,1E0,1.8E1,2E1,1.4E1,1E0,1.1E1,2.677E3,9.22E2,1.01E2,1.1E1,3.05E2,4E1,3E0,8E0,1.2E1,1E0,1E0,5.46E2,2.74E2,6.2E1,4E0,4E0,4E0,9E0,1.2E1,2E0,2.1E1,7.58E2,1E0,2E0,3.9E1,1.22E2,3.1E1,5E0,2E0,1.6E1,1.1E1,9E0,1E1,4E0,3E0,8E0,3E0,2.674E3,1.4E1,9.08E2,8.6E1,1.5E1,2E0,9E0,1.68E2,1.37E2,2E1,2E1,6E0,2E0,9E0,3E0,5.23E2,2.3E1,2.17E2,5.7E1,2.8E1,3.4E1,1E0,3E0,3E0,1E0,2E0,7E0,3E0,9E0,1E0,2E1,6.8E2,7.8E1,2.8E1,1.1E1,1.5E1,1.07E2,7E0,2.4E1,8E0,3E0,6E0,3E0,9E0,1E0,2E0,2E0,7E0,1E0],"tree_param":{"num_deleted":"0","num_feature":"38","num_nodes":"135","size_leaf_vector":"1"}},{"base_weights":[8.276703E-3,-3.865449E-2,4.8237543E0,-1.6349193E-1,5.5644083E-1,1.6890228E0,6.052359E0,-1.973475E-1,-9.479898E-3,2.143248E0,4.564019E-1,4.197959E-1,2.9116056E0,4.667858E0,8.781795E0,-2.1818435E-1,-1.05996154E-1,-8.822144E-2,1.8559329E-1,1.8556398E-1,1.7578285E0,3.1366223E-1,1.036E0,3.673613E-2,1.943204E-1,1.0557737E-1,1.5697299E-2,5.4592695E0,1.8090694E0,5.733661E0,3.7536228E-1,-2.2111207E-1,-6.727072E-2,-1.5919805E-1,7.5316E-2,3.7045825E-1,-1.0275803E-1,5.2532226E-1,2.046515E-2,7.125761E-1,2.5848281E0,2.7347034E-1,1.4467694E0,7.9274344E-1,2.0533457E0,8.7807095E-3,-2.9994885E-3,4.1348677E0,7.895777E0,-4.636977E-3,8.6946614E-2,1.8163848E-1,4.7490384E-2,-2.2141042E-1,1.133969E-2,-1.8197487E-1,8.139565E-2,-1.8583436E-1,-8.628498E-2,-8.348695E-2,7.8261304E-1,5.038889E-2,9.677664E-2,-1.1657781E-1,1.1378901E-1,2.983725E-1,1.0580666E0,-4.258825E-2,2.7569708E-1,1.3547425E-1,1.2387797E0,3.669357E0,1.9250714E0,1.2821737E-1,5.1031095E-1,3.2000908E-1,2.6355875E0,3.207731E-1,9.2337406E-1,5.377605E-1,2.389057E0,7.896812E-3,4.3603935E0,6.444051E-2,2.9295832E-1,-4.74524E-3,2.978014E-3,-6.6510974E-3,1.1059669E-2,-6.3497615E-3,3.4749461E-3,2.190132E-2,1.8926847E-4,-5.7440302E-3,1.394388E-2,-3.590675E-3,1.9828012E-2,-3.8236699E-3,1.5421273E-2,7.52774E-2,1.55241E-2,2.6335262E-2,-2.9578893E-3,2.5856636E-2,-3.5913896E-3,7.26243E-2,-4.197066E-4,1.2257523E-3,1.5914034E-2,5.3172033E-2,2.2176092E-2,5.433825E-3,-2.8287864E-3,-3.3554416E-3,1.3739468E-2,8.607684E-3,-3.4283279E-3,6.148609E-2,2.12857E-2,-2.528054E-3,1.2159439E-1,8.045405E-2,3.5846658E-2,1.2939166E-3,9.008163E-3,4.866686E-2,1.3580602E-2,4.1143004E-2,4.4084345E-3,1.4898191E-1,3.144106E-2,1.7836113E-2,2.9074836E-3,3.6772948E-2,2.4414787E-2,2.1619167E-2,5.241669E-3,7.822647E-2,9.50915E-3,3.863101E-2,1.3438179E-1],"categories":[],"categories_nodes":[],"categories_segments":[],"categories_sizes":[],"default_left":[0,0,0,0,0,0,0,0,0,0,0,0,0,0,0,0,0,0,0,0,0,0,0,0,0,0,0,0,0,0,0,0,0,0,0,0,0,0,0,0,0,0,0,0,0,0,0,0,0,0,0,0,0,0,0,0,0,0,0,0,0,0,0,0,0,0,0,0,0,0,0,0,0,0,0,0,0,0,0,0,0,0,0,0,0,0,0,0,0,0,0,0,0,0,0,0,0,0,0,0,0,0,0,0,0,0,0,0,0,0,0,0,0,0,0,0,0,0,0,0,0,0,0,0,0,0,0,0,0,0,0,0,0,0,0,0,0,0,0,0,0],"id":1,"left_children":[1,3,5,7,9,11,13,15,17,19,21,23,25,27,29,31,33,35,37,-1,39,41,43,-1,45,-1,-1,47,49,51,-1,53,55,57,59,61,63,65,67,69,71,73,75,77,79,-1,-1,81,83,85,-1,-1,-1,87,-1,89,91,93,95,97,99,101,-1,103,105,107,109,111,113,115,117,119,121,123,125,127,129,131,133,135,137,-1,139,-1,-1,-1,-1,-1,-1,-1,-1,-1,-1,-1,-1,-1,-1,-1,-1,-1,-1,-1,-1,-1,-1,-1,-1,-1,-1,-1,-1,-1,-1,-1,-1,-1,-1,-1,-1,-1,-1,-1,-1,-1,-1,-1,-1,-1,-1,-1,-1,-1,-1,-1,-1,-1,-1,-1,-1,-1,-1],"loss_changes":[1.3814745E3,4.498437E2,2.1700696E2,2.6095016E1,1.6570142E2,2.670895E1,1.17721924E2,7.7868195E0,1.3886781E1,8.571994E1,8.149664E1,1.5765431E0,1.1219963E1,5.799817E1,7.6075195E1,1.4608307E0,7.381648E0,4.332028E0,1.4574942E1,0E0,4.8294647E1,3.5810005E1,4.6630035E1,0E0,2.8981948E-1,0E0,0E0,4.1570984E1,1.5816641E1,2.4049988E0,0E0,6.6926575E-1,1.1232343E0,1.1317682E0,1.9609167E1,1.8116165E1,1.8836608E0,9.961327E0,2.8441517E0,8.03135E0,1.5833054E1,2.6389565E1,3.5323433E1,9.506752E0,1.7540833E1,0E0,0E0,1.3695862E1,5.4242126E1,7.951433E-2,0E0,0E0,0E0,6.476135E-1,0E0,3.5159826E-1,1.4078355E0,1.6723585E0,4.0727444E0,3.822499E0,1.3351297E1,2.4288394E0,0E0,1.9069691E0,1.1235865E1,3.6241627E0,4.3842144E0,1.6596129E0,2.523755E0,5.6233263E-1,4.553179E0,1.6188171E1,8.951683E0,6.9847717E0,1.7975075E1,2.5278838E0,4.289218E1,2.1486032E0,3.1100998E0,4.0522337E-1,1.2755508E1,0E0,8.227539E-2,0E0,0E0,0E0,0E0,0E0,0E0,0E0,0E0,0E0,0E0,0E0,0E0,0E0,0E0,0E0,0E0,0E0,0E0,0E0,0E0,0E0,0E0,0E0,0E0,0E0,0E0,0E0,0E0,0E0,0E0,0E0,0E0,0E0,0E0,0E0,0E0,0E0,0E0,0E0,0E0,0E0,0E0,0E0,0E0,0E0,0E0,0E0,0E0,0E0,0E0,0E0,0E0,0E0,0E0,0E0,0E0,0E0,0E0],"parents":[2147483647,0,0,1,1,2,2,3,3,4,4,5,5,6,6,7,7,8,8,9,9,10,10,11,11,12,12,13,13,14,14,15,15,16,16,17,17,18,18,20,20,21,21,22,22,24,24,27,27,28,28,29,29,31,31,32,32,33,33,34,34,35,35,36,36,37,37,38,38,39,39,40,40,41,41,42,42,43,43,44,44,47,47,48,48,49,49,53,53,55,55,56,56,57,57,58,58,59,59,60,60,61,61,63,63,64,64,65,65,66,66,67,67,68,68,69,69,70,70,71,71,72,72,73,73,74,74,75,75,76,76,77,77,78,78,79,79,80,80,82,82],"right_children":[2,4,6,8,10,12,14,16,18,20,22,24,26,28,30,32,34,36,38,-1,40,42,44,-1,46,-1,-1,48,50,52,-1,54,56,58,60,62,64,66,68,70,72,74,76,78,80,-1,-1,82,84,86,-1,-1,-1,88,-1,90,92,94,96,98,100,102,-1,104,106,108,110,112,114,116,118,120,122,124,126,128,130,132,134,136,138,-1,140,-1,-1,-1,-1,-1,-1,-1,-1,-1,-1,-1,-1,-1,-1,-1,-1,-1,-1,-1,-1,-1,-1,-1,-1,-1,-1,-1,-1,-1,-1,-1,-1,-1,-1,-1,-1,-1,-1,-1,-1,-1,-1,-1,-1,-1,-1,-1,-1,-1,-1,-1,-1,-1,-1,-1,-1,-1,-1],"split_conditions":[4.1E0,3E-1,3.0804195E0,1E-1,-1.0865161E1,5.8E0,8.9E1,5.0625E1,8.6E1,2.9655E2,8.9E1,-7.767017E0,5.388929E0,5.6025E1,9.14481E0,5E-1,8.6E1,-1.0571542E1,8.5E1,1.8556398E-1,5.0125E1,1.0840579E1,1.9E0,3.673613E-2,1.0102E5,1.0557737E-1,1.5697299E-2,4.7114202E-1,5.6025E1,-1.3238473E1,3.7536228E-1,9.44E2,8.3E1,1E-1,2.3285359E2,-1.0890437E1,1.1E0,8.9E1,6E-1,8.3E1,-1.3238473E1,8.6E1,1.2E0,4.9825E1,9.3462425E1,8.7807095E-3,-2.9994885E-3,1.0773E2,5.2501404E1,8.65E0,8.6946614E-2,1.8163848E-1,4.7490384E-2,1.0840579E1,1.133969E-2,6.68E2,3E0,7.8E0,2.1E1,3E-1,8E1,-1.3264601E1,9.677664E-2,3.2675E1,3E1,2.4235846E-1,1.0051E5,1.0079E5,2.9905E2,-1.2778168E1,1.68E2,5.0875E1,1.654E1,9E-1,-1.1419318E1,4.7725E1,3.069708E-1,-7.861558E0,8.6E1,2.540864E-1,5.51E2,7.896812E-3,8.2E1,6.444051E-2,2.9295832E-1,-4.74524E-3,2.978014E-3,-6.6510974E-3,1.1059669E-2,-6.3497615E-3,3.4749461E-3,2.190132E-2,1.8926847E-4,-5.7440302E-3,1.394388E-2,-3.590675E-3,1.9828012E-2,-3.8236699E-3,1.5421273E-2,7.52774E-2,1.55241E-2,2.6335262E-2,-2.9578893E-3,2.5856636E-2,-3.5913896E-3,7.26243E-2,-4.197066E-4,1.2257523E-3,1.5914034E-2,5.3172033E-2,2.2176092E-2,5.433825E-3,-2.8287864E-3,-3.3554416E-3,1.3739468E-2,8.607684E-3,-3.4283279E-3,6.148609E-2,2.12857E-2,-2.528054E-3,1.2159439E-1,8.045405E-2,3.5846658E-2,1.2939166E-3,9.008163E-3,4.866686E-2,1.3580602E-2,4.1143004E-2,4.4084345E-3,1.4898191E-1,3.144106E-2,1.7836113E-2,2.9074836E-3,3.6772948E-2,2.4414787E-2,2.1619167E-2,5.241669E-3,7.822647E-2,9.50915E-3,3.863101E-2,1.3438179E-1],"split_indices":[28,28,9,28,22,28,3,26,3,17,3,4,11,26,4,29,3,4,18,0,7,4,28,0,8,0,0,33,7,5,0,24,3,29,10,4,29,3,29,18,5,3,28,7,13,0,0,1,13,0,0,0,0,4,0,24,36,11,36,29,18,4,0,7,25,32,8,8,35,5,25,7,0,28,4,27,33,22,18,33,25,0,3,0,0,0,0,0,0,0,0,0,0,0,0,0,0,0,0,0,0,0,0,0,0,0,0,0,0,0,0,0,0,0,0,0,0,0,0,0,0,0,0,0,0,0,0,0,0,0,0,0,0,0,0,0,0,0,0,0,0],"split_type":[0,0,0,0,0,0,0,0,0,0,0,0,0,0,0,0,0,0,0,0,0,0,0,0,0,0,0,0,0,0,0,0,0,0,0,0,0,0,0,0,0,0,0,0,0,0,0,0,0,0,0,0,0,0,0,0,0,0,0,0,0,0,0,0,0,0,0,0,0,0,0,0,0,0,0,0,0,0,0,0,0,0,0,0,0,0,0,0,0,0,0,0,0,0,0,0,0,0,0,0,0,0,0,0,0,0,0,0,0,0,0,0,0,0,0,0,0,0,0,0,0,0,0,0,0,0,0,0,0,0,0,0,0,0,0,0,0,0,0,0,0],"sum_hessian":[6.111E3,6.053E3,5.8E1,5.004E3,1.049E3,1.7E1,4.1E1,4.102E3,9.02E2,6.1E1,9.88E2,9E0,8E0,2.9E1,1.2E1,3.339E3,7.63E2,6.43E2,2.59E2,4E0,5.7E1,7.94E2,1.94E2,1E0,8E0,6E0,2E0,2.2E1,7E0,8E0,4E0,3.275E3,6.4E1,5.9E2,1.73E2,1.9E1,6.24E2,8.4E1,1.75E2,2.6E1,3.1E1,7.68E2,2.6E1,1.58E2,3.6E1,6E0,2E0,1.6E1,6E0,3E0,4E0,7E0,1E0,3.274E3,1E0,3.6E1,2.8E1,4.31E2,1.59E2,1.42E2,3.1E1,1.8E1,1E0,5.87E2,3.7E1,6E1,2.4E1,1.41E2,3.4E1,1.3E1,1.3E1,1E1,2.1E1,4.77E2,2.91E2,1.4E1,1.2E1,3.5E1,1.23E2,7E0,2.9E1,1E0,1.5E1,2E0,4E0,1E0,2E0,3.273E3,1E0,3.3E1,3E0,2E0,2.6E1,4.28E2,3E0,1.53E2,6E0,1.33E2,9E0,3E0,2.8E1,2E0,1.6E1,1E0,5.86E2,1E0,3.6E1,2.9E1,3.1E1,6E0,1.8E1,2.6E1,1.15E2,1.1E1,2.3E1,8E0,5E0,4E0,9E0,1E0,9E0,9E0,1.2E1,3.2E2,1.57E2,1.3E1,2.78E2,1E0,1.3E1,4E0,8E0,1.5E1,2E1,3E1,9.3E1,4E0,3E0,2.6E1,3E0,1E0,1.4E1],"tree_param":{"num_deleted":"0","num_feature":"38","num_nodes":"141","size_leaf_vector":"1"}},{"base_weights":[9.861393E-3,-4.6508882E-2,4.1467695E0,-1.5784857E-1,5.090172E-1,1.9696091E0,5.572824E0,-1.8953077E-1,-1.5712105E-2,2.4643967E0,4.463241E-1,1.6552219E-1,2.6124597E0,4.164125E0,8.488267E0,-2.1174495E-1,-9.691494E-2,-1.0481476E-1,1.3249263E-1,-4.4307145E-3,3.0972052E0,2.2411549E-1,8.372296E-1,-5.716167E-2,3.9963838E-1,2.883504E-2,2.9634614E0,9.222631E-1,4.9416523E0,6.0240974E0,3.6635357E-1,-2.1344128E-1,-2.5649868E-2,1.8123521E-1,-1.4809604E-1,2.5468789E-2,-1.0797191E-1,1.08398646E-1,1.1308901E0,5.605916E-1,3.8687363E0,2.0391008E-1,3.2999263E0,7.1948606E-1,1.5203484E0,1.2856436E-1,-5.464973E-3,1.3269914E-2,3.4330492E-3,4.9330494E-3,-2.135298E-3,3.1037478E0,2.616897E-4,1.9028401E-1,1.6066711E0,3.7747548E0,7.9030943E0,1.9925229E-1,6.489384E-2,-2.1373382E-1,1.1169594E-2,3.2242292E-1,-1.0498782E-1,-1.1121463E-1,7.7598035E-1,-1.5700312E-1,1.0715086E0,1.491168E-1,-1.19524464E-1,4.5950238E-2,3.5028595E-1,-6.369689E-2,1.8603817E0,2.4274817E-2,-4.055394E-2,4.440077E0,1.3809674E0,1.5265428E-1,9.240188E-1,2.5318937E-2,1.1511775E-1,2.5528905E-1,7.973601E-1,1.124222E0,2.3961036E0,6.6672295E-4,5.118673E-3,1.9730706E0,1.0584458E-1,7.7783596E-3,3.2464708E-3,5.5653255E-2,1.2920383E-2,3.404026E-1,4.10117E0,2.8477168E-1,7.859708E-2,-6.5427925E-3,-5.2896515E-3,2.1680228E-2,-1.751141E-3,-5.1881606E-3,2.085569E-3,4.0311404E-3,-5.701794E-3,-2.1787768E-3,3.0507613E-2,-1.5295851E-3,-5.497903E-3,9.10856E-2,-5.3612255E-3,-3.3315956E-3,4.6283174E-2,-5.323162E-3,-2.5205333E-3,8.605655E-3,-1.1093123E-3,2.2191187E-2,7.659762E-3,7.8350655E-4,-3.0702131E-3,6.275591E-2,1.4016803E-2,6.944284E-4,-2.5193556E-3,2.0823307E-2,1.3974199E-1,9.557677E-3,5.9490692E-2,2.4912272E-2,3.6188564E-3,2.0072231E-2,1.1790871E-1,4.826007E-3,3.548698E-2,3.722014E-2,2.0480964E-2,4.2815752E-2,1.7541612E-2,2.8393056E-2,8.511648E-2,6.619851E-2,5.0736754E-3,-3.868069E-3,1.9186186E-2,1.6135177E-1,7.7016756E-2],"categories":[],"categories_nodes":[],"categories_segments":[],"categories_sizes":[],"default_left":[0,0,0,0,0,0,0,0,0,0,0,0,0,0,0,0,0,0,0,0,0,0,0,0,0,0,0,0,0,0,0,0,0,0,0,0,0,0,0,0,0,0,0,0,0,0,0,0,0,0,0,0,0,0,0,0,0,0,0,0,0,0,0,0,0,0,0,0,0,0,0,0,0,0,0,0,0,0,0,0,0,0,0,0,0,0,0,0,0,0,0,0,0,0,0,0,0,0,0,0,0,0,0,0,0,0,0,0,0,0,0,0,0,0,0,0,0,0,0,0,0,0,0,0,0,0,0,0,0,0,0,0,0,0,0,0,0,0,0,0,0,0,0,0,0,0,0],"id":2,"left_children":[1,3,5,7,9,11,13,15,17,19,21,23,25,27,29,31,33,35,37,-1,39,41,43,45,47,49,51,53,55,57,-1,59,61,63,65,-1,67,69,71,73,75,77,79,81,83,85,-1,-1,-1,-1,-1,87,-1,89,91,93,95,-1,-1,97,-1,99,101,103,105,107,109,111,113,115,117,119,121,-1,123,125,127,129,131,-1,-1,133,135,137,139,-1,-1,141,-1,-1,-1,-1,-1,143,145,-1,-1,-1,-1,-1,-1,-1,-1,-1,-1,-1,-1,-1,-1,-1,-1,-1,-1,-1,-1,-1,-1,-1,-1,-1,-1,-1,-1,-1,-1,-1,-1,-1,-1,-1,-1,-1,-1,-1,-1,-1,-1,-1,-1,-1,-1,-1,-1,-1,-1,-1,-1],"loss_changes":[1.4224713E3,3.723063E2,2.4361304E2,2.257605E1,1.2210184E2,3.8999344E1,1.6589587E2,8.414749E0,1.209686E1,5.16989E1,8.450337E1,5.4418296E-1,2.2585983E1,8.3664795E1,6.4065674E1,1.0381775E0,1.1344486E1,1.8140764E0,8.152462E0,0E0,4.6758118E1,3.804534E1,2.729889E1,1.6271912E-1,1.0261595E-2,6.595022E-2,9.092133E0,3.702055E0,6.692737E1,1.1864929E1,0E0,6.4094543E-1,8.899274E-1,2.1654009E1,7.4682426E0,0E0,1.7137108E0,5.0744495E0,7.0900307E0,1.0787976E0,2.0874298E1,2.2742992E1,2.0401611E0,1.0749573E1,1.4998634E1,9.625472E-3,0E0,0E0,0E0,0E0,0E0,3.11586E0,0E0,2.5334954E-4,3.6968422E-1,2.326648E1,3.390677E1,0E0,0E0,4.956665E-1,0E0,9.566641E-1,3.203276E-1,1.6520531E0,8.45685E0,1.8503933E0,1.282395E1,9.236014E0,1.1099119E0,5.3845816E0,2.3627243E0,1.6555706E-2,6.350765E-1,0E0,1.0242542E-2,9.015503E0,2.5662851E0,1.2489071E1,2.8794067E1,0E0,0E0,3.7511234E0,1.23181305E1,5.213238E0,6.906769E0,0E0,0E0,2.9972591E0,0E0,0E0,0E0,0E0,0E0,5.0364864E-1,2.537622E1,0E0,0E0,0E0,0E0,0E0,0E0,0E0,0E0,0E0,0E0,0E0,0E0,0E0,0E0,0E0,0E0,0E0,0E0,0E0,0E0,0E0,0E0,0E0,0E0,0E0,0E0,0E0,0E0,0E0,0E0,0E0,0E0,0E0,0E0,0E0,0E0,0E0,0E0,0E0,0E0,0E0,0E0,0E0,0E0,0E0,0E0,0E0,0E0,0E0,0E0,0E0,0E0],"parents":[2147483647,0,0,1,1,2,2,3,3,4,4,5,5,6,6,7,7,8,8,9,9,10,10,11,11,12,12,13,13,14,14,15,15,16,16,17,17,18,18,20,20,21,21,22,22,23,23,24,24,25,25,26,26,27,27,28,28,29,29,31,31,32,32,33,33,34,34,36,36,37,37,38,38,39,39,40,40,41,41,42,42,43,43,44,44,45,45,51,51,53,53,54,54,55,55,56,56,59,59,61,61,62,62,63,63,64,64,65,65,66,66,67,67,68,68,69,69,70,70,71,71,72,72,74,74,75,75,76,76,77,77,78,78,81,81,82,82,83,83,84,84,87,87,93,93,94,94],"right_children":[2,4,6,8,10,12,14,16,18,20,22,24,26,28,30,32,34,36,38,-1,40,42,44,46,48,50,52,54,56,58,-1,60,62,64,66,-1,68,70,72,74,76,78,80,82,84,86,-1,-1,-1,-1,-1,88,-1,90,92,94,96,-1,-1,98,-1,100,102,104,106,108,110,112,114,116,118,120,122,-1,124,126,128,130,132,-1,-1,134,136,138,140,-1,-1,142,-1,-1,-1,-1,-1,144,146,-1,-1,-1,-1,-1,-1,-1,-1,-1,-1,-1,-1,-1,-1,-1,-1,-1,-1,-1,-1,-1,-1,-1,-1,-1,-1,-1,-1,-1,-1,-1,-1,-1,-1,-1,-1,-1,-1,-1,-1,-1,-1,-1,-1,-1,-1,-1,-1,-1,-1,-1,-1],"split_conditions":[3.3E0,3E-1,3.0804195E0,1E-1,-1.2411169E1,1.76E2,8.9E1,5.0625E1,8.5E1,-6.460024E0,8.7E1,4.2248664E0,8.65E0,-3.095904E0,1.4880634E2,8E-1,3.0025E2,5.9E1,7.1E0,-4.4307145E-3,1.65E2,1.056E3,5.3444366E0,-1.0316912E1,2.013E1,2.9945E2,3.0165E2,1.1192E2,5.472515E-1,8.9E1,3.6635357E-1,9.44E2,2E0,2.044098E2,5.7525E1,2.5468789E-2,-1.0101696E1,5E-1,1.143E1,2.9895E2,8.5E1,2.1E0,3.0145E2,4E-1,1.9E0,1.052E1,-5.464973E-3,1.3269914E-2,3.4330492E-3,4.9330494E-3,-2.135298E-3,4.374872E0,2.616897E-4,1.052E1,-7.0117E-1,1.9081082E0,-4.778387E0,1.9925229E-1,6.489384E-2,1E-1,1.1169594E-2,2.9875E2,1.78E2,4.8177698E-1,5.0475E1,3.0085E2,3.0115E2,-1.0330418E1,1.6E2,1.0079E5,8.65E0,8.198997E0,2.9985E2,2.4274817E-2,8.68E0,5.618829E0,1.654E1,-1.0616256E1,3.0105E2,2.5318937E-2,1.1511775E-1,3.208082E-1,8.6E1,-7.875857E0,7E-1,6.6672295E-4,5.118673E-3,2.9985E2,1.0584458E-1,7.7783596E-3,3.2464708E-3,5.5653255E-2,1.2920383E-2,1.052E1,5.1825E1,2.8477168E-1,7.859708E-2,-6.5427925E-3,-5.2896515E-3,2.1680228E-2,-1.751141E-3,-5.1881606E-3,2.085569E-3,4.0311404E-3,-5.701794E-3,-2.1787768E-3,3.0507613E-2,-1.5295851E-3,-5.497903E-3,9.10856E-2,-5.3612255E-3,-3.3315956E-3,4.6283174E-2,-5.323162E-3,-2.5205333E-3,8.605655E-3,-1.1093123E-3,2.2191187E-2,7.659762E-3,7.8350655E-4,-3.0702131E-3,6.275591E-2,1.4016803E-2,6.944284E-4,-2.5193556E-3,2.0823307E-2,1.3974199E-1,9.557677E-3,5.9490692E-2,2.4912272E-2,3.6188564E-3,2.0072231E-2,1.1790871E-1,4.826007E-3,3.548698E-2,3.722014E-2,2.0480964E-2,4.2815752E-2,1.7541612E-2,2.8393056E-2,8.511648E-2,6.619851E-2,5.0736754E-3,-3.868069E-3,1.9186186E-2,1.6135177E-1,7.7016756E-2],"split_indices":[28,28,9,28,5,6,3,26,3,21,3,20,0,20,13,29,2,18,11,0,6,25,11,20,0,2,2,1,32,19,0,24,37,13,27,0,21,29,0,2,19,28,2,28,29,0,0,0,0,0,0,11,0,0,5,20,5,0,0,29,0,2,25,30,27,2,2,21,6,8,0,11,2,0,0,11,0,21,16,0,0,12,18,23,28,0,0,2,0,0,0,0,0,0,26,0,0,0,0,0,0,0,0,0,0,0,0,0,0,0,0,0,0,0,0,0,0,0,0,0,0,0,0,0,0,0,0,0,0,0,0,0,0,0,0,0,0,0,0,0,0,0,0,0,0,0,0],"split_type":[0,0,0,0,0,0,0,0,0,0,0,0,0,0,0,0,0,0,0,0,0,0,0,0,0,0,0,0,0,0,0,0,0,0,0,0,0,0,0,0,0,0,0,0,0,0,0,0,0,0,0,0,0,0,0,0,0,0,0,0,0,0,0,0,0,0,0,0,0,0,0,0,0,0,0,0,0,0,0,0,0,0,0,0,0,0,0,0,0,0,0,0,0,0,0,0,0,0,0,0,0,0,0,0,0,0,0,0,0,0,0,0,0,0,0,0,0,0,0,0,0,0,0,0,0,0,0,0,0,0,0,0,0,0,0,0,0,0,0,0,0,0,0,0,0,0,0],"sum_hessian":[6.098E3,6.017E3,8.1E1,5.013E3,1.004E3,3.3E1,4.8E1,4.099E3,9.14E2,3E1,9.74E2,9E0,2.4E1,3.4E1,1.4E1,3.305E3,7.94E2,5.71E2,3.43E2,6E0,2.4E1,6.22E2,3.52E2,5E0,4E0,3E0,2.1E1,7E0,2.7E1,1E1,4E0,3.275E3,3E1,1.23E2,6.71E2,1E0,5.7E2,3.36E2,7E0,6E0,1.8E1,6.19E2,3E0,3.02E2,5E1,2E0,3E0,3E0,1E0,1E0,2E0,2E1,1E0,4E0,3E0,2.1E1,6E0,8E0,2E0,3.274E3,1E0,5E0,2.5E1,8.3E1,4E1,6.67E2,4E0,2.4E1,5.46E2,2.68E2,6.8E1,3E0,4E0,4E0,2E0,1.4E1,4E0,5.79E2,4E1,1E0,2E0,4.4E1,2.58E2,3.6E1,1.4E1,1E0,1E0,7E0,1.3E1,1E0,3E0,2E0,1E0,2E0,1.9E1,4E0,2E0,2.928E3,3.46E2,2E0,3E0,1.8E1,7E0,2E1,6.3E1,9E0,3.1E1,1.33E2,5.34E2,1E0,3E0,2.1E1,3E0,2.06E2,3.4E2,6.8E1,2E2,1.2E1,5.6E1,1E0,2E0,3E0,1E0,1E0,1E0,1E0,1.3E1,2E0,2E0,2.5E1,5.54E2,3.8E1,2E0,4.1E1,3E0,5.1E1,2.07E2,2.2E1,1.4E1,4E0,1E1,6E0,1E0,1E0,1E0,9E0,1E1],"tree_param":{"num_deleted":"0","num_feature":"38","num_nodes":"147","size_leaf_vector":"1"}},{"base_weights":[-1.4528678E-2,-5.9814166E-2,4.00011E0,-1.5726642E-1,4.3566945E-1,2.5543842E0,6.5441756E0,-1.8700293E-1,-2.0706354E-2,2.8885618E-1,1.0412037E0,1.2317759E-1,2.9989965E0,7.150229E0,-8.160659E-2,-1.9727206E-1,-1.1703634E-2,-1.0223888E-1,1.788473E-1,1.5541239E0,2.5770518E-1,1.4366882E-1,9.1605616E-1,-6.057718E-3,3.586233E-1,3.751396E0,1.954586E0,4.832489E0,9.448269E0,-5.829313E-3,2.1570164E-3,-2.1154569E-1,-1.5577589E-1,9.582906E-2,-5.3836588E-2,8.4047717E-1,-1.06504776E-1,6.473809E-1,7.606986E-2,2.3455796E-1,7.7173096E-1,1.5905842E-1,5.434787E-1,4.2956406E-1,1.032418E0,1.4299085E-2,3.6320784E-3,1.6788448E0,4.4684935E0,8.201697E-1,2.4534466E0,1.5496673E-1,1.253497E-2,6.693234E-2,3.0006844E-1,-1.9888498E-1,-2.1920748E-1,-6.395841E-2,-1.8727942E-1,-1.5168676E-1,3.706743E-1,4.8434553E-3,3.2978017E-2,-1.7138326E-1,-8.4475674E-2,3.2432085E-1,1.2530396E0,1.3605025E-1,-1.4249897E-1,1.9102553E0,3.0999145E-1,8.411804E-2,4.5938686E-1,1.7355301E0,3.939334E-1,-9.5840484E-2,5.728666E-1,9.576004E-1,2.1064742E0,6.9363765E-2,6.376218E-2,4.7017943E-2,1.4382833E-1,3.3494715E-2,5.291189E-2,4.9975705E-3,2.646199E0,-6.091578E-3,-2.953032E-3,-6.5831845E-3,-3.3979309E-3,-3.3028037E-3,1.3078474E-2,-5.7180095E-3,2.2959104E-3,-4.8545687E-3,2.8194678E-3,2.0687563E-2,1.901349E-3,-5.392426E-3,3.7659435E-3,-1.1598852E-3,-3.8642907E-3,1.3453186E-2,-1.280939E-3,2.6039407E-2,5.2504256E-2,3.4566117E-3,1.630357E-2,-5.16693E-3,6.6053458E-3,6.63786E-3,6.831564E-2,-1.4932061E-3,1.3766244E-2,2.2511915E-3,6.4719215E-2,1.1885532E-2,4.6562016E-2,1.6087044E-2,6.455254E-2,8.987041E-3,3.387478E-2,9.6379063E-4,-4.955349E-3,1.0233405E-2,3.227167E-2,4.1201312E-2,2.4611464E-2,7.487103E-2,2.9880458E-2,-2.1725951E-3,5.041893E-3,2.577643E-4,2.1232706E-3,1.6462304E-2,8.40321E-2],"categories":[],"categories_nodes":[],"categories_segments":[],"categories_sizes":[],"default_left":[0,0,0,0,0,0,0,0,0,0,0,0,0,0,0,0,0,0,0,0,0,0,0,0,0,0,0,0,0,0,0,0,0,0,0,0,0,0,0,0,0,0,0,0,0,0,0,0,0,0,0,0,0,0,0,0,0,0,0,0,0,0,0,0,0,0,0,0,0,0,0,0,0,0,0,0,0,0,0,0,0,0,0,0,0,0,0,0,0,0,0,0,0,0,0,0,0,0,0,0,0,0,0,0,0,0,0,0,0,0,0,0,0,0,0,0,0,0,0,0,0,0,0,0,0,0,0,0,0,0,0,0,0,0,0,0,0],"id":3,"left_children":[1,3,5,7,9,11,13,15,17,19,21,23,25,27,29,31,33,35,37,39,41,-1,43,-1,45,47,49,51,53,-1,-1,55,57,-1,59,61,63,65,67,-1,69,71,73,75,77,-1,-1,79,81,83,85,-1,-1,-1,-1,87,89,91,93,95,97,-1,-1,99,101,103,105,107,109,111,113,115,117,119,121,123,125,127,129,-1,131,-1,-1,-1,133,-1,135,-1,-1,-1,-1,-1,-1,-1,-1,-1,-1,-1,-1,-1,-1,-1,-1,-1,-1,-1,-1,-1,-1,-1,-1,-1,-1,-1,-1,-1,-1,-1,-1,-1,-1,-1,-1,-1,-1,-1,-1,-1,-1,-1,-1,-1,-1,-1,-1,-1,-1],"loss_changes":[1.1083401E3,2.9113647E2,2.3338916E2,2.0454536E1,8.779962E1,4.82731E1,9.69574E1,7.4450073E0,1.4693928E1,3.1091576E1,8.6134384E1,6.847647E-1,2.2528473E1,7.151904E1,6.587356E-2,2.2817535E0,3.1240026E1,2.6673164E0,1.2567279E1,8.7090485E1,2.1930435E1,0E0,1.0199036E1,0E0,8.2466185E-2,2.370877E1,8.174248E0,1.6956665E1,1.7668274E1,0E0,0E0,2.3820496E-1,2.892168E0,0E0,9.526996E0,3.4970236E-1,8.9879084E-1,8.789827E0,2.8511128E0,0E0,8.870466E0,1.306027E1,3.4969463E1,2.9159923E0,1.0116959E1,0E0,0E0,7.0121784E0,6.6636963E0,1.5324054E0,4.848755E0,0E0,0E0,0E0,0E0,4.430275E-1,1.939392E-2,5.998317E0,6.690197E-1,4.7819424E-1,4.170299E0,0E0,0E0,4.2240334E-1,9.67901E-1,1.476872E0,1.5435314E0,1.3800247E0,5.447286E-1,2.594881E0,7.727221E-1,8.627556E0,7.396063E0,9.827934E0,1.2080732E1,8.516304E-2,3.1292086E0,7.0317535E0,1.4042244E0,0E0,5.478283E-2,0E0,0E0,0E0,1.767043E-3,0E0,2.0361252E0,0E0,0E0,0E0,0E0,0E0,0E0,0E0,0E0,0E0,0E0,0E0,0E0,0E0,0E0,0E0,0E0,0E0,0E0,0E0,0E0,0E0,0E0,0E0,0E0,0E0,0E0,0E0,0E0,0E0,0E0,0E0,0E0,0E0,0E0,0E0,0E0,0E0,0E0,0E0,0E0,0E0,0E0,0E0,0E0,0E0,0E0,0E0,0E0,0E0,0E0],"parents":[2147483647,0,0,1,1,2,2,3,3,4,4,5,5,6,6,7,7,8,8,9,9,10,10,11,11,12,12,13,13,14,14,15,15,16,16,17,17,18,18,19,19,20,20,22,22,24,24,25,25,26,26,27,27,28,28,31,31,32,32,34,34,35,35,36,36,37,37,38,38,40,40,41,41,42,42,43,43,44,44,47,47,48,48,49,49,50,50,55,55,56,56,57,57,58,58,59,59,60,60,63,63,64,64,65,65,66,66,67,67,68,68,69,69,70,70,71,71,72,72,73,73,74,74,75,75,76,76,77,77,78,78,80,80,84,84,86,86],"right_children":[2,4,6,8,10,12,14,16,18,20,22,24,26,28,30,32,34,36,38,40,42,-1,44,-1,46,48,50,52,54,-1,-1,56,58,-1,60,62,64,66,68,-1,70,72,74,76,78,-1,-1,80,82,84,86,-1,-1,-1,-1,88,90,92,94,96,98,-1,-1,100,102,104,106,108,110,112,114,116,118,120,122,124,126,128,130,-1,132,-1,-1,-1,134,-1,136,-1,-1,-1,-1,-1,-1,-1,-1,-1,-1,-1,-1,-1,-1,-1,-1,-1,-1,-1,-1,-1,-1,-1,-1,-1,-1,-1,-1,-1,-1,-1,-1,-1,-1,-1,-1,-1,-1,-1,-1,-1,-1,-1,-1,-1,-1,-1,-1,-1,-1],"split_conditions":[3.4E0,3E-1,4.7114202E-1,1E-1,8.9E1,1.7E2,3.6058705E0,5.643894E0,8.6E1,-1.2045762E1,-1.3238473E1,3.9E0,5.1825E1,2.6971316E0,8.65E0,4.9325E1,5.697452E-1,-1.3264601E1,8.3E1,2.6356485E0,1.2E0,1.4366882E-1,4.9675E1,-6.057718E-3,1.654E1,1.180455E0,6.30098E0,2.013E1,6.951272E0,-5.829313E-3,2.1570164E-3,-4.8104086E0,3.0025E2,9.582906E-2,8.6E1,2.013E1,1.56E2,8.9E1,8.9E1,2.3455796E-1,8.4E1,8.7E1,-9.455276E0,2.3088278E-1,3.7520483E-1,1.4299085E-2,3.6320784E-3,1.1063E2,-1.0890437E1,5.55E2,1.218428E0,1.5496673E-1,1.253497E-2,6.693234E-2,3.0006844E-1,8.9E1,3.4921667E-1,3.0055E2,7.8E0,8.82E2,3.0025E2,4.8434553E-3,3.2978017E-2,2.1342802E0,3.0035E2,2.9995E2,2.6058435E-1,9.1E1,7.2774224E0,1.052E1,8.5E1,1.056E3,7.27E2,-5.301734E0,3.0683868E2,-4.1109347E0,-5.146255E0,8.6E1,2.9945E2,6.9363765E-2,8.65E0,4.7017943E-2,1.4382833E-1,3.3494715E-2,1.654E1,4.9975705E-3,1.74E2,-6.091578E-3,-2.953032E-3,-6.5831845E-3,-3.3979309E-3,-3.3028037E-3,1.3078474E-2,-5.7180095E-3,2.2959104E-3,-4.8545687E-3,2.8194678E-3,2.0687563E-2,1.901349E-3,-5.392426E-3,3.7659435E-3,-1.1598852E-3,-3.8642907E-3,1.3453186E-2,-1.280939E-3,2.6039407E-2,5.2504256E-2,3.4566117E-3,1.630357E-2,-5.16693E-3,6.6053458E-3,6.63786E-3,6.831564E-2,-1.4932061E-3,1.3766244E-2,2.2511915E-3,6.4719215E-2,1.1885532E-2,4.6562016E-2,1.6087044E-2,6.455254E-2,8.987041E-3,3.387478E-2,9.6379063E-4,-4.955349E-3,1.0233405E-2,3.227167E-2,4.1201312E-2,2.4611464E-2,7.487103E-2,2.9880458E-2,-2.1725951E-3,5.041893E-3,2.577643E-4,2.1232706E-3,1.6462304E-2,8.40321E-2],"split_indices":[28,28,12,28,3,6,22,4,3,4,5,28,27,21,0,7,9,4,18,9,28,0,7,0,0,31,4,0,10,0,0,5,2,0,3,0,6,3,18,0,18,3,22,32,12,0,0,1,4,6,9,0,0,0,0,3,32,16,11,24,2,0,0,5,2,2,32,19,4,0,19,25,24,21,13,5,4,18,2,0,0,0,0,0,0,0,6,0,0,0,0,0,0,0,0,0,0,0,0,0,0,0,0,0,0,0,0,0,0,0,0,0,0,0,0,0,0,0,0,0,0,0,0,0,0,0,0,0,0,0,0,0,0,0,0,0,0],"split_type":[0,0,0,0,0,0,0,0,0,0,0,0,0,0,0,0,0,0,0,0,0,0,0,0,0,0,0,0,0,0,0,0,0,0,0,0,0,0,0,0,0,0,0,0,0,0,0,0,0,0,0,0,0,0,0,0,0,0,0,0,0,0,0,0,0,0,0,0,0,0,0,0,0,0,0,0,0,0,0,0,0,0,0,0,0,0,0,0,0,0,0,0,0,0,0,0,0,0,0,0,0,0,0,0,0,0,0,0,0,0,0,0,0,0,0,0,0,0,0,0,0,0,0,0,0,0,0,0,0,0,0,0,0,0,0,0,0],"sum_hessian":[6.094E3,6.027E3,6.7E1,5.037E3,9.9E2,4.4E1,2.3E1,4.136E3,9.01E2,7.98E2,1.92E2,7E0,3.7E1,2.1E1,2E0,3.907E3,2.29E2,6.4E2,2.61E2,1.8E1,7.8E2,5E0,1.87E2,3E0,4E0,2E1,1.7E1,1.2E1,9E0,1E0,1E0,2.904E3,1.003E3,2E0,2.27E2,2E0,6.38E2,4.6E1,2.15E2,1E0,1.7E1,5.81E2,1.99E2,3.7E1,1.5E2,2E0,2E0,6E0,1.4E1,6E0,1.1E1,1.1E1,1E0,1E0,8E0,1.105E3,1.799E3,2.57E2,7.46E2,1.85E2,4.2E1,1E0,1E0,1.6E2,4.78E2,3.1E1,1.5E1,1.69E2,4.6E1,4E0,1.3E1,4.66E2,1.15E2,2.1E1,1.78E2,8E0,2.9E1,1.42E2,8E0,4E0,2E0,2E0,1.2E1,4E0,2E0,1E0,1E1,1.06E3,4.5E1,1.794E3,5E0,2.36E2,2.1E1,7.37E2,9E0,1.78E2,7E0,2E1,2.2E1,1.56E2,4E0,2.36E2,2.42E2,2.3E1,8E0,1E1,5E0,1.62E2,7E0,4.3E1,3E0,1E0,3E0,4E0,9E0,4.65E2,1E0,1.1E2,5E0,6E0,1.5E1,1.59E2,1.9E1,3E0,5E0,2.1E1,8E0,3.3E1,1.09E2,5E0,3E0,1E0,1E0,1E0,1E0,1E0,9E0],"tree_param":{"num_deleted":"0","num_feature":"38","num_nodes":"137","size_leaf_vector":"1"}},{"base_weights":[-8.068373E-3,-4.1363556E-2,5.033024E0,-1.4857315E-1,4.7346693E-1,8.518269E0,3.4173012E0,-1.8075621E-1,-9.114918E-3,3.532637E-1,1.3233328E0,1.3471542E-1,1.1797604E1,2.0645926E0,4.7191606E0,-1.9079939E-1,-1.6661046E-2,1.1953724E-1,-7.3426485E-2,1.1777254E0,3.0329227E-1,1.1081126E0,2.8851326E0,4.8931316E-2,4.0514117E-1,1.048086E0,1.227387E-1,1.510763E-1,5.637727E-2,-1.9604892E-1,-3.9558373E-2,-3.16502E-2,5.2586846E-2,3.7271902E-1,-7.599895E-2,-1.0655874E-1,1.7992909E-1,1.6448516E-1,8.022525E-1,2.9166472E-1,2.7332103E0,7.586628E-1,1.7443641E0,6.1261743E-1,3.9601283E0,7.791883E-2,2.3907366E0,-2.0381977E-1,-1.3974491E-1,-1.5199202E-1,2.6996133E-1,1.8378714E-1,-1.1335649E-1,1.9147252E-1,7.514566E-1,4.0053376E-3,-1.4134943E-1,2.5167642E-2,-1.09773874E-1,4.3289635E-1,-1.2297147E-1,3.8959455E-1,1.556103E0,3.956544E-1,2.816556E-2,1.1182946E-1,-3.751577E-3,1.0823531E0,3.0408603E-1,2.4026406E0,1.2054031E0,-4.1383803E-3,2.7660899E-2,1.2841187E0,4.923544E0,-4.6912907E-3,2.4977122E-1,8.154493E-2,1.621537E-2,-6.1294786E-3,2.9724464E-3,-4.6937387E-3,4.5792297E-3,-4.826754E-3,5.325942E-3,4.6126895E-2,3.0922436E-3,-4.629824E-3,2.423771E-2,-4.102661E-3,1.808713E-3,2.6326949E-2,3.7854814E-3,5.9765138E-2,1.8362492E-2,-8.2672306E-4,1.2093987E-2,-4.850646E-3,8.078683E-3,-3.8831523E-3,-8.713552E-4,3.4027686E-3,2.8733576E-2,-4.9314466E-3,6.8609877E-3,4.3318443E-2,9.345679E-3,1.9888882E-2,8.2119256E-2,5.9487834E-3,1.8766804E-2,-1.9728224E-5,2.6464023E-2,8.947702E-3,4.004041E-2,4.1855103E-3,5.7098117E-2,7.585939E-2,5.7981713E-3,5.8944073E-2,1.5678957E-2,4.8916424E-3,-5.0778696E-3,6.9221305E-3,4.674999E-2,6.1977036E-2,1.6960262E-1,8.32071E-3,2.0914215E-3],"categories":[],"categories_nodes":[],"categories_segments":[],"categories_sizes":[],"default_left":[0,0,0,0,0,0,0,0,0,0,0,0,0,0,0,0,0,0,0,0,0,0,0,0,0,0,0,0,0,0,0,0,0,0,0,0,0,0,0,0,0,0,0,0,0,0,0,0,0,0,0,0,0,0,0,0,0,0,0,0,0,0,0,0,0,0,0,0,0,0,0,0,0,0,0,0,0,0,0,0,0,0,0,0,0,0,0,0,0,0,0,0,0,0,0,0,0,0,0,0,0,0,0,0,0,0,0,0,0,0,0,0,0,0,0,0,0,0,0,0,0,0,0,0,0,0,0,0,0],"id":4,"left_children":[1,3,5,7,9,11,13,15,17,19,21,-1,23,25,27,29,31,33,35,37,39,41,43,-1,-1,45,-1,-1,-1,47,49,51,-1,53,55,57,59,-1,61,63,65,67,69,71,73,75,77,79,81,83,85,87,89,91,93,95,97,-1,99,101,103,105,107,109,111,-1,-1,113,115,117,119,121,-1,123,125,-1,127,-1,-1,-1,-1,-1,-1,-1,-1,-1,-1,-1,-1,-1,-1,-1,-1,-1,-1,-1,-1,-1,-1,-1,-1,-1,-1,-1,-1,-1,-1,-1,-1,-1,-1,-1,-1,-1,-1,-1,-1,-1,-1,-1,-1,-1,-1,-1,-1,-1,-1,-1,-1],"loss_changes":[1.0232178E3,3.3432983E2,1.96138E2,2.2497673E1,1.06184006E2,1.0552295E2,4.1326904E1,6.7092743E0,7.7944446E0,3.738157E1,4.016385E1,0E0,8.210541E1,2.8674393E1,3.128662E0,3.0393982E0,6.3151774E0,1.5573275E1,5.290756E0,7.965698E1,2.3642563E1,2.4245468E1,3.4218117E1,0E0,0E0,1.5444861E1,0E0,0E0,0E0,1.5943146E0,4.565088E0,4.157441E0,0E0,9.260462E0,9.3120694E-1,1.7822471E0,5.6467805E0,0E0,1.4636787E1,2.3608688E1,1.1835619E1,1.0853672E1,1.1295265E1,1.1488073E0,1.945868E1,3.6117184E-1,1.5598736E0,5.097351E-1,2.2375402E0,3.1010103E-1,7.245615E0,1.3841616E1,7.030425E-1,4.0999804E0,6.389229E0,1.0315127E0,8.620266E-1,0E0,8.7729883E-1,6.5988355E0,5.3272676E-1,2.2665863E0,1.6119965E1,2.7917442E1,6.031029E0,0E0,0E0,8.307278E0,8.419277E0,4.243973E0,1.1417034E1,1.1042179E-1,0E0,7.9584265E-1,2.9206848E0,0E0,5.499363E-3,0E0,0E0,0E0,0E0,0E0,0E0,0E0,0E0,0E0,0E0,0E0,0E0,0E0,0E0,0E0,0E0,0E0,0E0,0E0,0E0,0E0,0E0,0E0,0E0,0E0,0E0,0E0,0E0,0E0,0E0,0E0,0E0,0E0,0E0,0E0,0E0,0E0,0E0,0E0,0E0,0E0,0E0,0E0,0E0,0E0,0E0,0E0,0E0,0E0,0E0,0E0,0E0],"parents":[2147483647,0,0,1,1,2,2,3,3,4,4,5,5,6,6,7,7,8,8,9,9,10,10,12,12,13,13,14,14,15,15,16,16,17,17,18,18,19,19,20,20,21,21,22,22,25,25,29,29,30,30,31,31,33,33,34,34,35,35,36,36,38,38,39,39,40,40,41,41,42,42,43,43,44,44,45,45,46,46,47,47,48,48,49,49,50,50,51,51,52,52,53,53,54,54,55,55,56,56,58,58,59,59,60,60,61,61,62,62,63,63,64,64,67,67,68,68,69,69,70,70,71,71,73,73,74,74,76,76],"right_children":[2,4,6,8,10,12,14,16,18,20,22,-1,24,26,28,30,32,34,36,38,40,42,44,-1,-1,46,-1,-1,-1,48,50,52,-1,54,56,58,60,-1,62,64,66,68,70,72,74,76,78,80,82,84,86,88,90,92,94,96,98,-1,100,102,104,106,108,110,112,-1,-1,114,116,118,120,122,-1,124,126,-1,128,-1,-1,-1,-1,-1,-1,-1,-1,-1,-1,-1,-1,-1,-1,-1,-1,-1,-1,-1,-1,-1,-1,-1,-1,-1,-1,-1,-1,-1,-1,-1,-1,-1,-1,-1,-1,-1,-1,-1,-1,-1,-1,-1,-1,-1,-1,-1,-1,-1,-1,-1,-1],"split_conditions":[5.1E0,3E-1,9.961E4,1E-1,2E0,2.405626E0,2.2224875E2,5.5172606E0,1.0086E5,-1.0865161E1,3.0434018E2,1.3471542E-1,-1.5433591E1,8.828678E0,1.654E1,3E-1,9.2E1,3.0035E2,5E-1,1.8746445E0,1.056E3,2.54E0,8.35E1,4.8931316E-2,4.0514117E-1,2.9945E2,1.227387E-1,1.510763E-1,5.637727E-2,5.0975E1,8.575E1,3.0025E2,5.2586846E-2,3.0035E2,3.0105E2,5.9E1,2.9945E2,1.6448516E-1,5.0425E1,3.0035E2,3.0185E2,2.9975E2,-9.60221E0,8.65E0,2.7E0,1.052E1,1.1063E2,1.016E3,3.1535852E2,8.828678E0,1.2508559E-1,9.861111E-1,6.474949E0,3E0,8.025E1,5.2575E1,5.4425E1,2.5167642E-2,4.11E2,2.9925E2,5.2025E1,8.65E0,-2.3080182E0,5.0475E1,5.7525E1,1.1182946E-1,-3.751577E-3,1.74E2,3.2446373E-1,1.05E1,3.6090536E0,2.9945E2,2.7660899E-2,5.1375E1,5.1175E1,-4.6912907E-3,1.654E1,8.154493E-2,1.621537E-2,-6.1294786E-3,2.9724464E-3,-4.6937387E-3,4.5792297E-3,-4.826754E-3,5.325942E-3,4.6126895E-2,3.0922436E-3,-4.629824E-3,2.423771E-2,-4.102661E-3,1.808713E-3,2.6326949E-2,3.7854814E-3,5.9765138E-2,1.8362492E-2,-8.2672306E-4,1.2093987E-2,-4.850646E-3,8.078683E-3,-3.8831523E-3,-8.713552E-4,3.4027686E-3,2.8733576E-2,-4.9314466E-3,6.8609877E-3,4.3318443E-2,9.345679E-3,1.9888882E-2,8.2119256E-2,5.9487834E-3,1.8766804E-2,-1.9728224E-5,2.6464023E-2,8.947702E-3,4.004041E-2,4.1855103E-3,5.7098117E-2,7.585939E-2,5.7981713E-3,5.8944073E-2,1.5678957E-2,4.8916424E-3,-5.0778696E-3,6.9221305E-3,4.674999E-2,6.1977036E-2,1.6960262E-1,8.32071E-3,2.0914215E-3],"split_indices":[28,28,8,28,28,21,10,20,8,22,13,0,5,11,0,29,19,2,29,31,25,30,34,0,0,17,0,0,0,26,34,2,0,16,2,18,2,0,7,2,2,2,22,0,28,0,1,24,13,11,31,5,5,36,34,7,7,0,24,16,7,0,21,7,26,0,0,24,32,11,31,2,0,7,7,0,0,0,0,0,0,0,0,0,0,0,0,0,0,0,0,0,0,0,0,0,0,0,0,0,0,0,0,0,0,0,0,0,0,0,0,0,0,0,0,0,0,0,0,0,0,0,0,0,0,0,0,0,0],"split_type":[0,0,0,0,0,0,0,0,0,0,0,0,0,0,0,0,0,0,0,0,0,0,0,0,0,0,0,0,0,0,0,0,0,0,0,0,0,0,0,0,0,0,0,0,0,0,0,0,0,0,0,0,0,0,0,0,0,0,0,0,0,0,0,0,0,0,0,0,0,0,0,0,0,0,0,0,0,0,0,0,0,0,0,0,0,0,0,0,0,0,0,0,0,0,0,0,0,0,0,0,0,0,0,0,0,0,0,0,0,0,0,0,0,0,0,0,0,0,0,0,0,0,0,0,0,0,0,0,0],"sum_hessian":[6.094E3,6.055E3,3.9E1,5.012E3,1.043E3,1.1E1,2.8E1,4.072E3,9.4E2,9.15E2,1.28E2,6E0,5E0,1.5E1,1.3E1,3.837E3,2.35E2,3.13E2,6.27E2,5.1E1,8.64E2,1.14E2,1.4E1,1E0,4E0,1.1E1,4E0,1.1E1,2E0,3.708E3,1.29E2,2.34E2,1E0,1.36E2,1.77E2,5.55E2,7.2E1,3E0,4.8E1,8.61E2,3E0,7.5E1,3.9E1,5E0,9E0,7E0,4E0,3.256E3,4.52E2,9.5E1,3.4E1,6.4E1,1.7E2,9.3E1,4.3E1,8E1,9.7E1,1E0,5.54E2,3.9E1,3.3E1,3.2E1,1.6E1,6.17E2,2.44E2,2E0,1E0,4.3E1,3.2E1,1.6E1,2.3E1,2E0,3E0,3E0,6E0,3E0,4E0,3E0,1E0,3.251E3,5E0,4.28E2,2.4E1,9.3E1,2E0,3E0,3.1E1,4.2E1,2.2E1,1.5E2,2E1,7E0,8.6E1,3E0,4E1,7.5E1,5E0,9.3E1,4E0,4.45E2,1.09E2,2.5E1,1.4E1,3E1,3E0,1E0,3.1E1,1E1,6E0,3.33E2,2.84E2,2.37E2,7E0,1.1E1,3.2E1,3E1,2E0,1.5E1,1E0,1E1,1.3E1,1E0,1E0,1E0,2E0,2E0,4E0,3E0,1E0],"tree_param":{"num_deleted":"0","num_feature":"38","num_nodes":"129","size_leaf_vector":"1"}},{"base_weights":[-2.7417683E-3,-4.6762787E-2,3.5389326E0,-1.4646615E-1,4.6945664E-1,2.753674E0,7.857375E0,-1.7519057E-1,-1.6733844E-2,2.578688E-1,8.173904E-1,4.7791066E0,1.7472794E0,1.062325E1,7.241028E-2,-1.8544123E-1,-4.0224367E-3,-8.691557E-2,1.583838E-1,1.3018036E-1,7.2735023E-1,2.8487282E0,7.470176E-1,-1.01521555E-2,5.051903E0,1.062926E0,3.350078E0,3.4001684E-1,9.539074E-2,-1.9060749E-1,-5.2000787E-2,-2.9211218E-2,8.8352285E-2,4.5988134E-1,-1.01304054E-1,5.8125323E-1,2.7808115E-2,6.3310996E-2,3.901884E-1,2.9069333E0,5.796753E-1,4.19151E0,1.2908113E0,6.1769044E-1,1.3665664E0,8.866755E-2,5.9533362E0,8.8629276E-2,1.48268E0,7.4423355E-1,1.2172224E-1,-1.9772787E-1,-1.4451785E-1,-1.08781405E-1,5.416441E-1,-1.2106233E-1,3.2004425E-1,9.590208E-2,9.4253235E-2,-1.1908514E-1,-2.9249344E-2,3.7944865E-1,1.053473E0,-5.97146E-2,2.5150126E-1,1.4265103E-2,2.749639E-1,6.313993E-1,2.521795E-1,1.3679487E-1,2.2434697E-1,3.0896577E-1,1.5777467E0,1.3819686E-1,3.174374E-2,5.608299E-3,4.3308962E-2,1.147737E0,5.213527E-1,1.1926792E0,2.7617526E0,6.2361574E0,3.839227E-2,-6.454264E-3,2.2943632E-1,8.07355E-2,9.974744E-1,4.529526E-3,4.4450182E-2,-5.9468993E-3,7.797701E-3,-5.27692E-3,-1.7801179E-3,-4.806341E-3,-1.7378195E-4,6.1046403E-2,2.5547259E-3,-4.550569E-3,9.315746E-4,1.9142035E-3,1.6327852E-2,2.4837077E-2,-2.0341594E-3,-5.4893885E-3,-3.1897947E-3,1.3343278E-2,-1.3255248E-3,7.1340175E-3,3.7815828E-2,5.002875E-2,2.0669453E-2,4.049632E-3,-3.0317388E-3,5.0629E-3,2.4551317E-2,-2.4494736E-3,3.4729382E-3,6.539607E-2,6.5229554E-3,2.4702542E-2,4.127787E-3,4.482466E-3,1.653399E-2,-4.762353E-3,9.727533E-3,4.1433822E-2,6.7208977E-3,2.2734102E-2,1.10851474E-1,3.9633466E-3,3.8141623E-2,1.06405215E-2,2.1048576E-2,4.357313E-2,1.3575176E-2,2.1599127E-2,9.078344E-2,4.8197348E-2,1.9532926E-1,-3.8461143E-3,8.965278E-3,4.3111887E-2,1.19463615E-2,-5.6715035E-3,5.8753323E-3],"categories":[],"categories_nodes":[],"categories_segments":[],"categories_sizes":[],"default_left":[0,0,0,0,0,0,0,0,0,0,0,0,0,0,0,0,0,0,0,0,0,0,0,0,0,0,0,0,0,0,0,0,0,0,0,0,0,0,0,0,0,0,0,0,0,0,0,0,0,0,0,0,0,0,0,0,0,0,0,0,0,0,0,0,0,0,0,0,0,0,0,0,0,0,0,0,0,0,0,0,0,0,0,0,0,0,0,0,0,0,0,0,0,0,0,0,0,0,0,0,0,0,0,0,0,0,0,0,0,0,0,0,0,0,0,0,0,0,0,0,0,0,0,0,0,0,0,0,0,0,0,0,0,0,0,0,0,0,0,0,0,0,0,0,0],"id":5,"left_children":[1,3,5,7,9,11,13,15,17,19,21,23,25,27,-1,29,31,33,35,37,39,41,43,-1,45,47,49,-1,-1,51,53,55,-1,57,59,61,63,65,67,69,71,73,75,77,79,-1,81,83,85,87,-1,89,91,93,95,97,99,101,-1,103,105,107,109,111,113,115,117,119,121,123,-1,125,127,-1,-1,-1,-1,129,131,133,135,137,-1,-1,139,-1,141,143,-1,-1,-1,-1,-1,-1,-1,-1,-1,-1,-1,-1,-1,-1,-1,-1,-1,-1,-1,-1,-1,-1,-1,-1,-1,-1,-1,-1,-1,-1,-1,-1,-1,-1,-1,-1,-1,-1,-1,-1,-1,-1,-1,-1,-1,-1,-1,-1,-1,-1,-1,-1,-1,-1,-1,-1,-1],"loss_changes":[9.5245233E2,3.106316E2,2.3269531E2,1.8845634E1,7.171454E1,1.2414456E2,1.3998138E2,7.2649994E0,1.1296039E1,3.6413258E1,5.062079E1,3.1026337E1,4.5798737E1,9.898071E-1,0E0,2.6835175E0,1.7542818E1,5.2077203E0,1.4505767E1,8.32085E0,4.015798E1,1.9692863E1,2.784047E1,0E0,2.0198242E1,1.3364433E1,2.0941833E1,0E0,0E0,1.2056885E0,5.0139265E0,7.5453496E0,0E0,1.6293306E1,8.164921E-1,5.5086193E0,3.9698207E0,3.9718876E0,3.103119E0,1.0028207E2,3.2745586E1,2.9287949E0,9.109812E-1,1.4618538E1,1.15050125E1,0E0,9.202606E0,5.198661E-1,1.0802177E1,2.1752357E0,0E0,7.994995E-1,1.3447351E0,7.1412694E-1,8.688065E0,8.7114596E-1,2.7804666E0,1.9734786E0,0E0,3.9874554E-1,9.2582536E-1,5.3163867E0,2.880392E0,1.1888902E0,2.535309E0,3.046849E0,7.4167285E0,3.205408E0,1.8838377E0,3.8387814E-1,0E0,8.614951E0,4.2337646E1,0E0,0E0,0E0,0E0,5.483242E0,7.3825226E0,1.010968E1,1.0599022E0,4.807129E0,0E0,0E0,2.3689252E-1,0E0,4.169466E0,1.481284E-1,0E0,0E0,0E0,0E0,0E0,0E0,0E0,0E0,0E0,0E0,0E0,0E0,0E0,0E0,0E0,0E0,0E0,0E0,0E0,0E0,0E0,0E0,0E0,0E0,0E0,0E0,0E0,0E0,0E0,0E0,0E0,0E0,0E0,0E0,0E0,0E0,0E0,0E0,0E0,0E0,0E0,0E0,0E0,0E0,0E0,0E0,0E0,0E0,0E0,0E0,0E0,0E0,0E0,0E0,0E0,0E0,0E0],"parents":[2147483647,0,0,1,1,2,2,3,3,4,4,5,5,6,6,7,7,8,8,9,9,10,10,11,11,12,12,13,13,15,15,16,16,17,17,18,18,19,19,20,20,21,21,22,22,24,24,25,25,26,26,29,29,30,30,31,31,33,33,34,34,35,35,36,36,37,37,38,38,39,39,40,40,41,41,42,42,43,43,44,44,46,46,47,47,48,48,49,49,51,51,52,52,53,53,54,54,55,55,56,56,57,57,59,59,60,60,61,61,62,62,63,63,64,64,65,65,66,66,67,67,68,68,69,69,71,71,72,72,77,77,78,78,79,79,80,80,81,81,84,84,86,86,87,87],"right_children":[2,4,6,8,10,12,14,16,18,20,22,24,26,28,-1,30,32,34,36,38,40,42,44,-1,46,48,50,-1,-1,52,54,56,-1,58,60,62,64,66,68,70,72,74,76,78,80,-1,82,84,86,88,-1,90,92,94,96,98,100,102,-1,104,106,108,110,112,114,116,118,120,122,124,-1,126,128,-1,-1,-1,-1,130,132,134,136,138,-1,-1,140,-1,142,144,-1,-1,-1,-1,-1,-1,-1,-1,-1,-1,-1,-1,-1,-1,-1,-1,-1,-1,-1,-1,-1,-1,-1,-1,-1,-1,-1,-1,-1,-1,-1,-1,-1,-1,-1,-1,-1,-1,-1,-1,-1,-1,-1,-1,-1,-1,-1,-1,-1,-1,-1,-1,-1,-1,-1,-1,-1],"split_conditions":[3.3E0,3E-1,5.7525E1,1E-1,8.7E1,-1.2778168E1,4.969492E-1,5.643894E0,8.6E1,2.206554E0,-1.2411169E1,1.0773E2,5.8E0,9E1,7.241028E-2,3E-1,5.3825E1,-1.0571542E1,8.4E1,1E0,1.0773E2,1.7E2,1.8E0,-1.01521555E-2,4.7114202E-1,1.76E2,-1.3871544E1,3.4001684E-1,9.539074E-2,5.0825E1,8.9E1,8.6E1,8.8352285E-2,-1.0890437E1,3.9575174E0,8.9E1,4E-1,2.5910358E2,1.0067E5,6.5E1,2.6140738E2,1.0119E5,1.143E1,8.5E1,8.9280615E0,8.866755E-2,1.0099E5,1.2077187E-1,3.6E0,1.1161E2,1.2172224E-1,9.44E2,1E1,2.7E2,1.2508559E-1,8.4E1,8E0,-1.3264601E1,9.4253235E-2,7.8E1,4.5025E1,2.7371225E0,9.762537E-1,1.008E5,1.1E1,8.4E1,2.9725E2,5.1525E1,1.84E2,8.4E1,2.2434697E-1,-1.3264601E1,5.1525E1,1.3819686E-1,3.174374E-2,5.608299E-3,4.3308962E-2,5E0,7.688234E1,3.45E2,8.8E1,8.3E1,3.839227E-2,-6.454264E-3,7.8E1,8.07355E-2,9.9479157E-1,8.65E0,4.4450182E-2,-5.9468993E-3,7.797701E-3,-5.27692E-3,-1.7801179E-3,-4.806341E-3,-1.7378195E-4,6.1046403E-2,2.5547259E-3,-4.550569E-3,9.315746E-4,1.9142035E-3,1.6327852E-2,2.4837077E-2,-2.0341594E-3,-5.4893885E-3,-3.1897947E-3,1.3343278E-2,-1.3255248E-3,7.1340175E-3,3.7815828E-2,5.002875E-2,2.0669453E-2,4.049632E-3,-3.0317388E-3,5.0629E-3,2.4551317E-2,-2.4494736E-3,3.4729382E-3,6.539607E-2,6.5229554E-3,2.4702542E-2,4.127787E-3,4.482466E-3,1.653399E-2,-4.762353E-3,9.727533E-3,4.1433822E-2,6.7208977E-3,2.2734102E-2,1.10851474E-1,3.9633466E-3,3.8141623E-2,1.06405215E-2,2.1048576E-2,4.357313E-2,1.3575176E-2,2.1599127E-2,9.078344E-2,4.8197348E-2,1.9532926E-1,-3.8461143E-3,8.965278E-3,4.3111887E-2,1.19463615E-2,-5.6715035E-3,5.8753323E-3],"split_indices":[28,28,7,28,3,22,33,4,3,9,22,1,28,19,0,29,7,4,18,29,1,25,28,0,12,6,23,0,0,26,3,3,0,4,20,3,29,10,8,10,10,8,0,18,20,0,8,32,28,1,0,24,37,24,31,3,37,4,0,3,27,9,30,8,37,3,16,7,25,3,0,4,7,0,0,0,0,37,10,25,3,19,0,0,3,0,22,0,0,0,0,0,0,0,0,0,0,0,0,0,0,0,0,0,0,0,0,0,0,0,0,0,0,0,0,0,0,0,0,0,0,0,0,0,0,0,0,0,0,0,0,0,0,0,0,0,0,0,0,0,0,0,0,0,0],"split_type":[0,0,0,0,0,0,0,0,0,0,0,0,0,0,0,0,0,0,0,0,0,0,0,0,0,0,0,0,0,0,0,0,0,0,0,0,0,0,0,0,0,0,0,0,0,0,0,0,0,0,0,0,0,0,0,0,0,0,0,0,0,0,0,0,0,0,0,0,0,0,0,0,0,0,0,0,0,0,0,0,0,0,0,0,0,0,0,0,0,0,0,0,0,0,0,0,0,0,0,0,0,0,0,0,0,0,0,0,0,0,0,0,0,0,0,0,0,0,0,0,0,0,0,0,0,0,0,0,0,0,0,0,0,0,0,0,0,0,0,0,0,0,0,0,0],"sum_hessian":[6.107E3,6.033E3,7.4E1,5.057E3,9.76E2,6.4E1,1E1,4.14E3,9.17E2,6.08E2,3.68E2,2E1,4.4E1,6E0,4E0,3.906E3,2.34E2,6.55E2,2.62E2,4.79E2,1.29E2,1.1E1,3.57E2,1E0,1.9E1,3.2E1,1.2E1,5E0,1E0,3.76E3,1.46E2,2.33E2,1E0,1.6E1,6.39E2,6.1E1,2.01E2,3.82E2,9.7E1,7E0,1.22E2,5E0,6E0,2.97E2,6E1,7E0,1.2E1,1E1,2.2E1,3E0,9E0,3.254E3,5.06E2,1.34E2,1.2E1,1.85E2,4.8E1,1.5E1,1E0,5.12E2,1.27E2,4.4E1,1.7E1,1.45E2,5.6E1,3.11E2,7.1E1,3.4E1,6.3E1,5E0,2E0,9.7E1,2.5E1,4E0,1E0,1E0,5E0,4.4E1,2.53E2,5.5E1,5E0,1.1E1,1E0,3E0,7E0,5E0,1.7E1,2E0,1E0,3.251E3,3E0,3.69E2,1.37E2,8.9E1,4.5E1,2E0,1E1,1.54E2,3.1E1,2.3E1,2.5E1,2E0,1.3E1,8.3E1,4.29E2,3E0,1.24E2,3.9E1,5E0,5E0,1.2E1,2.5E1,1.2E2,5E1,6E0,1.6E2,1.51E2,1E0,7E1,2.4E1,1E1,4.8E1,1.5E1,2E0,3E0,6E0,9.1E1,1.9E1,6E0,5E0,3.9E1,1.33E2,1.2E2,4E1,1.5E1,1E0,4E0,1E0,1E1,1E0,6E0,9E0,8E0,1E0,1E0],"tree_param":{"num_deleted":"0","num_feature":"38","num_nodes":"145","size_leaf_vector":"1"}},{"base_weights":[2.6636992E-3,-4.2024925E-2,1.9531711E0,-1.3146357E-1,2.9302824E-1,5.5336266E0,1.3244337E0,-1.6855535E-1,-2.0107672E-2,2.7336058E-1,5.1395383E0,4.300125E0,3.3270276E-1,8.791983E-1,3.439865E0,3.2169033E-2,-1.6921362E-1,2.5093834E0,-3.527605E-2,2.1084461E0,2.2947964E-1,1.9462925E-1,-3.7931476E-3,4.8067646E0,1.3251965E0,1.2892531E-1,7.6321775E-1,2.0402474E0,2.558482E-1,-1.6982481E-1,2.9668296E-2,3.055364E-3,1.053391E-1,1.94544E-1,-1.2243558E-1,2.940992E-1,2.7856212E0,6.838331E-2,6.167298E-1,4.052561E-2,5.2345314E0,5.089692E-3,4.9614727E-2,3.5613486E-1,1.3242304E0,1.23455755E-1,1.0852499E0,2.886243E-2,-1.7042105E-1,-3.779459E-3,3.9169504E-3,1.1346302E-1,1.1101372E0,3.2819414E-1,-1.3769223E-1,-5.1381513E-3,1.6659897E-2,6.205801E-1,3.1119847E0,-3.150293E-2,2.1529777E-1,1.7390123E-1,7.8063965E-1,6.6785894E-2,1.6737358E-1,5.244159E-1,1.8594215E-2,6.532967E-1,1.7442989E0,1.6320198E0,3.8344425E-1,-5.3679585E-3,-3.060859E-3,6.339988E-4,1.1557385E-2,4.5674954E-2,1.7419824E-2,7.246277E-2,-5.667204E-4,-2.2917895E-3,-5.1292055E-3,3.2292765E-3,3.239089E-2,1.4700586E-2,1.0227312E-1,-1.3748558E-3,1.8832015E-2,4.8403338E-2,5.8323215E-3,1.0713526E-2,-2.0625081E-3,5.1869072E-2,2.159665E-2,4.2643985E-3,2.9648077E-2,-4.074187E-3,5.5972585E-3,3.724303E-2,6.589103E-3,5.7055097E-2,2.2766709E-4,-4.2012194E-3,5.8521096E-2,1.7399235E-2,-2.1576253E-3],"categories":[],"categories_nodes":[],"categories_segments":[],"categories_sizes":[],"default_left":[0,0,0,0,0,0,0,0,0,0,0,0,0,0,0,0,0,0,0,0,0,0,0,0,0,0,0,0,0,0,0,0,0,0,0,0,0,0,0,0,0,0,0,0,0,0,0,0,0,0,0,0,0,0,0,0,0,0,0,0,0,0,0,0,0,0,0,0,0,0,0,0,0,0,0,0,0,0,0,0,0,0,0,0,0,0,0,0,0,0,0,0,0,0,0,0,0,0,0,0,0,0,0,0,0],"id":6,"left_children":[1,3,5,7,9,11,13,15,17,19,21,23,-1,25,27,-1,29,31,33,35,37,-1,-1,39,41,-1,43,45,-1,47,-1,49,-1,51,53,55,57,59,61,-1,63,-1,-1,65,67,-1,69,-1,71,-1,-1,73,75,77,79,-1,-1,81,83,85,87,89,91,-1,-1,93,95,97,99,101,103,-1,-1,-1,-1,-1,-1,-1,-1,-1,-1,-1,-1,-1,-1,-1,-1,-1,-1,-1,-1,-1,-1,-1,-1,-1,-1,-1,-1,-1,-1,-1,-1,-1,-1],"loss_changes":[5.2926373E2,1.7792085E2,2.9882977E2,1.9351616E1,1.1783979E2,8.938934E1,1.0717386E2,3.0525665E0,4.5056145E1,9.993114E1,3.631569E1,2.075998E1,0E0,3.557292E1,1.2503674E2,0E0,2.6553268E0,1.7567253E1,2.3379974E1,3.4811035E1,7.600462E1,0E0,0E0,1.510376E1,1.2383895E0,0E0,2.145274E1,2.9220627E1,0E0,2.5348206E0,0E0,6.580936E-2,0E0,2.3704178E1,5.8615246E0,1.1892351E0,1.290715E1,1.2656403E1,2.5849304E1,0E0,1.0560913E0,0E0,0E0,3.2279449E0,1.0133987E1,0E0,4.3626537E0,0E0,2.0260162E0,0E0,0E0,7.4195824E0,4.792671E0,2.0330126E1,1.6577969E0,0E0,0E0,8.257704E-1,1.2352127E1,4.8829637E0,9.878231E0,4.381408E0,1.3792145E1,0E0,0E0,6.597563E0,5.4406506E-1,4.0632153E0,6.551903E0,4.226261E0,6.681633E-1,0E0,0E0,0E0,0E0,0E0,0E0,0E0,0E0,0E0,0E0,0E0,0E0,0E0,0E0,0E0,0E0,0E0,0E0,0E0,0E0,0E0,0E0,0E0,0E0,0E0,0E0,0E0,0E0,0E0,0E0,0E0,0E0,0E0,0E0],"parents":[2147483647,0,0,1,1,2,2,3,3,4,4,5,5,6,6,7,7,8,8,9,9,10,10,11,11,13,13,14,14,16,16,17,17,18,18,19,19,20,20,23,23,24,24,26,26,27,27,29,29,31,31,33,33,34,34,35,35,36,36,37,37,38,38,40,40,43,43,44,44,46,46,48,48,51,51,52,52,53,53,54,54,57,57,58,58,59,59,60,60,61,61,62,62,65,65,66,66,67,67,68,68,69,69,70,70],"right_children":[2,4,6,8,10,12,14,16,18,20,22,24,-1,26,28,-1,30,32,34,36,38,-1,-1,40,42,-1,44,46,-1,48,-1,50,-1,52,54,56,58,60,62,-1,64,-1,-1,66,68,-1,70,-1,72,-1,-1,74,76,78,80,-1,-1,82,84,86,88,90,92,-1,-1,94,96,98,100,102,104,-1,-1,-1,-1,-1,-1,-1,-1,-1,-1,-1,-1,-1,-1,-1,-1,-1,-1,-1,-1,-1,-1,-1,-1,-1,-1,-1,-1,-1,-1,-1,-1,-1,-1],"split_conditions":[2.5E0,2E-1,-1.3289325E1,5.0225E1,1.056E3,6.45E2,9.712269E0,-1.3264601E1,-1.2803605E1,-1.2411169E1,3.0185E2,4.9921002E0,3.3270276E-1,-1.2778168E1,3.0115E2,3.2169033E-2,5.4425E1,2.9855E2,3.0035E2,1.7E2,8.7E1,1.9462925E-1,-3.7931476E-3,2.6356485E0,8.4E1,1.2892531E-1,8.7E1,2.3218904E0,2.558482E-1,1.0012E5,2.9668296E-2,2.9745E2,1.053391E-1,3.0105E2,1.0006E5,2.922368E1,-8.127128E0,8.4E1,7E0,4.052561E-2,8.3E1,5.089692E-3,4.9614727E-2,2.6946602E0,2.970623E-1,1.23455755E-1,6E0,2.886243E-2,2.4205265E0,-3.779459E-3,3.9169504E-3,4.199183E0,3.0015E2,3.0115E2,3.0105E2,-5.1381513E-3,1.6659897E-2,1.143E1,3E0,5.4425E1,8.05E1,2E0,-9.271969E0,6.6785894E-2,1.6737358E-1,5.1075E1,4.3527994E0,8.750842E-1,2.013E1,2.9515E2,3.0025E2,-5.3679585E-3,-3.060859E-3,6.339988E-4,1.1557385E-2,4.5674954E-2,1.7419824E-2,7.246277E-2,-5.667204E-4,-2.2917895E-3,-5.1292055E-3,3.2292765E-3,3.239089E-2,1.4700586E-2,1.0227312E-1,-1.3748558E-3,1.8832015E-2,4.8403338E-2,5.8323215E-3,1.0713526E-2,-2.0625081E-3,5.1869072E-2,2.159665E-2,4.2643985E-3,2.9648077E-2,-4.074187E-3,5.5972585E-3,3.724303E-2,6.589103E-3,5.7055097E-2,2.2766709E-4,-4.2012194E-3,5.8521096E-2,1.7399235E-2,-2.1576253E-3],"split_indices":[29,29,22,7,25,6,4,4,23,5,2,31,0,5,17,0,26,2,2,6,3,0,0,9,3,0,3,31,0,8,0,2,0,16,8,10,4,3,37,0,19,0,0,23,33,0,36,0,31,0,0,4,2,2,2,0,0,0,36,26,34,37,5,0,0,26,4,31,0,2,17,0,0,0,0,0,0,0,0,0,0,0,0,0,0,0,0,0,0,0,0,0,0,0,0,0,0,0,0,0,0,0,0,0,0],"split_type":[0,0,0,0,0,0,0,0,0,0,0,0,0,0,0,0,0,0,0,0,0,0,0,0,0,0,0,0,0,0,0,0,0,0,0,0,0,0,0,0,0,0,0,0,0,0,0,0,0,0,0,0,0,0,0,0,0,0,0,0,0,0,0,0,0,0,0,0,0,0,0,0,0,0,0,0,0,0,0,0,0,0,0,0,0,0,0,0,0,0,0,0,0,0,0,0,0,0,0,0,0,0,0,0,0],"sum_hessian":[6.07E3,5.935E3,1.35E2,4.685E3,1.25E3,1.9E1,1.16E2,3.514E3,1.171E3,1.246E3,4E0,1.7E1,2E0,9.7E1,1.9E1,1E0,3.513E3,6E0,1.165E3,2.8E1,1.218E3,3E0,1E0,1.4E1,3E0,2E0,9.5E1,1.6E1,3E0,3.512E3,1E0,2E0,4E0,3.2E2,8.45E2,8E0,2E1,8.61E2,3.57E2,2E0,1.2E1,1E0,2E0,5.6E1,3.9E1,4E0,1.2E1,1E0,3.511E3,1E0,1E0,2.95E2,2.5E1,2.7E1,8.18E2,3E0,5E0,3E0,1.7E1,5.13E2,3.48E2,9.7E1,2.6E2,2E0,1E1,3.7E1,1.9E1,1.6E1,2.3E1,6E0,6E0,3.121E3,3.9E2,2.21E2,7.4E1,1.3E1,1.2E1,3E0,2.4E1,2.89E2,5.29E2,2E0,1E0,2E0,1.5E1,5.03E2,1E1,4E0,3.44E2,5.5E1,4.2E1,1.4E1,2.46E2,2.1E1,1.6E1,1E1,9E0,6E0,1E1,2.1E1,2E0,1E0,5E0,4E0,2E0],"tree_param":{"num_deleted":"0","num_feature":"38","num_nodes":"105","size_leaf_vector":"1"}},{"base_weights":[4.4959593E-3,-3.801803E-2,3.3074481E0,-1.3566968E-1,4.417983E-1,2.65767E0,7.023581E0,-1.6297369E-1,-1.7603133E-2,3.0640227E-1,9.818878E-1,3.9617057E0,1.3884801E0,4.6324234E0,3.015E-1,-1.7288116E-1,1.12565765E-2,-1.0341411E-1,1.1889849E-1,2.5959355E-1,1.0230008E0,1.23057485E-1,8.9939016E-1,4.719536E0,1.746742E0,1.0745282E0,9.360227E-2,1.4873858E-1,3.5305787E-2,-1.8285176E-1,-1.0356934E-1,-6.275096E-2,1.3054503E0,2.4952987E-2,-1.0645533E-1,9.3428366E-2,1.0162921E0,2.0023193E0,2.4102962E-1,7.3807496E-1,3.4397185E0,7.439094E-1,1.4702837E0,3.6758142E0,2.7057573E-1,2.3850426E-2,7.4451506E-2,3.5329995E-1,1.976586E0,-1.8354397E-1,6.891304E-2,-1.6946347E-1,-4.488004E-2,-1.2038745E-1,2.1916953E-1,8.366099E-2,5.011783E-1,-1.1679435E-1,1.1873497E-1,2.817931E-1,8.400379E-3,1.750862E0,2.3476838E-1,1.23551756E-1,2.273054E-1,1.6198596E-1,5.252776E-1,9.8047763E-1,-3.0439118E-2,1.147747E-1,2.8429495E-2,8.614694E-2,8.266811E-1,1.216616E0,9.312307E-2,1.5637054E-1,2.3293025E0,-6.031152E-3,1.6582617E-1,-9.145446E-2,7.627244E-1,1.5438692E-1,2.2674203E0,-5.7299687E-3,-4.878792E-3,1.3483468E-2,-4.7514234E-3,-5.43515E-3,-3.5191101E-3,-1.7044956E-3,1.4097017E-2,-3.970852E-3,7.1684616E-3,9.1960654E-4,2.118737E-2,1.8754037E-2,1.3466311E-3,-4.0504653E-3,-2.2598861E-3,1.8684186E-2,-3.6711517E-5,4.616164E-3,1.8208442E-2,-1.5592028E-3,1.091105E-2,5.952542E-2,1.2263816E-2,-1.1017042E-3,2.3883414E-2,1.0997464E-2,-1.4093051E-3,2.4287729E-3,1.1253348E-2,8.92578E-2,1.4317739E-2,4.022552E-2,1.032429E-2,-5.9840865E-3,3.5637766E-3,-3.6248656E-3,2.069535E-2,2.0510243E-2,3.8907003E-2,3.1170577E-2,5.971886E-2,1.7950058E-2,8.366278E-2,6.034376E-3,1.4278016E-3,-8.143429E-3,1.2570364E-2,2.7825069E-2,2.0722498E-3,-3.5390565E-3,1.0486468E-2,7.896138E-2,2.6404727E-2],"categories":[],"categories_nodes":[],"categories_segments":[],"categories_sizes":[],"default_left":[0,0,0,0,0,0,0,0,0,0,0,0,0,0,0,0,0,0,0,0,0,0,0,0,0,0,0,0,0,0,0,0,0,0,0,0,0,0,0,0,0,0,0,0,0,0,0,0,0,0,0,0,0,0,0,0,0,0,0,0,0,0,0,0,0,0,0,0,0,0,0,0,0,0,0,0,0,0,0,0,0,0,0,0,0,0,0,0,0,0,0,0,0,0,0,0,0,0,0,0,0,0,0,0,0,0,0,0,0,0,0,0,0,0,0,0,0,0,0,0,0,0,0,0,0,0,0,0,0,0,0,0,0,0,0,0,0],"id":7,"left_children":[1,3,5,7,9,11,13,15,17,19,21,23,25,27,-1,29,31,33,35,37,39,-1,41,43,45,47,-1,-1,-1,49,51,53,55,-1,57,59,61,63,65,67,69,71,73,75,-1,77,-1,79,81,83,85,87,89,91,93,-1,95,97,99,101,103,105,107,109,-1,111,113,115,117,-1,-1,119,121,123,-1,-1,125,-1,127,129,131,133,135,-1,-1,-1,-1,-1,-1,-1,-1,-1,-1,-1,-1,-1,-1,-1,-1,-1,-1,-1,-1,-1,-1,-1,-1,-1,-1,-1,-1,-1,-1,-1,-1,-1,-1,-1,-1,-1,-1,-1,-1,-1,-1,-1,-1,-1,-1,-1,-1,-1,-1,-1,-1,-1,-1],"loss_changes":[8.6189355E2,2.840004E2,1.696773E2,1.6231628E1,7.4653275E1,1.07043915E2,3.304724E1,7.062027E0,1.1104827E1,2.7273285E1,4.9076767E1,4.7148865E1,1.6218353E1,3.1642914E0,0E0,2.6555405E0,2.1249317E1,1.743804E0,8.270611E0,2.4492989E1,3.18905E1,0E0,1.6747604E1,7.45506E1,1.260363E1,2.012054E1,0E0,0E0,0E0,6.020355E-1,1.8834949E0,3.4386559E0,1.2917597E1,0E0,1.366579E0,5.7154427E0,5.329791E0,8.28498E1,1.7102936E1,8.599178E0,1.1854591E0,8.639839E0,1.363028E1,3.1307129E1,0E0,1.6105247E-1,0E0,3.5295277E0,7.069351E0,4.9492645E-1,9.361187E-1,1.1920881E-1,1.6243124E0,7.8461695E-1,3.2839303E0,0E0,4.8097968E-1,4.0990734E-1,1.572923E0,4.5235558E0,5.3172736E0,7.5452805E-1,9.436403E-1,3.073263E-1,0E0,1.0330975E1,1.8109493E1,7.564682E0,3.2639188E-1,0E0,0E0,2.4574199E0,8.662025E0,3.1552582E0,0E0,0E0,8.6703415E0,0E0,2.9546246E-3,1.032545E0,1.0789142E0,2.0069611E-1,3.7533646E0,0E0,0E0,0E0,0E0,0E0,0E0,0E0,0E0,0E0,0E0,0E0,0E0,0E0,0E0,0E0,0E0,0E0,0E0,0E0,0E0,0E0,0E0,0E0,0E0,0E0,0E0,0E0,0E0,0E0,0E0,0E0,0E0,0E0,0E0,0E0,0E0,0E0,0E0,0E0,0E0,0E0,0E0,0E0,0E0,0E0,0E0,0E0,0E0,0E0,0E0,0E0,0E0,0E0,0E0],"parents":[2147483647,0,0,1,1,2,2,3,3,4,4,5,5,6,6,7,7,8,8,9,9,10,10,11,11,12,12,13,13,15,15,16,16,17,17,18,18,19,19,20,20,22,22,23,23,24,24,25,25,29,29,30,30,31,31,32,32,34,34,35,35,36,36,37,37,38,38,39,39,40,40,41,41,42,42,43,43,45,45,47,47,48,48,49,49,50,50,51,51,52,52,53,53,54,54,56,56,57,57,58,58,59,59,60,60,61,61,62,62,63,63,65,65,66,66,67,67,68,68,71,71,72,72,73,73,76,76,78,78,79,79,80,80,81,81,82,82],"right_children":[2,4,6,8,10,12,14,16,18,20,22,24,26,28,-1,30,32,34,36,38,40,-1,42,44,46,48,-1,-1,-1,50,52,54,56,-1,58,60,62,64,66,68,70,72,74,76,-1,78,-1,80,82,84,86,88,90,92,94,-1,96,98,100,102,104,106,108,110,-1,112,114,116,118,-1,-1,120,122,124,-1,-1,126,-1,128,130,132,134,136,-1,-1,-1,-1,-1,-1,-1,-1,-1,-1,-1,-1,-1,-1,-1,-1,-1,-1,-1,-1,-1,-1,-1,-1,-1,-1,-1,-1,-1,-1,-1,-1,-1,-1,-1,-1,-1,-1,-1,-1,-1,-1,-1,-1,-1,-1,-1,-1,-1,-1,-1,-1,-1,-1],"split_conditions":[3.3E0,3E-1,1.2955643E1,1E-1,8.9E1,-1.1047935E1,8.9E1,5.643894E0,8.5E1,4.0414515E-1,-1.3238473E1,4.969492E-1,9.712269E0,8.8E1,3.015E-1,1E-1,9E1,5.9E1,6.743355E0,-1.2045762E1,3.2917056E2,1.23057485E-1,1.7E0,5.3975E1,8.7E1,8.8E1,9.360227E-2,1.4873858E-1,3.5305787E-2,2E0,8.2E1,8.6E1,6.135874E0,2.4952987E-2,7.8042955E0,1.0084E5,7.8E0,8.2804756E1,8.7E1,2.6946602E0,2.9895E2,2.9815E2,8.127128E0,3.3180824E1,2.7057573E-1,8.65E0,7.4451506E-2,5.1025E1,8.68E0,4.8925E1,1.9294243E-1,5.1175E1,3.393239E2,2E0,3.0135E2,8.366099E-2,7.517541E0,2E-1,2.5090137E-1,8.9E1,6E-1,2.9985E2,1.1433E2,2.9915E2,2.273054E-1,1.1E0,7.9E1,1.2E1,8.375E1,1.147747E-1,2.8429495E-2,3.7965274E-1,2.1141472E0,9.025E1,9.312307E-2,1.5637054E-1,-1.0890437E1,-6.031152E-3,1.538E1,2.4608963E2,5.25E2,8.65E0,2.8E0,-5.7299687E-3,-4.878792E-3,1.3483468E-2,-4.7514234E-3,-5.43515E-3,-3.5191101E-3,-1.7044956E-3,1.4097017E-2,-3.970852E-3,7.1684616E-3,9.1960654E-4,2.118737E-2,1.8754037E-2,1.3466311E-3,-4.0504653E-3,-2.2598861E-3,1.8684186E-2,-3.6711517E-5,4.616164E-3,1.8208442E-2,-1.5592028E-3,1.091105E-2,5.952542E-2,1.2263816E-2,-1.1017042E-3,2.3883414E-2,1.0997464E-2,-1.4093051E-3,2.4287729E-3,1.1253348E-2,8.92578E-2,1.4317739E-2,4.022552E-2,1.032429E-2,-5.9840865E-3,3.5637766E-3,-3.6248656E-3,2.069535E-2,2.0510243E-2,3.8907003E-2,3.1170577E-2,5.971886E-2,1.7950058E-2,8.366278E-2,6.034376E-3,1.4278016E-3,-8.143429E-3,1.2570364E-2,2.7825069E-2,2.0722498E-3,-3.5390565E-3,1.0486468E-2,7.896138E-2,2.6404727E-2],"split_indices":[28,28,4,28,3,23,3,4,3,32,5,33,4,3,0,29,3,18,11,4,10,0,28,27,3,3,0,0,0,15,3,3,4,0,4,8,11,10,3,23,16,17,4,13,0,0,0,26,0,7,20,26,13,29,17,0,4,28,12,3,29,2,1,2,0,28,18,37,34,0,0,33,30,34,0,0,4,0,0,10,24,0,29,0,0,0,0,0,0,0,0,0,0,0,0,0,0,0,0,0,0,0,0,0,0,0,0,0,0,0,0,0,0,0,0,0,0,0,0,0,0,0,0,0,0,0,0,0,0,0,0,0,0,0,0,0,0],"split_type":[0,0,0,0,0,0,0,0,0,0,0,0,0,0,0,0,0,0,0,0,0,0,0,0,0,0,0,0,0,0,0,0,0,0,0,0,0,0,0,0,0,0,0,0,0,0,0,0,0,0,0,0,0,0,0,0,0,0,0,0,0,0,0,0,0,0,0,0,0,0,0,0,0,0,0,0,0,0,0,0,0,0,0,0,0,0,0,0,0,0,0,0,0,0,0,0,0,0,0,0,0,0,0,0,0,0,0,0,0,0,0,0,0,0,0,0,0,0,0,0,0,0,0,0,0,0,0,0,0,0,0,0,0,0,0,0,0],"sum_hessian":[6.136E3,6.059E3,7.7E1,5.035E3,1.024E3,6.7E1,1E1,4.089E3,9.46E2,8.2E2,2.04E2,3.2E1,3.5E1,7E0,3E0,3.869E3,2.2E2,5.81E2,3.65E2,7.71E2,4.9E1,4E0,2E2,2.3E1,9E0,3.1E1,4E0,6E0,1E0,3.381E3,4.88E2,2.09E2,1.1E1,1E0,5.8E2,3.56E2,9E0,7E0,7.64E2,4.5E1,4E0,1.59E2,4.1E1,2E1,3E0,3E0,6E0,1.8E1,1.3E1,3.372E3,9E0,2.29E2,2.59E2,1.74E2,3.5E1,3E0,8E0,5.55E2,2.5E1,1.1E2,2.46E2,4E0,5E0,6E0,1E0,5.99E2,1.65E2,3.4E1,1.1E1,3E0,1E0,1.8E1,1.41E2,3.7E1,4E0,8E0,1.2E1,1E0,2E0,9E0,9E0,2E0,1.1E1,2.48E3,8.92E2,3E0,6E0,1.85E2,4.4E1,2.54E2,5E0,1.69E2,5E0,2.6E1,9E0,6E0,2E0,3.84E2,1.71E2,4E0,2.1E1,8E1,3E1,2.11E2,3.5E1,3E0,1E0,4E0,1E0,2E0,4E0,4.35E2,1.64E2,2E0,1.63E2,2.1E1,1.3E1,5E0,6E0,1.4E1,4E0,1.1E2,3.1E1,3.2E1,5E0,3E0,9E0,1E0,1E0,7E0,2E0,7E0,2E0,1E0,1E0,8E0,3E0],"tree_param":{"num_deleted":"0","num_feature":"38","num_nodes":"137","size_leaf_vector":"1"}},{"base_weights":[1.7800815E-3,-4.2658318E-2,3.6282897E0,-1.3665585E-1,4.129935E-1,1.2936667E0,4.793022E0,-1.6159773E-1,-2.2812426E-2,2.7702907E-1,9.574865E-1,1.5080879E-2,1.969678E0,1.0122348E0,5.618394E0,-1.7082204E-1,-9.3338377E-4,-1.10521875E-1,7.3946044E-2,1.4604974E0,2.3684119E-1,1.3131428E-1,8.506436E-1,-6.5328893E-3,2.9147732E-1,1.1870548E-1,2.357836E0,5.8113303E-2,3.3912957E-1,8.534649E0,4.36182E0,-1.799589E-1,-1.0534067E-1,-7.617118E-2,1.2260932E0,2.4578694E-2,-1.142276E-1,5.7052385E-2,6.0931183E-2,2.6084633E0,6.317842E-1,3.880282E-1,7.772202E-2,6.877587E-1,1.5096076E0,1.3284208E-2,4.2882953E-3,4.720253E-3,4.19493E-5,1.5358146E-2,2.4604483E0,4.421617E-2,1.6477816E-2,8.740518E-2,1.0278389E1,1.4311751E0,4.8907027E0,-1.8533243E-1,-1.3627946E-1,-1.2335602E-1,1.19274385E-1,-1.211753E-1,1.6300261E-1,8.977294E-2,6.329016E-1,-1.22770034E-1,1.080521E-1,1.209665E-1,-9.014864E-2,7.6691574E-1,1.3994811E-1,4.5218697E-1,5.25801E-2,1.1272072E0,2.682501E-1,-8.649135E-3,2.6894218E-1,2.4216191E-1,8.121628E-1,1.2375643E0,9.335965E-2,7.899907E-2,3.0195015E-2,2.0320066E-3,-3.9503977E-4,8.7487504E-2,3.673918E-1,1.8534324E0,-1.0201672E-2,4.6613395E-2,5.113314E0,-5.575093E-3,2.9923273E-3,8.553809E-3,-4.350679E-3,-5.0285086E-3,-2.2301297E-3,5.9427634E-2,-1.4548989E-3,-3.980729E-3,6.98925E-3,-1.3026679E-3,1.6352002E-2,2.9226404E-2,8.960788E-3,-5.3840494E-3,-3.2489384E-3,1.5557316E-2,-1.3884605E-3,7.0371944E-3,-1.6400473E-3,3.392095E-3,-3.656695E-3,3.99679E-2,2.951773E-4,9.249971E-3,2.4200028E-2,1.5318069E-1,2.6690584E-2,3.111948E-3,1.2882954E-2,3.2742496E-3,-3.047549E-3,4.8822886E-3,2.1569544E-2,1.730226E-2,2.3527925E-3,3.4308076E-2,2.0654459E-2,4.3617804E-2,1.3529094E-2,6.423058E-2,1.0546251E-2,1.5784308E-1,2.781927E-2],"categories":[],"categories_nodes":[],"categories_segments":[],"categories_sizes":[],"default_left":[0,0,0,0,0,0,0,0,0,0,0,0,0,0,0,0,0,0,0,0,0,0,0,0,0,0,0,0,0,0,0,0,0,0,0,0,0,0,0,0,0,0,0,0,0,0,0,0,0,0,0,0,0,0,0,0,0,0,0,0,0,0,0,0,0,0,0,0,0,0,0,0,0,0,0,0,0,0,0,0,0,0,0,0,0,0,0,0,0,0,0,0,0,0,0,0,0,0,0,0,0,0,0,0,0,0,0,0,0,0,0,0,0,0,0,0,0,0,0,0,0,0,0,0,0,0,0,0,0,0,0,0,0,0,0],"id":8,"left_children":[1,3,5,7,9,11,13,15,17,19,21,23,25,27,29,31,33,35,37,39,41,-1,43,-1,45,47,49,-1,51,53,55,57,59,61,63,-1,65,-1,67,69,71,73,75,77,79,-1,-1,-1,-1,-1,81,83,-1,-1,85,87,89,91,93,95,97,99,101,-1,103,105,107,109,111,113,-1,115,-1,117,119,121,123,125,127,129,-1,-1,-1,-1,-1,-1,-1,131,-1,-1,133,-1,-1,-1,-1,-1,-1,-1,-1,-1,-1,-1,-1,-1,-1,-1,-1,-1,-1,-1,-1,-1,-1,-1,-1,-1,-1,-1,-1,-1,-1,-1,-1,-1,-1,-1,-1,-1,-1,-1,-1,-1,-1,-1,-1],"loss_changes":[9.85142E2,2.587077E2,1.95021E2,1.42135315E1,7.620949E1,2.2443092E1,1.472201E2,6.0864944E0,7.6546288E0,3.9034664E1,7.154201E1,7.070451E-1,1.1934105E1,5.568454E0,1.09352905E2,2.3048172E0,2.0772799E1,1.7233658E0,1.0089419E1,2.403804E1,1.9263355E1,0E0,2.0536148E1,0E0,4.9091876E-2,1.790924E-2,1.3921661E0,0E0,4.0950686E-1,7.787378E1,3.949951E1,7.7440643E-1,1.9489503E0,2.3016787E0,1.1727186E1,0E0,9.0950394E-1,0E0,3.8838487E0,3.808043E1,2.6297016E0,3.6086517E1,6.4765615E0,8.839081E0,1.3149467E1,0E0,0E0,0E0,0E0,0E0,6.167526E-1,6.2900158E-3,0E0,0E0,8.019623E1,5.1177626E0,1.0625916E1,4.5402527E-1,1.4303789E0,9.486718E-1,1.1339961E1,7.609253E-1,2.7051644E0,0E0,9.637723E-1,3.5391092E-1,1.1644453E0,6.1185265E0,8.007302E-1,2.9829707E0,0E0,5.671768E-1,0E0,4.9325226E1,9.369123E0,2.97772E0,5.7138815E0,1.9817255E0,4.418724E0,5.3009567E0,0E0,0E0,0E0,0E0,0E0,0E0,0E0,1.4069653E0,0E0,0E0,9.382019E0,0E0,0E0,0E0,0E0,0E0,0E0,0E0,0E0,0E0,0E0,0E0,0E0,0E0,0E0,0E0,0E0,0E0,0E0,0E0,0E0,0E0,0E0,0E0,0E0,0E0,0E0,0E0,0E0,0E0,0E0,0E0,0E0,0E0,0E0,0E0,0E0,0E0,0E0,0E0,0E0,0E0,0E0,0E0,0E0],"parents":[2147483647,0,0,1,1,2,2,3,3,4,4,5,5,6,6,7,7,8,8,9,9,10,10,11,11,12,12,13,13,14,14,15,15,16,16,17,17,18,18,19,19,20,20,22,22,24,24,25,25,26,26,28,28,29,29,30,30,31,31,32,32,33,33,34,34,36,36,38,38,39,39,40,40,41,41,42,42,43,43,44,44,50,50,51,51,54,54,55,55,56,56,57,57,58,58,59,59,60,60,61,61,62,62,64,64,65,65,66,66,67,67,68,68,69,69,71,71,73,73,74,74,75,75,76,76,77,77,78,78,79,79,87,87,90,90],"right_children":[2,4,6,8,10,12,14,16,18,20,22,24,26,28,30,32,34,36,38,40,42,-1,44,-1,46,48,50,-1,52,54,56,58,60,62,64,-1,66,-1,68,70,72,74,76,78,80,-1,-1,-1,-1,-1,82,84,-1,-1,86,88,90,92,94,96,98,100,102,-1,104,106,108,110,112,114,-1,116,-1,118,120,122,124,126,128,130,-1,-1,-1,-1,-1,-1,-1,132,-1,-1,134,-1,-1,-1,-1,-1,-1,-1,-1,-1,-1,-1,-1,-1,-1,-1,-1,-1,-1,-1,-1,-1,-1,-1,-1,-1,-1,-1,-1,-1,-1,-1,-1,-1,-1,-1,-1,-1,-1,-1,-1,-1,-1,-1,-1],"split_conditions":[3.3E0,3E-1,3.4359848E-1,1E-1,8.9E1,1.78E2,-2.100556E0,5.643894E0,8.4E1,1.0006E5,-1.3238473E1,2.9995E2,8.7E1,2.9955E2,9.961E4,1E-1,9E1,5.9E1,-1.3757225E1,8.3E1,2.9995E2,1.3131428E-1,1.7E0,-6.5328893E-3,1.538E1,1.538E1,-5.3752594E0,5.8113303E-2,4.95E2,3.54E2,1.0894E2,5.0975E1,8.9E1,8.6E1,5.8055553E0,2.4578694E-2,7.9957705E0,5.7052385E-2,1.0117E5,8.2E1,1.2110613E1,1.0067E5,7E-1,4.9825E1,8.127128E0,1.3284208E-2,4.2882953E-3,4.720253E-3,4.19493E-5,1.5358146E-2,6.51E2,1.1063E2,1.6477816E-2,8.740518E-2,8.041371E-1,8.7E1,-7.767017E0,9.74E2,2.9875E2,8.2E1,1.2508559E-1,2E0,1E1,8.977294E-2,1.2515293E0,7.8E1,3.0025E2,3.0015E2,-8.197426E0,-4.3997755E0,1.3994811E-1,9.998E4,5.25801E-2,-1.2045762E1,1.72E2,3.0055E2,1.8E0,-8.008921E0,8.6E1,4.15E2,9.335965E-2,7.899907E-2,3.0195015E-2,2.0320066E-3,-3.9503977E-4,8.7487504E-2,3.673918E-1,3.0205E2,-1.0201672E-2,4.6613395E-2,3.0055E2,-5.575093E-3,2.9923273E-3,8.553809E-3,-4.350679E-3,-5.0285086E-3,-2.2301297E-3,5.9427634E-2,-1.4548989E-3,-3.980729E-3,6.98925E-3,-1.3026679E-3,1.6352002E-2,2.9226404E-2,8.960788E-3,-5.3840494E-3,-3.2489384E-3,1.5557316E-2,-1.3884605E-3,7.0371944E-3,-1.6400473E-3,3.392095E-3,-3.656695E-3,3.99679E-2,2.951773E-4,9.249971E-3,2.4200028E-2,1.5318069E-1,2.6690584E-2,3.111948E-3,1.2882954E-2,3.2742496E-3,-3.047549E-3,4.8822886E-3,2.1569544E-2,1.730226E-2,2.3527925E-3,3.4308076E-2,2.0654459E-2,4.3617804E-2,1.3529094E-2,6.423058E-2,1.0546251E-2,1.5784308E-1,2.781927E-2],"split_indices":[28,28,32,28,3,6,21,4,3,8,5,2,18,2,8,29,3,18,5,18,2,0,28,0,0,0,5,0,24,6,1,26,3,3,4,0,4,0,8,19,5,8,29,7,4,0,0,0,0,0,6,1,0,0,21,3,4,24,2,3,31,29,37,0,9,3,16,2,23,5,0,8,0,4,6,2,28,22,18,25,0,0,0,0,0,0,0,2,0,0,2,0,0,0,0,0,0,0,0,0,0,0,0,0,0,0,0,0,0,0,0,0,0,0,0,0,0,0,0,0,0,0,0,0,0,0,0,0,0,0,0,0,0,0,0],"split_type":[0,0,0,0,0,0,0,0,0,0,0,0,0,0,0,0,0,0,0,0,0,0,0,0,0,0,0,0,0,0,0,0,0,0,0,0,0,0,0,0,0,0,0,0,0,0,0,0,0,0,0,0,0,0,0,0,0,0,0,0,0,0,0,0,0,0,0,0,0,0,0,0,0,0,0,0,0,0,0,0,0,0,0,0,0,0,0,0,0,0,0,0,0,0,0,0,0,0,0,0,0,0,0,0,0,0,0,0,0,0,0,0,0,0,0,0,0,0,0,0,0,0,0,0,0,0,0,0,0,0,0,0,0,0,0],"sum_hessian":[6.111E3,6.038E3,7.3E1,5.006E3,1.032E3,2.5E1,4.8E1,4.106E3,9E2,8.27E2,2.05E2,9E0,1.6E1,9E0,3.9E1,3.883E3,2.23E2,4.72E2,4.28E2,2.6E1,8.01E2,5E0,2E2,5E0,4E0,3E0,1.3E1,3E0,6E0,1E1,2.9E1,3.406E3,4.77E2,2.11E2,1.2E1,1E0,4.71E2,2E0,4.26E2,1E1,1.6E1,4.1E2,3.91E2,1.62E2,3.8E1,1E0,3E0,2E0,1E0,1E0,1.2E1,3E0,3E0,3E0,7E0,5E0,2.4E1,3.03E3,3.76E2,4.42E2,3.5E1,1.78E2,3.3E1,2E0,1E1,4.54E2,1.7E1,3.05E2,1.21E2,6E0,4E0,1.5E1,1E0,5.6E1,3.54E2,2.7E2,1.21E2,3.6E1,1.26E2,3.4E1,4E0,1E1,2E0,2E0,1E0,2E0,5E0,4E0,1E0,2E0,2.2E1,3.025E3,5E0,7E0,3.69E2,2.31E2,2.11E2,2E0,3.3E1,1.73E2,5E0,2.2E1,1.1E1,4E0,6E0,9E1,3.64E2,4E0,1.3E1,1.85E2,1.2E2,1.6E1,1.05E2,3E0,3E0,1.2E1,3E0,2E0,5.4E1,1.76E2,1.78E2,1.19E2,1.51E2,9.9E1,2.2E1,1.1E1,2.5E1,3.2E1,9.4E1,2.6E1,8E0,3E0,1E0,2.1E1,1E0],"tree_param":{"num_deleted":"0","num_feature":"38","num_nodes":"135","size_leaf_vector":"1"}},{"base_weights":[-2.046936E-3,-4.9649112E-2,2.2894E0,-1.215161E-1,4.314421E-1,4.6619983E0,1.5160595E0,-1.5605304E-1,1.0188527E-2,1.4171888E0,3.7025353E-1,3.8772123E0,3.129801E-1,8.9861536E-1,3.305223E0,-1.7110518E-1,-7.251682E-2,1.4366947E0,-4.5661491E-4,1.0366559E0,1.5175457E-1,1.705963E-1,6.6376686E-1,4.3137336E0,5.8542013E-2,1.5929031E-1,1.1799079E0,2.4059784E0,2.1599852E-1,-1.7284793E-1,-2.4084218E-2,-1.04281746E-1,2.4863374E-1,-4.3298483E-2,8.782537E-2,-3.168634E-2,3.0040455E-1,5.137804E-1,1.8542173E0,1.5639001E-1,9.546809E-2,1.085276E0,5.564862E-1,5.218419E0,2.7062695E0,1.7403973E-2,3.0144209E-2,9.170138E-1,2.0764208E0,9.103151E-1,2.943556E0,-1.7382655E-1,-5.0078817E-3,6.558863E-1,-7.44799E-2,-4.0359613E-2,-1.5244201E-1,1.0472742E0,-1.4682275E-1,-3.5941072E-3,3.940828E-3,-3.5622783E-2,5.6918047E-2,1.2434608E0,1.21459164E-1,2.0188229E-1,1.2293032E0,4.1734448E-1,2.469401E0,2.7100104E-1,-3.5421962E-3,1.4422599E0,5.767095E-1,4.6546614E-1,1.2807469E0,6.126708E-2,1.6830747E-1,6.733598E-3,8.871263E-2,4.6776494E-1,-6.309526E-2,5.256082E-1,1.4616922E0,-2.8462744E-1,8.9921765E-2,2.556136E-1,5.0941378E-2,2.8961499E-3,3.3741329E0,5.0308323E-3,-5.225248E-3,9.136936E-3,-4.4742343E-3,5.296026E-3,2.4218855E-2,-4.17302E-3,2.1129758E-3,-1.904705E-3,1.2594964E-2,2.4685843E-3,-4.849358E-3,7.284773E-2,6.6932463E-3,3.9101774E-3,-5.466671E-3,-1.1926256E-3,2.9223502E-2,2.3005186E-3,3.948401E-2,-4.4515086E-3,8.523416E-3,1.8923875E-2,2.672581E-3,1.189645E-2,4.9489394E-2,1.6799323E-2,-4.437307E-3,8.501825E-2,1.6579328E-2,2.7576396E-3,1.4497552E-2,-2.242445E-3,3.998241E-3,2.4440503E-2,5.2426297E-2,4.1979398E-3,2.823287E-2,1.3051815E-2,5.8361813E-2,3.0664232E-2,7.34263E-2,2.939934E-3,1.8109487E-2,-4.9071712E-3,4.4512455E-3,6.647073E-3,2.4378104E-2,5.025432E-2,-2.7839048E-3,-1.1125688E-2,-3.891143E-4,1.20494515E-2,-4.927885E-3,1.11398764E-1,3.0175125E-2],"categories":[],"categories_nodes":[],"categories_segments":[],"categories_sizes":[],"default_left":[0,0,0,0,0,0,0,0,0,0,0,0,0,0,0,0,0,0,0,0,0,0,0,0,0,0,0,0,0,0,0,0,0,0,0,0,0,0,0,0,0,0,0,0,0,0,0,0,0,0,0,0,0,0,0,0,0,0,0,0,0,0,0,0,0,0,0,0,0,0,0,0,0,0,0,0,0,0,0,0,0,0,0,0,0,0,0,0,0,0,0,0,0,0,0,0,0,0,0,0,0,0,0,0,0,0,0,0,0,0,0,0,0,0,0,0,0,0,0,0,0,0,0,0,0,0,0,0,0,0,0,0,0,0,0,0,0,0,0,0,0,0,0,0,0],"id":9,"left_children":[1,3,5,7,9,11,13,15,17,19,21,23,-1,25,27,29,31,33,35,37,-1,39,41,43,-1,45,47,49,-1,51,53,55,57,59,-1,61,63,65,67,69,-1,71,73,75,77,79,-1,81,83,85,87,89,91,93,95,97,99,101,103,-1,-1,105,-1,107,109,111,113,115,117,119,121,123,125,127,129,-1,-1,-1,-1,131,133,135,137,139,-1,141,-1,-1,143,-1,-1,-1,-1,-1,-1,-1,-1,-1,-1,-1,-1,-1,-1,-1,-1,-1,-1,-1,-1,-1,-1,-1,-1,-1,-1,-1,-1,-1,-1,-1,-1,-1,-1,-1,-1,-1,-1,-1,-1,-1,-1,-1,-1,-1,-1,-1,-1,-1,-1,-1,-1,-1,-1,-1,-1],"loss_changes":[6.64616E2,2.0642807E2,2.2045062E2,2.3627403E1,4.6280853E1,9.541266E1,1.0197719E2,5.1617813E0,1.6400846E1,5.7109573E1,4.2783455E1,1.5120575E1,0E0,1.4785652E1,6.6732574E1,8.890228E-1,6.4527617E0,1.7777958E1,1.0091224E1,1.7001617E1,0E0,1.8199247E1,1.2781113E1,1.7871063E1,0E0,2.501825E0,1.0351662E1,1.4205185E1,0E0,5.649872E-1,1.4880885E0,1.760911E0,1.8155933E1,8.254919E-2,0E0,7.4557896E0,1.6893282E1,5.777421E0,1.3112453E1,7.992837E0,0E0,9.879684E0,1.5093338E1,4.721344E0,5.5611267E0,7.1833426E-1,0E0,8.185719E0,2.4772175E1,3.1760569E0,1.8062164E1,4.3673706E-1,9.824364E-1,7.521939E-2,3.843714E-1,2.6664894E0,7.1970654E-1,2.1083271E1,4.0639657E-1,0E0,0E0,4.0935664E0,0E0,1.2557621E0,3.8168006E0,9.1140175E-1,2.1461802E0,5.6657016E-1,6.1199417E0,9.610069E0,1.7927811E0,5.0903244E0,4.006366E0,8.738232E0,5.3435097E0,0E0,0E0,0E0,0E0,9.158069E-2,3.8548446E-1,2.0886536E0,5.7961884E0,8.888847E-2,0E0,3.725588E-1,0E0,0E0,6.707016E0,0E0,0E0,0E0,0E0,0E0,0E0,0E0,0E0,0E0,0E0,0E0,0E0,0E0,0E0,0E0,0E0,0E0,0E0,0E0,0E0,0E0,0E0,0E0,0E0,0E0,0E0,0E0,0E0,0E0,0E0,0E0,0E0,0E0,0E0,0E0,0E0,0E0,0E0,0E0,0E0,0E0,0E0,0E0,0E0,0E0,0E0,0E0,0E0,0E0,0E0,0E0,0E0,0E0,0E0,0E0,0E0],"parents":[2147483647,0,0,1,1,2,2,3,3,4,4,5,5,6,6,7,7,8,8,9,9,10,10,11,11,13,13,14,14,15,15,16,16,17,17,18,18,19,19,21,21,22,22,23,23,25,25,26,26,27,27,29,29,30,30,31,31,32,32,33,33,35,35,36,36,37,37,38,38,39,39,41,41,42,42,43,43,44,44,45,45,47,47,48,48,49,49,50,50,51,51,52,52,53,53,54,54,55,55,56,56,57,57,58,58,61,61,63,63,64,64,65,65,66,66,67,67,68,68,69,69,70,70,71,71,72,72,73,73,74,74,79,79,80,80,81,81,82,82,83,83,85,85,88,88],"right_children":[2,4,6,8,10,12,14,16,18,20,22,24,-1,26,28,30,32,34,36,38,-1,40,42,44,-1,46,48,50,-1,52,54,56,58,60,-1,62,64,66,68,70,-1,72,74,76,78,80,-1,82,84,86,88,90,92,94,96,98,100,102,104,-1,-1,106,-1,108,110,112,114,116,118,120,122,124,126,128,130,-1,-1,-1,-1,132,134,136,138,140,-1,142,-1,-1,144,-1,-1,-1,-1,-1,-1,-1,-1,-1,-1,-1,-1,-1,-1,-1,-1,-1,-1,-1,-1,-1,-1,-1,-1,-1,-1,-1,-1,-1,-1,-1,-1,-1,-1,-1,-1,-1,-1,-1,-1,-1,-1,-1,-1,-1,-1,-1,-1,-1,-1,-1,-1,-1,-1,-1,-1],"split_conditions":[2.6E0,4E-1,-1.3289325E1,1E-1,-1.0865161E1,6.51E2,2.5426682E2,5.1025E1,-1.3757225E1,-1.0102875E1,8.7E1,8.9E1,3.129801E-1,1.76E2,8.198997E0,8E-1,9E1,8.4E1,8.9E1,-2.3080182E0,1.5175457E-1,1.056E3,8.6E1,5.1925E1,5.8542013E-2,4E0,5.2E0,1.0915E2,2.1599852E-1,8.763242E0,3E0,3.013E2,8.725E1,-9.607406E0,8.782537E-2,5.7525E1,8.3E1,8E-1,4.7475E1,3.00175E2,9.546809E-2,8.5E1,8.517151E0,3.2605114E0,8.2E1,2.1240069E-1,3.0144209E-2,8.9E1,-1.2045762E1,1.68E2,1.218428E0,-1.5433591E1,1.62E2,1.0915E2,1.79E2,7.9E2,-5.6022444E0,1.1109018E-1,4.8525E1,-3.5941072E-3,3.940828E-3,4.977216E0,5.6918047E-2,-7.5716443E0,2.9895E2,-8.884905E0,-1.0865161E1,5.8055553E0,3.00125E2,9E-1,7.3917155E0,1E-1,8.65E1,9.2E1,1.9E0,6.126708E-2,1.6830747E-1,6.733598E-3,8.871263E-2,1.0894E2,5.1025E1,3.1E0,3.7E2,1.1161E2,8.9921765E-2,1.0894E2,5.0941378E-2,2.8961499E-3,5.6025E1,5.0308323E-3,-5.225248E-3,9.136936E-3,-4.4742343E-3,5.296026E-3,2.4218855E-2,-4.17302E-3,2.1129758E-3,-1.904705E-3,1.2594964E-2,2.4685843E-3,-4.849358E-3,7.284773E-2,6.6932463E-3,3.9101774E-3,-5.466671E-3,-1.1926256E-3,2.9223502E-2,2.3005186E-3,3.948401E-2,-4.4515086E-3,8.523416E-3,1.8923875E-2,2.672581E-3,1.189645E-2,4.9489394E-2,1.6799323E-2,-4.437307E-3,8.501825E-2,1.6579328E-2,2.7576396E-3,1.4497552E-2,-2.242445E-3,3.998241E-3,2.4440503E-2,5.2426297E-2,4.1979398E-3,2.823287E-2,1.3051815E-2,5.8361813E-2,3.0664232E-2,7.34263E-2,2.939934E-3,1.8109487E-2,-4.9071712E-3,4.4512455E-3,6.647073E-3,2.4378104E-2,5.025432E-2,-2.7839048E-3,-1.1125688E-2,-3.891143E-4,1.20494515E-2,-4.927885E-3,1.11398764E-1,3.0175125E-2],"split_indices":[28,28,22,28,22,6,10,26,5,23,3,19,0,6,11,29,3,3,3,21,0,24,18,26,0,29,28,1,0,4,36,35,34,4,0,27,18,29,7,35,0,19,21,30,3,9,0,3,4,6,9,5,24,1,25,25,21,33,27,0,0,9,0,5,17,21,5,4,35,28,20,29,34,19,28,0,0,0,0,1,27,29,25,1,0,1,0,0,7,0,0,0,0,0,0,0,0,0,0,0,0,0,0,0,0,0,0,0,0,0,0,0,0,0,0,0,0,0,0,0,0,0,0,0,0,0,0,0,0,0,0,0,0,0,0,0,0,0,0,0,0,0,0,0,0],"split_type":[0,0,0,0,0,0,0,0,0,0,0,0,0,0,0,0,0,0,0,0,0,0,0,0,0,0,0,0,0,0,0,0,0,0,0,0,0,0,0,0,0,0,0,0,0,0,0,0,0,0,0,0,0,0,0,0,0,0,0,0,0,0,0,0,0,0,0,0,0,0,0,0,0,0,0,0,0,0,0,0,0,0,0,0,0,0,0,0,0,0,0,0,0,0,0,0,0,0,0,0,0,0,0,0,0,0,0,0,0,0,0,0,0,0,0,0,0,0,0,0,0,0,0,0,0,0,0,0,0,0,0,0,0,0,0,0,0,0,0,0,0,0,0,0,0],"sum_hessian":[6.091E3,5.968E3,1.23E2,5.193E3,7.75E2,2.9E1,9.4E1,4.114E3,1.079E3,4.4E1,7.31E2,2.7E1,2E0,7.1E1,2.3E1,3.485E3,6.29E2,7E0,1.072E3,4.1E1,3E0,4.36E2,2.95E2,2.1E1,6E0,2E1,5.1E1,2E1,3E0,3.444E3,4.1E1,5.73E2,5.6E1,4E0,3E0,9.72E2,1E2,2.6E1,1.5E1,4.35E2,1E0,5.8E1,2.37E2,1.2E1,9E0,1.8E1,2E0,4.1E1,1E1,6E0,1.4E1,3.424E3,2E1,2E0,3.9E1,2.47E2,3.26E2,1.8E1,3.8E1,3E0,1E0,9.71E2,1E0,1.5E1,8.5E1,1.9E1,7E0,5E0,1E1,2.53E2,1.82E2,3.3E1,2.5E1,2.12E2,2.5E1,2E0,1E1,1E0,8E0,2E0,1.6E1,2.5E1,1.6E1,3E0,7E0,4E0,2E0,2E0,1.2E1,3E0,3.421E3,6E0,1.4E1,1E0,1E0,2.7E1,1.2E1,2.36E2,1.1E1,1.2E1,3.14E2,6E0,1.2E1,4E0,3.4E1,9.68E2,3E0,1E0,1.4E1,3.2E1,5.3E1,3E0,1.6E1,3E0,4E0,4E0,1E0,8E0,2E0,1.38E2,1.15E2,1.2E2,6.2E1,1.2E1,2.1E1,1.2E1,1.3E1,2.09E2,3E0,2.2E1,3E0,1E0,1E0,1.1E1,5E0,1.3E1,1.2E1,1.4E1,2E0,2E0,1E0,3E0,1E0,1E1,2E0],"tree_param":{"num_deleted":"0","num_feature":"38","num_nodes":"145","size_leaf_vector":"1"}},{"base_weights":[4.739563E-3,-3.887464E-2,3.3873277E0,-1.27946E-1,4.046487E-1,1.3373733E0,4.7397456E0,-1.5284143E-1,-9.839415E-3,2.2001989E-1,7.289264E-1,1.3033125E-1,1.8801045E0,1.8474936E0,5.823133E0,-1.6332717E-1,-3.9077945E-2,-7.7343896E-2,1.561371E-1,5.684237E-1,1.2183041E-1,3.2318747E0,6.7766356E-1,4.9368188E-1,-6.763548E-2,-5.8411945E-2,2.1892605E0,4.947376E-1,2.8002183E0,4.376448E0,9.7969675E0,-1.718918E-1,-1.0103091E-1,-8.029591E-2,1.0292541E0,7.5601196E-1,-8.1283286E-2,5.090421E-1,5.7189483E-3,2.0262184E0,2.794601E-1,4.7108454E-1,8.870184E-2,3.735545E-2,1.1332546E-1,5.8912015E-1,1.1619414E0,1.8088613E-2,2.487992E-3,-6.4040245E-3,1.3156343E-1,2.6671211E-3,-4.1145585E-3,2.441376E0,3.0852616E-2,1.7454715E-1,2.5904274E-2,2.2959791E-2,8.944755E-2,-9.881761E-3,4.577857E0,7.715951E-2,3.5329893E-1,7.7938824E-3,-1.7210108E-1,-1.248633E-1,1.0464223E-1,-1.08550705E-1,1.0019191E-1,1.6342944E0,2.7717748E-1,3.7708269E-3,3.024971E-2,-9.391257E-2,1.3068523E-1,3.231993E-1,9.151563E-1,-5.290778E-2,2.2897975E-1,1.4467556E0,2.2161599E-1,5.8416955E-2,1.1899245E0,1.3268739E0,2.3756485E-1,6.3219585E-2,5.6679213E-1,4.015061E-1,7.656709E-1,9.098522E-1,2.1801484E0,1.0010969E-3,4.595139E-3,1.5902186E-3,2.587336E0,1.7127192E-3,-3.2435148E-4,6.8469746E-3,1.8803831E-3,5.4884562E0,2.663113E0,-5.3881346E-3,-4.7921715E-3,-5.063275E-3,-2.5963637E-3,-9.70975E-4,3.868154E-2,-4.1537923E-3,-9.959394E-4,7.829987E-3,-2.6129473E-3,5.996589E-2,1.4457457E-2,1.1041361E-2,1.0001564E-3,-3.102633E-3,4.238078E-3,6.2662505E-2,-1.538425E-3,5.239326E-2,7.867315E-3,4.6523087E-2,1.7988013E-2,5.5135536E-4,-4.0962193E-3,3.209017E-2,4.5113433E-3,9.513911E-3,7.642653E-2,1.5201332E-2,-1.3339638E-3,8.722849E-3,6.98928E-2,7.987138E-3,6.366406E-2,4.0376903E-3,3.8733102E-2,3.5831126E-4,6.2249065E-3,3.5294298E-2,9.962266E-3,2.3107126E-2,9.628604E-3,3.4361865E-2,1.7218232E-2,3.5235994E-2,9.065642E-3,1.895237E-2,8.2605004E-2,4.220916E-2,8.987875E-2,3.8059738E-2,1.7055596E-1,8.729652E-2,6.632594E-3],"categories":[],"categories_nodes":[],"categories_segments":[],"categories_sizes":[],"default_left":[0,0,0,0,0,0,0,0,0,0,0,0,0,0,0,0,0,0,0,0,0,0,0,0,0,0,0,0,0,0,0,0,0,0,0,0,0,0,0,0,0,0,0,0,0,0,0,0,0,0,0,0,0,0,0,0,0,0,0,0,0,0,0,0,0,0,0,0,0,0,0,0,0,0,0,0,0,0,0,0,0,0,0,0,0,0,0,0,0,0,0,0,0,0,0,0,0,0,0,0,0,0,0,0,0,0,0,0,0,0,0,0,0,0,0,0,0,0,0,0,0,0,0,0,0,0,0,0,0,0,0,0,0,0,0,0,0,0,0,0,0,0,0,0,0,0,0,0,0,0,0,0,0,0,0],"id":10,"left_children":[1,3,5,7,9,11,13,15,17,19,21,23,25,27,29,31,33,35,37,39,41,43,45,47,49,51,53,55,57,59,61,63,65,67,69,71,73,75,77,79,81,83,85,-1,-1,87,89,-1,-1,-1,91,-1,-1,93,95,97,-1,-1,-1,-1,99,-1,-1,-1,101,103,105,107,109,111,113,-1,-1,115,117,119,121,123,125,127,-1,129,131,133,135,137,139,141,143,145,147,-1,-1,-1,149,-1,-1,-1,-1,151,153,-1,-1,-1,-1,-1,-1,-1,-1,-1,-1,-1,-1,-1,-1,-1,-1,-1,-1,-1,-1,-1,-1,-1,-1,-1,-1,-1,-1,-1,-1,-1,-1,-1,-1,-1,-1,-1,-1,-1,-1,-1,-1,-1,-1,-1,-1,-1,-1,-1,-1,-1,-1,-1,-1],"loss_changes":[8.9238635E2,2.3597699E2,2.0713556E2,1.4623619E1,5.9650757E1,2.0718147E1,1.3337964E2,4.89402E0,9.726082E0,2.1756466E1,4.425743E1,8.246351E-1,1.3312569E1,1.665789E1,1.4683728E2,1.989296E0,1.5406645E1,2.0870078E0,1.3321002E1,5.840871E1,5.7317886E0,2.8844528E0,1.4580627E1,1.2952846E-1,2.6048115E-1,5.859201E-2,1.0263863E1,6.7574775E-1,6.706009E-1,2.6150726E1,8.413495E1,3.4331512E-1,2.2531347E0,1.7243571E0,5.4624863E0,3.5036922E-1,1.6586342E0,5.364727E0,2.3288767E0,6.0761765E1,2.3678211E1,8.278061E0,5.5317144E0,0E0,0E0,9.728973E0,1.1877045E1,0E0,0E0,0E0,3.3757016E-3,0E0,0E0,5.7891693E0,3.8968169E-3,1.5722781E-2,0E0,0E0,0E0,0E0,2.8972717E1,0E0,0E0,0E0,2.77771E-1,6.752734E-1,7.833056E0,6.512377E-1,1.4081466E0,1.9775696E0,1.4282978E-1,0E0,0E0,1.3138628E0,1.257766E1,4.139992E0,3.683302E0,8.4313416E-1,2.2840981E0,2.6548794E1,0E0,4.4502034E0,2.2895248E1,7.026352E0,3.623322E0,3.2156281E0,2.900692E0,4.1784306E0,1.0627312E1,6.88274E0,7.138283E0,0E0,0E0,0E0,3.5019379E0,0E0,0E0,0E0,0E0,6.070862E0,5.382881E0,0E0,0E0,0E0,0E0,0E0,0E0,0E0,0E0,0E0,0E0,0E0,0E0,0E0,0E0,0E0,0E0,0E0,0E0,0E0,0E0,0E0,0E0,0E0,0E0,0E0,0E0,0E0,0E0,0E0,0E0,0E0,0E0,0E0,0E0,0E0,0E0,0E0,0E0,0E0,0E0,0E0,0E0,0E0,0E0,0E0,0E0,0E0,0E0,0E0,0E0,0E0,0E0,0E0,0E0],"parents":[2147483647,0,0,1,1,2,2,3,3,4,4,5,5,6,6,7,7,8,8,9,9,10,10,11,11,12,12,13,13,14,14,15,15,16,16,17,17,18,18,19,19,20,20,21,21,22,22,23,23,24,24,25,25,26,26,27,27,28,28,29,29,30,30,31,31,32,32,33,33,34,34,35,35,36,36,37,37,38,38,39,39,40,40,41,41,42,42,45,45,46,46,50,50,53,53,54,54,55,55,60,60,64,64,65,65,66,66,67,67,68,68,69,69,70,70,73,73,74,74,75,75,76,76,77,77,78,78,79,79,81,81,82,82,83,83,84,84,85,85,86,86,87,87,88,88,89,89,90,90,94,94,99,99,100,100],"right_children":[2,4,6,8,10,12,14,16,18,20,22,24,26,28,30,32,34,36,38,40,42,44,46,48,50,52,54,56,58,60,62,64,66,68,70,72,74,76,78,80,82,84,86,-1,-1,88,90,-1,-1,-1,92,-1,-1,94,96,98,-1,-1,-1,-1,100,-1,-1,-1,102,104,106,108,110,112,114,-1,-1,116,118,120,122,124,126,128,-1,130,132,134,136,138,140,142,144,146,148,-1,-1,-1,150,-1,-1,-1,-1,152,154,-1,-1,-1,-1,-1,-1,-1,-1,-1,-1,-1,-1,-1,-1,-1,-1,-1,-1,-1,-1,-1,-1,-1,-1,-1,-1,-1,-1,-1,-1,-1,-1,-1,-1,-1,-1,-1,-1,-1,-1,-1,-1,-1,-1,-1,-1,-1,-1,-1,-1,-1,-1,-1,-1],"split_conditions":[3.3E0,3E-1,3.0804195E0,1E-1,8.7E1,1.76E2,-2.105577E0,4.199183E0,8.6E1,1.006E5,-1.3757225E1,1.0026E5,8.65E0,8.6E1,5.6025E1,1E-1,9E1,-1.3264601E1,8.5E1,2.99625E2,2.2921513E1,8.9E1,1.9E0,1.538E1,1.052E1,2.9945E2,8.688118E0,8.6E1,8.7E1,-1.3264601E1,3.54E2,-1.3264601E1,8.8E1,8.6E1,3.7247722E0,2.013E1,1.1E0,8.9E1,5E-1,1.0059E5,3.0683868E2,-4.4478855E0,2.1E0,3.735545E-2,1.1332546E-1,-2.5983202E0,2.4840895E2,1.8088613E-2,2.487992E-3,-6.4040245E-3,2.9475E2,2.6671211E-3,-4.1145585E-3,1.74E2,2.9945E2,1.538E1,2.5904274E-2,2.2959791E-2,8.944755E-2,-9.881761E-3,5.1825E1,7.715951E-2,3.5329893E-1,7.7938824E-3,1.66E2,8.1E1,3.0035E2,6.6E2,5.2475E1,3.0005E2,1.0072E5,3.7708269E-3,3.024971E-2,7.9957705E0,4.6075E1,8.64104E0,1.0051E5,8.7E1,7.74739E-2,1.2E0,2.2161599E-1,3.0035E2,1.3E0,1.65E2,5.1375E1,7E-1,1.5675515E-1,1.0077E5,2.9945E2,1.8E1,2E-1,1.0010969E-3,4.595139E-3,1.5902186E-3,-6.254802E0,1.7127192E-3,-3.2435148E-4,6.8469746E-3,1.8803831E-3,1.72E2,5.55E2,-5.3881346E-3,-4.7921715E-3,-5.063275E-3,-2.5963637E-3,-9.70975E-4,3.868154E-2,-4.1537923E-3,-9.959394E-4,7.829987E-3,-2.6129473E-3,5.996589E-2,1.4457457E-2,1.1041361E-2,1.0001564E-3,-3.102633E-3,4.238078E-3,6.2662505E-2,-1.538425E-3,5.239326E-2,7.867315E-3,4.6523087E-2,1.7988013E-2,5.5135536E-4,-4.0962193E-3,3.209017E-2,4.5113433E-3,9.513911E-3,7.642653E-2,1.5201332E-2,-1.3339638E-3,8.722849E-3,6.98928E-2,7.987138E-3,6.366406E-2,4.0376903E-3,3.8733102E-2,3.5831126E-4,6.2249065E-3,3.5294298E-2,9.962266E-3,2.3107126E-2,9.628604E-3,3.4361865E-2,1.7218232E-2,3.5235994E-2,9.065642E-3,1.895237E-2,8.2605004E-2,4.220916E-2,8.987875E-2,3.8059738E-2,1.7055596E-1,8.729652E-2,6.632594E-3],"split_indices":[28,28,9,28,3,6,20,4,3,8,5,8,0,19,7,29,3,4,18,35,10,3,28,0,0,2,5,3,3,4,6,4,3,3,11,0,29,3,29,8,13,20,28,0,0,21,10,0,0,0,2,0,0,24,2,0,0,0,0,0,26,0,0,0,24,3,16,24,7,2,8,0,0,4,26,10,8,19,33,28,0,2,28,6,7,29,32,8,2,36,29,0,0,0,4,0,0,0,0,6,6,0,0,0,0,0,0,0,0,0,0,0,0,0,0,0,0,0,0,0,0,0,0,0,0,0,0,0,0,0,0,0,0,0,0,0,0,0,0,0,0,0,0,0,0,0,0,0,0,0,0,0,0,0,0],"split_type":[0,0,0,0,0,0,0,0,0,0,0,0,0,0,0,0,0,0,0,0,0,0,0,0,0,0,0,0,0,0,0,0,0,0,0,0,0,0,0,0,0,0,0,0,0,0,0,0,0,0,0,0,0,0,0,0,0,0,0,0,0,0,0,0,0,0,0,0,0,0,0,0,0,0,0,0,0,0,0,0,0,0,0,0,0,0,0,0,0,0,0,0,0,0,0,0,0,0,0,0,0,0,0,0,0,0,0,0,0,0,0,0,0,0,0,0,0,0,0,0,0,0,0,0,0,0,0,0,0,0,0,0,0,0,0,0,0,0,0,0,0,0,0,0,0,0,0,0,0,0,0,0,0,0,0],"sum_hessian":[6.047E3,5.971E3,7.6E1,4.973E3,9.98E2,3.1E1,4.5E1,4.107E3,8.66E2,6.37E2,3.61E2,1E1,2.1E1,1.3E1,3.2E1,3.76E3,3.47E2,6.16E2,2.5E2,1.39E2,4.98E2,6E0,3.55E2,3E0,7E0,3E0,1.8E1,6E0,7E0,2.5E1,7E0,3.304E3,4.56E2,3.35E2,1.2E1,2E0,6.14E2,7.4E1,1.76E2,2.2E1,1.17E2,4.2E1,4.56E2,2E0,4E0,3.02E2,5.3E1,2E0,1E0,4E0,3E0,1E0,2E0,1.6E1,2E0,4E0,2E0,1E0,6E0,1E0,2.4E1,2E0,5E0,1E0,3.303E3,4.09E2,4.7E1,2.9E2,4.5E1,6E0,6E0,1E0,1E0,5.8E2,3.4E1,5.2E1,2.2E1,1.4E2,3.6E1,2.1E1,1E0,9.5E1,2.2E1,8E0,3.4E1,4.34E2,2.2E1,1.48E2,1.54E2,4.4E1,9E0,1E0,2E0,1E0,1.5E1,1E0,1E0,2E0,2E0,1.5E1,9E0,2.047E3,1.256E3,1.89E2,2.2E2,4.3E1,4E0,2.07E2,8.3E1,2.4E1,2.1E1,4E0,2E0,4E0,2E0,5.58E2,2.2E1,2E0,3.2E1,1E0,5.1E1,6E0,1.6E1,7.6E1,6.4E1,2E0,3.4E1,1.1E1,1E1,1.7E1,7.8E1,1.3E1,9E0,4E0,4E0,3.2E1,2E0,3.21E2,1.13E2,5E0,1.7E1,2.5E1,1.23E2,5E1,1.04E2,3E1,1.4E1,3E0,6E0,5E0,1E1,1E0,1.4E1,8E0,1E0],"tree_param":{"num_deleted":"0","num_feature":"38","num_nodes":"155","size_leaf_vector":"1"}},{"base_weights":[1.0232855E-2,-3.4562297E-2,3.4478424E0,-1.18970014E-1,3.8240257E-1,1.3956844E0,4.6339016E0,-1.4381741E-1,-6.1962823E-3,1.3798956E0,3.1893367E-1,4.7307175E-2,1.883853E0,3.4113212E0,7.177663E0,-1.5236947E-1,6.204044E-3,-9.014426E-2,1.2974913E-1,1.105923E0,4.1724076E0,1.7991357E-1,5.6627774E-1,-6.535284E-2,1.4228809E-2,-5.7021443E-2,2.1933079E0,4.0687356E0,6.839556E-1,5.1857553E0,3.0372983E-1,-1.6152097E-1,-9.723417E-2,-1.8625021E-2,8.202897E-2,2.4274442E-2,-9.3217E-2,4.0656495E-1,6.744719E-2,5.173645E-1,1.9278827E0,1.9102024E-2,1.4691427E-1,1.428383E-1,1.1626564E0,4.9703735E-1,1.0897021E0,-1.5801066E-1,4.2524124E-3,2.627114E-3,-4.0322673E-3,2.4459813E0,3.0389816E-2,3.0980406E0,6.538243E0,-2.1768972E-2,1.1117442E0,1.6400985E-1,3.560035E-2,-1.6198105E-1,2.5911283E-1,-1.5925372E-3,-1.3695815E-1,-1.0924278E-1,3.7966335E-1,-1.0253965E-1,9.3235634E-2,2.9935938E-1,1.3751247E0,5.5360068E-2,3.519291E-2,2.205534E-1,1.6306996E0,9.9854805E-2,1.1070845E0,1.5071979E0,1.1421584E-1,5.4708105E-1,3.7959754E0,4.6694893E-1,5.1079225E-2,1.421554E0,6.655658E-1,9.860802E-4,-6.082816E-3,2.7097986E0,3.1156707E-1,1.6870281E-3,-3.194864E-4,1.328592E0,3.6785467E0,2.5811553E-1,8.5142225E-2,-7.782448E-3,1.43918E-1,3.725791E-2,8.864993E-3,-5.142408E-3,-4.399975E-3,-3.3119682E-3,1.25724925E-2,-2.1980382E-3,7.878839E-3,2.3093153E-4,-4.445048E-3,-4.864531E-3,-1.5246565E-3,1.9652192E-2,1.7318854E-3,-3.7170015E-3,-1.6610288E-3,1.2330288E-2,-2.6545567E-3,4.5165733E-2,6.881931E-3,4.7087602E-2,6.042214E-3,5.3552254E-3,-1.4855234E-3,-2.92412E-3,1.1289792E-2,1.2643051E-2,6.0903553E-2,5.5263482E-2,9.921406E-3,2.1829176E-1,9.637063E-3,7.6317304E-4,8.481576E-3,3.2492918E-3,3.4105584E-2,1.4454047E-1,1.0947798E-2,1.1796575E-2,2.2919605E-2,5.2735027E-2,2.333595E-2,6.9751334E-3,2.6964286E-2,8.5137695E-2,1.3740822E-2,1.5663654E-3,1.2454152E-2,-2.1336197E-3,5.708103E-2,1.24177374E-1,3.7849143E-2,5.2283173E-3,1.2479925E-3],"categories":[],"categories_nodes":[],"categories_segments":[],"categories_sizes":[],"default_left":[0,0,0,0,0,0,0,0,0,0,0,0,0,0,0,0,0,0,0,0,0,0,0,0,0,0,0,0,0,0,0,0,0,0,0,0,0,0,0,0,0,0,0,0,0,0,0,0,0,0,0,0,0,0,0,0,0,0,0,0,0,0,0,0,0,0,0,0,0,0,0,0,0,0,0,0,0,0,0,0,0,0,0,0,0,0,0,0,0,0,0,0,0,0,0,0,0,0,0,0,0,0,0,0,0,0,0,0,0,0,0,0,0,0,0,0,0,0,0,0,0,0,0,0,0,0,0,0,0,0,0,0,0,0,0,0,0,0,0,0,0,0,0,0,0,0,0,0,0],"id":11,"left_children":[1,3,5,7,9,11,13,15,17,19,21,23,25,27,29,31,33,35,37,39,41,43,45,47,-1,49,51,53,55,57,-1,59,61,63,-1,-1,65,67,69,71,73,-1,-1,75,77,79,81,83,-1,-1,-1,85,87,89,91,93,95,-1,-1,97,99,101,103,105,107,109,111,113,115,117,-1,119,121,-1,123,125,127,129,131,133,-1,135,137,-1,-1,139,141,-1,-1,143,145,-1,-1,-1,147,-1,-1,-1,-1,-1,-1,-1,-1,-1,-1,-1,-1,-1,-1,-1,-1,-1,-1,-1,-1,-1,-1,-1,-1,-1,-1,-1,-1,-1,-1,-1,-1,-1,-1,-1,-1,-1,-1,-1,-1,-1,-1,-1,-1,-1,-1,-1,-1,-1,-1,-1,-1,-1,-1],"loss_changes":[9.337499E2,2.1072308E2,1.83383E2,1.3950935E1,6.337616E1,1.9657944E1,1.2790234E2,5.2355423E0,1.0282805E1,4.1289925E1,3.2530243E1,4.6393517E-1,1.3338554E1,5.9972504E1,3.554004E1,1.9319382E0,1.5020593E1,1.6145773E0,5.9052577E0,2.6093773E1,9.693947E0,2.2023117E1,1.1816925E1,1.7591298E-1,0E0,5.6528658E-2,1.0309395E1,4.6864105E1,2.4394085E0,5.8841248E0,0E0,6.823425E-1,2.0969768E0,7.981716E0,0E0,0E0,9.760175E-1,6.1299486E0,3.7037425E0,1.0875651E1,2.2756317E1,0E0,0E0,2.2790024E1,3.3585434E1,1.0196182E1,4.543129E0,5.7915747E-2,0E0,0E0,0E0,8.72834E0,3.7807894E-3,1.7710571E1,2.9083344E1,1.9483384E-1,1.6432858E-1,0E0,0E0,4.5244598E-1,2.827099E-1,3.1061544E0,6.335683E-1,5.481298E-1,3.5973945E0,5.2717495E-1,1.5955147E0,4.5489855E0,1.0533361E0,3.625151E0,0E0,1.4237888E0,2.5254574E0,0E0,8.521303E0,7.9767136E1,8.624254E0,4.793592E0,1.2268467E1,6.204048E0,0E0,3.1783028E0,1.7101908E0,0E0,0E0,3.0277557E0,5.8909923E-2,0E0,0E0,5.760437E0,1.2593262E1,0E0,0E0,0E0,2.0690262E-3,0E0,0E0,0E0,0E0,0E0,0E0,0E0,0E0,0E0,0E0,0E0,0E0,0E0,0E0,0E0,0E0,0E0,0E0,0E0,0E0,0E0,0E0,0E0,0E0,0E0,0E0,0E0,0E0,0E0,0E0,0E0,0E0,0E0,0E0,0E0,0E0,0E0,0E0,0E0,0E0,0E0,0E0,0E0,0E0,0E0,0E0,0E0,0E0,0E0,0E0,0E0,0E0,0E0,0E0],"parents":[2147483647,0,0,1,1,2,2,3,3,4,4,5,5,6,6,7,7,8,8,9,9,10,10,11,11,12,12,13,13,14,14,15,15,16,16,17,17,18,18,19,19,20,20,21,21,22,22,23,23,25,25,26,26,27,27,28,28,29,29,31,31,32,32,33,33,36,36,37,37,38,38,39,39,40,40,43,43,44,44,45,45,46,46,47,47,51,51,52,52,53,53,54,54,55,55,56,56,59,59,60,60,61,61,62,62,63,63,64,64,65,65,66,66,67,67,68,68,69,69,71,71,72,72,74,74,75,75,76,76,77,77,78,78,79,79,81,81,82,82,85,85,86,86,89,89,90,90,94,94],"right_children":[2,4,6,8,10,12,14,16,18,20,22,24,26,28,30,32,34,36,38,40,42,44,46,48,-1,50,52,54,56,58,-1,60,62,64,-1,-1,66,68,70,72,74,-1,-1,76,78,80,82,84,-1,-1,-1,86,88,90,92,94,96,-1,-1,98,100,102,104,106,108,110,112,114,116,118,-1,120,122,-1,124,126,128,130,132,134,-1,136,138,-1,-1,140,142,-1,-1,144,146,-1,-1,-1,148,-1,-1,-1,-1,-1,-1,-1,-1,-1,-1,-1,-1,-1,-1,-1,-1,-1,-1,-1,-1,-1,-1,-1,-1,-1,-1,-1,-1,-1,-1,-1,-1,-1,-1,-1,-1,-1,-1,-1,-1,-1,-1,-1,-1,-1,-1,-1,-1,-1,-1,-1,-1,-1,-1],"split_conditions":[3.3E0,3E-1,3.0804195E0,1E-1,-1.0865161E1,1.76E2,8.9E1,5.643894E0,8.5E1,-1.0102875E1,8.7E1,2.6655602E0,8.65E0,1.5816723E0,9.14481E0,5.0825E1,5.3825E1,5.9E1,8.3E1,5.0425E1,-1.1419318E1,1.0840579E1,8.338949E0,2.9925E2,1.4228809E-2,2.9945E2,1.2110613E1,3.0055E2,1.654E1,9.1E1,3.0372983E-1,9.44E2,3.0085E2,8.6E1,8.202897E-2,2.4274442E-2,7.9957705E0,9E1,4.977216E0,8.8E1,1.7E2,1.9102024E-2,1.4691427E-1,-1.2045762E1,3.0165E2,7.56E2,4.5773478E0,2.9475E2,4.2524124E-3,2.627114E-3,-4.0322673E-3,9E1,2.9945E2,8.5E1,8.6E1,8.65E0,3.0205E2,1.6400985E-1,3.560035E-2,8.3E1,8.65E0,1.5058395E0,-5.0662336E0,8.2E1,3.0025E2,2E-1,3.0055E2,-1.2411169E1,2.8095162E0,1.052E1,3.519291E-2,5E-1,1.143E1,9.9854805E-2,1.0012E5,2.6356485E0,9E-1,3.36E2,3.0155E2,9.1E1,5.1079225E-2,9.14481E0,6E-1,9.860802E-4,-6.082816E-3,1.0141E5,3.0025E2,1.6870281E-3,-3.194864E-4,4.8125E1,8.8E1,2.5811553E-1,8.5142225E-2,-7.782448E-3,1.538E1,3.725791E-2,8.864993E-3,-5.142408E-3,-4.399975E-3,-3.3119682E-3,1.25724925E-2,-2.1980382E-3,7.878839E-3,2.3093153E-4,-4.445048E-3,-4.864531E-3,-1.5246565E-3,1.9652192E-2,1.7318854E-3,-3.7170015E-3,-1.6610288E-3,1.2330288E-2,-2.6545567E-3,4.5165733E-2,6.881931E-3,4.7087602E-2,6.042214E-3,5.3552254E-3,-1.4855234E-3,-2.92412E-3,1.1289792E-2,1.2643051E-2,6.0903553E-2,5.5263482E-2,9.921406E-3,2.1829176E-1,9.637063E-3,7.6317304E-4,8.481576E-3,3.2492918E-3,3.4105584E-2,1.4454047E-1,1.0947798E-2,1.1796575E-2,2.2919605E-2,5.2735027E-2,2.333595E-2,6.9751334E-3,2.6964286E-2,8.5137695E-2,1.3740822E-2,1.5663654E-3,1.2454152E-2,-2.1336197E-3,5.708103E-2,1.24177374E-1,3.7849143E-2,5.2283173E-3,1.2479925E-3],"split_indices":[28,28,9,28,22,6,3,4,3,23,3,9,0,22,4,26,7,18,18,7,4,4,21,16,0,2,5,2,0,18,0,24,2,3,0,0,4,3,9,3,25,0,0,4,17,24,23,2,0,0,0,19,2,18,3,0,2,0,0,3,0,4,21,3,2,28,16,5,5,0,0,28,0,0,8,9,28,6,2,3,0,4,28,0,0,8,2,0,0,27,3,0,0,0,0,0,0,0,0,0,0,0,0,0,0,0,0,0,0,0,0,0,0,0,0,0,0,0,0,0,0,0,0,0,0,0,0,0,0,0,0,0,0,0,0,0,0,0,0,0,0,0,0,0,0,0,0,0,0],"split_type":[0,0,0,0,0,0,0,0,0,0,0,0,0,0,0,0,0,0,0,0,0,0,0,0,0,0,0,0,0,0,0,0,0,0,0,0,0,0,0,0,0,0,0,0,0,0,0,0,0,0,0,0,0,0,0,0,0,0,0,0,0,0,0,0,0,0,0,0,0,0,0,0,0,0,0,0,0,0,0,0,0,0,0,0,0,0,0,0,0,0,0,0,0,0,0,0,0,0,0,0,0,0,0,0,0,0,0,0,0,0,0,0,0,0,0,0,0,0,0,0,0,0,0,0,0,0,0,0,0,0,0,0,0,0,0,0,0,0,0,0,0,0,0,0,0,0,0,0,0],"sum_hessian":[6.062E3,5.985E3,7.7E1,4.978E3,1.007E3,2.9E1,4.8E1,4.079E3,8.99E2,5.9E1,9.48E2,8E0,2.1E1,3.4E1,1.4E1,3.859E3,2.2E2,5.56E2,3.43E2,5.5E1,4E0,6.08E2,3.4E2,7E0,1E0,3E0,1.8E1,2.7E1,7E0,1E1,4E0,3.308E3,5.51E2,2.19E2,1E0,1E0,5.55E2,6.2E1,2.81E2,3.3E1,2.2E1,1E0,3E0,5.87E2,2.1E1,3.02E2,3.8E1,5E0,2E0,1E0,2E0,1.6E1,2E0,2.1E1,6E0,3E0,4E0,9E0,1E0,3.305E3,3E0,1.62E2,3.89E2,1.79E2,4E1,5.29E2,2.6E1,5.7E1,5E0,2.79E2,2E0,2.7E1,6E0,7E0,1.5E1,1.1E1,5.76E2,1.8E1,3E0,2.96E2,6E0,2E1,1.8E1,1E0,4E0,1.4E1,2E0,1E0,1E0,6E0,1.5E1,3E0,3E0,1E0,2E0,3E0,1E0,2.039E3,1.266E3,1E0,2E0,1.28E2,3.4E1,2.8E1,3.61E2,9.3E1,8.6E1,2.1E1,1.9E1,3.63E2,1.66E2,9E0,1.7E1,2E0,5.5E1,4E0,1E0,1.28E2,1.51E2,9E0,1.8E1,2E0,4E0,7E0,8E0,1E0,1E1,3.78E2,1.98E2,1.1E1,7E0,2E0,1E0,2.39E2,5.7E1,1.2E1,8E0,7E0,1.1E1,1.3E1,1E0,1E0,1E0,2E0,4E0,1.2E1,3E0,1E0,1E0],"tree_param":{"num_deleted":"0","num_feature":"38","num_nodes":"149","size_leaf_vector":"1"}},{"base_weights":[1.0654941E-2,-3.617942E-2,2.6141999E0,-1.1787785E-1,3.772132E-1,1.7918139E0,4.0819683E0,-1.4247973E-1,-8.244593E-3,2.6121816E-1,8.2068086E-1,1.3058667E0,3.5189588E0,2.634808E0,6.1252933E0,-1.4386599E-1,8.262363E-1,-9.643883E-2,8.368343E-2,1.9616911E-1,6.640356E-1,1.288648E-1,7.3015976E-1,8.2615864E-1,2.3859937E0,5.076949E-1,1.182953E-1,4.0010734E0,1.1709626E0,7.8163924E0,3.6685328E0,-1.6273886E-1,-9.811668E-2,-8.583025E-2,8.079854E-2,2.3910325E-2,-1.0004323E-1,5.2728858E-2,7.231256E-2,1.2627414E-1,4.3767154E-1,2.1501738E-1,5.374573E-1,5.9134036E-1,1.3499893E0,3.9926794E-1,1.3494486E0,3.176788E0,8.024609E-1,-3.664284E-3,2.6510555E-2,2.5854034E0,1.8558188E-1,6.3356423E-1,8.253307E-2,6.310247E-2,2.499613E-1,5.547558E-2,1.317091E-1,-1.634663E-1,2.912649E-2,9.417006E-3,-1.3282304E-1,-3.8683608E-3,-1.41050415E-2,-1.453299E-1,-7.10772E-2,1.1581486E-2,2.105353E-1,2.0352156E-1,-4.3407124E-2,1.1594068E0,3.6752704E-1,3.0272665E0,4.1258708E-1,2.0197509E-1,6.901013E-1,5.9950376E-1,1.5779473E0,8.0013555E-1,1.0540497E-1,1.5384841E0,-3.2567007E-3,1.14379175E-1,1.1108887E0,3.8870465E-2,3.258732E-3,8.815428E-2,-3.5876515E-3,-2.1211764E-1,1.3736521E0,-4.94629E-3,-1.2014703E-3,-2.482618E-3,1.480813E-2,-4.932245E-3,-3.25102E-3,-6.758726E-4,4.1145755E-5,2.6482074E-3,-4.6553537E-3,-3.1649265E-3,-3.4126588E-5,1.4752604E-2,-4.78263E-4,4.3575782E-3,2.0854719E-2,2.9362433E-3,1.386536E-2,5.5921983E-2,-1.9879483E-3,5.6678115E-4,4.9926084E-2,8.769705E-3,3.4360133E-2,1.3695715E-1,1.4406168E-2,2.6633797E-2,6.238162E-3,1.0473301E-2,-4.523517E-3,1.7990662E-2,2.9716283E-2,4.40782E-2,5.9520635E-3,5.664848E-2,2.5846457E-2,1.0258146E-2,4.2058412E-2,-4.9849176E-3,1.0913948E-2,5.8850385E-2,2.142407E-2,4.0853277E-2,5.3734123E-3,-1.0645575E-2,1.4670407E-3,4.8274875E-2,1.805262E-2],"categories":[],"categories_nodes":[],"categories_segments":[],"categories_sizes":[],"default_left":[0,0,0,0,0,0,0,0,0,0,0,0,0,0,0,0,0,0,0,0,0,0,0,0,0,0,0,0,0,0,0,0,0,0,0,0,0,0,0,0,0,0,0,0,0,0,0,0,0,0,0,0,0,0,0,0,0,0,0,0,0,0,0,0,0,0,0,0,0,0,0,0,0,0,0,0,0,0,0,0,0,0,0,0,0,0,0,0,0,0,0,0,0,0,0,0,0,0,0,0,0,0,0,0,0,0,0,0,0,0,0,0,0,0,0,0,0,0,0,0,0,0,0,0,0,0,0,0,0,0,0,0,0,0,0,0,0,0,0],"id":12,"left_children":[1,3,5,7,9,11,13,15,17,19,21,23,25,27,29,31,33,35,37,39,41,-1,43,45,47,49,-1,51,53,55,57,59,61,63,-1,-1,65,-1,67,69,71,-1,73,75,77,79,81,83,85,-1,-1,87,-1,89,-1,-1,-1,-1,-1,91,-1,93,95,-1,97,99,101,103,105,107,109,111,113,115,117,119,121,123,125,127,129,131,-1,-1,133,-1,-1,-1,-1,135,137,-1,-1,-1,-1,-1,-1,-1,-1,-1,-1,-1,-1,-1,-1,-1,-1,-1,-1,-1,-1,-1,-1,-1,-1,-1,-1,-1,-1,-1,-1,-1,-1,-1,-1,-1,-1,-1,-1,-1,-1,-1,-1,-1,-1,-1,-1,-1,-1],"loss_changes":[7.452416E2,2.0282072E2,1.2304956E2,1.3522514E1,5.0762726E1,5.4995087E1,9.622778E1,5.6180267E0,7.4669914E0,2.0491417E1,6.1345093E1,2.7563095E1,1.7159546E1,4.3314926E1,3.3644714E1,3.515419E0,1.0448399E1,1.5932975E0,8.457329E0,1.140612E1,8.5872925E1,0E0,1.649662E1,8.620102E0,1.8738983E1,8.1837434E-1,0E0,2.1125214E1,9.296141E0,6.041504E0,2.3867188E0,2.5452423E0,4.4685783E0,1.3643425E-2,0E0,0E0,6.0489225E-1,0E0,3.7666545E0,6.9295635E0,7.269003E0,0E0,3.2328514E1,6.243992E0,5.21286E0,2.7428653E0,5.1280785E0,1.0214218E1,2.2547617E0,0E0,0E0,8.946938E0,0E0,7.176044E0,0E0,0E0,0E0,0E0,0E0,4.9684906E-1,0E0,1.3116853E1,6.812382E-1,0E0,4.2202516E-4,4.3241763E-1,6.9319594E-1,4.1444654E0,4.2333536E0,9.8742075E0,7.361233E0,7.4530087E0,7.854368E0,1.7394287E1,9.929409E0,1.8692515E0,2.991581E0,3.197153E0,4.3759003E0,2.2781057E0,1.1130238E0,4.1808586E0,0E0,0E0,6.911688E-1,0E0,0E0,0E0,0E0,2.4089181E-1,1.2241936E-1,0E0,0E0,0E0,0E0,0E0,0E0,0E0,0E0,0E0,0E0,0E0,0E0,0E0,0E0,0E0,0E0,0E0,0E0,0E0,0E0,0E0,0E0,0E0,0E0,0E0,0E0,0E0,0E0,0E0,0E0,0E0,0E0,0E0,0E0,0E0,0E0,0E0,0E0,0E0,0E0,0E0,0E0,0E0,0E0,0E0,0E0,0E0,0E0],"parents":[2147483647,0,0,1,1,2,2,3,3,4,4,5,5,6,6,7,7,8,8,9,9,10,10,11,11,12,12,13,13,14,14,15,15,16,16,17,17,18,18,19,19,20,20,22,22,23,23,24,24,25,25,27,27,28,28,29,29,30,30,31,31,32,32,33,33,36,36,38,38,39,39,40,40,42,42,43,43,44,44,45,45,46,46,47,47,48,48,51,51,53,53,59,59,61,61,62,62,64,64,65,65,66,66,67,67,68,68,69,69,70,70,71,71,72,72,73,73,74,74,75,75,76,76,77,77,78,78,79,79,80,80,81,81,84,84,89,89,90,90],"right_children":[2,4,6,8,10,12,14,16,18,20,22,24,26,28,30,32,34,36,38,40,42,-1,44,46,48,50,-1,52,54,56,58,60,62,64,-1,-1,66,-1,68,70,72,-1,74,76,78,80,82,84,86,-1,-1,88,-1,90,-1,-1,-1,-1,-1,92,-1,94,96,-1,98,100,102,104,106,108,110,112,114,116,118,120,122,124,126,128,130,132,-1,-1,134,-1,-1,-1,-1,136,138,-1,-1,-1,-1,-1,-1,-1,-1,-1,-1,-1,-1,-1,-1,-1,-1,-1,-1,-1,-1,-1,-1,-1,-1,-1,-1,-1,-1,-1,-1,-1,-1,-1,-1,-1,-1,-1,-1,-1,-1,-1,-1,-1,-1,-1,-1,-1,-1],"split_conditions":[2.8E0,3E-1,7.596966E0,1E-1,8.9E1,6E0,8.9E1,5.7525E1,8.4E1,2.6047828E0,-1.3238473E1,2.5295084E2,2E-1,-1.0381248E1,1.1161E2,4.9125E1,8.6E1,5.9E1,-1.3757225E1,8.7E1,5.0595345E0,1.288648E-1,1.7E0,8.8E1,4E0,1.052E1,1.182953E-1,4.7114202E-1,2.4840895E2,1.866469E1,2.9905E2,5.4425E1,3.0025E2,4.3933028E-1,8.079854E-2,2.3910325E-2,8E1,5.2728858E-2,3E-1,3.0065E2,8.35E1,2.1501738E-1,1.8746445E0,4.9825E1,1.143E1,-3.4119842E0,4.5E2,1.654E1,2.9865E2,-3.664284E-3,2.6510555E-2,3.54E2,1.8558188E-1,3.0015E2,8.253307E-2,6.310247E-2,2.499613E-1,5.547558E-2,1.317091E-1,5E-1,2.912649E-2,3.0045E2,2.3263137E0,-3.8683608E-3,8.65E0,-1.1849116E1,2E-1,-1.0101696E1,7.5366297E0,1E0,7.1E1,2.0419428E0,8.338949E0,1.052E1,-1.1849116E1,-4.778387E0,2.1141472E0,4E-1,3.58E2,2.1E0,2.970623E-1,8.8E1,-3.2567007E-3,1.14379175E-1,2.013E1,3.8870465E-2,3.258732E-3,8.815428E-2,-3.5876515E-3,1.052E1,3.0095E2,-4.94629E-3,-1.2014703E-3,-2.482618E-3,1.480813E-2,-4.932245E-3,-3.25102E-3,-6.758726E-4,4.1145755E-5,2.6482074E-3,-4.6553537E-3,-3.1649265E-3,-3.4126588E-5,1.4752604E-2,-4.78263E-4,4.3575782E-3,2.0854719E-2,2.9362433E-3,1.386536E-2,5.5921983E-2,-1.9879483E-3,5.6678115E-4,4.9926084E-2,8.769705E-3,3.4360133E-2,1.3695715E-1,1.4406168E-2,2.6633797E-2,6.238162E-3,1.0473301E-2,-4.523517E-3,1.7990662E-2,2.9716283E-2,4.40782E-2,5.9520635E-3,5.664848E-2,2.5846457E-2,1.0258146E-2,4.2058412E-2,-4.9849176E-3,1.0913948E-2,5.8850385E-2,2.142407E-2,4.0853277E-2,5.3734123E-3,-1.0645575E-2,1.4670407E-3,4.8274875E-2,1.805262E-2],"split_indices":[28,28,11,28,3,28,3,27,3,9,5,10,29,5,1,7,3,18,5,3,11,0,28,3,28,0,0,33,10,13,16,26,2,9,0,0,3,0,29,2,34,0,31,7,0,21,24,0,2,0,0,6,0,2,0,0,0,0,0,29,0,16,11,0,0,5,28,21,21,28,18,11,21,0,23,5,30,29,25,29,32,34,0,0,0,0,0,0,0,0,2,0,0,0,0,0,0,0,0,0,0,0,0,0,0,0,0,0,0,0,0,0,0,0,0,0,0,0,0,0,0,0,0,0,0,0,0,0,0,0,0,0,0,0,0,0,0,0,0],"split_type":[0,0,0,0,0,0,0,0,0,0,0,0,0,0,0,0,0,0,0,0,0,0,0,0,0,0,0,0,0,0,0,0,0,0,0,0,0,0,0,0,0,0,0,0,0,0,0,0,0,0,0,0,0,0,0,0,0,0,0,0,0,0,0,0,0,0,0,0,0,0,0,0,0,0,0,0,0,0,0,0,0,0,0,0,0,0,0,0,0,0,0,0,0,0,0,0,0,0,0,0,0,0,0,0,0,0,0,0,0,0,0,0,0,0,0,0,0,0,0,0,0,0,0,0,0,0,0,0,0,0,0,0,0,0,0,0,0,0,0],"sum_hessian":[6.11E3,6.003E3,1.07E2,5.013E3,9.9E2,7E1,3.7E1,4.094E3,9.19E2,7.86E2,2.04E2,5.6E1,1.4E1,2.3E1,1.4E1,4.089E3,5E0,4.69E2,4.5E2,6.78E2,1.08E2,4E0,2E2,4E1,1.6E1,2E0,