{"learner":{"attributes":{"scikit_learn":"{\"_estimator_type\": \"regressor\"}"},"feature_names":["latitude","longitude","TMP","RH","UGRD","VGRD","CAPE","PWAT","PRES","is_storm","TMP_lag1","TMP_lag2","RH_lag1","RH_lag2","UGRD_lag1","UGRD_lag2","VGRD_lag1","VGRD_lag2","CAPE_lag1","CAPE_lag2","PWAT_lag1","PWAT_lag2","APCP_lag1","APCP_lag2","RH_rolling_mean_12h","TMP_rolling_mean_12h","hour","month"],"feature_types":["float","float","float","float","float","float","float","float","float","int","float","float","float","float","float","float","float","float","float","float","float","float","float","float","float","float","int","int"],"gradient_booster":{"model":{"cats":{"enc":[],"feature_segments":[],"sorted_idx":[]},"gbtree_model_param":{"num_parallel_tree":"1","num_trees":"150"},"iteration_indptr":[0,1,2,3,4,5,6,7,8,9,10,11,12,13,14,15,16,17,18,19,20,21,22,23,24,25,26,27,28,29,30,31,32,33,34,35,36,37,38,39,40,41,42,43,44,45,46,47,48,49,50,51,52,53,54,55,56,57,58,59,60,61,62,63,64,65,66,67,68,69,70,71,72,73,74,75,76,77,78,79,80,81,82,83,84,85,86,87,88,89,90,91,92,93,94,95,96,97,98,99,100,101,102,103,104,105,106,107,108,109,110,111,112,113,114,115,116,117,118,119,120,121,122,123,124,125,126,127,128,129,130,131,132,133,134,135,136,137,138,139,140,141,142,143,144,145,146,147,148,149,150],"tree_info":[0,0,0,0,0,0,0,0,0,0,0,0,0,0,0,0,0,0,0,0,0,0,0,0,0,0,0,0,0,0,0,0,0,0,0,0,0,0,0,0,0,0,0,0,0,0,0,0,0,0,0,0,0,0,0,0,0,0,0,0,0,0,0,0,0,0,0,0,0,0,0,0,0,0,0,0,0,0,0,0,0,0,0,0,0,0,0,0,0,0,0,0,0,0,0,0,0,0,0,0,0,0,0,0,0,0,0,0,0,0,0,0,0,0,0,0,0,0,0,0,0,0,0,0,0,0,0,0,0,0,0,0,0,0,0,0,0,0,0,0,0,0,0,0,0,0,0,0,0,0],"trees":[{"base_weights":[5.6735654E-3,-2.2691108E-1,7.06227E0,-2.4724855E-1,2.850673E-1,1.9417776E0,8.5729265E0,-3.603649E-1,6.6790307E-1,-2.024133E-1,4.1197042E0,9.725571E0,2.4083195E0,-3.701978E-1,3.909234E0,3.6615427E0,5.45339E-1,1.2207766E-2,-1.1153721E-2,-1.2922329E-3,1.4882623E-1,1.0115693E1,8.527702E-2,-1.0938349E-2,4.5791707E0,-3.7903956E-1,3.4785345E0,-7.292233E-3,1.8320777E-1,1.2693243E-1,1.2207766E-2,3.4101894E-1,1.8036678E0,4.2207766E-2,3.1158397E-1,1.7102832E-1,1.8207768E-2,-1.3294986E-2,-2.9786238E-3,-7.292233E-3,1.6382627E-1,-1.8424566E-3,1.7854849E-2,2.2880906E-2,8.617398E-2],"categories":[],"categories_nodes":[],"categories_segments":[],"categories_sizes":[],"default_left":[0,0,0,0,0,0,0,0,0,0,0,0,0,0,0,0,0,0,0,0,0,0,0,0,0,0,0,0,0,0,0,0,0,0,0,0,0,0,0,0,0,0,0,0,0],"id":0,"left_children":[1,3,5,7,-1,9,11,13,15,17,19,21,23,25,27,29,31,-1,-1,-1,-1,33,-1,-1,35,37,39,-1,-1,-1,-1,41,43,-1,-1,-1,-1,-1,-1,-1,-1,-1,-1,-1,-1],"loss_changes":[2.4175315E3,2.8450684E2,3.469126E2,1.4765121E2,0E0,5.687256E1,2.323794E2,5.4680954E1,5.5608513E1,8.737488E-1,2.122332E1,5.1802002E1,4.3806965E1,4.4399994E1,2.886092E1,9.40004E0,3.8464386E1,0E0,0E0,0E0,0E0,5.1332764E1,0E0,0E0,1.4363785E1,2.2631607E1,2.3459904E1,0E0,0E0,0E0,0E0,1.3536945E1,2.1173515E1,0E0,0E0,0E0,0E0,0E0,0E0,0E0,0E0,0E0,0E0,0E0,0E0],"parents":[2147483647,0,0,1,1,2,2,3,3,5,5,6,6,7,7,8,8,9,9,10,10,11,11,12,12,13,13,14,14,15,15,16,16,21,21,24,24,25,25,26,26,31,31,32,32],"right_children":[2,4,6,8,-1,10,12,14,16,18,20,22,24,26,28,30,32,-1,-1,-1,-1,34,-1,-1,36,38,40,-1,-1,-1,-1,42,44,-1,-1,-1,-1,-1,-1,-1,-1,-1,-1,-1,-1],"split_conditions":[4.9E0,2.016E3,4.512843E0,5E-1,2.850673E-1,8.62E1,4.792122E0,3.0465E2,-1.2905842E1,3.0025E2,-1.2055461E1,1E1,8.01E1,3.0495E2,1.654E1,8.83E1,1.0107247E1,1.2207766E-2,-1.1153721E-2,-1.2922329E-3,1.4882623E-1,-4.1827807E0,8.527702E-2,-1.0938349E-2,8.6E1,1E-1,3.0318845E2,-7.292233E-3,1.8320777E-1,1.2693243E-1,1.2207766E-2,8.24E1,1E0,4.2207766E-2,3.1158397E-1,1.7102832E-1,1.8207768E-2,-1.3294986E-2,-2.9786238E-3,-7.292233E-3,1.6382627E-1,-1.8424566E-3,1.7854849E-2,2.2880906E-2,8.617398E-2],"split_indices":[22,6,15,22,0,12,17,11,16,2,4,27,3,10,0,13,4,0,0,0,0,4,0,0,3,22,2,0,0,0,0,3,23,0,0,0,0,0,0,0,0,0,0,0,0],"split_type":[0,0,0,0,0,0,0,0,0,0,0,0,0,0,0,0,0,0,0,0,0,0,0,0,0,0,0,0,0,0,0,0,0,0,0,0,0,0,0,0,0,0,0,0,0],"sum_hessian":[1.471E3,1.425E3,4.6E1,1.423E3,2E0,1.1E1,3.5E1,1.267E3,1.56E2,6E0,5E0,2.9E1,6E0,1.265E3,2E0,5E0,1.51E2,1E0,5E0,1E0,4E0,2.7E1,2E0,3E0,3E0,1.263E3,2E0,1E0,1E0,4E0,1E0,1.31E2,2E1,1E0,2.6E1,2E0,1E0,1.027E3,2.36E2,1E0,1E0,5.1E1,8E1,1.1E1,9E0],"tree_param":{"num_deleted":"0","num_feature":"28","num_nodes":"45","size_leaf_vector":"1"}},{"base_weights":[3.3319574E-3,-2.3161122E-1,7.9689455E0,-2.4845006E-1,5.8082824E0,-1.3489643E-2,9.118747E0,-3.5853285E-1,6.337847E-1,2.3705982E-1,-7.092808E-3,4.4620115E-1,7.525162E0,-3.6733446E-1,1.6136889E-1,3.1998098E-1,1.7688341E0,8.888883E0,1.5797093E0,-4.328228E-1,-1.0676565E-1,5.917217E-1,-9.946453E-2,3.0070267E0,6.3304913E-1,-7.1281577E-3,2.783716E-1,8.566629E-2,-9.10521E-2,-1.3881866E-2,-1.0838358E-2,-8.32306E-3,4.5587663E-3,3.7169915E-2,1.9848458E-3,-6.395941E-3,3.7853107E-2,1.1909916E-2,1.0736408E-1,8.658358E-3,3.5468478E-2,-5.5985176E-3,2.9346505E-3],"categories":[],"categories_nodes":[],"categories_segments":[],"categories_sizes":[],"default_left":[0,0,0,0,0,0,0,0,0,0,0,0,0,0,0,0,0,0,0,0,0,0,0,0,0,0,0,0,0,0,0,0,0,0,0,0,0,0,0,0,0,0,0],"id":1,"left_children":[1,3,5,7,9,-1,11,13,15,-1,-1,-1,17,19,-1,21,23,25,27,29,31,33,35,37,39,-1,-1,-1,41,-1,-1,-1,-1,-1,-1,-1,-1,-1,-1,-1,-1,-1,-1],"loss_changes":[2.7435442E3,1.4627052E2,4.1064844E2,1.3823312E2,5.249176E1,0E0,2.273833E2,6.580702E1,5.5710876E1,0E0,0E0,0E0,2.373042E2,2.1505905E1,0E0,1.4306409E1,4.591131E1,9.122681E1,1.5181301E1,1.991684E0,1.1302052E1,2.5771875E1,8.009907E0,2.2456863E1,3.253131E0,0E0,0E0,0E0,9.045423E-2,0E0,0E0,0E0,0E0,0E0,0E0,0E0,0E0,0E0,0E0,0E0,0E0,0E0,0E0],"parents":[2147483647,0,0,1,1,2,2,3,3,4,4,6,6,7,7,8,8,12,12,13,13,15,15,16,16,17,17,18,18,19,19,20,20,21,21,22,22,23,23,24,24,28,28],"right_children":[2,4,6,8,10,-1,12,14,16,-1,-1,-1,18,20,-1,22,24,26,28,30,32,34,36,38,40,-1,-1,-1,42,-1,-1,-1,-1,-1,-1,-1,-1,-1,-1,-1,-1,-1,-1],"split_conditions":[5.1E0,1.773E3,7.2E1,5E-1,1.0894E2,-1.3489643E-2,9.921E4,3.0515103E2,8.62E1,2.3705982E-1,-7.092808E-3,4.4620115E-1,6.1268993E1,1E-1,1.6136889E-1,1.0071E5,1.005E5,7.4E1,6.279125E1,5.9778076E1,7.4585614E2,3.00625E2,6.3586655E1,-1.1297934E1,6E-1,-7.1281577E-3,2.783716E-1,8.566629E-2,-5.6318493E0,-1.3881866E-2,-1.0838358E-2,-8.32306E-3,4.5587663E-3,3.7169915E-2,1.9848458E-3,-6.395941E-3,3.7853107E-2,1.1909916E-2,1.0736408E-1,8.658358E-3,3.5468478E-2,-5.5985176E-3,2.9346505E-3],"split_indices":[22,19,3,22,1,0,8,10,3,0,0,0,20,22,0,8,8,12,20,7,6,25,20,14,23,0,0,0,5,0,0,0,0,0,0,0,0,0,0,0,0,0,0],"split_type":[0,0,0,0,0,0,0,0,0,0,0,0,0,0,0,0,0,0,0,0,0,0,0,0,0,0,0,0,0,0,0,0,0,0,0,0,0,0,0,0,0,0,0],"sum_hessian":[1.464E3,1.423E3,4.1E1,1.42E3,3E0,5E0,3.6E1,1.263E3,1.57E2,2E0,1E0,6E0,3E1,1.262E3,1E0,1.24E2,3.3E1,2.4E1,6E0,1.008E3,2.54E2,7.5E1,4.9E1,1.5E1,1.8E1,1E0,2.3E1,3E0,3E0,7.07E2,3.01E2,1.53E2,1.01E2,3.3E1,4.2E1,4.6E1,3E0,3E0,1.2E1,1.2E1,6E0,2E0,1E0],"tree_param":{"num_deleted":"0","num_feature":"28","num_nodes":"43","size_leaf_vector":"1"}},{"base_weights":[1.9142883E-2,-2.1409918E-1,6.971334E0,-2.4263878E-1,2.9442042E-1,1.952836E0,8.274905E0,-3.4711426E-1,6.6256756E-1,-4.071209E-2,3.0978224E0,-1.2853732E-2,9.055451E0,-3.556211E-1,3.318777E0,1.363554E0,5.9673157E-2,-2.505673E-1,1.19806295E-2,1.689174E-1,-2.0939118E-1,2.7648125E0,1.0044705E1,-4.1803113E-1,-8.51694E-2,-9.603383E-3,1.5894835E-1,8.647411E-1,2.8994737E0,3.776384E-3,1.1067935E0,-9.23011E-3,-1.1888717E-3,-1.0302734E-2,2.8906309E-3,9.237699E-2,1.789063E-2,1.0280484E1,5.1643617E-2,-1.3469454E-2,-1.0298013E-2,-4.864362E-3,1.7129818E-2,4.6819303E-2,1.2503333E-2,1.0344134E-1,1.1752483E-2,-2.7396744E-3,1.9216832E-2,4.1683476E-2,3.8823956E-3,3.142855E-1,7.4949324E-2],"categories":[],"categories_nodes":[],"categories_segments":[],"categories_sizes":[],"default_left":[0,0,0,0,0,0,0,0,0,0,0,0,0,0,0,0,0,0,0,0,0,0,0,0,0,0,0,0,0,0,0,0,0,0,0,0,0,0,0,0,0,0,0,0,0,0,0,0,0,0,0,0,0],"id":2,"left_children":[1,3,5,7,-1,9,11,13,15,17,19,-1,21,23,25,27,29,31,-1,-1,33,35,37,39,41,-1,-1,43,45,47,49,-1,-1,-1,-1,-1,-1,51,-1,-1,-1,-1,-1,-1,-1,-1,-1,-1,-1,-1,-1,-1,-1],"loss_changes":[2.347866E3,4.033451E2,2.91313E2,1.324415E2,0E0,2.5234558E1,2.5523486E2,4.0286392E1,6.119865E1,5.618163E-1,5.98136E1,0E0,1.8381152E2,2.1096771E1,2.3305607E1,4.882386E1,4.6197414E0,3.598818E-2,0E0,0E0,1.9701076E-1,2.2545357E0,3.9213623E1,2.1992035E0,1.20126705E1,0E0,0E0,1.5559971E1,2.0659866E1,4.660868E0,9.2523575E-1,0E0,0E0,0E0,0E0,0E0,0E0,1.6470215E1,0E0,0E0,0E0,0E0,0E0,0E0,0E0,0E0,0E0,0E0,0E0,0E0,0E0,0E0,0E0],"parents":[2147483647,0,0,1,1,2,2,3,3,5,5,6,6,7,7,8,8,9,9,10,10,12,12,13,13,14,14,15,15,16,16,17,17,20,20,21,21,22,22,23,23,24,24,27,27,28,28,29,29,30,30,37,37],"right_children":[2,4,6,8,-1,10,12,14,16,18,20,-1,22,24,26,28,30,32,-1,-1,34,36,38,40,42,-1,-1,44,46,48,50,-1,-1,-1,-1,-1,-1,52,-1,-1,-1,-1,-1,-1,-1,-1,-1,-1,-1,-1,-1,-1,-1],"split_conditions":[4.9E0,1.773E3,2.7E0,5E-1,2.9442042E-1,-9.538712E-1,7.625E1,3.0455E2,1.006E5,8.78E1,7.5821486E0,-1.2853732E-2,-8.5985595E-1,1E-1,1.654E1,8.62E1,9.605256E0,6.8E1,1.19806295E-2,1.689174E-1,1.0894E2,-4.1827807E0,1.1161E2,5.9778076E1,3.0206186E2,-9.603383E-3,1.5894835E-1,1.0894E2,4E0,8.97E1,1.052E1,-9.23011E-3,-1.1888717E-3,-1.0302734E-2,2.8906309E-3,9.237699E-2,1.789063E-2,6.7130227E0,5.1643617E-2,-1.3469454E-2,-1.0298013E-2,-4.864362E-3,1.7129818E-2,4.6819303E-2,1.2503333E-2,1.0344134E-1,1.1752483E-2,-2.7396744E-3,1.9216832E-2,4.1683476E-2,3.8823956E-3,3.142855E-1,7.4949324E-2],"split_indices":[22,19,23,22,0,15,24,10,8,3,4,0,4,22,0,3,14,3,0,0,1,4,1,7,10,0,0,1,23,3,0,0,0,0,0,0,0,16,0,0,0,0,0,0,0,0,0,0,0,0,0,0,0],"split_type":[0,0,0,0,0,0,0,0,0,0,0,0,0,0,0,0,0,0,0,0,0,0,0,0,0,0,0,0,0,0,0,0,0,0,0,0,0,0,0,0,0,0,0,0,0,0,0,0,0,0,0,0,0],"sum_hessian":[1.446E3,1.4E3,4.6E1,1.397E3,3E0,1E1,3.6E1,1.253E3,1.44E2,4E0,6E0,3E0,3.3E1,1.251E3,2E0,6.6E1,7.8E1,3E0,1E0,3E0,3E0,5E0,2.8E1,1.016E3,2.35E2,1E0,1E0,5.1E1,1.5E1,7.5E1,3E0,2E0,1E0,2E0,1E0,4E0,1E0,2.7E1,1E0,7.15E2,3.01E2,2.11E2,2.4E1,1.9E1,3.2E1,1.2E1,3E0,6.6E1,9E0,2E0,1E0,2.6E1,1E0],"tree_param":{"num_deleted":"0","num_feature":"28","num_nodes":"53","size_leaf_vector":"1"}},{"base_weights":[3.517833E-2,-2.1830972E-1,7.005423E0,-2.4493286E-1,6.141072E0,3.7032795E0,8.794436E0,-3.0190375E-1,1.3278049E0,-1.5263657E-2,2.8779596E-1,-1.0850587E-2,4.7421265E0,1.0395522E1,4.0723886E0,-3.861518E-1,1.1736098E-1,2.0559855E0,2.2431816E-1,2.196804E-1,2.9034493E0,4.3586412E-1,8.543142E0,5.228684E-1,2.2552004E-1,-4.3573612E-1,-2.91506E-1,-5.8395244E-2,6.307248E-1,4.011877E0,1.399851E0,5.4010116E-3,9.237728E-1,3.756808E0,4.7086924E-1,2.6488072E-1,5.086896E-2,-3.568924E-1,7.382508E-2,-1.3083708E-2,-2.182538E-3,3.913575E-2,-9.956685E-3,3.728018E-2,-2.8962852E-3,1.267117E-2,8.38937E-2,4.9677175E-2,1.3869251E-1,2.9095337E-3,6.1356682E-2,-4.9764733E-3,1.8106285E-2,3.882622E-2,7.362422E-3,1.4243324E-1,6.6380195E-2,-1.1710386E-3,1.961546E-2,-1.48071E-2,2.8472713E-3],"categories":[],"categories_nodes":[],"categories_segments":[],"categories_sizes":[],"default_left":[0,0,0,0,0,0,0,0,0,0,0,0,0,0,0,0,0,0,0,0,0,0,0,0,0,0,0,0,0,0,0,0,0,0,0,0,0,0,0,0,0,0,0,0,0,0,0,0,0,0,0,0,0,0,0,0,0,0,0,0,0],"id":3,"left_children":[1,3,5,7,9,11,13,15,17,-1,-1,-1,19,21,23,25,27,29,31,-1,33,-1,35,37,-1,39,41,43,45,47,49,51,53,55,57,-1,-1,59,-1,-1,-1,-1,-1,-1,-1,-1,-1,-1,-1,-1,-1,-1,-1,-1,-1,-1,-1,-1,-1,-1,-1],"loss_changes":[2.6182693E3,2.436128E2,2.7462622E2,1.2808127E2,1.426179E2,8.61727E1,2.0715869E2,4.8648712E1,3.9715683E1,0E0,0E0,0E0,5.4655853E1,5.963208E1,1.18348495E2,5.2510986E0,2.0879244E1,3.2883797E1,3.2105858E0,0E0,2.1065529E1,0E0,2.2265991E1,1.1107942E1,0E0,7.376099E-2,2.6020931E1,8.706414E0,2.5441755E1,2.4245148E0,1.9981644E1,1.8417978E0,9.3882036E-1,1.7362137E0,3.9873052E-1,0E0,0E0,3.556E-1,0E0,0E0,0E0,0E0,0E0,0E0,0E0,0E0,0E0,0E0,0E0,0E0,0E0,0E0,0E0,0E0,0E0,0E0,0E0,0E0,0E0,0E0,0E0],"parents":[2147483647,0,0,1,1,2,2,3,3,4,4,5,5,6,6,7,7,8,8,12,12,13,13,14,14,15,15,16,16,17,17,18,18,20,20,22,22,23,23,25,25,26,26,27,27,28,28,29,29,30,30,31,31,32,32,33,33,34,34,37,37],"right_children":[2,4,6,8,10,12,14,16,18,-1,-1,-1,20,22,24,26,28,30,32,-1,34,-1,36,38,-1,40,42,44,46,48,50,52,54,56,58,-1,-1,60,-1,-1,-1,-1,-1,-1,-1,-1,-1,-1,-1,-1,-1,-1,-1,-1,-1,-1,-1,-1,-1,-1,-1],"split_conditions":[4.7E0,1.773E3,6.401036E0,1.4E0,7.09E1,7.5E1,3.8712962E0,2E-1,1.0065E5,-1.5263657E-2,2.8779596E-1,-1.0850587E-2,5.7676983E1,9.921E4,1.0071E5,5.909057E1,8.54E1,-7.1134715E0,8.83E1,2.196804E-1,1.04E3,4.3586412E-1,6.0968098E1,2.013E1,2.2552004E-1,9.992982E0,2.9895E2,9.948E4,1.0405064E1,3E0,8.4E1,6.2592773E1,6.107138E1,7.6E0,2.013E1,2.6488072E-1,5.086896E-2,1.052E1,7.382508E-2,-1.3083708E-2,-2.182538E-3,3.913575E-2,-9.956685E-3,3.728018E-2,-2.8962852E-3,1.267117E-2,8.38937E-2,4.9677175E-2,1.3869251E-1,2.9095337E-3,6.1356682E-2,-4.9764733E-3,1.8106285E-2,3.882622E-2,7.362422E-3,1.4243324E-1,6.6380195E-2,-1.1710386E-3,1.961546E-2,-1.48071E-2,2.8472713E-3],"split_indices":[22,19,4,22,3,12,17,22,8,0,0,0,20,8,8,21,3,16,3,0,6,0,7,0,0,14,2,8,4,26,3,20,7,22,0,0,0,0,0,0,0,0,0,0,0,0,0,0,0,0,0,0,0,0,0,0,0,0,0,0,0],"split_type":[0,0,0,0,0,0,0,0,0,0,0,0,0,0,0,0,0,0,0,0,0,0,0,0,0,0,0,0,0,0,0,0,0,0,0,0,0,0,0,0,0,0,0,0,0,0,0,0,0,0,0,0,0,0,0,0,0,0,0,0,0],"sum_hessian":[1.48E3,1.429E3,5.1E1,1.424E3,5E0,1.9E1,3.2E1,1.375E3,4.9E1,2E0,3E0,4E0,1.5E1,2.3E1,9E0,1.145E3,2.3E2,2.9E1,2E1,5E0,1E1,5E0,1.8E1,5E0,4E0,7.49E2,3.96E2,1.72E2,5.8E1,6E0,2.3E1,1.6E1,4E0,7E0,3E0,1.7E1,1E0,4E0,1E0,7.48E2,1E0,9E0,3.87E2,4E0,1.68E2,5.4E1,4E0,2E0,4E0,8E0,1.5E1,1.3E1,3E0,2E0,2E0,3E0,4E0,1E0,2E0,3E0,1E0],"tree_param":{"num_deleted":"0","num_feature":"28","num_nodes":"61","size_leaf_vector":"1"}},{"base_weights":[9.469038E-3,-2.3143311E-1,7.256834E0,-3.224815E-1,5.555113E-1,4.2350903E0,9.746565E0,-3.3427092E-1,3.486535E0,1.7172518E-1,1.4797446E0,5.5690093E0,-1.4175466E-2,1.0333091E1,2.0010166E0,-3.920921E-1,-8.441048E-2,-1.49583835E-2,2.3162967E-1,-6.2949516E-2,6.428731E-1,2.765227E0,3.4685308E-1,2.1692681E0,2.4215627E-1,4.4152975E-1,8.297507E0,7.2717704E-2,1.7328039E-2,5.10542E-1,-4.0236723E-1,-2.0351227E-1,3.084313E-1,-1.6667615E-1,4.1265205E-1,1.4520861E0,9.8697886E-2,9.9021006E-1,3.2908854E0,1.3414565E-1,8.4426457E-1,1.0024325E-1,-1.3130918E-1,2.5767305E-1,5.0105922E-2,-1.1793241E-2,1.5676038E-1,-1.2105321E-2,1.1373589E-2,9.334578E-3,-7.7329944E-3,-4.845919E-3,2.8253328E-2,-6.842876E-3,4.712702E-3,3.7444185E-2,-2.9207356E-3,9.074876E-2,2.244374E-2,1.6267074E-2,-4.3330654E-3,6.5588055E-4,5.8538094E-2,7.5673903E-3,1.1216894E-1,-7.4728164E-3,1.2020106E-2,8.775346E-3,3.0193904E-2,-1.2923492E-2,1.1506688E-2],"categories":[],"categories_nodes":[],"categories_segments":[],"categories_sizes":[],"default_left":[0,0,0,0,0,0,0,0,0,0,0,0,0,0,0,0,0,0,0,0,0,0,0,0,0,0,0,0,0,0,0,0,0,0,0,0,0,0,0,0,0,0,0,0,0,0,0,0,0,0,0,0,0,0,0,0,0,0,0,0,0,0,0,0,0,0,0,0,0,0,0],"id":4,"left_children":[1,3,5,7,9,11,13,15,17,19,21,23,-1,25,27,29,31,-1,-1,33,35,37,39,41,-1,-1,43,-1,-1,45,47,49,51,53,55,57,59,61,63,65,67,-1,69,-1,-1,-1,-1,-1,-1,-1,-1,-1,-1,-1,-1,-1,-1,-1,-1,-1,-1,-1,-1,-1,-1,-1,-1,-1,-1,-1,-1],"loss_changes":[2.550702E3,1.014923E2,3.123191E2,5.8106247E1,5.1887943E1,1.4706143E2,9.289722E1,1.8242676E1,7.134949E1,1.1649951E1,6.16623E1,1.3565363E2,0E0,8.315869E1,4.0585518E-1,9.730499E0,1.1245139E1,0E0,0E0,3.5713902E0,1.5269061E1,1.5402405E1,2.4260206E0,2.470884E1,0E0,0E0,2.0439331E1,0E0,0E0,5.318052E1,1.0608826E0,5.2179894E0,1.6820452E1,1.2090838E0,5.660906E0,1.3238337E1,2.4507735E0,5.541179E0,1.9480118E1,1.9383743E0,3.3205366E-1,0E0,7.819847E-1,0E0,0E0,0E0,0E0,0E0,0E0,0E0,0E0,0E0,0E0,0E0,0E0,0E0,0E0,0E0,0E0,0E0,0E0,0E0,0E0,0E0,0E0,0E0,0E0,0E0,0E0,0E0,0E0],"parents":[2147483647,0,0,1,1,2,2,3,3,4,4,5,5,6,6,7,7,8,8,9,9,10,10,11,11,13,13,14,14,15,15,16,16,19,19,20,20,21,21,22,22,23,23,26,26,29,29,30,30,31,31,32,32,33,33,34,34,35,35,36,36,37,37,38,38,39,39,40,40,42,42],"right_children":[2,4,6,8,10,12,14,16,18,20,22,24,-1,26,28,30,32,-1,-1,34,36,38,40,42,-1,-1,44,-1,-1,46,48,50,52,54,56,58,60,62,64,66,68,-1,70,-1,-1,-1,-1,-1,-1,-1,-1,-1,-1,-1,-1,-1,-1,-1,-1,-1,-1,-1,-1,-1,-1,-1,-1,-1,-1,-1,-1],"split_conditions":[5.1E0,5E-1,7.4992375E0,1.773E3,8.54E1,1.5324532E3,7.3027816E0,1E-1,2.013E1,8.405E1,1.005E5,3.0235E2,-1.4175466E-2,9.921E4,3.0155E2,5.21E1,8.54E1,-1.49583835E-2,2.3162967E-1,6.3433796E1,1.007E5,-1.1297934E1,6E-1,-6.5996633E0,2.4215627E-1,4.4152975E-1,1.5132741E1,7.2717704E-2,1.7328039E-2,6.7E1,1.2020298E1,-6.2901955E0,6.1216408E1,5.7666125E0,3.0085E2,2.9985E2,6E0,1.1698436E3,6.114316E1,6.1234352E1,1.009E5,1.0024325E-1,1.052E1,2.5767305E-1,5.0105922E-2,-1.1793241E-2,1.5676038E-1,-1.2105321E-2,1.1373589E-2,9.334578E-3,-7.7329944E-3,-4.845919E-3,2.8253328E-2,-6.842876E-3,4.712702E-3,3.7444185E-2,-2.9207356E-3,9.074876E-2,2.244374E-2,1.6267074E-2,-4.3330654E-3,6.5588055E-4,5.8538094E-2,7.5673903E-3,1.1216894E-1,-7.4728164E-3,1.2020106E-2,8.775346E-3,3.0193904E-2,-1.2923492E-2,1.1506688E-2],"split_indices":[22,22,15,19,3,19,17,22,0,24,8,11,0,8,2,13,3,0,0,20,8,15,23,5,0,0,4,0,0,3,4,17,21,5,2,2,26,18,7,7,8,0,0,0,0,0,0,0,0,0,0,0,0,0,0,0,0,0,0,0,0,0,0,0,0,0,0,0,0,0,0],"split_type":[0,0,0,0,0,0,0,0,0,0,0,0,0,0,0,0,0,0,0,0,0,0,0,0,0,0,0,0,0,0,0,0,0,0,0,0,0,0,0,0,0,0,0,0,0,0,0,0,0,0,0,0,0,0,0,0,0,0,0,0,0,0,0,0,0,0,0,0,0,0,0],"sum_hessian":[1.459E3,1.413E3,4.6E1,1.267E3,1.46E2,2.2E1,2.4E1,1.264E3,3E0,1.04E2,4.2E1,1.7E1,5E0,2.2E1,2E0,1.026E3,2.38E2,2E0,1E0,7E1,3.4E1,1.9E1,2.3E1,8E0,9E0,5E0,1.7E1,1E0,1E0,1.1E1,1.015E3,1.83E2,5.5E1,5.8E1,1.2E1,1.3E1,2.1E1,5E0,1.4E1,1.7E1,6E0,5E0,3E0,1.6E1,1E0,1E1,1E0,1.014E3,1E0,1.7E1,1.66E2,3.2E1,2.3E1,4.9E1,9E0,4E0,8E0,3E0,1E1,7E0,1.4E1,3E0,2E0,2E0,1.2E1,7E0,1E1,2E0,4E0,2E0,1E0],"tree_param":{"num_deleted":"0","num_feature":"28","num_nodes":"71","size_leaf_vector":"1"}},{"base_weights":[-1.7042112E-2,-2.03141E-1,5.9550433E0,-2.2116469E-1,6.3406734E0,-3.7574282E-1,6.755785E0,-3.0799752E-1,6.495148E-1,2.608137E-1,-1.0780137E-2,-1.3102528E-2,-1.0605338E-3,7.353313E0,-1.3808843E-2,-3.1551692E-1,2.2278466E0,3.0582547E0,5.094292E-1,3.2722342E0,8.74363E0,-3.831619E-1,-5.4040413E-2,1.5440898E-1,-1.382545E-2,1.15265965E-1,7.322633E-1,2.170401E-1,1.2856165E0,4.2847795E0,4.2908475E-1,-1.1154883E-2,9.108525E0,-1.2351005E-2,-9.413256E-3,-7.4280985E-3,5.3791157E-3,3.331021E-2,-3.58361E-4,3.2678447E-3,1.0164155E-1,2.7399454E-2,9.786903E-2,7.065166E-2,1.6877219E-1,-2.6571217E-3,1.8934803E-2,2.8023764E-1,4.9354337E-2],"categories":[],"categories_nodes":[],"categories_segments":[],"categories_sizes":[],"default_left":[0,0,0,0,0,0,0,0,0,0,0,0,0,0,0,0,0,0,0,0,0,0,0,0,0,0,0,0,0,0,0,0,0,0,0,0,0,0,0,0,0,0,0,0,0,0,0,0,0],"id":5,"left_children":[1,3,5,7,9,11,13,15,17,-1,-1,-1,-1,19,-1,21,23,25,27,29,31,33,35,-1,-1,-1,37,39,41,43,45,-1,47,-1,-1,-1,-1,-1,-1,-1,-1,-1,-1,-1,-1,-1,-1,-1,-1],"loss_changes":[1.6549708E3,1.717129E2,2.3065796E2,1.0914477E2,6.618764E1,1.0916036E-1,1.7585706E2,2.5701134E1,4.2645325E1,0E0,0E0,0E0,0E0,1.8132654E2,0E0,2.311464E1,3.3766457E1,9.950623E0,2.8089558E1,2.982846E1,9.319409E1,1.9282227E0,1.2239429E1,0E0,0E0,0E0,8.57368E-1,3.1170773E1,2.2041859E1,7.452545E0,4.7432405E-1,0E0,2.9793213E1,0E0,0E0,0E0,0E0,0E0,0E0,0E0,0E0,0E0,0E0,0E0,0E0,0E0,0E0,0E0,0E0],"parents":[2147483647,0,0,1,1,2,2,3,3,4,4,5,5,6,6,7,7,8,8,13,13,15,15,16,16,17,17,18,18,19,19,20,20,21,21,22,22,26,26,27,27,28,28,29,29,30,30,32,32],"right_children":[2,4,6,8,10,12,14,16,18,-1,-1,-1,-1,20,-1,22,24,26,28,30,32,34,36,-1,-1,-1,38,40,42,44,46,-1,48,-1,-1,-1,-1,-1,-1,-1,-1,-1,-1,-1,-1,-1,-1,-1,-1],"split_conditions":[4.7E0,2.016E3,1.1E0,6E-1,1.0894E2,8.417475E0,1.5594386E3,3.0515103E2,-1.2905842E1,2.608137E-1,-1.0780137E-2,-1.3102528E-2,-1.0605338E-3,4.186777E0,-1.3808843E-2,1E-1,-2.7206812E0,2.7E0,1.1413811E3,1.04E3,4.230918E1,5.9778076E1,7.396873E2,1.5440898E-1,-1.382545E-2,1.15265965E-1,2.9975E2,1.2424825E1,2.8E0,3.004E2,2.013E1,-1.1154883E-2,1.1161E2,-1.2351005E-2,-9.413256E-3,-7.4280985E-3,5.3791157E-3,3.331021E-2,-3.58361E-4,3.2678447E-3,1.0164155E-1,2.7399454E-2,9.786903E-2,7.065166E-2,1.6877219E-1,-2.6571217E-3,1.8934803E-2,2.8023764E-1,4.9354337E-2],"split_indices":[22,6,23,22,1,4,19,10,16,0,0,0,0,4,0,22,4,22,19,6,7,7,6,0,0,0,2,14,22,25,0,0,1,0,0,0,0,0,0,0,0,0,0,0,0,0,0,0,0],"split_type":[0,0,0,0,0,0,0,0,0,0,0,0,0,0,0,0,0,0,0,0,0,0,0,0,0,0,0,0,0,0,0,0,0,0,0,0,0,0,0,0,0,0,0,0,0,0,0,0,0],"sum_hessian":[1.487E3,1.443E3,4.4E1,1.44E3,3E0,5E0,3.9E1,1.31E3,1.3E2,2E0,1E0,4E0,1E0,3.6E1,3E0,1.307E3,3E0,6E0,1.24E2,1E1,2.6E1,1.038E3,2.69E2,1E0,2E0,4E0,2E0,9.1E1,3.3E1,7E0,3E0,1E0,2.5E1,7.32E2,3.06E2,1.47E2,1.22E2,1E0,1E0,8.9E1,2E0,2.9E1,4E0,4E0,3E0,1E0,2E0,2.4E1,1E0],"tree_param":{"num_deleted":"0","num_feature":"28","num_nodes":"49","size_leaf_vector":"1"}},{"base_weights":[3.2925012E-3,-1.7614426E-1,7.5712047E0,-1.9423924E-1,2.5559744E-1,-1.4807905E-2,8.662965E0,-2.9109043E-1,9.070301E-1,-6.245906E-3,8.976046E0,-2.992502E-1,2.4621592E0,2.1868758E0,2.5547862E-1,2.4817554E-2,9.23753E0,-3.772593E-1,-1.8787965E-2,-1.1405141E-2,1.6483726E-1,2.9716249E0,5.7327944E-1,6.50799E-3,8.505602E-1,2.4292234E-1,3.858778E-1,-1.2006881E-2,-9.675478E-3,-4.084829E-3,1.22807585E-2,1.031932E-1,9.523364E-3,4.064085E-2,3.757313E-3,-4.7480813E-3,1.5364351E-2,1.3220296E-2,8.062015E-2],"categories":[],"categories_nodes":[],"categories_segments":[],"categories_sizes":[],"default_left":[0,0,0,0,0,0,0,0,0,0,0,0,0,0,0,0,0,0,0,0,0,0,0,0,0,0,0,0,0,0,0,0,0,0,0,0,0,0,0],"id":6,"left_children":[1,3,5,7,-1,-1,9,11,13,-1,15,17,19,21,23,-1,25,27,29,-1,-1,31,33,35,37,-1,-1,-1,-1,-1,-1,-1,-1,-1,-1,-1,-1,-1,-1],"loss_changes":[1.9934633E3,2.2730219E2,3.0364026E2,1.5300003E2,0E0,0E0,8.5190674E1,3.0324287E1,9.617201E1,0E0,5.4150635E1,2.8741425E1,3.65654E1,4.7680878E1,1.1550776E1,0E0,1.15703125E1,1.1635742E0,1.4478307E1,0E0,0E0,3.121434E1,4.7317624E0,4.7468395E0,1.6131655E1,0E0,0E0,0E0,0E0,0E0,0E0,0E0,0E0,0E0,0E0,0E0,0E0,0E0,0E0],"parents":[2147483647,0,0,1,1,2,2,3,3,6,6,7,7,8,8,10,10,11,11,12,12,13,13,14,14,16,16,17,17,18,18,21,21,22,22,23,23,24,24],"right_children":[2,4,6,8,-1,-1,10,12,14,-1,16,18,20,22,24,-1,26,28,30,-1,-1,32,34,36,38,-1,-1,-1,-1,-1,-1,-1,-1,-1,-1,-1,-1,-1,-1],"split_conditions":[8.2138815E0,2.016E3,7.2E1,8E-1,2.5559744E-1,-1.4807905E-2,7.375E1,3.0465E2,-3.4460843E0,-6.245906E-3,-4.1827807E0,1E-1,1.654E1,1.005E5,9.014288E0,2.4817554E-2,6.0968098E1,5.9778076E1,8.54E1,-1.1405141E-2,1.6483726E-1,3.0195E2,6E0,1.1413811E3,8.62E1,2.4292234E-1,3.858778E-1,-1.2006881E-2,-9.675478E-3,-4.084829E-3,1.22807585E-2,1.031932E-1,9.523364E-3,4.064085E-2,3.757313E-3,-4.7480813E-3,1.5364351E-2,1.3220296E-2,8.062015E-2],"split_indices":[22,6,3,22,0,0,24,11,16,0,4,22,0,8,4,0,7,7,3,0,0,2,26,19,13,0,0,0,0,0,0,0,0,0,0,0,0,0,0],"split_type":[0,0,0,0,0,0,0,0,0,0,0,0,0,0,0,0,0,0,0,0,0,0,0,0,0,0,0,0,0,0,0,0,0,0,0,0,0,0,0],"sum_hessian":[1.466E3,1.433E3,3.3E1,1.431E3,2E0,4E0,2.9E1,1.316E3,1.15E2,1E0,2.8E1,1.313E3,3E0,3.8E1,7.7E1,1E0,2.7E1,1.027E3,2.86E2,2E0,1E0,2.5E1,1.3E1,5.5E1,2.2E1,2.3E1,4E0,7.19E2,3.08E2,2.25E2,6.1E1,2.1E1,4E0,4E0,9E0,4.2E1,1.3E1,1.9E1,3E0],"tree_param":{"num_deleted":"0","num_feature":"28","num_nodes":"39","size_leaf_vector":"1"}},{"base_weights":[2.049524E-2,-1.9036125E-1,6.27987E0,-2.1529359E-1,5.742019E0,5.1510797E0,3.996867E-1,-2.8898317E-1,6.4787555E-1,2.6904646E-1,-1.4207453E-2,6.3768377E0,1.0055251E0,-2.967461E-1,3.1894E0,2.7985805E-1,1.8544004E0,7.386895E0,2.297047E0,-2.2325787E-1,2.5247164E0,-3.6138877E-1,-4.3600883E-2,-8.749942E-3,1.5227294E-1,-2.882936E-2,8.113155E-1,3.0355358E0,4.3976226E-1,6.699389E-2,2.3169985E-1,-1.6858944E-1,1.9387911E-1,-3.806853E-1,1.0819601E-2,8.62492E-2,1.685532E-2,-1.1634215E-2,-8.854547E-3,-4.9035684E-3,1.1178319E-2,-5.8200737E-3,1.4416418E-2,5.0914835E-2,9.94544E-3,5.2005546E-3,1.1401116E-1,1.8207816E-3,3.1024048E-2,-1.5847337E-2,2.4445292E-2,-1.3207498E-2,-1.2429303E-3],"categories":[],"categories_nodes":[],"categories_segments":[],"categories_sizes":[],"default_left":[0,0,0,0,0,0,0,0,0,0,0,0,0,0,0,0,0,0,0,0,0,0,0,0,0,0,0,0,0,0,0,0,0,0,0,0,0,0,0,0,0,0,0,0,0,0,0,0,0,0,0,0,0],"id":7,"left_children":[1,3,5,7,9,11,-1,13,15,-1,-1,17,19,21,23,25,27,29,31,33,35,37,39,-1,-1,41,43,45,47,-1,-1,49,-1,51,-1,-1,-1,-1,-1,-1,-1,-1,-1,-1,-1,-1,-1,-1,-1,-1,-1,-1,-1],"loss_changes":[1.943985E3,2.1200528E2,3.1297742E2,9.050855E1,1.2456369E2,2.1209021E2,0E0,3.62927E1,4.921152E1,0E0,0E0,1.19019165E2,2.1097982E1,2.1371979E1,2.1180096E1,1.4296106E1,4.210795E1,2.7834106E1,8.325617E1,7.80761E-1,1.8222637E0,1.7071686E0,1.3379807E1,0E0,0E0,4.8048053E0,1.3038311E1,2.9988632E1,2.8662477E0,0E0,0E0,2.5526154E0,0E0,1.0300541E-1,0E0,0E0,0E0,0E0,0E0,0E0,0E0,0E0,0E0,0E0,0E0,0E0,0E0,0E0,0E0,0E0,0E0,0E0,0E0],"parents":[2147483647,0,0,1,1,2,2,3,3,4,4,5,5,7,7,8,8,11,11,12,12,13,13,14,14,15,15,16,16,17,17,18,18,19,19,20,20,21,21,22,22,25,25,26,26,27,27,28,28,31,31,33,33],"right_children":[2,4,6,8,10,12,-1,14,16,-1,-1,18,20,22,24,26,28,30,32,34,36,38,40,-1,-1,42,44,46,48,-1,-1,50,-1,52,-1,-1,-1,-1,-1,-1,-1,-1,-1,-1,-1,-1,-1,-1,-1,-1,-1,-1,-1],"split_conditions":[4.9E0,1.773E3,1.5132741E1,7E-1,1.0894E2,1.654E1,3.996867E-1,3.0515103E2,8.62E1,2.6904646E-1,-1.4207453E-2,4.9294515E0,2.7E0,1E-1,1.654E1,6.279125E1,1.005E5,2.9915E2,3.0240567E2,8.78E1,3.0085E2,5.9778076E1,8.54E1,-8.749942E-3,1.5227294E-1,1.1482582E3,-1.1979532E0,-1.1297934E1,6E-1,6.699389E-2,2.3169985E-1,1.143E1,1.9387911E-1,7.645569E0,1.0819601E-2,8.62492E-2,1.685532E-2,-1.1634215E-2,-8.854547E-3,-4.9035684E-3,1.1178319E-2,-5.8200737E-3,1.4416418E-2,5.0914835E-2,9.94544E-3,5.2005546E-3,1.1401116E-1,1.8207816E-3,3.1024048E-2,-1.5847337E-2,2.4445292E-2,-1.3207498E-2,-1.2429303E-3],"split_indices":[22,19,4,22,1,0,0,10,3,0,0,5,23,22,0,20,8,10,2,3,2,7,3,0,0,19,15,14,23,0,0,0,0,4,0,0,0,0,0,0,0,0,0,0,0,0,0,0,0,0,0,0,0],"split_type":[0,0,0,0,0,0,0,0,0,0,0,0,0,0,0,0,0,0,0,0,0,0,0,0,0,0,0,0,0,0,0,0,0,0,0,0,0,0,0,0,0,0,0,0,0,0,0,0,0,0,0,0,0],"sum_hessian":[1.471E3,1.424E3,4.7E1,1.419E3,5E0,4.2E1,5E0,1.308E3,1.11E2,3E0,2E0,3.2E1,1E1,1.306E3,2E0,8.6E1,2.5E1,2.5E1,7E0,6E0,4E0,1.04E3,2.66E2,1E0,1E0,5.5E1,3.1E1,1.3E1,1.2E1,2E0,2.3E1,5E0,2E0,5E0,1E0,3E0,1E0,7.4E2,3E2,2.07E2,5.9E1,4.2E1,1.3E1,1E1,2.1E1,3E0,1E1,8E0,4E0,4E0,1E0,4E0,1E0],"tree_param":{"num_deleted":"0","num_feature":"28","num_nodes":"53","size_leaf_vector":"1"}},{"base_weights":[-1.6430615E-2,-1.739345E-1,7.2953286E0,-1.9837359E-1,6.8748655E0,2.4809182E0,9.152091E0,-2.6041424E-1,1.3060555E0,2.6299292E-1,-1.0370911E-2,4.181315E0,-5.5741787E-2,-5.9145074E-3,9.606682E0,-3.328131E-1,8.6311705E-2,2.3628201E0,2.0425464E-1,6.985882E-1,1.7244093E-1,2.4078611E-2,-1.4129623E-2,4.0923968E-1,7.8549232E0,-3.763834E-1,-2.479473E-1,1.429509E0,3.3605695E-2,2.947779E0,4.5883057E-1,-1.677864E-1,1.397496E0,3.7123892E-2,-5.6874244E-3,2.4270286E-1,6.138238E-2,-1.1302733E-2,-1.4283388E-3,2.9957188E-2,-8.602822E-3,-9.203341E-4,6.4941466E-2,3.5557794E-5,5.6195065E-2,1.2255711E-1,5.5381775E-2,-1.4123317E-3,3.9531108E-2,-1.1995475E-2,9.519372E-3,7.0285792E-3,6.633996E-2],"categories":[],"categories_nodes":[],"categories_segments":[],"categories_sizes":[],"default_left":[0,0,0,0,0,0,0,0,0,0,0,0,0,0,0,0,0,0,0,0,0,0,0,0,0,0,0,0,0,0,0,0,0,0,0,0,0,0,0,0,0,0,0,0,0,0,0,0,0,0,0,0,0],"id":8,"left_children":[1,3,5,7,9,11,13,15,17,-1,-1,19,21,-1,23,25,27,29,31,33,-1,-1,-1,-1,35,37,39,41,43,45,47,49,51,-1,-1,-1,-1,-1,-1,-1,-1,-1,-1,-1,-1,-1,-1,-1,-1,-1,-1,-1,-1],"loss_changes":[1.6930143E3,2.4925475E2,2.5441016E2,1.34277E2,7.1321335E1,4.336636E1,9.539563E1,3.4645164E1,6.5884995E1,0E0,0E0,2.8723167E1,2.1601799E0,0E0,4.1270508E1,4.125656E0,1.6871862E1,3.094638E1,1.3108589E1,1.6704353E0,0E0,0E0,0E0,0E0,6.67041E0,7.463074E-2,1.9155231E1,9.728258E0,1.377449E1,2.0027939E1,3.5381224E0,2.7160647E0,6.108553E0,0E0,0E0,0E0,0E0,0E0,0E0,0E0,0E0,0E0,0E0,0E0,0E0,0E0,0E0,0E0,0E0,0E0,0E0,0E0,0E0],"parents":[2147483647,0,0,1,1,2,2,3,3,4,4,5,5,6,6,7,7,8,8,11,11,12,12,14,14,15,15,16,16,17,17,18,18,19,19,24,24,25,25,26,26,27,27,28,28,29,29,30,30,31,31,32,32],"right_children":[2,4,6,8,10,12,14,16,18,-1,-1,20,22,-1,24,26,28,30,32,34,-1,-1,-1,-1,36,38,40,42,44,46,48,50,52,-1,-1,-1,-1,-1,-1,-1,-1,-1,-1,-1,-1,-1,-1,-1,-1,-1,-1,-1,-1],"split_conditions":[8.2138815E0,1.773E3,4.9646387E0,1.8E0,1.0894E2,1.1184176E1,4.362322E1,2E-1,-2.8744838E0,2.6299292E-1,-1.0370911E-2,3.0211676E2,3.0145E2,-5.9145074E-3,-6.67748E0,5.909057E1,-1.1805264E1,1.005E5,1.1129698E3,1.1063E2,1.7244093E-1,2.4078611E-2,-1.4129623E-2,4.0923968E-1,6.219388E1,7.411981E0,2.9895E2,2.9935E2,1.3718904E1,8.575E1,6.0378704E1,8.627017E0,8.4E1,3.7123892E-2,-5.6874244E-3,2.4270286E-1,6.138238E-2,-1.1302733E-2,-1.4283388E-3,2.9957188E-2,-8.602822E-3,-9.203341E-4,6.4941466E-2,3.5557794E-5,5.6195065E-2,1.2255711E-1,5.5381775E-2,-1.4123317E-3,3.9531108E-2,-1.1995475E-2,9.519372E-3,7.0285792E-3,6.633996E-2],"split_indices":[22,19,14,22,1,22,20,22,17,0,0,10,2,0,17,21,16,8,19,1,0,0,0,0,7,14,2,10,14,24,21,15,3,0,0,0,0,0,0,0,0,0,0,0,0,0,0,0,0,0,0,0,0],"split_type":[0,0,0,0,0,0,0,0,0,0,0,0,0,0,0,0,0,0,0,0,0,0,0,0,0,0,0,0,0,0,0,0,0,0,0,0,0,0,0,0,0,0,0,0,0,0,0,0,0,0,0,0,0],"sum_hessian":[1.468E3,1.438E3,3E1,1.434E3,4E0,9E0,2.1E1,1.378E3,5.6E1,3E0,1E0,5E0,4E0,1E0,2E1,1.14E3,2.38E2,2.8E1,2.8E1,2E0,3E0,1E0,3E0,4E0,1.6E1,7.51E2,3.89E2,8E0,2.3E2,2.1E1,7E0,2.2E1,6E0,1E0,1E0,1.5E1,1E0,7.5E2,1E0,1.1E1,3.78E2,3E0,5E0,2.27E2,3E0,9E0,1.2E1,5E0,2E0,1.5E1,7E0,3E0,3E0],"tree_param":{"num_deleted":"0","num_feature":"28","num_nodes":"53","size_leaf_vector":"1"}},{"base_weights":[-2.7669307E-2,-1.8818437E-1,5.6592684E0,-2.1215469E-1,5.4841924E0,2.8908868E0,7.7929044E0,-2.5626498E-1,8.8082623E-1,2.5707558E-1,-1.3715886E-2,-1.0573173E-2,3.7792697E0,2.5289807E-1,9.483956E-1,-2.6314634E-1,2.138865E0,1.4937865E0,8.5522436E-2,1.968823E-1,1.7312584E0,-1.7783845E-2,6.0461648E-2,-3.3559993E-1,-3.0614855E-2,1.5015838E-1,-1.4550994E-2,4.152636E-1,2.1531029E0,5.591418E-1,-2.1583483E-1,2.3538327E0,2.0893855E-1,-1.0966142E-2,-7.928118E-3,6.785497E-2,-1.5583267E-3,-4.845852E-3,3.3453267E-2,7.927846E-2,7.618326E-3,-2.6515394E-3,3.0166708E-2,-1.07559115E-2,9.056536E-3,8.398341E-2,-4.7977776E-3,-1.2742336E-2,1.6852433E-2],"categories":[],"categories_nodes":[],"categories_segments":[],"categories_sizes":[],"default_left":[0,0,0,0,0,0,0,0,0,0,0,0,0,0,0,0,0,0,0,0,0,0,0,0,0,0,0,0,0,0,0,0,0,0,0,0,0,0,0,0,0,0,0,0,0,0,0,0,0],"id":9,"left_children":[1,3,5,7,9,11,13,15,17,-1,-1,-1,19,-1,21,23,25,27,29,-1,31,-1,-1,33,35,-1,-1,37,39,41,43,45,47,-1,-1,-1,-1,-1,-1,-1,-1,-1,-1,-1,-1,-1,-1,-1,-1],"loss_changes":[1.3301589E3,1.9383105E2,2.1374036E2,6.830068E1,1.13892654E2,5.6076935E1,8.792859E1,2.2945076E1,2.6684177E1,0E0,0E0,0E0,7.414699E1,0E0,6.128029E0,2.2818413E1,3.2512447E1,2.114962E1,3.688898E0,0E0,8.985765E0,0E0,0E0,2.1093292E0,1.5911041E1,0E0,0E0,5.4277687E0,1.69925E1,2.9795318E0,1.290255E0,8.288872E0,1.1328762E0,0E0,0E0,0E0,0E0,0E0,0E0,0E0,0E0,0E0,0E0,0E0,0E0,0E0,0E0,0E0,0E0],"parents":[2147483647,0,0,1,1,2,2,3,3,4,4,5,5,6,6,7,7,8,8,12,12,14,14,15,15,16,16,17,17,18,18,20,20,23,23,24,24,27,27,28,28,29,29,30,30,31,31,32,32],"right_children":[2,4,6,8,10,12,14,16,18,-1,-1,-1,20,-1,22,24,26,28,30,-1,32,-1,-1,34,36,-1,-1,38,40,42,44,46,48,-1,-1,-1,-1,-1,-1,-1,-1,-1,-1,-1,-1,-1,-1,-1,-1],"split_conditions":[5.1E0,1.773E3,6.898658E0,1.4E0,1.0894E2,7.59E1,4.792122E0,3.0515103E2,1.0065E5,2.5707558E-1,-1.3715886E-2,-1.0573173E-2,5.7676983E1,2.5289807E-1,1.143E1,1E-1,-2.7206812E0,8.4E1,7.8732866E-1,1.968823E-1,-6.831699E0,-1.7783845E-2,6.0461648E-2,5.9778076E1,-1.2905842E1,1.5015838E-1,-1.4550994E-2,3.8209677E0,6.406991E1,6.0142776E1,8.627017E0,1.1063E2,1.052E1,-1.0966142E-2,-7.928118E-3,6.785497E-2,-1.5583267E-3,-4.845852E-3,3.3453267E-2,7.927846E-2,7.618326E-3,-2.6515394E-3,3.0166708E-2,-1.07559115E-2,9.056536E-3,8.398341E-2,-4.7977776E-3,-1.2742336E-2,1.6852433E-2],"split_indices":[22,19,4,22,1,3,17,10,8,0,0,0,20,0,0,22,4,3,4,0,17,0,0,7,16,0,0,4,7,21,4,1,0,0,0,0,0,0,0,0,0,0,0,0,0,0,0,0,0],"split_type":[0,0,0,0,0,0,0,0,0,0,0,0,0,0,0,0,0,0,0,0,0,0,0,0,0,0,0,0,0,0,0,0,0,0,0,0,0,0,0,0,0,0,0,0,0,0,0,0,0],"sum_hessian":[1.455E3,1.416E3,3.9E1,1.411E3,5E0,1.8E1,2.1E1,1.357E3,5.4E1,3E0,2E0,4E0,1.4E1,1.9E1,2E0,1.354E3,3E0,3E1,2.4E1,5E0,9E0,1E0,1E0,1.032E3,3.22E2,1E0,2E0,1.2E1,1.8E1,9E0,1.5E1,6E0,3E0,7.24E2,3.08E2,2E0,3.2E2,7E0,5E0,1.4E1,4E0,4E0,5E0,1.2E1,3E0,5E0,1E0,1E0,2E0],"tree_param":{"num_deleted":"0","num_feature":"28","num_nodes":"49","size_leaf_vector":"1"}},{"base_weights":[2.9920707E-2,-1.259233E-1,6.356333E0,3.233893E0,-1.5924114E-1,3.042928E0,8.175939E0,4.1763794E-1,4.318631E0,-1.7565642E-1,3.7057393E0,5.14876E0,-6.229749E-1,2.6222983E-1,5.0507754E-2,2.7532224E-2,-6.650327E-3,4.6599894E0,1.8696152E-2,-2.3656273E-1,5.021278E-1,-1.2791891E-2,2.394002E-1,1.9065261E-1,6.1774355E-1,-8.4378505E-3,-2.6128026E-2,1.4901403E-1,3.3042368E-2,-2.4348558E-1,1.3009742E-1,2.9525623E-1,2.44997E0,2.7532587E-2,2.6587307E-4,-7.525722E-3,8.985829E-2,4.797158E-2,2.3841425E-3,3.0744083E-2,1.4063436E-1],"categories":[],"categories_nodes":[],"categories_segments":[],"categories_sizes":[],"default_left":[0,0,0,0,0,0,0,0,0,0,0,0,0,0,0,0,0,0,0,0,0,0,0,0,0,0,0,0,0,0,0,0,0,0,0,0,0,0,0,0,0],"id":10,"left_children":[1,3,5,7,9,11,13,15,17,19,21,23,25,-1,-1,-1,-1,27,-1,29,31,-1,-1,-1,33,-1,-1,-1,-1,35,-1,37,39,-1,-1,-1,-1,-1,-1,-1,-1],"loss_changes":[1.4353336E3,1.5958424E2,1.8613928E2,4.096498E1,8.998114E1,1.1128441E2,6.599158E1,1.8020601E0,9.710495E0,5.803649E1,1.0937375E2,4.5267197E1,2.6342535E-1,0E0,0E0,0E0,0E0,4.36615E0,0E0,4.1833E1,4.601922E1,0E0,0E0,0E0,5.398767E-1,0E0,0E0,0E0,0E0,3.1479286E1,0E0,2.9694904E1,3.0278206E1,0E0,0E0,0E0,0E0,0E0,0E0,0E0,0E0],"parents":[2147483647,0,0,1,1,2,2,3,3,4,4,5,5,6,6,7,7,8,8,9,9,10,10,11,11,12,12,17,17,19,19,20,20,24,24,29,29,31,31,32,32],"right_children":[2,4,6,8,10,12,14,16,18,20,22,24,26,-1,-1,-1,-1,28,-1,30,32,-1,-1,-1,34,-1,-1,-1,-1,36,-1,38,40,-1,-1,-1,-1,-1,-1,-1,-1],"split_conditions":[8.2138815E0,-1.2905842E1,7.4992375E0,7.559765E2,1.773E3,1.305E3,7.3027816E0,2.9965E2,3.0195E2,8E-1,7.09E1,1.143E1,6.401036E0,2.6222983E-1,5.0507754E-2,2.7532224E-2,-6.650327E-3,8.83E1,1.8696152E-2,1.864E3,8.78E1,-1.2791891E-2,2.394002E-1,1.9065261E-1,2.9975E2,-8.4378505E-3,-2.6128026E-2,1.4901403E-1,3.3042368E-2,3.0495E2,1.3009742E-1,3E0,3.00625E2,2.7532587E-2,2.6587307E-4,-7.525722E-3,8.985829E-2,4.797158E-2,2.3841425E-3,3.0744083E-2,1.4063436E-1],"split_indices":[23,5,15,18,19,19,17,2,2,23,3,0,4,0,0,0,0,13,0,18,3,0,0,0,2,0,0,0,0,10,0,26,25,0,0,0,0,0,0,0,0],"split_type":[0,0,0,0,0,0,0,0,0,0,0,0,0,0,0,0,0,0,0,0,0,0,0,0,0,0,0,0,0,0,0,0,0,0,0,0,0,0,0,0,0],"sum_hessian":[1.454E3,1.42E3,3.4E1,1.3E1,1.407E3,1.3E1,2.1E1,4E0,9E0,1.402E3,5E0,8E0,5E0,1.9E1,2E0,2E0,2E0,8E0,1E0,1.287E3,1.15E2,3E0,2E0,6E0,2E0,3E0,2E0,7E0,1E0,1.286E3,1E0,1.05E2,1E1,1E0,1E0,1.284E3,2E0,1.4E1,9.1E1,7E0,3E0],"tree_param":{"num_deleted":"0","num_feature":"28","num_nodes":"41","size_leaf_vector":"1"}},{"base_weights":[2.8244404E-2,-1.3646372E-1,6.794588E0,2.8800805E0,-1.6386807E-1,1.6337196E0,8.026459E0,3.9222705E0,1.0104804E0,-1.7990051E-1,4.4285297E0,4.064226E0,-6.374294E-1,6.4203663E0,3.8536206E-1,9.3220186E-1,1.429078E-1,3.3970326E-2,4.4707283E-2,-2.605728E-1,4.7176197E-1,-1.3185731E-2,2.346122E-1,1.4052099E-1,3.3072073E-2,-2.1288827E-2,-5.2295504E-3,-5.5406243E-3,6.7289906E0,4.442095E-2,-2.4718666E-3,-4.761573E-3,6.290238E-3,-3.1247348E-1,-3.9668687E-2,1.1582752E0,2.1096341E-1,1.8524233E-2,2.0971836E-1,2.42889E-2,-9.66289E-3,-6.824246E-3,5.41055E-3,7.308678E-2,1.569867E-2,-8.830488E-4,1.6782003E-2],"categories":[],"categories_nodes":[],"categories_segments":[],"categories_sizes":[],"default_left":[0,0,0,0,0,0,0,0,0,0,0,0,0,0,0,0,0,0,0,0,0,0,0,0,0,0,0,0,0,0,0,0,0,0,0,0,0,0,0,0,0,0,0,0,0,0,0],"id":11,"left_children":[1,3,5,7,9,11,13,15,17,19,21,23,25,27,-1,29,-1,31,-1,33,35,-1,-1,-1,-1,-1,-1,-1,37,-1,-1,-1,-1,39,41,43,45,-1,-1,-1,-1,-1,-1,-1,-1,-1,-1],"loss_changes":[1.6414296E3,1.1934631E2,2.0940027E2,2.1366837E1,1.0578924E2,4.675099E1,1.342384E2,1.5684265E1,2.7603326E0,7.487903E1,8.5996475E1,2.1793442E0,4.3477774E-2,4.812787E1,0E0,1.7915123E0,0E0,1.3484845E-1,0E0,1.4502396E1,2.7865189E1,0E0,0E0,0E0,0E0,0E0,0E0,0E0,3.0859314E1,0E0,0E0,0E0,0E0,1.1328583E1,1.0040752E1,3.361884E1,9.6492815E0,0E0,0E0,0E0,0E0,0E0,0E0,0E0,0E0,0E0,0E0],"parents":[2147483647,0,0,1,1,2,2,3,3,4,4,5,5,6,6,7,7,8,8,9,9,10,10,11,11,12,12,13,13,15,15,17,17,19,19,20,20,28,28,33,33,34,34,35,35,36,36],"right_children":[2,4,6,8,10,12,14,16,18,20,22,24,26,28,-1,30,-1,32,-1,34,36,-1,-1,-1,-1,-1,-1,-1,38,-1,-1,-1,-1,40,42,44,46,-1,-1,-1,-1,-1,-1,-1,-1,-1,-1],"split_conditions":[8.2138815E0,-1.2905842E1,6.8198624E0,8.83E1,1.773E3,3.024013E2,6.0968098E1,-1.5259145E1,8.78E1,5E-1,2.013E1,1.143E1,3.0319232E2,4.362322E1,3.8536206E-1,2.9985E2,1.429078E-1,3.0005E2,4.4707283E-2,1E-1,1.0039E5,-1.3185731E-2,2.346122E-1,1.4052099E-1,3.3072073E-2,-2.1288827E-2,-5.2295504E-3,-5.5406243E-3,-4.1827807E0,4.442095E-2,-2.4718666E-3,-4.761573E-3,6.290238E-3,5.21E1,7.396873E2,3.0065E2,8.405E1,1.8524233E-2,2.0971836E-1,2.42889E-2,-9.66289E-3,-6.824246E-3,5.41055E-3,7.308678E-2,1.569867E-2,-8.830488E-4,1.6782003E-2],"split_indices":[22,16,15,13,19,11,7,4,3,22,0,0,2,20,0,2,0,2,0,22,8,0,0,0,0,0,0,0,4,0,0,0,0,13,6,2,24,0,0,0,0,0,0,0,0,0,0],"split_type":[0,0,0,0,0,0,0,0,0,0,0,0,0,0,0,0,0,0,0,0,0,0,0,0,0,0,0,0,0,0,0,0,0,0,0,0,0,0,0,0,0,0,0,0,0,0,0],"sum_hessian":[1.471E3,1.437E3,3.4E1,1.2E1,1.425E3,7E0,2.7E1,7E0,5E0,1.421E3,4E0,3E0,4E0,2.2E1,5E0,2E0,5E0,2E0,3E0,1.265E3,1.56E2,2E0,2E0,2E0,1E0,3E0,1E0,1E0,2.1E1,1E0,1E0,1E0,1E0,1.024E3,2.41E2,4.2E1,1.14E2,1E0,2E1,8E0,1.016E3,1.3E2,1.11E2,1.3E1,2.9E1,6.8E1,4.6E1],"tree_param":{"num_deleted":"0","num_feature":"28","num_nodes":"47","size_leaf_vector":"1"}},{"base_weights":[7.997583E-3,-1.4906274E-1,6.6042957E0,-2.1653831E-1,1.3163452E0,-2.2997435E-2,7.612632E0,-2.3038745E-1,4.5566916E0,2.755333E0,3.601646E-1,6.1293344E0,3.7572798E-1,-3.0633375E-1,1.0194132E-2,1.8877637E-1,-9.763079E-3,4.6895847E0,1.3742175E0,1.9668186E-2,1.3456374E0,2.0578705E-1,5.8071214E-1,-3.1508365E-1,2.0299065E0,-1.06774256E-1,4.3509063E-1,1.7332861E-1,1.6131257E0,1.8747231E-1,1.8966042E0,-2.7476805E-1,6.360175E-1,1.6721342E0,1.3135768E-2,3.3881575E-2,-1.5979635E-2,3.2743025E-3,-9.592694E-3,1.461938E-1,-1.6266273E-2,-3.9249538E-3,2.3236513E-2,3.179583E-3,5.6857508E-2,6.039444E-2,6.1958837E-3,2.3503331E-2,-2.6523294E-3,7.262035E-2,-9.234597E-3,1.9549329E-2,-1.0610127E-2,3.5729755E-2,2.0260762E-3,5.723228E-2,3.877242E-3],"categories":[],"categories_nodes":[],"categories_segments":[],"categories_sizes":[],"default_left":[0,0,0,0,0,0,0,0,0,0,0,0,0,0,0,0,0,0,0,0,0,0,0,0,0,0,0,0,0,0,0,0,0,0,0,0,0,0,0,0,0,0,0,0,0,0,0,0,0,0,0,0,0,0,0,0,0],"id":12,"left_children":[1,3,5,7,9,-1,11,13,15,17,19,21,-1,23,25,-1,-1,27,29,31,33,-1,35,37,39,41,43,-1,45,47,49,51,53,55,-1,-1,-1,-1,-1,-1,-1,-1,-1,-1,-1,-1,-1,-1,-1,-1,-1,-1,-1,-1,-1,-1,-1],"loss_changes":[1.5146047E3,1.4148459E2,2.5853467E2,9.134943E1,8.569136E1,0E0,1.4179712E2,2.4906876E1,3.5946465E1,6.034111E1,1.3059983E1,9.73114E1,0E0,2.181733E1,1.634788E1,0E0,0E0,2.4152939E1,9.563478E0,5.6190243E0,2.2317085E0,0E0,3.0450726E0,2.0826569E0,3.189462E1,5.5715804E0,3.3917835E1,0E0,1.8349056E0,1.0557775E0,1.3453232E1,1.7654954E0,3.0744934E0,2.298071E0,0E0,0E0,0E0,0E0,0E0,0E0,0E0,0E0,0E0,0E0,0E0,0E0,0E0,0E0,0E0,0E0,0E0,0E0,0E0,0E0,0E0,0E0,0E0],"parents":[2147483647,0,0,1,1,2,2,3,3,4,4,6,6,7,7,8,8,9,9,10,10,11,11,13,13,14,14,17,17,18,18,19,19,20,20,22,22,23,23,24,24,25,25,26,26,28,28,29,29,30,30,31,31,32,32,33,33],"right_children":[2,4,6,8,10,-1,12,14,16,18,20,22,-1,24,26,-1,-1,28,30,32,34,-1,36,38,40,42,44,-1,46,48,50,52,54,56,-1,-1,-1,-1,-1,-1,-1,-1,-1,-1,-1,-1,-1,-1,-1,-1,-1,-1,-1,-1,-1,-1,-1],"split_conditions":[8.2138815E0,1.6E0,7.2E1,1.773E3,-2.8888888E0,-2.2997435E-2,9.605256E0,1E-1,1.0894E2,1.001E5,1.1129698E3,1.143E1,3.7572798E-1,3.0515103E2,8.54E1,1.8877637E-1,-9.763079E-3,8.83E1,7.5008325E2,9.454111E0,1.0019E5,2.0578705E-1,1.654E1,-8.687485E0,1.9582495E-1,3.0316187E2,3.0105E2,1.7332861E-1,3.0085E2,8.4E1,6.2932518E1,2.9925E2,7.29405E2,3.0195E2,1.3135768E-2,3.3881575E-2,-1.5979635E-2,3.2743025E-3,-9.592694E-3,1.461938E-1,-1.6266273E-2,-3.9249538E-3,2.3236513E-2,3.179583E-3,5.6857508E-2,6.039444E-2,6.1958837E-3,2.3503331E-2,-2.6523294E-3,7.262035E-2,-9.234597E-3,1.9549329E-2,-1.0610127E-2,3.5729755E-2,2.0260762E-3,5.723228E-2,3.877242E-3],"split_indices":[22,22,3,19,5,0,14,22,1,8,19,0,0,10,3,0,0,13,6,14,8,0,0,15,5,10,10,0,2,12,20,2,6,2,0,0,0,0,0,0,0,0,0,0,0,0,0,0,0,0,0,0,0,0,0,0,0],"split_type":[0,0,0,0,0,0,0,0,0,0,0,0,0,0,0,0,0,0,0,0,0,0,0,0,0,0,0,0,0,0,0,0,0,0,0,0,0,0,0,0,0,0,0,0,0,0,0,0,0,0,0,0,0,0,0,0,0],"sum_hessian":[1.46E3,1.427E3,3.3E1,1.365E3,6.2E1,4E0,2.9E1,1.362E3,3E0,2.4E1,3.8E1,2.4E1,5E0,1.035E3,3.27E2,2E0,1E0,9E0,1.5E1,2.9E1,9E0,2.1E1,3E0,1.032E3,3E0,2.57E2,7E1,6E0,3E0,5E0,1E1,2E1,9E0,6E0,3E0,2E0,1E0,1.1E1,1.021E3,1E0,2E0,2.51E2,6E0,5.8E1,1.2E1,2E0,1E0,1E0,4E0,8E0,2E0,1E0,1.9E1,4E0,5E0,5E0,1E0],"tree_param":{"num_deleted":"0","num_feature":"28","num_nodes":"57","size_leaf_vector":"1"}},{"base_weights":[-1.9869553E-2,-1.8220335E-1,4.9161916E0,-2.5084555E-1,4.0041625E-1,-6.931601E-1,5.6004753E0,-2.578916E-1,2.8320365E0,2.4697092E-1,1.4534589E0,-2.3031306E-2,-4.8061456E-3,7.217861E0,2.7973864E0,-3.0187798E-1,-6.25878E-2,1.3691513E-1,-9.4735E-3,8.0822146E-1,8.960678E-2,2.152763E-1,2.334385E0,-1.2530896E-2,7.5399914E0,1.8914695E0,1.9183525E-1,3.3297253E-1,-3.0526006E-1,-2.3592949E-1,1.3811204E-1,4.663076E-1,7.068439E-2,-3.575479E-2,5.3810257E-1,-1.2056293E-1,6.652161E-1,2.87316E0,-6.0068328E-2,1.9416755E-1,3.1549498E-1,2.5977705E0,-4.0686548E-2,4.1116208E-2,-4.4594714E-3,-9.828358E-3,-7.254651E-3,2.4302538E-2,-7.7743917E-3,2.9448292E-4,3.0514633E-2,3.4646483E-3,4.0557485E-2,-7.696107E-3,8.699292E-3,-3.4512242E-3,4.196079E-2,-8.614967E-3,4.2528464E-3,2.328232E-2,4.9894853E-3,3.8141534E-2,1.1700909E-1,6.3201524E-3,-9.023227E-3,8.663675E-2,-4.5516305E-3,1.3690852E-2,-1.5725179E-2],"categories":[],"categories_nodes":[],"categories_segments":[],"categories_sizes":[],"default_left":[0,0,0,0,0,0,0,0,0,0,0,0,0,0,0,0,0,0,0,0,0,0,0,0,0,0,0,0,0,0,0,0,0,0,0,0,0,0,0,0,0,0,0,0,0,0,0,0,0,0,0,0,0,0,0,0,0,0,0,0,0,0,0,0,0,0,0,0,0],"id":13,"left_children":[1,3,5,7,9,11,13,15,17,19,21,-1,-1,23,25,27,29,-1,-1,31,33,35,37,-1,39,41,-1,43,45,47,49,51,-1,53,55,57,59,61,63,-1,-1,65,67,-1,-1,-1,-1,-1,-1,-1,-1,-1,-1,-1,-1,-1,-1,-1,-1,-1,-1,-1,-1,-1,-1,-1,-1,-1,-1],"loss_changes":[1.182798E3,5.724942E1,1.8428613E2,2.8512962E1,2.4040295E1,1.15400314E-1,1.7022339E2,1.0951431E1,1.7795382E1,1.16742325E1,2.0221653E1,0E0,0E0,6.710022E1,4.3302765E1,2.3389435E0,8.242941E0,0E0,0E0,1.424976E1,5.9227743E0,1.4401673E0,1.4363377E1,0E0,1.1387939E1,2.0575954E1,0E0,3.2020197E0,1.3912125E0,3.2941527E0,1.2395549E1,7.6110845E0,0E0,6.0433865E0,1.3088954E1,3.0293268E-1,9.216046E-2,9.848488E0,2.5887084E-1,0E0,0E0,9.212692E0,1.4407921E0,0E0,0E0,0E0,0E0,0E0,0E0,0E0,0E0,0E0,0E0,0E0,0E0,0E0,0E0,0E0,0E0,0E0,0E0,0E0,0E0,0E0,0E0,0E0,0E0,0E0,0E0],"parents":[2147483647,0,0,1,1,2,2,3,3,4,4,5,5,6,6,7,7,8,8,9,9,10,10,13,13,14,14,15,15,16,16,19,19,20,20,21,21,22,22,24,24,25,25,27,27,28,28,29,29,30,30,31,31,33,33,34,34,35,35,36,36,37,37,38,38,41,41,42,42],"right_children":[2,4,6,8,10,12,14,16,18,20,22,-1,-1,24,26,28,30,-1,-1,32,34,36,38,-1,40,42,-1,44,46,48,50,52,-1,54,56,58,60,62,64,-1,-1,66,68,-1,-1,-1,-1,-1,-1,-1,-1,-1,-1,-1,-1,-1,-1,-1,-1,-1,-1,-1,-1,-1,-1,-1,-1,-1,-1],"split_conditions":[4.9E0,5E-1,7.59E1,1.773E3,8.78E1,2.013E1,6.2084137E1,1E-1,1.052E1,-4.0333705E0,2.9935E2,-2.3031306E-2,-4.8061456E-3,6E-1,6.44995E1,-9.245193E0,7.396873E2,1.3691513E-1,-9.4735E-3,3.2E0,6.3433796E1,5E-1,6.406991E1,-1.2530896E-2,6.018076E1,3.0145E2,1.9183525E-1,2.9805E2,6.0251858E1,-1.0854785E1,3.0206186E2,-5.932152E0,7.068439E-2,7.9201674E0,7.630665E2,7.67139E2,1.538E1,6.2229893E1,8.68E0,1.9416755E-1,3.1549498E-1,1.04E3,-8.5985595E-1,4.1116208E-2,-4.4594714E-3,-9.828358E-3,-7.254651E-3,2.4302538E-2,-7.7743917E-3,2.9448292E-4,3.0514633E-2,3.4646483E-3,4.0557485E-2,-7.696107E-3,8.699292E-3,-3.4512242E-3,4.196079E-2,-8.614967E-3,4.2528464E-3,2.328232E-2,4.9894853E-3,3.8141534E-2,1.1700909E-1,6.3201524E-3,-9.023227E-3,8.663675E-2,-4.5516305E-3,1.3690852E-2,-1.5725179E-2],"split_indices":[22,22,3,19,3,0,20,22,0,16,2,0,0,23,20,4,6,0,0,22,20,23,7,0,20,11,0,2,21,5,10,16,0,14,19,18,0,7,0,0,0,6,4,0,0,0,0,0,0,0,0,0,0,0,0,0,0,0,0,0,0,0,0,0,0,0,0,0,0],"split_type":[0,0,0,0,0,0,0,0,0,0,0,0,0,0,0,0,0,0,0,0,0,0,0,0,0,0,0,0,0,0,0,0,0,0,0,0,0,0,0,0,0,0,0,0,0,0,0,0,0,0,0,0,0,0,0,0,0,0,0,0,0,0,0,0,0,0,0,0,0],"sum_hessian":[1.474E3,1.428E3,4.6E1,1.278E3,1.5E2,5E0,4.1E1,1.276E3,2E0,1.32E2,1.8E1,4E0,1E0,2.5E1,1.6E1,1.041E3,2.35E2,1E0,1E0,2.8E1,1.04E2,8E0,1E1,1E0,2.4E1,1.4E1,2E0,5E0,1.036E3,1.26E2,1.09E2,2.4E1,4E0,8.2E1,2.2E1,5E0,3E0,8E0,2E0,2E1,4E0,1E1,4E0,1E0,4E0,7.63E2,2.73E2,2E0,1.24E2,9.6E1,1.3E1,1.8E1,6E0,4.9E1,3.3E1,1.3E1,9E0,3E0,2E0,2E0,1E0,4E0,4E0,1E0,1E0,9E0,1E0,2E0,2E0],"tree_param":{"num_deleted":"0","num_feature":"28","num_nodes":"69","size_leaf_vector":"1"}},{"base_weights":[2.707698E-2,-1.381062E-1,5.927569E0,2.7459002E0,-1.6652285E-1,-1.4496606E-2,6.460423E0,5.7646304E-1,3.8870914E0,-1.7943196E-1,4.435252E0,6.968298E0,5.283791E-1,3.225865E-2,-8.423752E-3,4.2248135E0,1.7779712E-2,-2.3732167E-1,5.017368E-1,1.8372643E-1,-9.47453E-3,-8.198851E-3,7.1960216E0,3.1471204E-2,-1.5504064E-2,1.3637342E-1,2.9670654E-2,-2.4435924E-1,2.8937385E0,1.2712498E-1,1.6076531E0,1.3248594E-1,2.3323745E-1,-9.002904E-3,-1.3650019E-3,-1.3930088E-2,1.4414832E-1,1.0310562E-3,2.6888298E-2,1.0074993E-2,8.062525E-2],"categories":[],"categories_nodes":[],"categories_segments":[],"categories_sizes":[],"default_left":[0,0,0,0,0,0,0,0,0,0,0,0,0,0,0,0,0,0,0,0,0,0,0,0,0,0,0,0,0,0,0,0,0,0,0,0,0,0,0,0,0],"id":14,"left_children":[1,3,5,7,9,-1,11,13,15,17,19,21,23,-1,-1,25,-1,27,29,-1,-1,-1,31,-1,-1,-1,-1,33,35,37,39,-1,-1,-1,-1,-1,-1,-1,-1,-1,-1],"loss_changes":[1.4316224E3,1.1756925E2,1.3976233E2,3.2419624E1,8.491308E1,0E0,1.0778931E2,2.8676543E0,7.5095673E0,5.583744E1,3.4031654E1,5.8035522E1,2.7188873E0,0E0,0E0,3.81279E0,0E0,2.9418724E1,4.578174E1,0E0,0E0,0E0,1.8739502E1,0E0,0E0,0E0,0E0,1.4406532E1,2.1485022E1,5.962073E0,3.7552124E1,0E0,0E0,0E0,0E0,0E0,0E0,0E0,0E0,0E0,0E0],"parents":[2147483647,0,0,1,1,2,2,3,3,4,4,6,6,7,7,8,8,9,9,10,10,11,11,12,12,15,15,17,17,18,18,22,22,27,27,28,28,29,29,30,30],"right_children":[2,4,6,8,10,-1,12,14,16,18,20,22,24,-1,-1,26,-1,28,30,-1,-1,-1,32,-1,-1,-1,-1,34,36,38,40,-1,-1,-1,-1,-1,-1,-1,-1,-1,-1],"split_conditions":[8.2138815E0,-1.2905842E1,7.2E1,7.599924E2,1.773E3,-1.4496606E-2,2.1E1,2.9975E2,3.0195E2,8E-1,1.0894E2,4.362322E1,1.654E1,3.225865E-2,-8.423752E-3,6.7E0,1.7779712E-2,3.0515103E2,9.014288E0,1.8372643E-1,-9.47453E-3,-8.198851E-3,7.243069E2,3.1471204E-2,-1.5504064E-2,1.3637342E-1,2.9670654E-2,1E-1,3.0318845E2,1.1910554E1,8.405E1,1.3248594E-1,2.3323745E-1,-9.002904E-3,-1.3650019E-3,-1.3930088E-2,1.4414832E-1,1.0310562E-3,2.6888298E-2,1.0074993E-2,8.062525E-2],"split_indices":[22,5,3,18,19,0,26,2,2,22,1,20,0,0,0,22,0,10,4,0,0,0,6,0,0,0,0,22,2,5,24,0,0,0,0,0,0,0,0,0,0],"split_type":[0,0,0,0,0,0,0,0,0,0,0,0,0,0,0,0,0,0,0,0,0,0,0,0,0,0,0,0,0,0,0,0,0,0,0,0,0,0,0,0,0],"sum_hessian":[1.467E3,1.428E3,3.9E1,1.3E1,1.415E3,3E0,3.6E1,5E0,8E0,1.412E3,3E0,3.3E1,3E0,3E0,2E0,7E0,1E0,1.302E3,1.1E2,2E0,1E0,1E0,3.2E1,2E0,1E0,6E0,1E0,1.3E3,2E0,8.3E1,2.7E1,7E0,2.5E1,1.015E3,2.85E2,1E0,1E0,7.5E1,8E0,1.3E1,1.4E1],"tree_param":{"num_deleted":"0","num_feature":"28","num_nodes":"41","size_leaf_vector":"1"}},{"base_weights":[-2.2867456E-2,-1.5395495E-1,5.90546E0,-1.6930632E-1,2.1874815E-1,-6.7269826E-1,6.8692217E0,-2.4042907E-1,6.711888E-1,-7.355658E-3,-2.6279254E-2,5.688254E0,3.759889E-1,-2.8854856E-1,-5.3395946E-2,1.6525711E0,8.939369E-2,6.160013E0,1.7534792E-1,1.691031E-1,-2.9175147E-1,-2.1216826E-1,2.6822495E-1,3.347402E-1,2.72666E0,1.0119092E0,-2.5521977E-2,3.0296147E-2,1.9044621E-1,-8.075869E-3,1.5966525E-2,4.0634505E-2,-5.8120387E-3,-8.784658E-3,1.2515681E-2,-7.139418E-3,2.27853E-2,-1.4430623E-5,2.8200252E-2,2.9131355E-2,-2.1966896E-4,7.683907E-3,8.849255E-2,4.3371387E-2,-5.790034E-3,-3.011658E-3,1.8274281E-2],"categories":[],"categories_nodes":[],"categories_segments":[],"categories_sizes":[],"default_left":[0,0,0,0,0,0,0,0,0,0,0,0,0,0,0,0,0,0,0,0,0,0,0,0,0,0,0,0,0,0,0,0,0,0,0,0,0,0,0,0,0,0,0,0,0,0,0],"id":15,"left_children":[1,3,5,7,-1,9,11,13,15,-1,-1,17,-1,19,21,23,25,27,29,31,33,35,37,39,41,43,45,-1,-1,-1,-1,-1,-1,-1,-1,-1,-1,-1,-1,-1,-1,-1,-1,-1,-1,-1,-1],"loss_changes":[1.1495067E3,1.6662593E2,2.0749377E2,8.654107E1,0E0,2.1973515E-1,1.159928E2,1.1981514E1,6.4371124E1,0E0,0E0,6.3939026E1,0E0,1.6031036E0,1.404858E1,5.853692E1,7.6586533E0,1.5881287E1,6.192028E-1,3.7032166E0,9.212723E-1,4.7957077E0,1.6427063E1,4.3602324E0,1.1921036E1,4.460581E0,3.1496391E0,0E0,0E0,0E0,0E0,0E0,0E0,0E0,0E0,0E0,0E0,0E0,0E0,0E0,0E0,0E0,0E0,0E0,0E0,0E0,0E0],"parents":[2147483647,0,0,1,1,2,2,3,3,5,5,6,6,7,7,8,8,11,11,13,13,14,14,15,15,16,16,17,17,18,18,19,19,20,20,21,21,22,22,23,23,24,24,25,25,26,26],"right_children":[2,4,6,8,-1,10,12,14,16,-1,-1,18,-1,20,22,24,26,28,30,32,34,36,38,40,42,44,46,-1,-1,-1,-1,-1,-1,-1,-1,-1,-1,-1,-1,-1,-1,-1,-1,-1,-1,-1,-1],"split_conditions":[8.2138815E0,2.016E3,7.2E1,8E-1,2.1874815E-1,4.5170116E0,1.5132741E1,1E-1,1.0039E5,-7.355658E-3,-2.6279254E-2,1.1903571E1,3.759889E-1,-9.245193E0,8.48E1,8.48E1,3E0,2.9925E2,1.052E1,2.9805E2,1.2424825E1,3.0316187E2,7.199512E0,3.0025E2,-1.5259145E1,6.210928E1,8.83E1,3.0296147E-2,1.9044621E-1,-8.075869E-3,1.5966525E-2,4.0634505E-2,-5.8120387E-3,-8.784658E-3,1.2515681E-2,-7.139418E-3,2.27853E-2,-1.4430623E-5,2.8200252E-2,2.9131355E-2,-2.1966896E-4,7.683907E-3,8.849255E-2,4.3371387E-2,-5.790034E-3,-3.011658E-3,1.8274281E-2],"split_indices":[22,6,3,22,0,4,4,22,8,0,0,23,0,4,3,3,26,2,0,2,4,10,4,10,4,21,3,0,0,0,0,0,0,0,0,0,0,0,0,0,0,0,0,0,0,0,0],"split_type":[0,0,0,0,0,0,0,0,0,0,0,0,0,0,0,0,0,0,0,0,0,0,0,0,0,0,0,0,0,0,0,0,0,0,0,0,0,0,0,0,0,0,0,0,0,0,0],"sum_hessian":[1.477E3,1.446E3,3.1E1,1.444E3,2E0,4E0,2.7E1,1.332E3,1.12E2,2E0,2E0,2.4E1,3E0,1.059E3,2.73E2,4.1E1,7.1E1,2.2E1,2E0,7E0,1.052E3,1.83E2,9E1,1.9E1,2.2E1,7E0,6.4E1,1E0,2.1E1,1E0,1E0,1E0,6E0,1.051E3,1E0,1.79E2,4E0,6.5E1,2.5E1,6E0,1.3E1,2E0,2E1,5E0,2E0,5.8E1,6E0],"tree_param":{"num_deleted":"0","num_feature":"28","num_nodes":"47","size_leaf_vector":"1"}},{"base_weights":[1.422035E-2,-1.3427415E-1,4.555906E0,-1.4972317E-1,2.1437319E-1,5.5778933E0,1.8215138E0,-2.0317337E-1,7.040641E-1,-5.656593E-1,6.211104E0,-1.2385993E-2,2.4684234E0,-2.1005994E-1,2.8969405E0,4.156767E-1,2.0957108E0,-2.3126738E-2,-7.208545E-3,-7.95473E-3,1.93307E-1,2.9605865E0,1.6912629E-1,-2.168198E-1,2.0698264E0,-1.1755546E-2,1.4211786E-1,-4.0370084E-2,1.0250847E0,3.8437626E-1,3.0037434E0,1.7377806E0,1.2163946E-1,-5.8262097E-3,1.3436892E-2,-8.406598E-3,-1.3275642E-4,-9.27636E-3,1.3810413E-1,-5.7591787E-3,2.1702295E-2,6.0915496E-2,1.2625289E-2,2.9427871E-2,-4.7739726E-3,3.862908E-2,1.0941574E-1,5.6269288E-2,1.5727028E-2],"categories":[],"categories_nodes":[],"categories_segments":[],"categories_sizes":[],"default_left":[0,0,0,0,0,0,0,0,0,0,0,0,0,0,0,0,0,0,0,0,0,0,0,0,0,0,0,0,0,0,0,0,0,0,0,0,0,0,0,0,0,0,0,0,0,0,0,0,0],"id":16,"left_children":[1,3,5,7,-1,9,11,13,15,17,19,-1,21,23,25,27,29,-1,-1,-1,-1,31,33,35,37,-1,-1,39,41,43,45,47,-1,-1,-1,-1,-1,-1,-1,-1,-1,-1,-1,-1,-1,-1,-1,-1,-1],"loss_changes":[9.798628E2,1.5931456E2,1.1838739E2,6.426036E1,0E0,1.318888E2,2.1255322E1,2.8853485E1,3.243952E1,8.187544E-2,4.6873413E1,0E0,1.1947197E1,2.0807629E1,2.0013609E1,1.9495686E1,2.0600704E1,0E0,0E0,0E0,0E0,4.9943542E0,3.9084402E-1,1.7746742E1,2.5533998E1,0E0,0E0,4.8863044E0,1.7371193E1,2.1014876E0,5.241768E0,2.0536423E-2,0E0,0E0,0E0,0E0,0E0,0E0,0E0,0E0,0E0,0E0,0E0,0E0,0E0,0E0,0E0,0E0,0E0],"parents":[2147483647,0,0,1,1,2,2,3,3,5,5,6,6,7,7,8,8,9,9,10,10,12,12,13,13,14,14,15,15,16,16,21,21,22,22,23,23,24,24,27,27,28,28,29,29,30,30,31,31],"right_children":[2,4,6,8,-1,10,12,14,16,18,20,-1,22,24,26,28,30,-1,-1,-1,-1,32,34,36,38,-1,-1,40,42,44,46,48,-1,-1,-1,-1,-1,-1,-1,-1,-1,-1,-1,-1,-1,-1,-1,-1,-1],"split_conditions":[5.1E0,2.016E3,6.168059E1,1E0,2.1437319E-1,7.16E1,1.1E0,3.0495E2,8.78E1,1.0773E2,4.362322E1,-1.2385993E-2,1.04E3,3.0465E2,1.654E1,6.246975E1,-8.99597E0,-2.3126738E-2,-7.208545E-3,-7.95473E-3,1.93307E-1,2.013E1,2.013E1,1E-1,1.654E1,-1.1755546E-2,1.4211786E-1,8.627017E0,1.1063E2,8.83E1,6.219388E1,3.0085E2,1.2163946E-1,-5.8262097E-3,1.3436892E-2,-8.406598E-3,-1.3275642E-4,-9.27636E-3,1.3810413E-1,-5.7591787E-3,2.1702295E-2,6.0915496E-2,1.2625289E-2,2.9427871E-2,-4.7739726E-3,3.862908E-2,1.0941574E-1,5.6269288E-2,1.5727028E-2],"split_indices":[22,6,20,22,0,3,23,10,3,1,20,0,6,11,0,20,15,0,0,0,0,0,0,22,0,0,0,4,1,12,7,2,0,0,0,0,0,0,0,0,0,0,0,0,0,0,0,0,0],"split_type":[0,0,0,0,0,0,0,0,0,0,0,0,0,0,0,0,0,0,0,0,0,0,0,0,0,0,0,0,0,0,0,0,0,0,0,0,0,0,0,0,0,0,0,0,0,0,0,0,0],"sum_hessian":[1.451E3,1.406E3,4.5E1,1.404E3,2E0,3.2E1,1.3E1,1.322E3,8.2E1,3E0,2.9E1,3E0,1E1,1.32E3,2E0,6.9E1,1.3E1,1E0,2E0,1E0,2.8E1,8E0,2E0,1.317E3,3E0,1E0,1E0,4E1,2.9E1,5E0,8E0,5E0,3E0,1E0,1E0,1.014E3,3.03E2,2E0,1E0,3.4E1,6E0,1E1,1.9E1,2E0,3E0,3E0,5E0,4E0,1E0],"tree_param":{"num_deleted":"0","num_feature":"28","num_nodes":"49","size_leaf_vector":"1"}},{"base_weights":[2.5359394E-2,-1.08899236E-1,5.8383965E0,-1.2956102E-1,4.8129807E0,3.3618197E-1,4.711612E0,-1.838504E-1,1.199934E0,2.2558057E-1,-1.1995272E-2,1.5687283E0,5.640315E0,-2.3768306E-1,2.1040542E-1,2.110122E0,2.7975467E-1,-2.2645225E-1,8.073381E-2,1.7897584E-1,-1.7942406E-2,-2.4452619E-1,1.878096E0,1.505878E0,1.4348021E-1,2.721198E0,7.380654E-1,-9.362448E-2,1.466607E0,-1.9385504E-2,1.5491123E-2,-8.8766385E-3,-4.8831156E-3,1.399861E-1,-1.8200232E-2,5.9217706E-2,2.0348174E-3,1.6436664E-2,-1.9760348E-3,1.2017687E-1,3.4931414E-2,-2.2354652E-3,3.876616E-2,-7.7827806E-3,3.2945834E-2,5.7374243E-2,7.0387498E-3],"categories":[],"categories_nodes":[],"categories_segments":[],"categories_sizes":[],"default_left":[0,0,0,0,0,0,0,0,0,0,0,0,0,0,0,0,0,0,0,0,0,0,0,0,0,0,0,0,0,0,0,0,0,0,0,0,0,0,0,0,0,0,0,0,0,0,0],"id":17,"left_children":[1,3,5,7,9,-1,11,13,15,-1,-1,17,19,21,23,25,27,29,-1,-1,-1,31,33,35,37,39,41,43,45,-1,-1,-1,-1,-1,-1,-1,-1,-1,-1,-1,-1,-1,-1,-1,-1,-1,-1],"loss_changes":[1.1408738E3,1.4594545E2,1.4679224E2,1.030013E2,8.7653595E1,0E0,7.579718E1,2.910545E1,4.6311714E1,0E0,0E0,1.6728682E1,4.824762E1,1.7905876E1,1.4089401E1,2.1467636E1,1.2988542E1,1.5808146E0,0E0,0E0,0E0,4.999176E0,3.0542091E1,5.250704E0,1.3412706E1,3.333638E1,4.599124E0,4.829825E0,3.3963938E0,0E0,0E0,0E0,0E0,0E0,0E0,0E0,0E0,0E0,0E0,0E0,0E0,0E0,0E0,0E0,0E0,0E0,0E0],"parents":[2147483647,0,0,1,1,2,2,3,3,4,4,6,6,7,7,8,8,11,11,12,12,13,13,14,14,15,15,16,16,17,17,21,21,22,22,23,23,24,24,25,25,26,26,27,27,28,28],"right_children":[2,4,6,8,10,-1,12,14,16,-1,-1,18,20,22,24,26,28,30,-1,-1,-1,32,34,36,38,40,42,44,46,-1,-1,-1,-1,-1,-1,-1,-1,-1,-1,-1,-1,-1,-1,-1,-1,-1,-1],"split_conditions":[8.2138815E0,1.773E3,9.885E4,1.6E0,1.0894E2,3.3618197E-1,3.0235E2,3E-1,1.004E5,2.2558057E-1,-1.1995272E-2,8.01E1,1.143E1,3.0515103E2,9.98E4,4E0,8.417475E0,1.052E1,8.073381E-2,1.7897584E-1,-1.7942406E-2,5.8282696E1,-2.7206812E0,8.4E1,3.0005E2,-4.787269E0,3.9E0,8.83E1,3.0005E2,-1.9385504E-2,1.5491123E-2,-8.8766385E-3,-4.8831156E-3,1.399861E-1,-1.8200232E-2,5.9217706E-2,2.0348174E-3,1.6436664E-2,-1.9760348E-3,1.2017687E-1,3.4931414E-2,-2.2354652E-3,3.876616E-2,-7.7827806E-3,3.2945834E-2,5.7374243E-2,7.0387498E-3],"split_indices":[22,19,8,22,1,0,11,22,8,0,0,3,0,10,8,23,4,0,0,0,0,7,4,12,2,17,22,3,2,0,0,0,0,0,0,0,0,0,0,0,0,0,0,0,0,0,0],"split_type":[0,0,0,0,0,0,0,0,0,0,0,0,0,0,0,0,0,0,0,0,0,0,0,0,0,0,0,0,0,0,0,0,0,0,0,0,0,0,0,0,0,0,0,0,0,0,0],"sum_hessian":[1.46E3,1.428E3,3.2E1,1.423E3,5E0,4E0,2.8E1,1.368E3,5.5E1,3E0,2E0,7E0,2.1E1,1.204E3,1.64E2,2.7E1,2.8E1,3E0,4E0,2E1,1E0,1.201E3,3E0,7E0,1.57E2,1.8E1,9E0,2.2E1,6E0,2E0,1E0,7.36E2,4.65E2,1E0,2E0,5E0,2E0,5.3E1,1.04E2,9E0,9E0,4E0,5E0,2E1,2E0,4E0,2E0],"tree_param":{"num_deleted":"0","num_feature":"28","num_nodes":"47","size_leaf_vector":"1"}},{"base_weights":[8.82883E-3,-1.4219366E-1,4.8480644E0,-2.0394135E-1,3.8319093E-1,2.1485608E0,6.921725E0,-2.1286976E-1,3.7002854E0,1.5153411E-1,1.4036877E0,-9.180939E-2,3.2753036E0,3.2811365E-1,5.636072E0,-2.1975742E-1,2.8128912E0,-1.9623332E-2,1.8613617E-1,-2.1848418E-1,2.7588573E-1,3.215187E0,6.4675045E-1,4.9001083E-2,-5.71602E-1,1.1117616E0,4.75899E0,1.8799694E-1,1.3898365E0,-2.2680487E-1,1.3264886E-1,-1.13062095E-2,1.3788632E-1,-3.1547007E-1,6.442085E-2,9.41108E-1,1.4770797E-1,1.1847533E-2,1.0684997E-1,1.2560172E-1,1.2074538E0,-6.691095E-3,-1.9992625E-2,-1.6809825E-2,1.8926626E0,-2.1088008E-2,1.6919051E-1,4.7157563E-2,1.2653846E-2,-7.5308373E-3,-1.1307687E-4,-1.0480252E-2,1.1423685E-3,1.0207621E-2,-3.9061424E-3,8.352697E-2,5.3306844E-4,1.9860212E-2,2.636802E-4,3.2110523E-2,-5.111495E-3,5.605048E-2,1.9719174E-2,6.953006E-2,2.8895687E-3],"categories":[],"categories_nodes":[],"categories_segments":[],"categories_sizes":[],"default_left":[0,0,0,0,0,0,0,0,0,0,0,0,0,0,0,0,0,0,0,0,0,0,0,0,0,0,0,0,0,0,0,0,0,0,0,0,0,0,0,0,0,0,0,0,0,0,0,0,0,0,0,0,0,0,0,0,0,0,0,0,0,0,0,0,0],"id":18,"left_children":[1,3,5,7,9,11,13,15,17,19,21,23,25,-1,27,29,31,-1,-1,33,35,37,39,-1,41,43,45,-1,47,49,-1,-1,-1,51,53,55,57,-1,-1,59,61,-1,-1,-1,63,-1,-1,-1,-1,-1,-1,-1,-1,-1,-1,-1,-1,-1,-1,-1,-1,-1,-1,-1,-1],"loss_changes":[1.0867078E3,4.685848E1,2.3703174E2,4.579012E1,3.5720856E1,5.3311455E1,6.7417725E1,2.7481434E1,3.6772E1,5.811824E0,3.631393E1,7.5554614E0,3.964937E1,0E0,4.7512085E1,4.3100506E1,1.87973E1,0E0,0E0,8.983321E-1,7.87606E0,6.410736E0,5.984749E0,0E0,8.2717896E-2,1.0200664E1,4.2446594E1,0E0,4.2025566E-2,6.946785E0,0E0,0E0,0E0,3.0070972E-1,5.274605E-1,2.5477955E1,5.70984E0,0E0,0E0,3.5379472E0,2.4078264E0,0E0,0E0,0E0,3.5940514E0,0E0,0E0,0E0,0E0,0E0,0E0,0E0,0E0,0E0,0E0,0E0,0E0,0E0,0E0,0E0,0E0,0E0,0E0,0E0,0E0],"parents":[2147483647,0,0,1,1,2,2,3,3,4,4,5,5,6,6,7,7,8,8,9,9,10,10,11,11,12,12,14,14,15,15,16,16,19,19,20,20,21,21,22,22,24,24,25,25,26,26,28,28,29,29,33,33,34,34,35,35,36,36,39,39,40,40,44,44],"right_children":[2,4,6,8,10,12,14,16,18,20,22,24,26,-1,28,30,32,-1,-1,34,36,38,40,-1,42,44,46,-1,48,50,-1,-1,-1,52,54,56,58,-1,-1,60,62,-1,-1,-1,64,-1,-1,-1,-1,-1,-1,-1,-1,-1,-1,-1,-1,-1,-1,-1,-1,-1,-1,-1,-1],"split_conditions":[4.2E0,5E-1,7.4992375E0,2.016E3,8.62E1,8.01E1,9.885E4,3.0495E2,2.013E1,6.0515804E1,1.001E5,2.9945E2,3.0165E2,3.2811365E-1,6.219388E1,3.0465E2,1.654E1,-1.9623332E-2,1.8613617E-1,7.243069E2,2.9985E2,-1.5259145E1,1.0915E2,4.9001083E-2,4.5170116E0,8.78E1,7.2E1,1.8799694E-1,3.0155E2,7.5821486E0,1.3264886E-1,-1.13062095E-2,1.3788632E-1,1.8E0,1.0773E2,1.006E5,-3.1206357E0,1.1847533E-2,1.0684997E-1,6.107138E1,1.005E5,-6.691095E-3,-1.9992625E-2,-1.6809825E-2,-6.5996633E0,-2.1088008E-2,1.6919051E-1,4.7157563E-2,1.2653846E-2,-7.5308373E-3,-1.1307687E-4,-1.0480252E-2,1.1423685E-3,1.0207621E-2,-3.9061424E-3,8.352697E-2,5.3306844E-4,1.9860212E-2,2.636802E-4,3.2110523E-2,-5.111495E-3,5.605048E-2,1.9719174E-2,6.953006E-2,2.8895687E-3],"split_indices":[22,22,15,6,3,13,8,10,0,7,8,2,10,0,7,11,0,0,0,6,2,4,1,0,4,3,3,0,2,4,0,0,0,22,1,8,5,0,0,7,8,0,0,0,5,0,0,0,0,0,0,0,0,0,0,0,0,0,0,0,0,0,0,0,0],"split_type":[0,0,0,0,0,0,0,0,0,0,0,0,0,0,0,0,0,0,0,0,0,0,0,0,0,0,0,0,0,0,0,0,0,0,0,0,0,0,0,0,0,0,0,0,0,0,0,0,0,0,0,0,0,0,0,0,0,0,0,0,0,0,0,0,0],"sum_hessian":[1.485E3,1.441E3,4.4E1,1.29E3,1.51E2,2E1,2.4E1,1.288E3,2E0,1.24E2,2.7E1,7E0,1.3E1,4E0,2E1,1.286E3,2E0,1E0,1E0,3.1E1,9.3E1,7E0,2E1,1E0,6E0,6E0,7E0,1.7E1,3E0,1.285E3,1E0,1E0,1E0,2.3E1,8E0,1.4E1,7.9E1,1E0,6E0,1.1E1,9E0,2E0,4E0,2E0,4E0,1E0,6E0,2E0,1E0,1.159E3,1.26E2,2.1E1,2E0,3E0,5E0,4E0,1E1,1.6E1,6.3E1,2E0,9E0,3E0,6E0,3E0,1E0],"tree_param":{"num_deleted":"0","num_feature":"28","num_nodes":"65","size_leaf_vector":"1"}},{"base_weights":[1.8303754E-2,-1.4068666E-1,4.641631E0,-1.5529968E-1,5.089412E0,3.725979E0,9.60326E0,-2.1778129E-1,3.8402027E-1,-8.63852E-3,2.0933549E-1,-4.56156E-1,4.2882643E0,5.0929576E-2,3.1913754E-1,1.0670013E0,-2.2469673E-1,2.3151414E-1,1.2952948E0,-1.4850159E-2,-3.928639E-3,-8.1446874E-1,4.748912E0,-7.927628E-3,1.3581802E-1,8.2026136E-1,-2.3114282E-1,-3.820471E-1,3.6246127E-1,2.3253279E0,3.2899258E-1,-5.90727E-3,-2.864057E-2,5.499869E0,2.3215322E0,1.0477438E-2,3.6118884E-2,-8.374548E-3,-4.655634E-3,-1.469459E-2,-6.598437E-3,2.9935721E-2,4.3045287E-3,9.320642E-2,1.1288353E-2,-1.3515631E-3,2.1316377E-2,-1.0220157E-2,1.7241351E-1,7.675192E-2,2.846226E-3],"categories":[],"categories_nodes":[],"categories_segments":[],"categories_sizes":[],"default_left":[0,0,0,0,0,0,0,0,0,0,0,0,0,0,0,0,0,0,0,0,0,0,0,0,0,0,0,0,0,0,0,0,0,0,0,0,0,0,0,0,0,0,0,0,0,0,0,0,0,0,0],"id":19,"left_children":[1,3,5,7,9,11,13,15,17,-1,-1,19,21,-1,-1,23,25,27,29,-1,-1,31,33,-1,-1,35,37,39,41,43,45,-1,-1,47,49,-1,-1,-1,-1,-1,-1,-1,-1,-1,-1,-1,-1,-1,-1,-1,-1],"loss_changes":[1.0834033E3,1.096996E2,1.8683142E2,4.8001583E1,4.2628532E1,1.03072815E2,3.9197754E1,1.1567932E1,2.0268412E1,0E0,0E0,1.0979772E-2,9.318921E1,0E0,0E0,3.344184E1,8.73745E0,1.0422519E1,2.0136776E1,0E0,0E0,1.583829E-1,5.103192E1,0E0,0E0,1.0253463E0,4.558571E0,2.940719E-1,1.4605359E1,1.4063797E1,1.7446277E0,0E0,0E0,3.950354E1,5.0314407E0,0E0,0E0,0E0,0E0,0E0,0E0,0E0,0E0,0E0,0E0,0E0,0E0,0E0,0E0,0E0,0E0],"parents":[2147483647,0,0,1,1,2,2,3,3,4,4,5,5,6,6,7,7,8,8,11,11,12,12,15,15,16,16,17,17,18,18,21,21,22,22,25,25,26,26,27,27,28,28,29,29,30,30,33,33,34,34],"right_children":[2,4,6,8,10,12,14,16,18,-1,-1,20,22,-1,-1,24,26,28,30,-1,-1,32,34,-1,-1,36,38,40,42,44,46,-1,-1,48,50,-1,-1,-1,-1,-1,-1,-1,-1,-1,-1,-1,-1,-1,-1,-1,-1],"split_conditions":[4.9E0,1.773E3,1.5132741E1,5E-1,2.013E1,1.1E0,2.9985E2,5.21E1,8.78E1,-8.63852E-3,2.0933549E-1,2.013E1,7.2E1,5.0929576E-2,3.1913754E-1,6.7E1,-1.0854785E1,8.01E1,1.005E5,-1.4850159E-2,-3.928639E-3,8.68E0,6.168059E1,-7.927628E-3,1.3581802E-1,8.48E1,5.9256264E1,1.0915E2,1.0039E5,8.78E1,9.02E1,-5.90727E-3,-2.864057E-2,4.362322E1,1.04E3,1.0477438E-2,3.6118884E-2,-8.374548E-3,-4.655634E-3,-1.469459E-2,-6.598437E-3,2.9935721E-2,4.3045287E-3,9.320642E-2,1.1288353E-2,-1.3515631E-3,2.1316377E-2,-1.0220157E-2,1.7241351E-1,7.675192E-2,2.846226E-3],"split_indices":[22,19,4,22,0,23,2,13,3,0,0,0,3,0,0,3,16,3,8,0,0,0,20,0,0,13,7,1,8,13,3,0,0,20,6,0,0,0,0,0,0,0,0,0,0,0,0,0,0,0,0],"split_type":[0,0,0,0,0,0,0,0,0,0,0,0,0,0,0,0,0,0,0,0,0,0,0,0,0,0,0,0,0,0,0,0,0,0,0,0,0,0,0,0,0,0,0,0,0,0,0,0,0,0,0],"sum_hessian":[1.472E3,1.424E3,4.8E1,1.421E3,3E0,4.2E1,6E0,1.274E3,1.47E2,1E0,2E0,5E0,3.7E1,1E0,5E0,6E0,1.268E3,1.27E2,2E1,4E0,1E0,3E0,3.4E1,5E0,1E0,7E0,1.261E3,2.2E1,1.05E2,9E0,1.1E1,1E0,2E0,2.5E1,9E0,4E0,3E0,7.71E2,4.9E2,1.2E1,1E1,2.6E1,7.9E1,6E0,3E0,6E0,5E0,1E0,2.4E1,8E0,1E0],"tree_param":{"num_deleted":"0","num_feature":"28","num_nodes":"51","size_leaf_vector":"1"}},{"base_weights":[6.457473E-3,-1.05833456E-1,4.821567E0,-1.8805219E-1,5.308877E-1,-6.9053346E-1,5.579531E0,-2.0058845E-1,3.0788977E0,1.6211586E0,2.704498E-1,-2.8067758E-2,-6.458914E-3,6.151287E0,3.252961E-1,7.504971E-1,-2.0711905E-1,1.6677865E-1,-1.2833778E-2,8.8120925E-1,3.7308555E0,-2.8806958E-2,5.1422936E-1,-1.0066854E-2,6.4136877E0,2.4586638E-2,-1.7362192E-2,-8.11591E-3,1.3378075E-1,-2.4654068E-1,-4.690991E-2,2.3095198E-1,2.9018652E0,1.20580286E-1,2.5671659E-2,2.752516E-1,-3.2246345E-1,1.0552974E0,2.225894E-1,2.7511328E-1,5.495621E0,5.725988E-3,-7.491888E-3,-4.1764067E-3,8.458062E-3,2.3393048E-2,-5.9971875E-3,9.475577E-2,2.4278447E-2,3.9922055E-2,6.327552E-4,1.1527287E-2,-1.0729661E-2,6.567764E-2,2.3333484E-3,2.641748E-2,1.7002268E-3,1.6900903E-1,3.8960177E-2],"categories":[],"categories_nodes":[],"categories_segments":[],"categories_sizes":[],"default_left":[0,0,0,0,0,0,0,0,0,0,0,0,0,0,0,0,0,0,0,0,0,0,0,0,0,0,0,0,0,0,0,0,0,0,0,0,0,0,0,0,0,0,0,0,0,0,0,0,0,0,0,0,0,0,0,0,0,0,0],"id":20,"left_children":[1,3,5,7,9,11,13,15,17,19,21,-1,-1,23,25,27,29,-1,-1,31,33,35,37,-1,39,-1,-1,-1,-1,41,43,45,47,-1,-1,49,51,53,55,-1,57,-1,-1,-1,-1,-1,-1,-1,-1,-1,-1,-1,-1,-1,-1,-1,-1,-1,-1],"loss_changes":[8.066837E2,7.642673E1,1.4590399E2,5.353186E1,4.698085E1,3.808732E-1,8.812323E1,8.15543E0,4.586804E1,4.6666534E1,9.936379E0,0E0,0E0,4.811029E1,2.2616186E0,3.5288033E1,8.072536E0,0E0,0E0,3.2178467E1,3.196083E0,5.624662E0,1.159988E1,0E0,1.540564E1,0E0,0E0,0E0,0E0,1.4801865E0,7.749071E0,4.885122E0,6.6635895E-1,0E0,0E0,8.288037E0,9.3327737E-1,2.8649809E1,5.4086475E0,0E0,5.426941E0,0E0,0E0,0E0,0E0,0E0,0E0,0E0,0E0,0E0,0E0,0E0,0E0,0E0,0E0,0E0,0E0,0E0,0E0],"parents":[2147483647,0,0,1,1,2,2,3,3,4,4,5,5,6,6,7,7,8,8,9,9,10,10,13,13,14,14,15,15,16,16,19,19,20,20,21,21,22,22,24,24,29,29,30,30,31,31,32,32,35,35,36,36,37,37,38,38,40,40],"right_children":[2,4,6,8,10,12,14,16,18,20,22,-1,-1,24,26,28,30,-1,-1,32,34,36,38,-1,40,-1,-1,-1,-1,42,44,46,48,-1,-1,50,52,54,56,-1,58,-1,-1,-1,-1,-1,-1,-1,-1,-1,-1,-1,-1,-1,-1,-1,-1,-1,-1],"split_conditions":[8.2138815E0,5E-1,7.2E1,1.773E3,-5.7850885E0,5.122553E0,2.1E1,5.21E1,1.0894E2,4.4795117E0,8.4E1,-2.8067758E-2,-6.458914E-3,7.375E1,1.654E1,6.7E1,1E-1,1.6677865E-1,-1.2833778E-2,1.104E3,-8.36167E0,3.007E2,9E0,-1.0066854E-2,-3.6925142E0,2.4586638E-2,-1.7362192E-2,-8.11591E-3,1.3378075E-1,-8.99597E0,8.54E1,6E0,3.0045E2,1.20580286E-1,2.5671659E-2,-7.120632E-1,-1.1297934E1,1.0065E5,-3.194542E0,2.7511328E-1,1.143E1,5.725988E-3,-7.491888E-3,-4.1764067E-3,8.458062E-3,2.3393048E-2,-5.9971875E-3,9.475577E-2,2.4278447E-2,3.9922055E-2,6.327552E-4,1.1527287E-2,-1.0729661E-2,6.567764E-2,2.3333484E-3,2.641748E-2,1.7002268E-3,1.6900903E-1,3.8960177E-2],"split_indices":[22,22,3,19,5,5,26,13,1,14,3,0,0,24,0,3,22,0,0,19,17,25,26,0,17,0,0,0,0,14,3,26,2,0,0,16,15,8,16,0,0,0,0,0,0,0,0,0,0,0,0,0,0,0,0,0,0,0,0],"split_type":[0,0,0,0,0,0,0,0,0,0,0,0,0,0,0,0,0,0,0,0,0,0,0,0,0,0,0,0,0,0,0,0,0,0,0,0,0,0,0,0,0,0,0,0,0,0,0,0,0,0,0,0,0,0,0,0,0,0,0],"sum_hessian":[1.49E3,1.457E3,3.3E1,1.291E3,1.66E2,4E0,2.9E1,1.287E3,4E0,3.1E1,1.35E2,2E0,2E0,2.6E1,3E0,8E0,1.279E3,2E0,2E0,2.4E1,7E0,6.1E1,7.4E1,1E0,2.5E1,2E0,1E0,7E0,1E0,1.026E3,2.53E2,1.9E1,5E0,6E0,1E0,3E1,3.1E1,2.5E1,4.9E1,4E0,2.1E1,7E0,1.019E3,1.98E2,5.5E1,8E0,1.1E1,4E0,1E0,5E0,2.5E1,1E0,3E1,1.1E1,1.4E1,9E0,4E1,2E1,1E0],"tree_param":{"num_deleted":"0","num_feature":"28","num_nodes":"59","size_leaf_vector":"1"}},{"base_weights":[1.7653655E-2,-9.266918E-2,4.99542E0,7.0067424E-1,-1.5158492E-1,5.8543377E0,1.0915234E0,5.168827E-1,4.98245E0,-1.5749425E-1,2.5443468E0,-1.9921063E-2,6.141634E0,9.999767E-2,1.0561017E-1,2.3674128E0,6.527572E-2,2.0181322E-1,-3.772826E-3,-2.0493631E-1,1.4821082E-1,-1.7278427E-2,1.3177404E-1,2.0435583E-2,1.9022308E-1,-2.3857963E-1,1.55430455E-2,3.1800992E0,8.524567E-1,-1.7158133E-1,9.3920034E-1,5.908118E-1,-2.151463E-1,1.19971894E-1,8.284341E-2,-9.605343E-3,9.3237606E-5,1.1652183E-1,2.4034811E-2,1.3989281E-2,5.3332314E-2,1.5763368E-2,-6.8322974E-3,5.9616975E-3,5.905907E-2,4.2262653E-4,5.2243277E-2,-7.7774352E-3,-3.0025684E-3,3.072872E-2,-4.3492145E-3],"categories":[],"categories_nodes":[],"categories_segments":[],"categories_sizes":[],"default_left":[0,0,0,0,0,0,0,0,0,0,0,0,0,0,0,0,0,0,0,0,0,0,0,0,0,0,0,0,0,0,0,0,0,0,0,0,0,0,0,0,0,0,0,0,0,0,0,0,0,0,0],"id":21,"left_children":[1,3,5,7,9,11,13,15,17,19,21,-1,23,25,-1,27,29,-1,-1,31,33,-1,-1,-1,-1,35,-1,37,39,41,43,45,47,-1,49,-1,-1,-1,-1,-1,-1,-1,-1,-1,-1,-1,-1,-1,-1,-1,-1],"loss_changes":[8.104759E2,6.759938E1,1.0090991E2,7.612006E1,2.1828068E1,5.2768555E1,1.6505608E1,8.090955E1,3.6494316E1,1.9508282E1,1.982988E1,0E0,2.2865051E1,9.729713E-1,0E0,2.0681618E1,1.651377E1,0E0,0E0,9.576E0,4.5230076E1,0E0,0E0,0E0,0E0,7.988043E-2,0E0,1.6984428E1,2.029398E0,2.5858884E0,1.2567434E1,9.929419E0,5.8044815E0,0E0,3.854004E1,0E0,0E0,0E0,0E0,0E0,0E0,0E0,0E0,0E0,0E0,0E0,0E0,0E0,0E0,0E0,0E0],"parents":[2147483647,0,0,1,1,2,2,3,3,4,4,5,5,6,6,7,7,8,8,9,9,10,10,12,12,13,13,15,15,16,16,19,19,20,20,25,25,27,27,28,28,29,29,30,30,31,31,32,32,34,34],"right_children":[2,4,6,8,10,12,14,16,18,20,22,-1,24,26,-1,28,30,-1,-1,32,34,-1,-1,-1,-1,36,-1,38,40,42,44,46,48,-1,50,-1,-1,-1,-1,-1,-1,-1,-1,-1,-1,-1,-1,-1,-1,-1,-1],"split_conditions":[8.2138815E0,1.0023E5,1.2446556E1,1.673E3,3.0455E2,7.2E1,6.401036E0,3.0065E2,3.037013E2,7.0007615E0,3.0318845E2,-1.9921063E-2,2.9975E2,7.4992375E0,1.0561017E-1,6.25836E1,8.4E1,2.0181322E-1,-3.772826E-3,-1.0408785E1,1E0,-1.7278427E-2,1.3177404E-1,2.0435583E-2,1.9022308E-1,1.0894E2,1.55430455E-2,-4.787269E0,3.0045E2,-9.571216E0,6.4225136E1,6.3314655E1,6.0327007E1,1.19971894E-1,3.0015E2,-9.605343E-3,9.3237606E-5,1.1652183E-1,2.4034811E-2,1.3989281E-2,5.3332314E-2,1.5763368E-2,-6.8322974E-3,5.9616975E-3,5.905907E-2,4.2262653E-4,5.2243277E-2,-7.7774352E-3,-3.0025684E-3,3.072872E-2,-4.3492145E-3],"split_indices":[23,8,23,19,10,3,4,2,2,4,2,0,2,15,0,21,3,0,0,4,9,0,0,0,0,1,0,17,2,16,20,7,7,0,2,0,0,0,0,0,0,0,0,0,0,0,0,0,0,0,0],"split_type":[0,0,0,0,0,0,0,0,0,0,0,0,0,0,0,0,0,0,0,0,0,0,0,0,0,0,0,0,0,0,0,0,0,0,0,0,0,0,0,0,0,0,0,0,0,0,0,0,0,0,0],"sum_hessian":[1.474E3,1.443E3,3.1E1,9.9E1,1.344E3,2.5E1,6E0,9.6E1,3E0,1.342E3,2E0,1E0,2.4E1,5E0,1E0,1.8E1,7.8E1,2E0,1E0,1.162E3,1.8E2,1E0,1E0,1E0,2.3E1,3E0,2E0,1.1E1,7E0,6.2E1,1.6E1,1.4E1,1.148E3,2E0,1.78E2,2E0,1E0,8E0,3E0,6E0,1E0,4E0,5.8E1,1E1,6E0,1E1,4E0,8.29E2,3.19E2,3.4E1,1.44E2],"tree_param":{"num_deleted":"0","num_feature":"28","num_nodes":"51","size_leaf_vector":"1"}},{"base_weights":[6.844433E-3,-1.0266117E-1,5.061544E0,-1.5939519E-1,1.0368663E0,3.813885E0,3.2359776E-1,-1.7311881E-1,4.5499134E0,2.2887702E0,2.557879E-1,-6.794149E-1,4.6248684E0,-2.2080137E-1,9.076214E-2,-1.8974323E-2,1.9464608E-1,3.685261E0,1.3326715E0,-4.2627443E-2,1.3878713E0,-2.7107982E-2,-6.862764E-3,4.864701E0,-9.771771E-3,4.8383003E-1,-2.2926106E-1,1.0154163E0,3.9194513E-2,5.2598727E-1,1.3227992E-1,1.6889035E0,-2.4730805E-1,-2.3480602E-1,5.386447E-1,1.8059307E0,-5.0224703E-2,2.2774257E-2,5.2373E0,-2.1807181E-3,4.500316E-2,-7.4950974E-3,-3.939208E-3,2.050917E-3,4.6404682E-2,-4.9625626E-3,5.0907466E-3,2.0129051E-2,3.5403764E-3,2.089246E-2,7.74571E-2,2.831126E-3,-1.1779739E-2,-9.963744E-3,1.9633578E-2,2.673437E-2,-3.7430427E-3,5.79308E-2,1.5830321E-2,-4.2573693E-3,1.9972578E-3,1.6065337E-1,4.498291E-2],"categories":[],"categories_nodes":[],"categories_segments":[],"categories_sizes":[],"default_left":[0,0,0,0,0,0,0,0,0,0,0,0,0,0,0,0,0,0,0,0,0,0,0,0,0,0,0,0,0,0,0,0,0,0,0,0,0,0,0,0,0,0,0,0,0,0,0,0,0,0,0,0,0,0,0,0,0,0,0,0,0,0,0],"id":22,"left_children":[1,3,5,7,9,11,-1,13,15,17,19,21,23,25,27,-1,-1,29,31,33,35,-1,-1,37,-1,39,41,43,45,47,-1,49,51,53,55,57,59,-1,61,-1,-1,-1,-1,-1,-1,-1,-1,-1,-1,-1,-1,-1,-1,-1,-1,-1,-1,-1,-1,-1,-1,-1,-1],"loss_changes":[8.0920935E2,9.267939E1,1.802912E2,8.894127E1,6.590734E1,1.0152997E2,0E0,1.714486E1,4.428353E1,2.9803528E1,1.4585896E1,2.9844427E-1,2.8892822E1,6.983906E0,9.925784E0,0E0,0E0,2.0556091E1,9.985945E0,4.0362587E0,5.5015907E0,0E0,0E0,2.96781E1,0E0,8.027138E0,2.2648163E0,5.4302225E0,5.341654E0,9.8263144E-2,0E0,1.0610008E1,2.3570749E-1,2.5539823E0,2.21587E0,1.00372314E-1,4.1575175E-2,0E0,7.77771E-1,0E0,0E0,0E0,0E0,0E0,0E0,0E0,0E0,0E0,0E0,0E0,0E0,0E0,0E0,0E0,0E0,0E0,0E0,0E0,0E0,0E0,0E0,0E0,0E0],"parents":[2147483647,0,0,1,1,2,2,3,3,4,4,5,5,7,7,8,8,9,9,10,10,11,11,12,12,13,13,14,14,17,17,18,18,19,19,20,20,23,23,25,25,26,26,27,27,28,28,29,29,31,31,32,32,33,33,34,34,35,35,36,36,38,38],"right_children":[2,4,6,8,10,12,-1,14,16,18,20,22,24,26,28,-1,-1,30,32,34,36,-1,-1,38,-1,40,42,44,46,48,-1,50,52,54,56,58,60,-1,62,-1,-1,-1,-1,-1,-1,-1,-1,-1,-1,-1,-1,-1,-1,-1,-1,-1,-1,-1,-1,-1,-1,-1,-1],"split_conditions":[8.2E0,1.4E0,1.5132741E1,2.016E3,-2.8888888E0,7.2E1,3.2359776E-1,2E-1,4.96E1,1.001E5,1.1244153E3,1.143E1,1.6115464E3,-9.245193E0,-1.0854785E1,-1.8974323E-2,1.9464608E-1,-1.6302982E1,6.2932518E1,9.014288E0,1.0065E5,-2.7107982E-2,-6.862764E-3,-9.60221E0,-9.771771E-3,7.7152997E2,4.186777E0,2.9945E2,8.24E1,1.654E1,1.3227992E-1,6.219547E1,8.54E1,8.62E1,8.48E1,8.54E1,8.68E0,2.2774257E-2,1.0091E5,-2.1807181E-3,4.500316E-2,-7.4950974E-3,-3.939208E-3,2.050917E-3,4.6404682E-2,-4.9625626E-3,5.0907466E-3,2.0129051E-2,3.5403764E-3,2.089246E-2,7.74571E-2,2.831126E-3,-1.1779739E-2,-9.963744E-3,1.9633578E-2,2.673437E-2,-3.7430427E-3,5.79308E-2,1.5830321E-2,-4.2573693E-3,1.9972578E-3,1.6065337E-1,4.498291E-2],"split_indices":[22,22,4,6,5,3,0,22,3,8,19,0,19,4,16,0,0,17,20,4,8,0,0,17,0,19,4,10,3,0,0,20,3,3,3,3,0,0,8,0,0,0,0,0,0,0,0,0,0,0,0,0,0,0,0,0,0,0,0,0,0,0,0],"split_type":[0,0,0,0,0,0,0,0,0,0,0,0,0,0,0,0,0,0,0,0,0,0,0,0,0,0,0,0,0,0,0,0,0,0,0,0,0,0,0,0,0,0,0,0,0,0,0,0,0,0,0,0,0,0,0,0,0,0,0,0,0,0,0],"sum_hessian":[1.46E3,1.43E3,3E1,1.363E3,6.7E1,2.6E1,4E0,1.36E3,3E0,2.5E1,4.2E1,4E0,2.2E1,1.152E3,2.08E2,1E0,2E0,9E0,1.6E1,3.4E1,8E0,2E0,2E0,2.1E1,1E0,1.3E1,1.139E3,1E1,1.98E2,2E0,7E0,1.3E1,3E0,2.6E1,8E0,6E0,2E0,2E0,1.9E1,9E0,4E0,9.4E2,1.99E2,4E0,6E0,7.7E1,1.21E2,1E0,1E0,7E0,6E0,1E0,2E0,2.4E1,2E0,5E0,3E0,5E0,1E0,1E0,1E0,1.8E1,1E0],"tree_param":{"num_deleted":"0","num_feature":"28","num_nodes":"63","size_leaf_vector":"1"}},{"base_weights":[-1.460373E-2,-1.0010886E-1,4.2847443E0,2.5950139E0,-1.2051373E-1,-5.879107E-1,4.8695855E0,4.2495573E-1,3.3556662E0,-1.3348444E-1,3.0190272E0,-5.016342E-3,-2.0172201E-2,5.637409E-1,5.626842E0,2.230521E-2,-7.960471E-3,1.0834192E-1,2.3483234E-2,-1.9600229E-1,3.726094E-1,-1.1046196E-2,1.958699E-1,2.412951E-4,2.1019636E-2,4.670822E0,2.6283672E-1,-2.1918237E-1,1.446987E-3,1.9021398E-1,1.2572755E0,1.4408916E-1,3.438182E-2,6.899563E-3,-6.7356075E-3,-2.9914824E-3,9.606603E-3,3.205091E-2,1.8298139E-3,2.0027881E-2,8.540109E-2],"categories":[],"categories_nodes":[],"categories_segments":[],"categories_sizes":[],"default_left":[0,0,0,0,0,0,0,0,0,0,0,0,0,0,0,0,0,0,0,0,0,0,0,0,0,0,0,0,0,0,0,0,0,0,0,0,0,0,0,0,0],"id":23,"left_children":[1,3,5,7,9,11,13,15,17,19,21,-1,-1,23,25,-1,-1,-1,-1,27,29,-1,-1,-1,-1,31,-1,33,35,37,39,-1,-1,-1,-1,-1,-1,-1,-1,-1,-1],"loss_changes":[5.4670685E2,8.0493416E1,8.5505066E1,1.6731247E1,5.9368546E1,2.9755592E-2,8.160419E1,1.0768787E0,2.4368362E0,4.572941E1,7.373854E1,0E0,0E0,3.7477756E-1,2.5001587E1,0E0,0E0,0E0,0E0,5.8816223E0,2.5416935E1,0E0,0E0,0E0,0E0,3.3456726E0,0E0,2.8088799E0,4.417668E0,1.5026968E1,2.3405373E1,0E0,0E0,0E0,0E0,0E0,0E0,0E0,0E0,0E0,0E0],"parents":[2147483647,0,0,1,1,2,2,3,3,4,4,5,5,6,6,7,7,8,8,9,9,10,10,13,13,14,14,19,19,20,20,25,25,27,27,28,28,29,29,30,30],"right_children":[2,4,6,8,10,12,14,16,18,20,22,-1,-1,24,26,-1,-1,-1,-1,28,30,-1,-1,-1,-1,32,-1,34,36,38,40,-1,-1,-1,-1,-1,-1,-1,-1,-1,-1],"split_conditions":[8.2138815E0,-1.2905842E1,7.6E1,6.219547E1,1.773E3,8.68E0,-8.5985595E-1,1.654E1,8.48E1,5E-1,7.09E1,-5.016342E-3,-2.0172201E-2,7.8E1,1.5132741E1,2.230521E-2,-7.960471E-3,1.0834192E-1,2.3483234E-2,2E-1,8.78E1,-1.1046196E-2,1.958699E-1,2.412951E-4,2.1019636E-2,1.654E1,2.6283672E-1,-9.245193E0,7.9201674E0,3E0,3.00775E2,1.4408916E-1,3.438182E-2,6.899563E-3,-6.7356075E-3,-2.9914824E-3,9.606603E-3,3.205091E-2,1.8298139E-3,2.0027881E-2,8.540109E-2],"split_indices":[23,5,12,20,19,0,4,0,13,22,3,0,0,3,4,0,0,0,0,22,3,0,0,0,0,0,0,4,4,26,25,0,0,0,0,0,0,0,0,0,0],"split_type":[0,0,0,0,0,0,0,0,0,0,0,0,0,0,0,0,0,0,0,0,0,0,0,0,0,0,0,0,0,0,0,0,0,0,0,0,0,0,0,0,0],"sum_hessian":[1.485E3,1.457E3,2.8E1,1E1,1.447E3,3E0,2.5E1,3E0,7E0,1.442E3,5E0,1E0,2E0,4E0,2.1E1,2E0,1E0,6E0,1E0,1.284E3,1.58E2,3E0,2E0,1E0,3E0,1.8E1,3E0,1.149E3,1.35E2,1.32E2,2.6E1,1.7E1,1E0,1.3E1,1.136E3,1.03E2,3.2E1,1.6E1,1.16E2,2E1,6E0],"tree_param":{"num_deleted":"0","num_feature":"28","num_nodes":"41","size_leaf_vector":"1"}},{"base_weights":[4.314641E-2,-8.1785746E-2,4.8058715E0,-9.981861E-2,4.2717533E0,3.0616406E-1,3.8704638E0,2.7016761E0,-1.2320878E-1,2.0130275E-1,-1.2098476E-2,6.650393E-1,4.400191E0,1.1057361E-1,5.867636E-1,-1.7906919E-1,3.286968E-1,-5.4795533E-1,1.0095018E-1,4.604075E0,-1.9628432E-2,3.1900063E-2,-8.539612E-2,-1.8548809E-1,2.6065187E0,6.4730227E-1,4.031455E-2,-4.9410965E-3,-1.8077778E-2,4.8534775E0,1.8942893E0,-7.302648E-3,3.4598224E-3,-6.579561E-3,-1.096077E-3,-1.27175525E-2,1.3001089E-1,5.6103777E-2,1.2237263E-2,-2.6855064E-3,1.564009E-2,3.913672E-2,1.4840977E-1,9.002288E-2,-2.1376966E-2],"categories":[],"categories_nodes":[],"categories_segments":[],"categories_sizes":[],"default_left":[0,0,0,0,0,0,0,0,0,0,0,0,0,0,0,0,0,0,0,0,0,0,0,0,0,0,0,0,0,0,0,0,0,0,0,0,0,0,0,0,0,0,0,0,0],"id":24,"left_children":[1,3,5,7,9,-1,11,13,15,-1,-1,17,19,-1,21,23,25,27,-1,29,-1,-1,31,33,35,37,39,-1,-1,41,43,-1,-1,-1,-1,-1,-1,-1,-1,-1,-1,-1,-1,-1,-1],"loss_changes":[8.845891E2,1.141827E2,1.5243134E2,9.4954506E1,7.110198E1,0E0,5.4805756E1,2.2813019E1,3.623298E1,0E0,0E0,2.1494146E1,3.2897583E1,0E0,1.6924667E0,2.3298923E1,1.44909725E1,5.4502487E-3,0E0,9.729248E0,0E0,0E0,1.2323149E-1,6.411854E0,1.7539442E1,2.1192366E1,5.2926145E0,0E0,0E0,1.8433228E0,1.36759E1,0E0,0E0,0E0,0E0,0E0,0E0,0E0,0E0,0E0,0E0,0E0,0E0,0E0,0E0],"parents":[2147483647,0,0,1,1,2,2,3,3,4,4,6,6,7,7,8,8,11,11,12,12,14,14,15,15,16,16,17,17,19,19,22,22,23,23,24,24,25,25,26,26,29,29,30,30],"right_children":[2,4,6,8,10,-1,12,14,16,-1,-1,18,20,-1,22,24,26,28,-1,30,-1,-1,32,34,36,38,40,-1,-1,42,44,-1,-1,-1,-1,-1,-1,-1,-1,-1,-1,-1,-1,-1,-1],"split_conditions":[8.2E0,1.773E3,-6.67748E0,-1.2905842E1,1.0894E2,3.0616406E-1,7.625E1,8.83E1,5E-1,2.0130275E-1,-1.2098476E-2,7.6E1,3.0275E2,1.1057361E-1,2.9975E2,3.0515103E2,1.006E5,8.68E0,1.0095018E-1,4.859467E0,-1.9628432E-2,3.1900063E-2,3.0005E2,1E-1,1.654E1,3.0005E2,6.3010532E1,-4.9410965E-3,-1.8077778E-2,2.9985E2,3.024E2,-7.302648E-3,3.4598224E-3,-6.579561E-3,-1.096077E-3,-1.27175525E-2,1.3001089E-1,5.6103777E-2,1.2237263E-2,-2.6855064E-3,1.564009E-2,3.913672E-2,1.4840977E-1,9.002288E-2,-2.1376966E-2],"split_indices":[22,19,17,16,1,0,24,13,22,0,0,12,11,0,2,10,8,0,0,17,0,0,2,22,0,2,20,0,0,2,2,0,0,0,0,0,0,0,0,0,0,0,0,0,0],"split_type":[0,0,0,0,0,0,0,0,0,0,0,0,0,0,0,0,0,0,0,0,0,0,0,0,0,0,0,0,0,0,0,0,0,0,0,0,0,0,0,0,0,0,0,0,0],"sum_hessian":[1.485E3,1.448E3,3.7E1,1.443E3,5E0,4E0,3.3E1,1.1E1,1.432E3,3E0,2E0,5E0,2.8E1,7E0,4E0,1.275E3,1.57E2,4E0,1E0,2.7E1,1E0,2E0,2E0,1.273E3,2E0,7.4E1,8.3E1,1E0,3E0,2.4E1,3E0,1E0,1E0,1.037E3,2.36E2,1E0,1E0,1.1E1,6.3E1,6.6E1,1.7E1,1E0,2.3E1,2E0,1E0],"tree_param":{"num_deleted":"0","num_feature":"28","num_nodes":"45","size_leaf_vector":"1"}},{"base_weights":[2.4165273E-2,-1.0699218E-1,3.7552495E0,-1.24686345E-1,4.175135E0,2.7343348E-1,3.105223E0,-1.7817692E-1,3.2523572E-1,1.9677345E-1,-1.18565075E-2,7.3815995E-1,3.895697E0,-1.8359274E-1,1.6129664E0,6.444101E-1,2.1944312E-2,9.943593E-2,2.4725145E-1,4.368739E0,1.8369779E-1,-2.1580209E-1,-4.392604E-2,1.2806073E-1,-2.0855162E-2,3.3496004E-1,1.4786496E0,-1.5674163E-1,4.4540912E-1,7.790408E-2,-4.8233905E-1,7.030315E-1,4.736385E0,2.9256728E-2,-2.0071836E-2,-6.9936784E-3,-5.2646785E-3,7.8053637E-3,-4.351629E-3,2.0288855E-3,3.1834643E-2,-3.8139853E-3,5.3085044E-2,-6.6006416E-3,4.8802607E-3,3.1266358E-2,-1.6596697E-3,-1.6315669E-2,1.0696596E-3,2.4497116E-2,5.436212E-3,1.4571393E-1,2.2143615E-2],"categories":[],"categories_nodes":[],"categories_segments":[],"categories_sizes":[],"default_left":[0,0,0,0,0,0,0,0,0,0,0,0,0,0,0,0,0,0,0,0,0,0,0,0,0,0,0,0,0,0,0,0,0,0,0,0,0,0,0,0,0,0,0,0,0,0,0,0,0,0,0,0,0],"id":25,"left_children":[1,3,5,7,9,-1,11,13,15,-1,-1,17,19,21,23,25,27,-1,29,31,33,35,37,-1,-1,39,41,43,45,-1,47,49,51,-1,-1,-1,-1,-1,-1,-1,-1,-1,-1,-1,-1,-1,-1,-1,-1,-1,-1,-1,-1],"loss_changes":[7.3493036E2,1.1046095E2,1.493623E2,3.485824E1,6.7966034E1,0E0,8.506616E1,1.2838871E1,1.4893496E1,0E0,0E0,1.562239E1,6.065503E1,5.7936783E0,2.7486595E1,1.8866371E1,6.1231914E0,0E0,2.1823063E1,3.8448303E1,4.027391E0,6.908493E-1,7.510864E0,0E0,0E0,1.079974E1,9.565853E0,1.187912E0,7.2297683E0,0E0,3.3804393E-1,8.902156E-2,9.932556E0,0E0,0E0,0E0,0E0,0E0,0E0,0E0,0E0,0E0,0E0,0E0,0E0,0E0,0E0,0E0,0E0,0E0,0E0,0E0,0E0],"parents":[2147483647,0,0,1,1,2,2,3,3,4,4,6,6,7,7,8,8,11,11,12,12,13,13,14,14,15,15,16,16,18,18,19,19,20,20,21,21,22,22,25,25,26,26,27,27,28,28,30,30,31,31,32,32],"right_children":[2,4,6,8,10,-1,12,14,16,-1,-1,18,20,22,24,26,28,-1,30,32,34,36,38,-1,-1,40,42,44,46,-1,48,50,52,-1,-1,-1,-1,-1,-1,-1,-1,-1,-1,-1,-1,-1,-1,-1,-1,-1,-1,-1,-1],"split_conditions":[4.7E0,1.773E3,9.885E4,5E-1,1.0894E2,2.7343348E-1,2.7E0,3.0515103E2,1.006E5,1.9677345E-1,-1.18565075E-2,4.3591457E1,4.859467E0,1E-1,-2.7206812E0,8.54E1,7E-1,9.943593E-2,-1.2905842E1,-9.60221E0,3.0198846E2,5.9778076E1,2.9985E2,1.2806073E-1,-2.0855162E-2,8.405E1,-1.2522244E1,1.1482582E3,6E0,7.790408E-2,8.78E1,3.0085E2,6.275024E1,2.9256728E-2,-2.0071836E-2,-6.9936784E-3,-5.2646785E-3,7.8053637E-3,-4.351629E-3,2.0288855E-3,3.1834643E-2,-3.8139853E-3,5.3085044E-2,-6.6006416E-3,4.8802607E-3,3.1266358E-2,-1.6596697E-3,-1.6315669E-2,1.0696596E-3,2.4497116E-2,5.436212E-3,1.4571393E-1,2.2143615E-2],"split_indices":[22,19,8,22,1,0,23,10,8,0,0,7,17,22,4,3,23,0,5,17,2,7,2,0,0,24,15,19,26,0,3,2,7,0,0,0,0,0,0,0,0,0,0,0,0,0,0,0,0,0,0,0,0],"split_type":[0,0,0,0,0,0,0,0,0,0,0,0,0,0,0,0,0,0,0,0,0,0,0,0,0,0,0,0,0,0,0,0,0,0,0,0,0,0,0,0,0,0,0,0,0,0,0,0,0,0,0,0,0],"sum_hessian":[1.5E3,1.45E3,5E1,1.445E3,5E0,4E0,4.6E1,1.292E3,1.53E2,3E0,2E0,1.2E1,3.4E1,1.289E3,3E0,7.4E1,7.9E1,1E0,1.1E1,3E1,4E0,1.047E3,2.42E2,1E0,2E0,5.5E1,1.9E1,5.6E1,2.3E1,2E0,9E0,3E0,2.7E1,2E0,2E0,7.29E2,3.18E2,6E1,1.82E2,4.1E1,1.4E1,3E0,1.6E1,4.7E1,9E0,1E1,1.3E1,8E0,1E0,2E0,1E0,2.6E1,1E0],"tree_param":{"num_deleted":"0","num_feature":"28","num_nodes":"53","size_leaf_vector":"1"}},{"base_weights":[2.7974054E-2,-9.600918E-2,4.6602955E0,-1.08123384E-1,4.2194486E0,-5.217942E-1,5.1193833E0,2.097153E0,-1.2686819E-1,1.8103465E-1,-1.8385079E-2,-2.0755233E-2,-7.0349453E-3,3.1357646E-1,4.4794173E0,4.2520708E-1,2.6072233E0,-1.7481378E-1,2.6122698E-1,4.771099E0,-2.7768293E-2,-1.0895686E-2,2.4272075E-2,8.973087E-2,-6.948373E-3,-1.8116952E-1,2.5316856E0,1.8772848E-1,1.3081824E0,-8.750367E-3,4.949581E0,1.7839698E-2,-1.908927E-2,-6.991575E-3,-3.1326753E-3,-1.2213961E-2,1.261398E-1,2.207764E-2,3.1466838E-3,1.1270055E-1,6.794132E-3,8.639094E-2,1.6041192E-1],"categories":[],"categories_nodes":[],"categories_segments":[],"categories_sizes":[],"default_left":[0,0,0,0,0,0,0,0,0,0,0,0,0,0,0,0,0,0,0,0,0,0,0,0,0,0,0,0,0,0,0,0,0,0,0,0,0,0,0,0,0,0,0],"id":26,"left_children":[1,3,5,7,9,11,13,15,17,-1,-1,-1,-1,-1,19,21,23,25,27,29,31,-1,-1,-1,-1,33,35,37,39,-1,41,-1,-1,-1,-1,-1,-1,-1,-1,-1,-1,-1,-1],"loss_changes":[8.372465E2,7.469144E1,9.3074524E1,5.8841263E1,3.878132E1,3.317976E-2,7.2635254E1,9.125107E0,2.620774E1,0E0,0E0,0E0,0E0,0E0,4.3516357E1,1.5043876E0,1.0498825E1,2.1995354E1,1.1681612E1,2.945575E1,1.5146979E0,0E0,0E0,0E0,0E0,4.9529953E0,1.6461554E1,6.552927E0,2.5634949E1,0E0,9.284424E0,0E0,0E0,0E0,0E0,0E0,0E0,0E0,0E0,0E0,0E0,0E0,0E0],"parents":[2147483647,0,0,1,1,2,2,3,3,4,4,5,5,6,6,7,7,8,8,14,14,15,15,16,16,17,17,18,18,19,19,20,20,25,25,26,26,27,27,28,28,30,30],"right_children":[2,4,6,8,10,12,14,16,18,-1,-1,-1,-1,-1,20,22,24,26,28,30,32,-1,-1,-1,-1,34,36,38,40,-1,42,-1,-1,-1,-1,-1,-1,-1,-1,-1,-1,-1,-1],"split_conditions":[8.2138815E0,2.016E3,7.2E1,-1.2905842E1,1.0894E2,1.0915E2,-1.6302982E1,6E0,5E-1,1.8103465E-1,-1.8385079E-2,-2.0755233E-2,-7.0349453E-3,3.1357646E-1,2.1E1,8.4E1,8.97E1,3.0515103E2,1.2079145E1,4.362322E1,1.654E1,-1.0895686E-2,2.4272075E-2,8.973087E-2,-6.948373E-3,5.8857506E1,1.654E1,3E0,8.24E1,-8.750367E-3,7.243069E2,1.7839698E-2,-1.908927E-2,-6.991575E-3,-3.1326753E-3,-1.2213961E-2,1.261398E-1,2.207764E-2,3.1466838E-3,1.1270055E-1,6.794132E-3,8.639094E-2,1.6041192E-1],"split_indices":[22,6,3,16,1,1,17,26,22,0,0,0,0,0,26,3,13,10,14,20,0,0,0,0,0,21,0,26,12,0,6,0,0,0,0,0,0,0,0,0,0,0,0],"split_type":[0,0,0,0,0,0,0,0,0,0,0,0,0,0,0,0,0,0,0,0,0,0,0,0,0,0,0,0,0,0,0,0,0,0,0,0,0,0,0,0,0,0,0],"sum_hessian":[1.456E3,1.419E3,3.7E1,1.416E3,3E0,3E0,3.4E1,1.1E1,1.405E3,2E0,1E0,1E0,2E0,2E0,3.2E1,3E0,8E0,1.251E3,1.54E2,3E1,2E0,1E0,2E0,7E0,1E0,1.249E3,2E0,1.45E2,9E0,1E0,2.9E1,1E0,1E0,7.44E2,5.05E2,1E0,1E0,1.8E1,1.27E2,2E0,7E0,6E0,2.3E1],"tree_param":{"num_deleted":"0","num_feature":"28","num_nodes":"43","size_leaf_vector":"1"}},{"base_weights":[1.6853329E-2,-9.9514864E-2,3.7149718E0,-1.16682634E-1,4.926511E0,2.5782335E-1,2.9103422E0,-1.2244781E-1,1.24247715E-1,1.8965404E-1,-9.819745E-3,-1.2316501E-1,3.53851E0,-1.6633458E-1,4.0100485E-1,4.0578447E-2,-5.272214E-1,-5.587232E-1,3.95304E0,-2.0496401E-1,-2.2580981E-2,1.9538048E-1,1.0815411E0,-7.336209E-3,-2.0342913E-2,-4.460378E-3,-1.9375345E-2,1.4004893E0,1.391754E-1,7.356378E-3,-6.23278E-3,-2.1702833E-3,1.4994778E-2,3.1741235E-2,1.7520731E-3,6.076197E-2,1.6485795E-2,5.0696116E-2,1.0646908E-2],"categories":[],"categories_nodes":[],"categories_segments":[],"categories_sizes":[],"default_left":[0,0,0,0,0,0,0,0,0,0,0,0,0,0,0,0,0,0,0,0,0,0,0,0,0,0,0,0,0,0,0,0,0,0,0,0,0,0,0],"id":27,"left_children":[1,3,5,7,9,-1,11,13,-1,-1,-1,15,17,19,21,-1,23,25,27,29,31,33,35,-1,-1,-1,-1,37,-1,-1,-1,-1,-1,-1,-1,-1,-1,-1,-1],"loss_changes":[6.4889716E2,1.2672448E2,1.5557959E2,3.6300594E1,3.8722412E1,0E0,7.856348E1,3.3537846E1,0E0,0E0,0E0,5.483514E0,5.995511E1,7.464321E0,1.5601326E1,0E0,1.3272595E-1,4.6870947E-2,4.779654E1,1.3848381E0,7.4709888E0,1.0336779E1,1.1942791E1,0E0,0E0,0E0,0E0,1.8208675E0,0E0,0E0,0E0,0E0,0E0,0E0,0E0,0E0,0E0,0E0,0E0],"parents":[2147483647,0,0,1,1,2,2,3,3,4,4,6,6,7,7,11,11,12,12,13,13,14,14,16,16,17,17,18,18,19,19,20,20,21,21,22,22,27,27],"right_children":[2,4,6,8,10,-1,12,14,-1,-1,-1,16,18,20,22,-1,24,26,28,30,32,34,36,-1,-1,-1,-1,38,-1,-1,-1,-1,-1,-1,-1,-1,-1,-1,-1],"split_conditions":[5.1E0,1.773E3,9.885E4,3.0515103E2,1.0894E2,2.5782335E-1,2.7E0,8E-1,1.24247715E-1,1.8965404E-1,-9.819745E-3,-1.2905842E1,7.59E1,1E-1,8.62E1,4.0578447E-2,8.01E1,8.68E0,9.964E4,-9.245193E0,3.0206186E2,3E0,1.001E5,-7.336209E-3,-2.0342913E-2,-4.460378E-3,-1.9375345E-2,6.400003E1,1.391754E-1,7.356378E-3,-6.23278E-3,-2.1702833E-3,1.4994778E-2,3.1741235E-2,1.7520731E-3,6.076197E-2,1.6485795E-2,5.0696116E-2,1.0646908E-2],"split_indices":[22,19,8,10,1,0,23,22,0,0,0,5,3,22,3,0,3,0,8,4,10,26,8,0,0,0,0,20,0,0,0,0,0,0,0,0,0,0,0],"split_type":[0,0,0,0,0,0,0,0,0,0,0,0,0,0,0,0,0,0,0,0,0,0,0,0,0,0,0,0,0,0,0,0,0,0,0,0,0,0,0],"sum_hessian":[1.506E3,1.461E3,4.5E1,1.457E3,4E0,5E0,4E1,1.456E3,1E0,3E0,1E0,7E0,3.3E1,1.344E3,1.12E2,1E0,6E0,3E0,3E1,1.059E3,2.85E2,8.7E1,2.5E1,3E0,3E0,1E0,2E0,7E0,2.3E1,6E0,1.053E3,2.61E2,2.4E1,1.1E1,7.6E1,8E0,1.7E1,5E0,2E0],"tree_param":{"num_deleted":"0","num_feature":"28","num_nodes":"39","size_leaf_vector":"1"}},{"base_weights":[9.599188E-3,-1.1698287E-1,3.4393015E0,-1.2948895E-1,1.736209E-1,2.6111004E-1,2.8192778E0,-1.7738712E-1,2.8861368E-1,3.6945493E0,1.0058678E0,-1.8025222E-1,3.258126E-2,1.4302063E0,1.7485942E-1,-6.0523474E-1,4.5132217E0,-1.5906284E-2,1.5192924E0,3.8574994E-1,-1.8554164E-1,1.7685964E0,-8.6187925E-3,6.5564625E-2,8.2717746E-1,-6.3373735E-3,-2.7864255E-2,-8.328482E-3,4.7081623E0,1.9384391E0,9.160233E-2,-1.4407753E-3,5.1092576E-2,-6.215935E-3,-2.8344332E-3,7.063696E-2,4.6352823E-3,-4.4311937E-3,7.3182737E-3,6.616927E-3,6.314236E-2,9.778425E-2,1.5512824E-1,3.6868755E-2,9.552724E-2,-6.539004E-3,8.02343E-3],"categories":[],"categories_nodes":[],"categories_segments":[],"categories_sizes":[],"default_left":[0,0,0,0,0,0,0,0,0,0,0,0,0,0,0,0,0,0,0,0,0,0,0,0,0,0,0,0,0,0,0,0,0,0,0,0,0,0,0,0,0,0,0,0,0,0,0],"id":28,"left_children":[1,3,5,7,-1,-1,9,11,13,15,17,19,-1,21,23,25,27,-1,29,31,33,35,-1,37,39,-1,-1,-1,41,43,45,-1,-1,-1,-1,-1,-1,-1,-1,-1,-1,-1,-1,-1,-1,-1,-1],"loss_changes":[6.3424493E2,1.0479027E2,1.4519165E2,2.8228277E1,0E0,0E0,7.247067E1,4.767639E0,1.8579763E1,1.15375275E2,1.4212761E1,3.8467827E0,0E0,8.063507E0,9.427998E0,5.687001E-1,2.6523071E1,0E0,7.6017857E0,6.9389334E0,2.4454575E0,1.0040054E1,0E0,4.410958E0,1.426057E1,0E0,0E0,0E0,5.7647705E-1,4.9254265E0,2.7603984E-1,0E0,0E0,0E0,0E0,0E0,0E0,0E0,0E0,0E0,0E0,0E0,0E0,0E0,0E0,0E0,0E0],"parents":[2147483647,0,0,1,1,2,2,3,3,6,6,7,7,8,8,9,9,10,10,11,11,13,13,14,14,15,15,16,16,18,18,19,19,20,20,21,21,23,23,24,24,28,28,29,29,30,30],"right_children":[2,4,6,8,-1,-1,10,12,14,16,18,20,-1,22,24,26,28,-1,30,32,34,36,-1,38,40,-1,-1,-1,42,44,46,-1,-1,-1,-1,-1,-1,-1,-1,-1,-1,-1,-1,-1,-1,-1,-1],"split_conditions":[4.9E0,2.016E3,9.885E4,5E-1,1.736209E-1,2.6111004E-1,6.1268993E1,1.3718904E1,-9.339599E0,7.2E1,1.1E0,-1.0408785E1,3.258126E-2,1.005E5,1.0405064E1,4.5170116E0,4.362322E1,-1.5906284E-2,1.04E3,7.9902716E2,4.186777E0,3.2E0,-8.6187925E-3,8.35E1,8.62E1,-6.3373735E-3,-2.7864255E-2,-8.328482E-3,7.162535E2,1.2127648E3,2.013E1,-1.4407753E-3,5.1092576E-2,-6.215935E-3,-2.8344332E-3,7.063696E-2,4.6352823E-3,-4.4311937E-3,7.3182737E-3,6.616927E-3,6.314236E-2,9.778425E-2,1.5512824E-1,3.6868755E-2,9.552724E-2,-6.539004E-3,8.02343E-3],"split_indices":[22,6,8,22,0,0,20,14,16,3,23,4,0,8,4,4,20,0,6,19,4,23,0,24,13,0,0,0,19,19,0,0,0,0,0,0,0,0,0,0,0,0,0,0,0,0,0],"split_type":[0,0,0,0,0,0,0,0,0,0,0,0,0,0,0,0,0,0,0,0,0,0,0,0,0,0,0,0,0,0,0,0,0,0,0,0,0,0,0,0,0,0,0,0,0,0,0],"sum_hessian":[1.459E3,1.408E3,5.1E1,1.406E3,2E0,4E0,4.7E1,1.262E3,1.44E2,3.1E1,1.6E1,1.26E3,2E0,1.2E1,1.32E2,5E0,2.6E1,4E0,1.2E1,1.1E1,1.249E3,1E1,2E0,1.14E2,1.8E1,3E0,2E0,1E0,2.5E1,9E0,3E0,9E0,2E0,1.008E3,2.41E2,7E0,3E0,5.2E1,6.2E1,1.3E1,5E0,8E0,1.7E1,7E0,2E0,1E0,2E0],"tree_param":{"num_deleted":"0","num_feature":"28","num_nodes":"47","size_leaf_vector":"1"}},{"base_weights":[2.1411037E-2,-8.3122745E-2,3.192555E0,-9.428897E-2,3.9100432E0,2.4485E-1,2.4066684E0,-1.000973E-1,1.2247724E-1,1.7014848E-1,-2.0620124E-2,3.3130517E0,7.267299E-1,-1.5327993E-1,3.2033873E-1,-6.356551E-1,4.0274205E0,-5.9685487E-1,1.2176628E0,-1.8530358E-1,-1.0169173E-2,-3.7095763E-2,6.361585E-1,-4.4757845E-3,-2.730697E-2,4.181582E0,4.8174545E-2,-2.1836136E-2,-8.006608E-3,1.8376945E0,2.9134864E-1,6.56108E-3,-5.68412E-3,-3.2376864E-3,1.0713405E-2,-5.657822E-3,1.10599855E-2,3.4978904E-2,1.9793434E-3,1.2843573E-1,3.2840896E-2,6.9553144E-2,2.6925813E-2,-3.4998073E-3,1.5735544E-2],"categories":[],"categories_nodes":[],"categories_segments":[],"categories_sizes":[],"default_left":[0,0,0,0,0,0,0,0,0,0,0,0,0,0,0,0,0,0,0,0,0,0,0,0,0,0,0,0,0,0,0,0,0,0,0,0,0,0,0,0,0,0,0,0,0],"id":29,"left_children":[1,3,5,7,9,-1,11,13,-1,-1,-1,15,17,19,21,23,25,27,29,31,33,35,37,-1,-1,39,-1,-1,-1,41,43,-1,-1,-1,-1,-1,-1,-1,-1,-1,-1,-1,-1,-1,-1],"loss_changes":[4.8822107E2,6.395201E1,1.6390002E2,3.4931465E1,3.629279E1,0E0,6.1544373E1,3.1844872E1,0E0,0E0,0E0,7.8722565E1,1.112343E1,5.786358E0,1.8085182E1,5.320573E-1,1.8714294E0,2.18966E-2,6.356718E0,1.7788391E0,8.3680935E0,4.74142E0,2.5600243E1,0E0,0E0,1.7705383E0,0E0,0E0,0E0,1.0829964E0,6.3200176E-1,0E0,0E0,0E0,0E0,0E0,0E0,0E0,0E0,0E0,0E0,0E0,0E0,0E0,0E0],"parents":[2147483647,0,0,1,1,2,2,3,3,4,4,6,6,7,7,11,11,12,12,13,13,14,14,15,15,16,16,17,17,18,18,19,19,20,20,21,21,22,22,25,25,29,29,30,30],"right_children":[2,4,6,8,10,-1,12,14,-1,-1,-1,16,18,20,22,24,26,28,30,32,34,36,38,-1,-1,40,-1,-1,-1,42,44,-1,-1,-1,-1,-1,-1,-1,-1,-1,-1,-1,-1,-1,-1],"split_conditions":[5.1E0,2.016E3,9.885E4,3.0515103E2,1.0894E2,2.4485E-1,6.1268993E1,5E-1,1.2247724E-1,1.7014848E-1,-2.0620124E-2,7.2E1,1.1E0,1E-1,8.4E1,4.5170116E0,1.0091E5,7.645569E0,6.2932518E1,-8.687485E0,8.54E1,7.7152997E2,1.0065E5,-4.4757845E-3,-2.730697E-2,1.5132741E1,4.8174545E-2,-2.1836136E-2,-8.006608E-3,8.575E1,-1.0408785E1,6.56108E-3,-5.68412E-3,-3.2376864E-3,1.0713405E-2,-5.657822E-3,1.10599855E-2,3.4978904E-2,1.9793434E-3,1.2843573E-1,3.2840896E-2,6.9553144E-2,2.6925813E-2,-3.4998073E-3,1.5735544E-2],"split_indices":[22,6,8,10,1,0,20,22,0,0,0,3,23,22,3,4,8,4,20,15,3,19,8,0,0,4,0,0,0,24,4,0,0,0,0,0,0,0,0,0,0,0,0,0,0],"split_type":[0,0,0,0,0,0,0,0,0,0,0,0,0,0,0,0,0,0,0,0,0,0,0,0,0,0,0,0,0,0,0,0,0,0,0,0,0,0,0,0,0,0,0,0,0],"sum_hessian":[1.471E3,1.425E3,4.6E1,1.422E3,3E0,5E0,4.1E1,1.421E3,1E0,2E0,1E0,2.6E1,1.5E1,1.262E3,1.59E2,4E0,2.2E1,4E0,1.1E1,1.031E3,2.31E2,7.5E1,8.4E1,2E0,2E0,2E1,2E0,2E0,2E0,6E0,5E0,1E1,1.021E3,1.83E2,4.8E1,5.5E1,2E1,4.3E1,4.1E1,1.9E1,1E0,3E0,3E0,2E0,3E0],"tree_param":{"num_deleted":"0","num_feature":"28","num_nodes":"45","size_leaf_vector":"1"}},{"base_weights":[2.4521753E-2,-7.230058E-2,3.8182478E0,2.067536E0,-8.5605875E-2,2.7724006E0,2.6279175E-1,1.225397E-1,2.6057436E0,-2.0187725E-1,6.373225E-2,3.4981623E-1,3.705159E0,-1.0743193E-2,1.625748E-2,9.33305E-2,-6.388422E-3,5.6171775E-1,-2.0635816E-1,5.993144E-1,2.3298352E-3,-1.0589775E-1,6.676863E-2,-2.8503868E-1,4.098751E0,-3.2779286E-3,2.270338E-2,-2.0417741E-1,-3.9863914E-1,1.5212949E-1,4.5021045E-1,-1.0029623E-2,2.333371E0,2.3391355E-2,-4.7031647E-1,-1.013009E-2,-2.6966503E-3,1.2845157E-1,4.7211055E-2,-6.1608385E-3,5.3638835E-3,-1.45224165E-2,-5.765328E-3,4.797486E-2,1.8225239E-5,-2.7849996E-3,1.0632064E-2,-1.5638389E-2,1.2064008E-1,-5.550502E-3,-1.642299E-2],"categories":[],"categories_nodes":[],"categories_segments":[],"categories_sizes":[],"default_left":[0,0,0,0,0,0,0,0,0,0,0,0,0,0,0,0,0,0,0,0,0,0,0,0,0,0,0,0,0,0,0,0,0,0,0,0,0,0,0,0,0,0,0,0,0,0,0,0,0,0,0],"id":30,"left_children":[1,3,5,7,9,11,-1,13,15,17,19,21,23,-1,-1,-1,-1,25,27,29,31,33,-1,35,37,-1,-1,39,41,-1,43,45,47,-1,49,-1,-1,-1,-1,-1,-1,-1,-1,-1,-1,-1,-1,-1,-1,-1,-1],"loss_changes":[5.461098E2,4.1460155E1,1.6693164E2,9.101997E0,2.5051394E1,7.101384E1,0E0,7.987785E-1,1.0631943E1,2.8908348E0,2.0782578E1,8.783993E0,3.729004E1,0E0,0E0,0E0,0E0,7.37103E-1,2.5699615E-1,4.1055313E1,1.6387714E1,3.2713058E0,0E0,4.6029687E-4,2.9639587E0,0E0,0E0,3.9943695E-1,4.809344E-2,0E0,3.305964E1,1.7112686E1,1.6551893E1,0E0,5.2725077E-2,0E0,0E0,0E0,0E0,0E0,0E0,0E0,0E0,0E0,0E0,0E0,0E0,0E0,0E0,0E0,0E0],"parents":[2147483647,0,0,1,1,2,2,3,3,4,4,5,5,7,7,8,8,9,9,10,10,11,11,12,12,17,17,18,18,19,19,20,20,21,21,23,23,24,24,27,27,28,28,30,30,31,31,32,32,34,34],"right_children":[2,4,6,8,10,12,-1,14,16,18,20,22,24,-1,-1,-1,-1,26,28,30,32,34,-1,36,38,-1,-1,40,42,-1,44,46,48,-1,50,-1,-1,-1,-1,-1,-1,-1,-1,-1,-1,-1,-1,-1,-1,-1,-1],"split_conditions":[6.3E0,-1.2905842E1,1.2079145E1,6E0,6.941086E2,3.024E2,2.6279175E-1,1.654E1,9.02E1,-1.0854785E1,1.0023E5,8.90466E0,7.375E1,-1.0743193E-2,1.625748E-2,9.33305E-2,-6.388422E-3,7E1,1.5E0,6E1,3.0455E2,3.0045E2,6.676863E-2,1.052E1,1.009E5,-3.2779286E-3,2.270338E-2,1.4E0,6.837859E2,1.5212949E-1,-3.3862238E0,8.54E1,1.654E1,2.3391355E-2,1.052E1,-1.013009E-2,-2.6966503E-3,1.2845157E-1,4.7211055E-2,-6.1608385E-3,5.3638835E-3,-1.45224165E-2,-5.765328E-3,4.797486E-2,1.8225239E-5,-2.7849996E-3,1.0632064E-2,-1.5638389E-2,1.2064008E-1,-5.550502E-3,-1.642299E-2],"split_indices":[23,16,14,26,6,10,0,0,12,5,8,4,24,0,0,0,0,3,23,12,10,2,0,0,8,0,0,23,6,0,17,3,0,0,0,0,0,0,0,0,0,0,0,0,0,0,0,0,0,0,0],"split_type":[0,0,0,0,0,0,0,0,0,0,0,0,0,0,0,0,0,0,0,0,0,0,0,0,0,0,0,0,0,0,0,0,0,0,0,0,0,0,0,0,0,0,0,0,0,0,0,0,0,0,0],"sum_hessian":[1.485E3,1.449E3,3.6E1,8E0,1.441E3,3.1E1,5E0,2E0,6E0,8.1E2,6.31E2,9E0,2.2E1,1E0,1E0,5E0,1E0,4E0,8.06E2,6.4E1,5.67E2,8E0,1E0,2E0,2E1,1E0,3E0,7.99E2,7E0,1E0,6.3E1,5.65E2,2E0,2E0,6E0,1E0,1E0,1.8E1,2E0,7.97E2,2E0,4E0,3E0,1.7E1,4.6E1,4.61E2,1.04E2,1E0,1E0,2E0,4E0],"tree_param":{"num_deleted":"0","num_feature":"28","num_nodes":"51","size_leaf_vector":"1"}},{"base_weights":[1.030664E-2,-9.068189E-2,3.1934166E0,-1.0664125E-1,3.767977E0,2.867734E-1,2.686814E0,-1.3405377E-1,5.756809E-1,1.7783E-1,-1.1028038E-2,-5.9872305E-1,3.1233888E0,7.734052E-1,-1.438487E-1,-3.8323976E-2,1.0373822E0,-6.031698E-3,-2.7881118E-2,3.9475727E0,9.4001055E-1,1.3312483E0,1.18886486E-1,-1.8403958E-1,-2.132201E-2,-3.0096307E-1,6.8002844E-1,1.8040483E0,4.871801E-1,-9.978138E-3,4.1184163E0,-9.919962E-2,1.995754E0,4.6344206E-2,1.3811451E-2,-7.451629E-3,2.4414178E-2,-5.4013594E-3,-1.7275397E-2,-3.164641E-3,8.206189E-3,1.2324543E-2,-1.0899891E-2,4.960085E-2,7.2673783E-3,9.002355E-2,2.8162345E-2,3.0912685E-3,4.856955E-2,1.2788467E-1,4.626683E-2,-1.2858601E-2,1.4487028E-2,9.5625125E-2,1.8090082E-2],"categories":[],"categories_nodes":[],"categories_segments":[],"categories_sizes":[],"default_left":[0,0,0,0,0,0,0,0,0,0,0,0,0,0,0,0,0,0,0,0,0,0,0,0,0,0,0,0,0,0,0,0,0,0,0,0,0,0,0,0,0,0,0,0,0,0,0,0,0,0,0,0,0,0,0],"id":31,"left_children":[1,3,5,7,9,-1,11,13,15,-1,-1,17,19,21,23,25,27,-1,-1,29,31,33,35,37,39,41,43,45,47,-1,49,51,53,-1,-1,-1,-1,-1,-1,-1,-1,-1,-1,-1,-1,-1,-1,-1,-1,-1,-1,-1,-1,-1,-1],"loss_changes":[4.8086868E2,8.969531E1,1.226608E2,2.7104696E1,5.576841E1,0E0,6.498285E1,1.2466272E1,1.5915018E1,0E0,0E0,6.020684E-1,6.646994E1,5.318514E0,6.772129E0,4.9213486E0,1.2619385E1,0E0,0E0,2.1844574E1,1.3363648E1,7.766466E-1,2.2439468E0,1.517643E0,8.491566E0,9.926989E-1,2.5822377E0,1.0645054E1,8.528558E0,0E0,3.4702148E0,1.5492716E0,8.036797E0,0E0,0E0,0E0,0E0,0E0,0E0,0E0,0E0,0E0,0E0,0E0,0E0,0E0,0E0,0E0,0E0,0E0,0E0,0E0,0E0,0E0,0E0],"parents":[2147483647,0,0,1,1,2,2,3,3,4,4,6,6,7,7,8,8,11,11,12,12,13,13,14,14,15,15,16,16,19,19,20,20,21,21,22,22,23,23,24,24,25,25,26,26,27,27,28,28,30,30,31,31,32,32],"right_children":[2,4,6,8,10,-1,12,14,16,-1,-1,18,20,22,24,26,28,-1,-1,30,32,34,36,38,40,42,44,46,48,-1,50,52,54,-1,-1,-1,-1,-1,-1,-1,-1,-1,-1,-1,-1,-1,-1,-1,-1,-1,-1,-1,-1,-1,-1],"split_conditions":[5.1E0,1.773E3,-1.6302982E1,1.4E0,1.0894E2,2.867734E-1,7.2E1,-1.0854785E1,8.4E1,1.7783E-1,-1.1028038E-2,4.5170116E0,6.168059E1,1.005E5,1E-1,9.014288E0,8.48E1,-6.031698E-3,-2.7881118E-2,4.362322E1,2.013E1,3.0005E2,7.630665E2,1.6813882E3,8.54E1,5.9506016E1,-5.7850885E0,-1.3969882E0,1.0107247E1,-9.978138E-3,1.009E5,7.8732153E2,-6.976316E0,4.6344206E-2,1.3811451E-2,-7.451629E-3,2.4414178E-2,-5.4013594E-3,-1.7275397E-2,-3.164641E-3,8.206189E-3,1.2324543E-2,-1.0899891E-2,4.960085E-2,7.2673783E-3,9.002355E-2,2.8162345E-2,3.0912685E-3,4.856955E-2,1.2788467E-1,4.626683E-2,-1.2858601E-2,1.4487028E-2,9.5625125E-2,1.8090082E-2],"split_indices":[22,19,17,22,1,0,3,16,3,0,0,4,20,8,22,4,13,0,0,20,0,2,19,6,3,21,5,4,4,0,8,19,5,0,0,0,0,0,0,0,0,0,0,0,0,0,0,0,0,0,0,0,0,0,0],"split_type":[0,0,0,0,0,0,0,0,0,0,0,0,0,0,0,0,0,0,0,0,0,0,0,0,0,0,0,0,0,0,0,0,0,0,0,0,0,0,0,0,0,0,0,0,0,0,0,0,0,0,0,0,0,0,0],"sum_hessian":[1.494E3,1.449E3,4.5E1,1.444E3,5E0,2E0,4.3E1,1.389E3,5.5E1,3E0,2E0,5E0,3.8E1,1.4E1,1.375E3,2.4E1,3.1E1,3E0,2E0,2.7E1,1.1E1,7E0,7E0,1.035E3,3.4E2,1.8E1,6E0,1.2E1,1.9E1,1E0,2.6E1,6E0,5E0,5E0,2E0,5E0,2E0,1.026E3,9E0,2.65E2,7.5E1,1E0,1.7E1,1E0,5E0,4E0,8E0,1.5E1,4E0,2.4E1,2E0,4E0,2E0,2E0,3E0],"tree_param":{"num_deleted":"0","num_feature":"28","num_nodes":"55","size_leaf_vector":"1"}},{"base_weights":[-1.5263841E-4,-7.992618E-2,2.6583507E0,1.9260734E0,-8.971039E-2,1.7822663E0,5.769973E0,7.701645E-2,2.154799E-1,-9.938689E-2,1.6390826E0,6.004095E-1,3.1481955E0,4.703775E-2,2.0239705E-1,-6.0997163E-3,1.5796311E-2,-1.2527128E-1,4.4213015E-1,3.8889623E0,-4.886378E-1,1.9196019E0,-1.02073036E-1,-4.7191834E-1,3.699063E0,8.231132E-1,-1.3292874E-1,1.7459866E-1,1.6091776E0,-3.3606573E-3,1.5779893E-1,-1.7194955E-2,-2.2579264E-3,9.562303E-2,2.3249459E-2,4.6099296E-1,-4.6610892E-1,-1.8661145E-2,-2.5751803E-3,1.1813184E-1,4.534149E-2,7.733785E-2,4.4015306E-3,-5.0976085E-3,1.147459E-3,4.2459436E-2,5.733308E-4,2.1000901E-2,9.7573966E-2,3.4680653E-3,2.303549E-2,-2.2324096E-2,-1.0150152E-2],"categories":[],"categories_nodes":[],"categories_segments":[],"categories_sizes":[],"default_left":[0,0,0,0,0,0,0,0,0,0,0,0,0,0,0,0,0,0,0,0,0,0,0,0,0,0,0,0,0,0,0,0,0,0,0,0,0,0,0,0,0,0,0,0,0,0,0,0,0,0,0,0,0],"id":32,"left_children":[1,3,5,7,9,11,13,-1,15,17,19,21,23,-1,-1,-1,-1,25,27,29,31,33,35,37,39,41,43,45,47,-1,-1,-1,-1,-1,-1,49,51,-1,-1,-1,-1,-1,-1,-1,-1,-1,-1,-1,-1,-1,-1,-1,-1],"loss_changes":[3.1302786E2,2.8298462E1,1.0693625E2,7.123945E0,2.403471E1,5.4611458E1,2.6355164E1,0E0,4.9788302E-1,1.995929E1,4.0197212E1,1.8730133E1,3.365291E1,0E0,0E0,0E0,0E0,9.956997E0,2.0013466E1,2.2530663E1,1.3156807E-1,7.688097E0,3.0845401E0,1.2047899E-1,1.3582916E0,1.2678213E1,8.529528E0,1.0390415E1,1.565107E1,0E0,0E0,0E0,0E0,0E0,0E0,5.4714787E-1,6.794369E-2,0E0,0E0,0E0,0E0,0E0,0E0,0E0,0E0,0E0,0E0,0E0,0E0,0E0,0E0,0E0,0E0],"parents":[2147483647,0,0,1,1,2,2,3,3,4,4,5,5,6,6,8,8,9,9,10,10,11,11,12,12,17,17,18,18,19,19,20,20,21,21,22,22,23,23,24,24,25,25,26,26,27,27,28,28,35,35,36,36],"right_children":[2,4,6,8,10,12,14,-1,16,18,20,22,24,-1,-1,-1,-1,26,28,30,32,34,36,38,40,42,44,46,48,-1,-1,-1,-1,-1,-1,50,52,-1,-1,-1,-1,-1,-1,-1,-1,-1,-1,-1,-1,-1,-1,-1,-1],"split_conditions":[5.1E0,-1.2905842E1,8.90466E0,8.97E1,1.7873322E3,3.0235E2,3.0015E2,7.701645E-2,3.0005E2,1.2E0,3.0357864E2,3.0035E2,7.2E1,4.703775E-2,2.0239705E-1,-6.0997163E-3,1.5796311E-2,-1.1297934E1,1.0107247E1,6E1,2.013E1,8.54E1,9.948E4,1.143E1,1.0091E5,8.01E1,5.279797E0,3E0,8.62E1,-3.3606573E-3,1.5779893E-1,-1.7194955E-2,-2.2579264E-3,9.562303E-2,2.3249459E-2,2.013E1,6.82E1,-1.8661145E-2,-2.5751803E-3,1.1813184E-1,4.534149E-2,7.733785E-2,4.4015306E-3,-5.0976085E-3,1.147459E-3,4.2459436E-2,5.733308E-4,2.1000901E-2,9.7573966E-2,3.4680653E-3,2.303549E-2,-2.2324096E-2,-1.0150152E-2],"split_indices":[23,16,4,13,6,11,2,0,2,23,25,25,3,0,0,0,0,4,4,3,0,12,8,0,8,13,4,26,13,0,0,0,0,0,0,0,3,0,0,0,0,0,0,0,0,0,0,0,0,0,0,0,0],"split_type":[0,0,0,0,0,0,0,0,0,0,0,0,0,0,0,0,0,0,0,0,0,0,0,0,0,0,0,0,0,0,0,0,0,0,0,0,0,0,0,0,0,0,0,0,0,0,0,0,0,0,0,0,0],"sum_hessian":[1.474E3,1.432E3,4.2E1,6E0,1.426E3,3.4E1,8E0,4E0,2E0,1.419E3,7E0,1.9E1,1.5E1,2E0,6E0,1E0,1E0,1.355E3,6.4E1,3E0,4E0,6E0,1.3E1,2E0,1.3E1,1E1,1.345E3,5.3E1,1.1E1,1E0,2E0,3E0,1E0,2E0,4E0,5E0,8E0,1E0,1E0,1.1E1,2E0,2E0,8E0,1.106E3,2.39E2,5E0,4.8E1,8E0,3E0,3E0,