{"learner":{"attributes":{"scikit_learn":"{\"_estimator_type\": \"regressor\"}"},"feature_names":["latitude","longitude","TMP","RH","UGRD","VGRD","CAPE","PWAT","WAVE_H","WAVE_DIR","WAVE_P","CURRENT_VEL","CURRENT_DIR","SST","storm_severity","TMP_lag1","TMP_lag2","RH_lag1","RH_lag2","UGRD_lag1","UGRD_lag2","VGRD_lag1","VGRD_lag2","CAPE_lag1","CAPE_lag2","PWAT_lag1","PWAT_lag2","APCP_lag1","APCP_lag2","WAVE_H_lag1","WAVE_H_lag2","CURRENT_VEL_lag1","CURRENT_VEL_lag2","SST_lag1","SST_lag2","RH_rolling_mean_12h","TMP_rolling_mean_12h","hour","month","MPI","wind_shear_mag_lag1","wind_shear_mag_lag2","wind_shear_vec_lag1","wind_shear_vec_lag2","climatology_prior"],"feature_types":["float","float","float","float","float","float","float","float","float","float","float","float","float","float","int","float","float","float","float","float","float","float","float","float","float","float","float","float","float","float","float","float","float","float","float","float","float","int","int","float","float","float","float","float","float"],"gradient_booster":{"model":{"cats":{"enc":[],"feature_segments":[],"sorted_idx":[]},"gbtree_model_param":{"num_parallel_tree":"1","num_trees":"150"},"iteration_indptr":[0,1,2,3,4,5,6,7,8,9,10,11,12,13,14,15,16,17,18,19,20,21,22,23,24,25,26,27,28,29,30,31,32,33,34,35,36,37,38,39,40,41,42,43,44,45,46,47,48,49,50,51,52,53,54,55,56,57,58,59,60,61,62,63,64,65,66,67,68,69,70,71,72,73,74,75,76,77,78,79,80,81,82,83,84,85,86,87,88,89,90,91,92,93,94,95,96,97,98,99,100,101,102,103,104,105,106,107,108,109,110,111,112,113,114,115,116,117,118,119,120,121,122,123,124,125,126,127,128,129,130,131,132,133,134,135,136,137,138,139,140,141,142,143,144,145,146,147,148,149,150],"tree_info":[0,0,0,0,0,0,0,0,0,0,0,0,0,0,0,0,0,0,0,0,0,0,0,0,0,0,0,0,0,0,0,0,0,0,0,0,0,0,0,0,0,0,0,0,0,0,0,0,0,0,0,0,0,0,0,0,0,0,0,0,0,0,0,0,0,0,0,0,0,0,0,0,0,0,0,0,0,0,0,0,0,0,0,0,0,0,0,0,0,0,0,0,0,0,0,0,0,0,0,0,0,0,0,0,0,0,0,0,0,0,0,0,0,0,0,0,0,0,0,0,0,0,0,0,0,0,0,0,0,0,0,0,0,0,0,0,0,0,0,0,0,0,0,0,0,0,0,0,0,0],"trees":[{"base_weights":[2.2161454E-1,-5.8305613E-3,3.4159434E0,-2.3116358E-1,8.714259E-1,2.5512788E0,6.389624E0,-3.8590392E-1,2.0840025E-1,2.401234E-1,1.3860148E0,3.6239045E0,2.022075E0,5.4777865E0,9.548298E0,-3.8786322E-1,6.347215E0,1.2941393E-1,1.7628576E0,4.7249228E-2,7.0379347E-1,1.3051586E0,3.811091E0,3.1199903E0,5.2043543E0,1.429222E0,2.5817013E0,4.777334E0,6.849153E0,7.4582133E0,1.5935338E1,-4.31791E-1,-2.0010057E-1,-3.2727274E-1,3.1617674E-1,-9.804964E-2,5.49376E-1,6.336168E-1,2.915313E0,2.6067415E-2,5.970755E0,4.0097088E-1,1.1668731E0,1.1652458E0,2.406092E0,2.0157143E1,3.59375E0,2.6826887E0,3.5866468E0,1.95E1,4.9567075E0,8.6269647E-1,2.3044362E0,2.251501E0,3.5765364E0,7.1063695E0,4.4396534E0,1.1444445E1,6.1673765E0,6.54877E0,1.2029851E1,2.26E0,1.3026563E1,-4.532013E-1,-3.2462192E-1,-2.8271875E-1,1.0629351E-1,-1.1399999E-2,2.9999998E-3,2.2407925E-1,-3.1844804E-1,1.4836189E-1,7.929709E-1,3.96921E-1,8.641713E0,6.035088E-1,3.3238244E0,8.034268E-1,-2.8483989E-2,7.266667E-1,2.8296632E-1,1.1666666E0,2.5741717E-1,9.634371E-1,2.5851486E0,8.6104476E-1,1.5915147E0,2.3620746E0,2.8782883E-1,7.05E-1,1.5000004E-3,2.8974943E0,6.443396E0,3.952518E0,2.493671E0,3.3430789E0,4.7390804E0,1.95E-1,8.775E-1,4.3709564E0,9.003658E0,8.122011E-1,4.258333E0,2.2077916E0,6.252E0,2.1225567E0,3.1373627E0,3.4919832E0,3.9E-1,9.1E0,5.354651E0,4.0189285E0,5.7922482E0,6.504545E-1,9.697183E0,5.1325026E0,8.428788E0,5.9509935E0,1.0502854E1,4.125E0,1.4230769E1,5.185185E0,1.497451E1,-1.3702359E-2,4.4729123E-3,-1.0866115E-2,9.043989E-3,-8.564632E-3,1.029E-1,-3.5484482E-3,2.1922106E-2,-7.0931314E-4,2.2943815E-2,-1.0124901E-2,1.1653846E-1,1.4287733E-3,2.9248258E-2,3.7283417E-2,1.24230115E-2,1.3180327E-3,5.8630433E-2,3.3115816E-1,5.785714E-2,-1.2452831E-2,4.3935485E-2,8.734285E-2,1.3973154E-1,1.9202994E-2,9.364285E-2,-3.2302677E-3,8.921185E-3,6.7499995E-2,-7.7999993E-3,2.9702477E-2,1.0242857E-1,-6.840691E-3,1.25719765E-2,2.7491732E-2,1.095E-1,2.5133333E-1,6.022703E-2,2.13162E-2,4.4750743E-2,4.0523767E-2,5.766508E-2,5.3762376E-2,8.4028736E-2,1.4896153E-1,7.83866E-2,6.4875E-1,1.110989E-1,2.885E-1,9.2532784E-2,7.886311E-2,3.3793103E-2,8.1837036E-2,1.17283404E-1,1.307574E-1,4.4E-1,1.1664427E-1,2.3395714E-1,6.6494113E-1,1.6431817E-1,1.18674515E-2,3.324554E-2,3.2333333E-2,1.7343749E-1,6.343776E-2,1.9336364E-1,2.2357143E-1,-1.2E-3,4.4258926E-2,6.7823485E-2,8.813546E-2,1.5534782E-1,1.4203571E-1,9.305515E-2,1.4947058E-1,3.05625E-1,2.2666666E-1,1.1088236E-1,7.351982E-2,1.3776548E-1,1.5948388E-1,4.8E-1,4.5374998E-1,2.3919642E-1,1.4267808E-1,3.0403844E-1,1.3958181E-1,3.0309588E-1,1.3729906E-1,2.0012754E-1,2.4761084E-1,4.9499997E-1,1.8499999E-1,7.909091E-2,2.6624998E-1,4.635366E-1,5.3571425E-2,1.8214285E-1,2.9586488E-1,5.2840906E-1],"categories":[],"categories_nodes":[],"categories_segments":[],"categories_sizes":[],"default_left":[0,0,0,0,0,0,0,0,0,0,0,0,0,0,0,0,0,0,0,0,0,0,0,0,0,0,0,0,0,0,0,0,0,0,0,0,0,0,0,0,0,0,0,0,0,0,0,0,0,0,0,0,0,0,0,0,0,0,0,0,0,0,0,0,0,0,0,0,0,0,0,0,0,0,0,0,0,0,0,0,0,0,0,0,0,0,0,0,0,0,0,0,0,0,0,0,0,0,0,0,0,0,0,0,0,0,0,0,0,0,0,0,0,0,0,0,0,0,0,0,0,0,0,0,0,0,0,0,0,0,0,0,0,0,0,0,0,0,0,0,0,0,0,0,0,0,0,0,0,0,0,0,0,0,0,0,0,0,0,0,0,0,0,0,0,0,0,0,0,0,0,0,0,0,0,0,0,0,0,0,0,0,0,0,0,0,0,0,0,0,0,0,0,0,0,0,0,0,0,0,0,0,0,0,0,0,0,0,0,0,0,0,0,0,0,0,0,0,0,0,0,0,0],"id":0,"left_children":[1,3,5,7,9,11,13,15,17,19,21,23,25,27,29,31,33,35,37,39,41,43,45,47,49,51,53,55,57,59,61,63,65,67,-1,69,71,73,75,77,79,81,83,85,87,89,91,93,95,97,99,101,103,105,107,109,111,113,115,117,119,-1,121,123,125,127,129,-1,-1,131,133,135,137,139,141,143,145,147,149,151,-1,153,155,157,159,161,163,165,-1,-1,-1,167,169,171,173,175,177,-1,-1,179,181,183,185,187,189,191,193,195,-1,197,199,201,203,-1,205,207,209,211,213,215,217,219,221,-1,-1,-1,-1,-1,-1,-1,-1,-1,-1,-1,-1,-1,-1,-1,-1,-1,-1,-1,-1,-1,-1,-1,-1,-1,-1,-1,-1,-1,-1,-1,-1,-1,-1,-1,-1,-1,-1,-1,-1,-1,-1,-1,-1,-1,-1,-1,-1,-1,-1,-1,-1,-1,-1,-1,-1,-1,-1,-1,-1,-1,-1,-1,-1,-1,-1,-1,-1,-1,-1,-1,-1,-1,-1,-1,-1,-1,-1,-1,-1,-1,-1,-1,-1,-1,-1,-1,-1,-1,-1,-1,-1,-1,-1,-1,-1,-1,-1,-1,-1],"loss_changes":[1.17937625E5,2.9955846E4,2.7727344E4,8.201109E3,1.0060621E4,4.7386953E3,6.9465703E3,1.1789014E3,3.8543545E3,1.2438484E3,3.340582E3,2.1826523E3,1.8545859E3,1.7808516E3,7.1299023E3,7.352471E2,7.309166E2,2.8540864E3,1.9736772E3,1.2324673E3,5.72516E2,2.5407715E3,1.8815269E3,4.1810742E2,2.261168E3,1.3476646E3,9.380137E2,9.5389844E2,1.9219785E3,1.6300117E3,2.19978E4,1.6562988E2,4.2795862E2,2.8581822E-1,0E0,1.3760581E3,1.0252817E3,1.4523007E3,7.072378E2,4.1517804E2,6.284723E2,2.714181E2,4.6348242E2,1.8987051E3,5.661699E2,4.693318E2,1.0606714E3,2.5080566E2,2.6794043E2,1.204125E3,1.5156953E3,2.8014282E2,3.9403174E2,2.4064258E2,5.2510156E2,4.9956006E2,6.009922E2,1.238625E3,1.2579336E3,7.5295996E2,1.10696E3,0E0,1.877502E3,1.2860352E2,2.8326428E2,1.3786487E2,5.0366824E2,0E0,0E0,1.0547205E3,9.2267444E2,3.303549E2,1.1123257E3,4.1057794E2,3.327063E2,1.0058873E2,3.3739795E2,2.410582E2,2.361231E2,2.3130333E1,0E0,1.5140814E2,1.635502E2,1.7537354E2,6.590149E2,8.107505E2,4.8301855E2,4.5803027E2,0E0,0E0,0E0,2.4539404E2,4.329421E3,6.53801E2,1.72146E2,2.8130957E2,5.933508E2,0E0,0E0,9.212461E2,3.6842944E3,2.0068433E2,1.1001843E2,3.990913E2,1.891181E2,1.6602734E2,9.594946E1,3.299873E2,0E0,2.716543E2,2.8600488E2,7.4391895E2,1.1688486E3,0E0,5.437793E2,6.7511426E2,1.0468145E3,2.682793E2,4.5731006E2,3.2371216E1,2.0276562E2,7.0502625E1,1.2024883E3,0E0,0E0,0E0,0E0,0E0,0E0,0E0,0E0,0E0,0E0,0E0,0E0,0E0,0E0,0E0,0E0,0E0,0E0,0E0,0E0,0E0,0E0,0E0,0E0,0E0,0E0,0E0,0E0,0E0,0E0,0E0,0E0,0E0,0E0,0E0,0E0,0E0,0E0,0E0,0E0,0E0,0E0,0E0,0E0,0E0,0E0,0E0,0E0,0E0,0E0,0E0,0E0,0E0,0E0,0E0,0E0,0E0,0E0,0E0,0E0,0E0,0E0,0E0,0E0,0E0,0E0,0E0,0E0,0E0,0E0,0E0,0E0,0E0,0E0,0E0,0E0,0E0,0E0,0E0,0E0,0E0,0E0,0E0,0E0,0E0,0E0,0E0,0E0,0E0,0E0,0E0,0E0,0E0,0E0,0E0,0E0,0E0,0E0,0E0,0E0],"parents":[2147483647,0,0,1,1,2,2,3,3,4,4,5,5,6,6,7,7,8,8,9,9,10,10,11,11,12,12,13,13,14,14,15,15,16,16,17,17,18,18,19,19,20,20,21,21,22,22,23,23,24,24,25,25,26,26,27,27,28,28,29,29,30,30,31,31,32,32,33,33,35,35,36,36,37,37,38,38,39,39,40,40,41,41,42,42,43,43,44,44,45,45,46,46,47,47,48,48,49,49,50,50,51,51,52,52,53,53,54,54,55,55,56,56,57,57,58,58,59,59,60,60,62,62,63,63,64,64,65,65,66,66,69,69,70,70,71,71,72,72,73,73,74,74,75,75,76,76,77,77,78,78,79,79,81,81,82,82,83,83,84,84,85,85,86,86,87,87,91,91,92,92,93,93,94,94,95,95,96,96,99,99,100,100,101,101,102,102,103,103,104,104,105,105,106,106,107,107,109,109,110,110,111,111,112,112,114,114,115,115,116,116,117,117,118,118,119,119,120,120,121,121,122,122],"right_children":[2,4,6,8,10,12,14,16,18,20,22,24,26,28,30,32,34,36,38,40,42,44,46,48,50,52,54,56,58,60,62,64,66,68,-1,70,72,74,76,78,80,82,84,86,88,90,92,94,96,98,100,102,104,106,108,110,112,114,116,118,120,-1,122,124,126,128,130,-1,-1,132,134,136,138,140,142,144,146,148,150,152,-1,154,156,158,160,162,164,166,-1,-1,-1,168,170,172,174,176,178,-1,-1,180,182,184,186,188,190,192,194,196,-1,198,200,202,204,-1,206,208,210,212,214,216,218,220,222,-1,-1,-1,-1,-1,-1,-1,-1,-1,-1,-1,-1,-1,-1,-1,-1,-1,-1,-1,-1,-1,-1,-1,-1,-1,-1,-1,-1,-1,-1,-1,-1,-1,-1,-1,-1,-1,-1,-1,-1,-1,-1,-1,-1,-1,-1,-1,-1,-1,-1,-1,-1,-1,-1,-1,-1,-1,-1,-1,-1,-1,-1,-1,-1,-1,-1,-1,-1,-1,-1,-1,-1,-1,-1,-1,-1,-1,-1,-1,-1,-1,-1,-1,-1,-1,-1,-1,-1,-1,-1,-1,-1,-1,-1,-1,-1,-1,-1,-1,-1],"split_conditions":[2.2E0,4E-1,5.6E0,8.54E1,8.54E1,-5.143813E0,1.0361098E1,1.0400676E1,3.0215E2,3.2030126E-1,4.931276E0,5.2725E1,8.64E1,8.922268E0,7.2316413E0,1E-1,8.72E2,1E-1,4.204556E1,8.370854E0,8.38E1,3.8177216E-1,7.27E1,3.3E0,2.6351127E-1,1.8E0,3.8610234E0,-1.3195161E1,2.9835E2,1.27E1,5.9E0,8.38E1,3.8177216E-1,3.0245E2,3.1617674E-1,8.43E1,2.9985E2,5.3E0,3.0005E2,-6.5959296E0,3.0235E2,-1.10969925E1,3.5437741E0,8.97E1,3.0205E2,1.538E1,9.02E1,-9.688539E0,3.488158E0,8.81E1,2.75E0,9.77E2,2.5E0,4.3E0,1.162E3,3.0004602E2,2.8493695E2,2E-1,8E2,7.77E2,9.166667E-1,2.26E0,5.5425E1,1.168E3,3.0225E2,5.8475E1,8.38E1,-1.1399999E-2,2.9999998E-3,8.81E1,1.1E3,1.3E0,2.9985E2,1.5521629E0,1.538E1,6.374248E-1,8.81E1,4.782633E0,1.4E0,1.64E2,2.8296632E-1,5.2075E1,7.91E1,3.4968542E2,1.8805151E1,1.5E0,2.9985E2,3.444456E1,2.8782883E-1,7.05E-1,1.5000004E-3,-1.0097254E1,8.68E0,5.0025E1,3.0015E2,8.8E1,3.0035E2,1.95E-1,8.775E-1,4.25E0,2.1944444E0,8.38E1,4.5170116E0,5.4E0,3.8882966E0,3E-1,3.0236157E2,1.5681232E1,3.9E-1,6.388889E-1,2.9950095E2,8.54E1,1.4E0,6.504545E-1,2.6998255E0,3.45E2,1.63E2,7.222222E-1,9.526935E0,1.654E1,8.55E1,6.8910794E0,1.0170788E1,-1.3702359E-2,4.4729123E-3,-1.0866115E-2,9.043989E-3,-8.564632E-3,1.029E-1,-3.5484482E-3,2.1922106E-2,-7.0931314E-4,2.2943815E-2,-1.0124901E-2,1.1653846E-1,1.4287733E-3,2.9248258E-2,3.7283417E-2,1.24230115E-2,1.3180327E-3,5.8630433E-2,3.3115816E-1,5.785714E-2,-1.2452831E-2,4.3935485E-2,8.734285E-2,1.3973154E-1,1.9202994E-2,9.364285E-2,-3.2302677E-3,8.921185E-3,6.7499995E-2,-7.7999993E-3,2.9702477E-2,1.0242857E-1,-6.840691E-3,1.25719765E-2,2.7491732E-2,1.095E-1,2.5133333E-1,6.022703E-2,2.13162E-2,4.4750743E-2,4.0523767E-2,5.766508E-2,5.3762376E-2,8.4028736E-2,1.4896153E-1,7.83866E-2,6.4875E-1,1.110989E-1,2.885E-1,9.2532784E-2,7.886311E-2,3.3793103E-2,8.1837036E-2,1.17283404E-1,1.307574E-1,4.4E-1,1.1664427E-1,2.3395714E-1,6.6494113E-1,1.6431817E-1,1.18674515E-2,3.324554E-2,3.2333333E-2,1.7343749E-1,6.343776E-2,1.9336364E-1,2.2357143E-1,-1.2E-3,4.4258926E-2,6.7823485E-2,8.813546E-2,1.5534782E-1,1.4203571E-1,9.305515E-2,1.4947058E-1,3.05625E-1,2.2666666E-1,1.1088236E-1,7.351982E-2,1.3776548E-1,1.5948388E-1,4.8E-1,4.5374998E-1,2.3919642E-1,1.4267808E-1,3.0403844E-1,1.3958181E-1,3.0309588E-1,1.3729906E-1,2.0012754E-1,2.4761084E-1,4.9499997E-1,1.8499999E-1,7.909091E-2,2.6624998E-1,4.635366E-1,5.3571425E-2,1.8214285E-1,2.9586488E-1,5.2840906E-1],"split_indices":[27,27,27,3,3,21,19,28,33,11,42,7,3,27,42,27,6,28,39,28,3,32,18,27,8,28,43,5,15,27,27,3,32,16,0,18,15,28,15,5,2,21,42,3,2,0,3,4,20,3,40,23,32,27,24,34,9,28,23,6,40,0,7,6,34,25,3,0,0,3,23,28,2,8,0,44,3,4,27,6,0,7,3,12,9,28,15,39,0,0,0,5,0,25,2,3,15,0,0,41,41,3,4,27,5,28,33,39,0,41,13,3,11,0,42,9,12,40,27,0,35,4,4,0,0,0,0,0,0,0,0,0,0,0,0,0,0,0,0,0,0,0,0,0,0,0,0,0,0,0,0,0,0,0,0,0,0,0,0,0,0,0,0,0,0,0,0,0,0,0,0,0,0,0,0,0,0,0,0,0,0,0,0,0,0,0,0,0,0,0,0,0,0,0,0,0,0,0,0,0,0,0,0,0,0,0,0,0,0,0,0,0,0,0,0,0,0,0,0,0,0,0,0],"split_type":[0,0,0,0,0,0,0,0,0,0,0,0,0,0,0,0,0,0,0,0,0,0,0,0,0,0,0,0,0,0,0,0,0,0,0,0,0,0,0,0,0,0,0,0,0,0,0,0,0,0,0,0,0,0,0,0,0,0,0,0,0,0,0,0,0,0,0,0,0,0,0,0,0,0,0,0,0,0,0,0,0,0,0,0,0,0,0,0,0,0,0,0,0,0,0,0,0,0,0,0,0,0,0,0,0,0,0,0,0,0,0,0,0,0,0,0,0,0,0,0,0,0,0,0,0,0,0,0,0,0,0,0,0,0,0,0,0,0,0,0,0,0,0,0,0,0,0,0,0,0,0,0,0,0,0,0,0,0,0,0,0,0,0,0,0,0,0,0,0,0,0,0,0,0,0,0,0,0,0,0,0,0,0,0,0,0,0,0,0,0,0,0,0,0,0,0,0,0,0,0,0,0,0,0,0,0,0,0,0,0,0,0,0,0,0,0,0,0,0,0,0,0,0],"sum_hessian":[1.62328E5,1.51539E5,1.0789E4,1.2057E5,3.0969E4,8.36E3,2.429E3,8.9177E4,3.1393E4,1.3908E4,1.7061E4,2.76E3,5.6E3,1.887E3,5.42E2,8.9152E4,2.5E1,2.9876E4,1.517E3,9.823E3,4.085E3,1.6512E4,5.49E2,2.095E3,6.65E2,2.721E3,2.879E3,1.252E3,6.35E2,4.1E2,1.32E2,7.2248E4,1.6904E4,1E1,1.5E1,1.938E4,1.0496E4,7.67E2,7.5E2,9.789E3,3.4E1,2.471E3,1.614E3,1.4652E4,1.86E3,6E0,5.43E2,1.085E3,1.01E3,1E1,6.55E2,1.653E3,1.068E3,2.164E3,7.15E2,1.56E2,1.096E3,8E1,5.55E2,3.44E2,6.6E1,5E0,1.27E2,6.0215E4,1.2033E4,1.3314E4,3.59E3,9E0,1E0,7.873E3,1.1507E4,3.967E3,6.529E3,7.46E2,2.1E1,1.13E2,6.37E2,6.41E2,9.148E3,1.4E1,2E1,3.89E2,2.082E3,1.413E3,2.01E2,8.552E3,6.1E3,1.85E3,1E1,5E0,1E0,4.38E2,1.05E2,1.38E2,9.47E2,8.37E2,1.73E2,5E0,5E0,5.74E2,8.1E1,1.63E3,2.3E1,1.044E3,2.4E1,1.892E3,2.72E2,7.1E2,5E0,7.1E1,8.5E1,8.39E2,2.57E2,1E1,7E1,3.83E2,1.72E2,3.01E2,4.3E1,1.5E1,5.1E1,2.6E1,1.01E2,5.9863E4,3.52E2,1.1352E4,6.81E2,1.3305E4,9E0,2.641E3,9.49E2,5.4E3,2.473E3,1.1456E4,5.1E1,3.537E3,4.3E2,2.984E3,3.545E3,6.09E2,1.37E2,1.5E1,6E0,5.2E1,6.1E1,4.89E2,1.48E2,6E2,4.1E1,7.36E3,1.788E3,5E0,9E0,3.62E2,2.7E1,5.2E2,1.562E3,1.39E3,2.3E1,1.7E1,1.84E2,6.906E3,1.646E3,3.533E3,2.567E3,8.07E2,1.043E3,5.1E1,3.87E2,1.5E1,9E1,1.7E1,1.21E2,8.61E2,8.6E1,4.04E2,4.33E2,1.68E2,5E0,5.05E2,6.9E1,1.6E1,6.5E1,6.78E2,9.52E2,8E0,1.5E1,1.023E3,2.1E1,2E1,4E0,3.35E2,1.557E3,2.5E2,2.2E1,1.67E2,5.43E2,1.6E1,5.5E1,3.5E1,5E1,2.26E2,6.13E2,2.47E2,1E1,1.5E1,5.5E1,3.58E2,2.5E1,5.4E1,1.18E2,1.06E2,1.95E2,3.3E1,1E1,5E0,1E1,1.1E1,4E1,6E0,2E1,3.6E1,6.5E1],"tree_param":{"num_deleted":"0","num_feature":"45","num_nodes":"223","size_leaf_vector":"1"}},{"base_weights":[2.1331564E-1,-1.5773157E-2,2.361742E0,-2.953273E-1,5.92157E-1,1.8892808E0,5.0871987E0,-3.6553496E-1,6.804669E-2,1.1005891E-1,1.0932919E0,7.863643E-1,2.4169722E0,2.996165E0,6.081593E0,-4.3165165E-1,-2.672208E-1,-1.0198007E-1,4.9525443E-1,4.989766E-1,-2.2319873E-1,9.039778E-1,1.9921502E0,6.8293536E-1,1.0210278E1,2.1552737E0,4.2814593E0,1.4017625E0,3.6218371E0,5.330081E0,9.4857235E0,-4.3924582E-1,7.933666E-1,-3.320807E-1,8.392889E-2,9.714311E-2,-2.1392335E-1,-2.0781915E-1,7.649253E-1,2.0908628E-1,1.0798162E0,-2.4091461E-1,3.7238982E0,8.05855E-1,1.8681808E0,1.8669008E0,4.8249583E0,1.4816976E0,2.7075738E-1,3.134995E-1,-1.2242652E-2,2.9137554E0,1.7187873E0,3.9655888E0,3.0535033E-1,1.0442017E0,4.997689E0,2.7145708E0,4.65615E0,1.2888295E1,4.9766383E0,6.514421E0,1.2152017E1,-4.5093226E-1,-3.6231866E-1,7.223692E0,-1.2479412E-1,-3.3488107E-1,1.383269E0,4.9787447E-2,4.3609915E0,5.166932E-2,2.0872812E0,-2.2633182E-1,1.9391578E0,-2.5382853E-1,4.7171664E0,6.594621E-1,2.4942744E0,3.219898E-2,1.2198412E0,9.898615E-1,3.5567544E0,-2.70767E-1,1.5340331E0,7.0089784E0,-4.6250433E-1,5.074286E-1,1.3062106E0,1.7862216E0,6.98973E0,1.009253E1,1.8337567E0,3.3787389E0,7.2197046E0,9.374988E-1,2.5737724E0,4.4629116E-2,9.3492746E-1,2.5956597E0,4.2330256E0,1.2757312E0,2.0341785E0,5.4185667E0,3.3262603E0,-7.516306E-2,1.5070927E0,2.3108591E-1,1.1360646E0,3.3825765E0,1.6744351E0,6.7213492E0,3.7994428E0,2.8049458E1,8.6530285E0,5.9952574E0,3.8972983E0,5.4879484E0,1.0646114E1,5.3664575E0,1.383168E1,-1.382545E-2,-1.2211919E-2,-1.2212831E-2,-7.4376496E-3,-1.4675891E-2,3.3296853E-1,-1.0809732E-2,3.1366837E-1,-1.0502062E-2,-2.8565137E-3,-8.652074E-3,7.583753E-2,-5.452495E-3,1.6186452E-2,3.5695847E-2,3.6568984E-1,4.5598415E-4,3.1087553E-2,5.078481E-2,2.2771414E-1,-7.5374227E-3,1.0150498E-2,3.848761E-2,1.7316405E-1,-8.105145E-3,8.270565E-2,2.8323537E-1,-1.7604194E-4,2.8856857E-2,6.1014085E-3,2.356116E-1,6.475476E-2,7.7375316E-4,1.4966866E-1,1.00677665E-2,5.858756E-2,5.288749E-3,3.345954E-2,1.4141572E-1,-1.0250204E-2,-9.958693E-3,3.0912033E-3,5.732479E-1,2.7704276E-2,2.4009985E-1,6.943187E-2,-3.721158E-4,-1.5620214E-2,7.8333905E-3,2.5421934E-2,9.416598E-3,4.221465E-2,3.811176E-2,7.101829E-2,2.8230807E-1,9.539599E-2,4.1738834E-2,6.87375E-1,5.0279137E-2,9.254894E-2,6.926875E-2,1.4677185E-1,1.7500785E-1,3.9347655E-1,1.5781865E-2,5.257417E-2,6.935462E-2,2.1903636E-1,3.2890495E-4,8.567829E-2,1.2186866E-2,5.1879693E-2,6.7338645E-2,1.0697661E-1,3.5164243E-1,1.17620476E-1,3.09033E-2,7.97976E-2,5.8793116E-2,1.3120836E-1,1.4957623E-1,8.2128125E-1,8.671685E-2,1.4465411E-1,-7.0708636E-3,4.0662006E-2,1.556919E-2,6.1358478E-2,6.9136283E-4,5.0662003E-2,1.1078586E-1,4.8650682E-2,7.2273873E-3,6.0905907E-2,1.4622112E-1,2.7022025E-1,8.185597E-2,1.849275E-1,9.186919E-1,-3.9034053E-3,1.5763135E-1,3.038412E-1,2.1551393E-1,1.0700969E-1,1.5332016E-1,8.803363E-2,2.3848605E-1,1.10674396E-1,3.7115872E-1,8.4939286E-2,8.292718E-2,1.9421934E-1,5.87619E-1,3.622156E-1],"categories":[],"categories_nodes":[],"categories_segments":[],"categories_sizes":[],"default_left":[0,0,0,0,0,0,0,0,0,0,0,0,0,0,0,0,0,0,0,0,0,0,0,0,0,0,0,0,0,0,0,0,0,0,0,0,0,0,0,0,0,0,0,0,0,0,0,0,0,0,0,0,0,0,0,0,0,0,0,0,0,0,0,0,0,0,0,0,0,0,0,0,0,0,0,0,0,0,0,0,0,0,0,0,0,0,0,0,0,0,0,0,0,0,0,0,0,0,0,0,0,0,0,0,0,0,0,0,0,0,0,0,0,0,0,0,0,0,0,0,0,0,0,0,0,0,0,0,0,0,0,0,0,0,0,0,0,0,0,0,0,0,0,0,0,0,0,0,0,0,0,0,0,0,0,0,0,0,0,0,0,0,0,0,0,0,0,0,0,0,0,0,0,0,0,0,0,0,0,0,0,0,0,0,0,0,0,0,0,0,0,0,0,0,0,0,0,0,0,0,0,0,0,0,0,0,0,0,0,0,0,0,0,0,0,0,0,0,0,0,0,0,0,0,0,0,0,0,0,0,0,0,0,0,0],"id":1,"left_children":[1,3,5,7,9,11,13,15,17,19,21,23,25,27,29,31,33,35,37,39,41,43,45,47,49,51,53,55,57,59,61,63,65,67,69,71,73,75,77,79,81,83,85,87,89,91,93,95,97,-1,-1,99,101,103,-1,105,107,109,111,113,115,117,119,121,123,125,127,129,131,133,135,137,139,141,143,145,147,149,151,153,155,157,159,161,163,165,167,169,171,173,175,177,179,181,183,185,187,189,191,193,195,197,199,201,203,205,207,-1,209,211,213,215,217,219,221,223,225,227,229,231,233,-1,-1,-1,-1,-1,-1,-1,-1,-1,-1,-1,-1,-1,-1,-1,-1,-1,-1,-1,-1,-1,-1,-1,-1,-1,-1,-1,-1,-1,-1,-1,-1,-1,-1,-1,-1,-1,-1,-1,-1,-1,-1,-1,-1,-1,-1,-1,-1,-1,-1,-1,-1,-1,-1,-1,-1,-1,-1,-1,-1,-1,-1,-1,-1,-1,-1,-1,-1,-1,-1,-1,-1,-1,-1,-1,-1,-1,-1,-1,-1,-1,-1,-1,-1,-1,-1,-1,-1,-1,-1,-1,-1,-1,-1,-1,-1,-1,-1,-1,-1,-1,-1,-1,-1,-1,-1,-1,-1,-1,-1,-1,-1,-1,-1],"loss_changes":[8.0265805E4,2.504545E4,2.0224875E4,2.5753984E3,1.1215018E4,7.7933984E3,4.8078555E3,5.4982227E2,1.1874434E3,3.0668088E3,3.8713594E3,4.2193506E3,4.410965E3,7.4310254E2,3.971E3,4.7092285E2,7.74874E2,2.606859E2,8.825502E2,1.8383125E3,8.919677E2,1.7774512E3,1.3956748E3,1.4120045E3,1.2389258E2,2.6256445E3,2.0346328E3,2.6864877E2,4.9221826E2,3.381961E3,2.1628652E3,4.503125E1,1.842972E3,1.3840869E2,7.744461E2,3.80803E2,2.0043799E2,2.937322E2,6.118905E2,1.3024438E3,8.0640186E2,6.726542E2,7.871438E2,2.547921E3,7.1621436E2,1.01558105E3,5.539824E2,8.652737E2,4.251394E2,0E0,0E0,1.2064297E3,7.025117E2,9.6571484E2,0E0,1.0115135E2,1.8973007E2,1.9513818E2,4.1678027E2,3.4173457E3,1.3333418E3,5.1835986E2,1.6125996E3,1.8794922E1,3.388495E1,1.1711177E3,6.86577E2,1.0432764E2,9.066244E1,5.970248E2,1.0281768E3,1.4777982E2,1.9120172E2,1.0481766E2,1.0075456E2,6.372535E1,2.677955E2,4.373318E2,3.303722E2,1.9680872E2,7.0266675E2,3.5795898E2,5.7449255E2,2.8544415E2,2.235669E3,1.3085498E2,6.742768E-1,8.952075E2,6.3823926E2,5.0952295E2,2.1906848E2,1.6413657E3,7.408887E2,1.6034729E2,4.30198E2,3.263407E2,5.837261E2,1.9995279E2,3.0127454E2,7.8896875E2,1.2685322E3,7.1157104E2,5.042461E2,2.9227725E3,4.6694824E2,1.3639264E1,7.2326385E1,0E0,5.497261E0,8.962744E1,5.8160034E1,2.6014966E2,4.3649756E2,8.742627E2,1.7738354E2,1.8012754E3,6.883125E2,4.621709E2,3.1563672E2,7.144672E1,9.5735547E2,0E0,0E0,0E0,0E0,0E0,0E0,0E0,0E0,0E0,0E0,0E0,0E0,0E0,0E0,0E0,0E0,0E0,0E0,0E0,0E0,0E0,0E0,0E0,0E0,0E0,0E0,0E0,0E0,0E0,0E0,0E0,0E0,0E0,0E0,0E0,0E0,0E0,0E0,0E0,0E0,0E0,0E0,0E0,0E0,0E0,0E0,0E0,0E0,0E0,0E0,0E0,0E0,0E0,0E0,0E0,0E0,0E0,0E0,0E0,0E0,0E0,0E0,0E0,0E0,0E0,0E0,0E0,0E0,0E0,0E0,0E0,0E0,0E0,0E0,0E0,0E0,0E0,0E0,0E0,0E0,0E0,0E0,0E0,0E0,0E0,0E0,0E0,0E0,0E0,0E0,0E0,0E0,0E0,0E0,0E0,0E0,0E0,0E0,0E0,0E0,0E0,0E0,0E0,0E0,0E0,0E0,0E0,0E0,0E0,0E0,0E0,0E0,0E0,0E0],"parents":[2147483647,0,0,1,1,2,2,3,3,4,4,5,5,6,6,7,7,8,8,9,9,10,10,11,11,12,12,13,13,14,14,15,15,16,16,17,17,18,18,19,19,20,20,21,21,22,22,23,23,24,24,25,25,26,26,27,27,28,28,29,29,30,30,31,31,32,32,33,33,34,34,35,35,36,36,37,37,38,38,39,39,40,40,41,41,42,42,43,43,44,44,45,45,46,46,47,47,48,48,51,51,52,52,53,53,55,55,56,56,57,57,58,58,59,59,60,60,61,61,62,62,63,63,64,64,65,65,66,66,67,67,68,68,69,69,70,70,71,71,72,72,73,73,74,74,75,75,76,76,77,77,78,78,79,79,80,80,81,81,82,82,83,83,84,84,85,85,86,86,87,87,88,88,89,89,90,90,91,91,92,92,93,93,94,94,95,95,96,96,97,97,98,98,99,99,100,100,101,101,102,102,103,103,104,104,105,105,106,106,108,108,109,109,110,110,111,111,112,112,113,113,114,114,115,115,116,116,117,117,118,118,119,119,120,120],"right_children":[2,4,6,8,10,12,14,16,18,20,22,24,26,28,30,32,34,36,38,40,42,44,46,48,50,52,54,56,58,60,62,64,66,68,70,72,74,76,78,80,82,84,86,88,90,92,94,96,98,-1,-1,100,102,104,-1,106,108,110,112,114,116,118,120,122,124,126,128,130,132,134,136,138,140,142,144,146,148,150,152,154,156,158,160,162,164,166,168,170,172,174,176,178,180,182,184,186,188,190,192,194,196,198,200,202,204,206,208,-1,210,212,214,216,218,220,222,224,226,228,230,232,234,-1,-1,-1,-1,-1,-1,-1,-1,-1,-1,-1,-1,-1,-1,-1,-1,-1,-1,-1,-1,-1,-1,-1,-1,-1,-1,-1,-1,-1,-1,-1,-1,-1,-1,-1,-1,-1,-1,-1,-1,-1,-1,-1,-1,-1,-1,-1,-1,-1,-1,-1,-1,-1,-1,-1,-1,-1,-1,-1,-1,-1,-1,-1,-1,-1,-1,-1,-1,-1,-1,-1,-1,-1,-1,-1,-1,-1,-1,-1,-1,-1,-1,-1,-1,-1,-1,-1,-1,-1,-1,-1,-1,-1,-1,-1,-1,-1,-1,-1,-1,-1,-1,-1,-1,-1,-1,-1,-1,-1,-1,-1,-1,-1,-1],"split_conditions":[1.5E0,8.54E1,5.3925E1,3E-1,1E-1,8.43E1,3.1530112E-1,8.13E1,5E0,8.43E1,2.5799315E0,1.102E3,4.9E0,8.54E1,5.8475E1,1.168E3,3.9023846E-1,3.0045E2,8.04E1,8.81E1,1.1E3,3.7486064E-1,3.88E0,3.0035E2,1.538E1,-4.1919656E0,3.0165E2,1.1598846E1,4.6081944E0,5.0975E1,8.3741665E0,1E-1,4.9725E1,1.0350303E1,7.2316413E0,3.0255E2,1.034E3,1.165E3,5.3925E1,3.9970133E-1,3.0235E2,5.907335E0,3.0165E2,8.97E1,8.81E2,7.27E1,-3.240453E0,2.6111841E0,3.1E0,3.134995E-1,-1.2242652E-2,1.5991021E0,8.8E1,-9.142442E0,3.0535033E-1,5.5425E1,3.0125E2,-3.479858E0,2.7463245E2,-3.6732714E0,1.1063E2,9.400614E0,5.19E2,3.716589E0,5.2432594E0,6.9E1,8.62E1,3.091961E2,4.640103E0,3.444456E1,2E-1,3.6944444E0,6.5E2,5.4225E1,7.906818E0,9.2E1,7.17E1,3.0045E2,5.0325E1,9.2E1,3.2793877E1,1.36E2,5.2925E1,4.4300275E0,-1.1729697E1,2.528485E0,9.7042345E-2,5E-1,2.9865E2,3.5398422E1,2.013E1,2.9975E2,3.0215E2,3.0026962E2,2.013E1,2.3080132E0,3.0045E2,3.88E0,1.3611112E0,4.115638E0,5.2439564E-1,3.0225E2,6.751088E0,6.31E2,2.4488735E0,8.825E1,2.1047775E-1,2.3108591E-1,1.6953139E0,9.9158305E-1,4.8815235E-1,4.95124E0,4.2252846E0,2.013E1,-1.41013E1,3.0105E2,-3.3963459E0,2.993323E2,3.0044687E2,2.3730054E2,5.6925E1,-1.382545E-2,-1.2211919E-2,-1.2212831E-2,-7.4376496E-3,-1.4675891E-2,3.3296853E-1,-1.0809732E-2,3.1366837E-1,-1.0502062E-2,-2.8565137E-3,-8.652074E-3,7.583753E-2,-5.452495E-3,1.6186452E-2,3.5695847E-2,3.6568984E-1,4.5598415E-4,3.1087553E-2,5.078481E-2,2.2771414E-1,-7.5374227E-3,1.0150498E-2,3.848761E-2,1.7316405E-1,-8.105145E-3,8.270565E-2,2.8323537E-1,-1.7604194E-4,2.8856857E-2,6.1014085E-3,2.356116E-1,6.475476E-2,7.7375316E-4,1.4966866E-1,1.00677665E-2,5.858756E-2,5.288749E-3,3.345954E-2,1.4141572E-1,-1.0250204E-2,-9.958693E-3,3.0912033E-3,5.732479E-1,2.7704276E-2,2.4009985E-1,6.943187E-2,-3.721158E-4,-1.5620214E-2,7.8333905E-3,2.5421934E-2,9.416598E-3,4.221465E-2,3.811176E-2,7.101829E-2,2.8230807E-1,9.539599E-2,4.1738834E-2,6.87375E-1,5.0279137E-2,9.254894E-2,6.926875E-2,1.4677185E-1,1.7500785E-1,3.9347655E-1,1.5781865E-2,5.257417E-2,6.935462E-2,2.1903636E-1,3.2890495E-4,8.567829E-2,1.2186866E-2,5.1879693E-2,6.7338645E-2,1.0697661E-1,3.5164243E-1,1.17620476E-1,3.09033E-2,7.97976E-2,5.8793116E-2,1.3120836E-1,1.4957623E-1,8.2128125E-1,8.671685E-2,1.4465411E-1,-7.0708636E-3,4.0662006E-2,1.556919E-2,6.1358478E-2,6.9136283E-4,5.0662003E-2,1.1078586E-1,4.8650682E-2,7.2273873E-3,6.0905907E-2,1.4622112E-1,2.7022025E-1,8.185597E-2,1.849275E-1,9.186919E-1,-3.9034053E-3,1.5763135E-1,3.038412E-1,2.1551393E-1,1.0700969E-1,1.5332016E-1,8.803363E-2,2.3848605E-1,1.10674396E-1,3.7115872E-1,8.4939286E-2,8.292718E-2,1.9421934E-1,5.87619E-1,3.622156E-1],"split_indices":[28,3,7,28,28,3,11,3,10,18,42,6,28,3,7,6,11,2,3,3,23,32,8,2,0,22,2,20,4,25,20,28,7,43,42,33,24,23,25,32,33,42,2,3,6,18,20,42,28,0,0,20,3,22,0,26,2,5,12,20,1,4,6,4,10,3,17,12,42,39,28,41,6,25,4,17,3,2,26,17,39,24,7,4,5,5,11,28,16,39,0,2,34,33,0,8,16,8,40,43,30,34,43,23,29,35,31,0,5,44,30,10,42,0,22,2,21,33,9,9,26,0,0,0,0,0,0,0,0,0,0,0,0,0,0,0,0,0,0,0,0,0,0,0,0,0,0,0,0,0,0,0,0,0,0,0,0,0,0,0,0,0,0,0,0,0,0,0,0,0,0,0,0,0,0,0,0,0,0,0,0,0,0,0,0,0,0,0,0,0,0,0,0,0,0,0,0,0,0,0,0,0,0,0,0,0,0,0,0,0,0,0,0,0,0,0,0,0,0,0,0,0,0,0,0,0,0,0,0,0,0,0,0,0,0],"split_type":[0,0,0,0,0,0,0,0,0,0,0,0,0,0,0,0,0,0,0,0,0,0,0,0,0,0,0,0,0,0,0,0,0,0,0,0,0,0,0,0,0,0,0,0,0,0,0,0,0,0,0,0,0,0,0,0,0,0,0,0,0,0,0,0,0,0,0,0,0,0,0,0,0,0,0,0,0,0,0,0,0,0,0,0,0,0,0,0,0,0,0,0,0,0,0,0,0,0,0,0,0,0,0,0,0,0,0,0,0,0,0,0,0,0,0,0,0,0,0,0,0,0,0,0,0,0,0,0,0,0,0,0,0,0,0,0,0,0,0,0,0,0,0,0,0,0,0,0,0,0,0,0,0,0,0,0,0,0,0,0,0,0,0,0,0,0,0,0,0,0,0,0,0,0,0,0,0,0,0,0,0,0,0,0,0,0,0,0,0,0,0,0,0,0,0,0,0,0,0,0,0,0,0,0,0,0,0,0,0,0,0,0,0,0,0,0,0,0,0,0,0,0,0,0,0,0,0,0,0,0,0,0,0,0,0],"sum_hessian":[1.63081E5,1.47368E5,1.5713E4,1.00948E5,4.642E4,1.3393E4,2.32E3,8.4602E4,1.6346E4,2.366E4,2.276E4,4.335E3,9.058E3,7.49E2,1.571E3,5.0582E4,3.402E4,1.1693E4,4.653E3,1.0918E4,1.2742E4,1.8802E4,3.958E3,4.289E3,4.6E1,7.945E3,1.113E3,2.12E2,5.37E2,1.289E3,2.82E2,5.0271E4,3.11E2,2.8716E4,5.304E3,4.208E3,7.485E3,1.29E3,3.363E3,7.284E3,3.634E3,1.2686E4,5.6E1,1.7067E4,1.735E3,3.792E3,1.66E2,1.459E3,2.83E3,4.5E1,1E0,2.9E3,5.045E3,1.058E3,5.5E1,1.94E2,1.8E1,2.88E2,2.49E2,5.6E1,1.233E3,1.35E2,1.47E2,4.3637E4,6.634E3,3.8E1,2.73E2,2.867E4,4.6E1,5.263E3,4.1E1,4.115E3,9.3E1,7.443E3,4.2E1,1.279E3,1.1E1,3.171E3,1.92E2,6.2E3,1.084E3,3.508E3,1.26E2,1.2477E4,2.09E2,3.1E1,2.5E1,1.0692E4,6.375E3,1.709E3,2.6E1,1.4E1,3.778E3,1.05E2,6.1E1,9.75E2,4.84E2,2.112E3,7.18E2,2.339E3,5.61E2,2.1E3,2.945E3,3.21E2,7.37E2,5.7E1,1.37E2,1E1,8E0,1.74E2,1.14E2,7.1E1,1.78E2,1.1E1,4.5E1,6.32E2,6.01E2,1.1E2,2.5E1,3E1,1.17E2,3.5584E4,8.053E3,4.766E3,1.868E3,1.3E1,2.5E1,2.68E2,5E0,2.6961E4,1.709E3,1.9E1,2.7E1,3.574E3,1.689E3,3E1,1.1E1,3.969E3,1.46E2,8.8E1,5E0,7.129E3,3.14E2,3.7E1,5E0,1.273E3,6E0,5E0,6E0,1.906E3,1.265E3,1E1,1.82E2,6.193E3,7E0,4.92E2,5.92E2,4.69E2,3.039E3,9.7E1,2.9E1,1.0722E4,1.755E3,6E0,2.03E2,2.5E1,6E0,3E0,2.2E1,6.201E3,4.491E3,5.89E2,5.786E3,9.07E2,8.02E2,1.5E1,1.1E1,9E0,5E0,3.357E3,4.21E2,6.3E1,4.2E1,5.1E1,1E1,6.49E2,3.26E2,4.6E2,2.4E1,2.088E3,2.4E1,4.32E2,2.86E2,1.72E3,6.19E2,2.1E1,5.4E2,1.785E3,3.15E2,2.856E3,8.9E1,3.16E2,5E0,5.73E2,1.64E2,5.2E1,5E0,4.9E1,8.8E1,3E0,5E0,1.47E2,2.7E1,2.3E1,9.1E1,4.1E1,3E1,1.24E2,5.4E1,1E1,1E0,1.5E1,3E1,4.23E2,2.09E2,2.64E2,3.37E2,4.5E1,6.5E1,2E1,5E0,1E1,2E1,2.5E1,9.2E1],"tree_param":{"num_deleted":"0","num_feature":"45","num_nodes":"235","size_leaf_vector":"1"}},{"base_weights":[2.0745249E-1,-1.2618939E-2,3.257775E0,-2.2218433E-1,7.977036E-1,2.4794085E0,6.2301545E0,-3.6536923E-1,1.8459305E-1,2.2646084E-1,1.2682807E0,3.5198438E0,1.9381012E0,5.300969E0,9.49116E0,-4.0768448E-1,-1.822406E-1,7.139485E-1,-1.05824694E-1,2.9201193E-2,6.752129E-1,1.2011778E0,3.4822886E0,3.1068032E0,5.2179236E0,1.4664204E0,2.6127975E0,4.4862914E0,7.060751E0,3.0406748E1,8.785954E0,-4.084927E-1,3.5265684E0,-1.8534257E-1,2.553112E-1,5.67422E-1,1.909693E0,-2.5388372E-1,3.465382E-1,-7.6644786E-2,3.3341837E-1,6.3663507E-1,5.9746823E0,1.0758718E0,2.2429407E0,9.287642E0,3.2476823E0,2.6136448E0,3.5957253E0,6.6312397E-1,4.882895E0,7.90896E-1,1.9403902E0,2.2588027E0,3.7488973E0,2.7611525E0,4.8016963E0,7.6567516E0,1.8801198E0,2.198024E0,4.263921E0,7.195322E0,1.2573177E1,-4.1040495E-1,6.352097E-1,2.8286594E-1,-3.6746624E-1,-2.6901776E-1,1.0342495E-1,2.373633E-1,1.1824974E0,1.0050591E0,2.9282203E0,-2.6668E-1,2.0939782E0,2.7610984E-1,1.9776448E0,2.759616E-1,-1.2695758E-1,1.7783372E-1,9.474927E-1,3.0834866E-1,1.1008074E0,-2.8808296E-1,2.691201E-1,6.724554E-1,1.3941928E0,2.1555943E0,2.8407222E-1,3.0305054E0,6.701906E-1,2.9941037E0,9.309451E0,2.4494977E0,4.312058E0,2.805946E0,4.290442E0,4.47658E0,8.929972E0,4.6533436E-1,1.2289584E0,1.8572681E0,1.2694497E1,2.0706923E0,2.9584906E0,3.3901346E0,7.958522E0,2.292133E0,1.4695216E1,3.8009627E0,5.292862E0,6.621382E0,1.0653656E1,-8.673064E-2,3.2312953E0,1.8421966E-1,5.029597E-2,6.2103567E0,1.0193543E1,1.1117016E1,1.8698328E1,-1.2869652E-2,-9.50347E-3,-1.8501036E-3,9.752134E-2,-1.2732608E-2,2.176804E-3,-8.150708E-3,8.7277755E-2,-3.069694E-3,2.0817576E-2,3.2757826E-3,2.0302285E-2,-2.0408737E-3,3.7244722E-2,2.2913957E-2,3.1325638E-1,4.398802E-2,9.7177945E-2,-1.033506E-2,8.3418004E-4,1.9363317E-1,-3.7093428E-3,1.0449144E-3,1.691332E-2,2.1064867E-1,4.641039E-2,3.1516678E-3,3.480016E-2,-4.82393E-3,5.354878E-3,3.986913E-3,4.9283996E-2,2.5979148E-2,1.2795742E-1,3.488068E-2,5.9328363E-3,2.8107522E-2,7.1504354E-2,3.159666E-3,-1.16162645E-2,1.3584382E-2,3.0390097E-2,5.0135933E-2,3.5856467E-2,5.19752E-2,7.595493E-2,1.1512729E-1,1.6030043E-3,1.8572922E-1,8.3515845E-2,8.007492E-1,3.5849404E-2,5.5441223E-2,8.08266E-2,1.6262214E-1,4.1898686E-2,8.890708E-2,3.4869954E-2,1.4723365E-1,9.952885E-2,4.6818885E-1,1.3014662E-1,7.5618595E-1,1.9838566E-1,6.5362477E-3,2.923765E-2,9.829676E-3,4.8847485E-2,5.322166E-2,1.2560472E-1,3.6504712E-2,8.912461E-1,5.0431192E-2,6.820042E-2,8.276391E-2,1.6068386E-1,9.406653E-2,1.8547727E-1,1.257665E-1,4.0416458E-1,1.0167856E-1,4.3031327E-2,7.871014E-3,5.1170886E-1,1.4654985E-1,9.524299E-2,2.5751537E-1,1.5009886E-1,1.7087618E-1,2.8099558E-1,2.9426634E-1,4.0674087E-1,-1.650705E-2,4.9126754E-3,6.44166E-2,1.6204046E-1,3.9807674E-1,1.7636707E-1,1.9081831E-1,3.9664814E-1,3.966852E-1,1.7859347E-1,6.26515E-1,2.3798019E-1],"categories":[],"categories_nodes":[],"categories_segments":[],"categories_sizes":[],"default_left":[0,0,0,0,0,0,0,0,0,0,0,0,0,0,0,0,0,0,0,0,0,0,0,0,0,0,0,0,0,0,0,0,0,0,0,0,0,0,0,0,0,0,0,0,0,0,0,0,0,0,0,0,0,0,0,0,0,0,0,0,0,0,0,0,0,0,0,0,0,0,0,0,0,0,0,0,0,0,0,0,0,0,0,0,0,0,0,0,0,0,0,0,0,0,0,0,0,0,0,0,0,0,0,0,0,0,0,0,0,0,0,0,0,0,0,0,0,0,0,0,0,0,0,0,0,0,0,0,0,0,0,0,0,0,0,0,0,0,0,0,0,0,0,0,0,0,0,0,0,0,0,0,0,0,0,0,0,0,0,0,0,0,0,0,0,0,0,0,0,0,0,0,0,0,0,0,0,0,0,0,0,0,0,0,0,0,0,0,0,0,0,0,0,0,0,0,0,0,0,0,0,0,0,0,0,0,0,0,0,0,0,0,0,0,0,0,0,0,0,0,0,0,0,0,0],"id":2,"left_children":[1,3,5,7,9,11,13,15,17,19,21,23,25,27,29,31,33,35,37,39,41,43,45,47,49,51,53,55,57,59,61,63,65,67,-1,69,71,73,75,77,79,81,83,85,87,89,91,93,95,-1,97,99,101,103,105,107,109,111,113,-1,115,117,119,121,123,-1,125,127,129,131,133,135,137,139,141,143,145,147,149,151,153,155,157,159,-1,161,163,165,-1,167,-1,169,171,173,175,177,179,181,183,185,187,189,191,193,195,197,199,201,203,205,207,209,211,213,215,-1,-1,217,219,221,223,-1,-1,-1,-1,-1,-1,-1,-1,-1,-1,-1,-1,-1,-1,-1,-1,-1,-1,-1,-1,-1,-1,-1,-1,-1,-1,-1,-1,-1,-1,-1,-1,-1,-1,-1,-1,-1,-1,-1,-1,-1,-1,-1,-1,-1,-1,-1,-1,-1,-1,-1,-1,-1,-1,-1,-1,-1,-1,-1,-1,-1,-1,-1,-1,-1,-1,-1,-1,-1,-1,-1,-1,-1,-1,-1,-1,-1,-1,-1,-1,-1,-1,-1,-1,-1,-1,-1,-1,-1,-1,-1,-1,-1,-1,-1,-1,-1,-1,-1,-1,-1,-1,-1,-1],"loss_changes":[1.09344266E5,2.5799746E4,2.534393E4,7.0307466E3,8.391541E3,4.886215E3,6.840086E3,6.91791E2,4.8316343E3,1.2482988E3,2.5388262E3,2.0682812E3,1.8155547E3,2.5087578E3,7.151996E3,2.3205566E2,4.534972E2,1.9496855E3,1.359374E3,3.1549054E2,8.7652356E2,2.1664941E3,6.549082E2,5.675918E2,3.173334E3,1.0765054E3,9.3704297E2,6.473008E2,1.7116074E3,1.7615602E4,2.8492852E3,1.4497754E2,3.48221E2,4.0487347E2,0E0,2.0135881E3,1.1165508E3,4.5995978E2,5.74409E2,1.2899153E2,2.4145355E2,6.512438E2,5.8424243E2,1.9038555E3,1.1049775E3,1.4839994E3,7.176372E2,3.2259082E2,6.458203E2,0E0,8.973252E2,1.9766486E2,1.7445664E3,2.301289E2,8.142329E2,1.0298053E3,4.836953E2,1.4840117E3,1.5707631E2,0E0,4.3119263E1,9.5848047E2,1.0675781E3,1.2579004E2,2.4261827E2,0E0,2.8140903E-1,1.1113617E2,4.574924E2,3.6355545E2,2.5563281E2,1.4605172E3,2.5490283E2,3.4856177E2,8.0339624E2,3.3307053E2,4.387616E2,1.370664E2,6.578999E1,1.3269374E2,1.3451501E2,2.3653535E2,3.7006104E2,4.6974456E-1,0E0,4.8902466E2,4.5492773E2,2.7624902E2,0E0,3.3432877E1,0E0,2.9664355E2,2.648002E3,1.5575244E2,3.285868E2,1.4267139E2,3.656748E2,7.3304297E2,1.7567246E3,1.004774E2,2.1251672E2,3.7329053E2,2.893017E3,1.0815088E2,1.6620679E2,3.467329E2,8.364607E2,1.6829889E2,2.3413196E2,2.1596777E2,6.098301E2,8.993926E2,1.7861328E2,2.992644E0,7.0739624E1,0E0,0E0,5.3733105E2,8.908369E2,1.2044463E3,4.4607227E2,0E0,0E0,0E0,0E0,0E0,0E0,0E0,0E0,0E0,0E0,0E0,0E0,0E0,0E0,0E0,0E0,0E0,0E0,0E0,0E0,0E0,0E0,0E0,0E0,0E0,0E0,0E0,0E0,0E0,0E0,0E0,0E0,0E0,0E0,0E0,0E0,0E0,0E0,0E0,0E0,0E0,0E0,0E0,0E0,0E0,0E0,0E0,0E0,0E0,0E0,0E0,0E0,0E0,0E0,0E0,0E0,0E0,0E0,0E0,0E0,0E0,0E0,0E0,0E0,0E0,0E0,0E0,0E0,0E0,0E0,0E0,0E0,0E0,0E0,0E0,0E0,0E0,0E0,0E0,0E0,0E0,0E0,0E0,0E0,0E0,0E0,0E0,0E0,0E0,0E0,0E0,0E0,0E0,0E0,0E0,0E0,0E0,0E0,0E0,0E0,0E0,0E0,0E0,0E0],"parents":[2147483647,0,0,1,1,2,2,3,3,4,4,5,5,6,6,7,7,8,8,9,9,10,10,11,11,12,12,13,13,14,14,15,15,16,16,17,17,18,18,19,19,20,20,21,21,22,22,23,23,24,24,25,25,26,26,27,27,28,28,29,29,30,30,31,31,32,32,33,33,35,35,36,36,37,37,38,38,39,39,40,40,41,41,42,42,43,43,44,44,45,45,46,46,47,47,48,48,50,50,51,51,52,52,53,53,54,54,55,55,56,56,57,57,58,58,60,60,61,61,62,62,63,63,64,64,66,66,67,67,68,68,69,69,70,70,71,71,72,72,73,73,74,74,75,75,76,76,77,77,78,78,79,79,80,80,81,81,82,82,83,83,85,85,86,86,87,87,89,89,91,91,92,92,93,93,94,94,95,95,96,96,97,97,98,98,99,99,100,100,101,101,102,102,103,103,104,104,105,105,106,106,107,107,108,108,109,109,110,110,111,111,112,112,113,113,114,114,117,117,118,118,119,119,120,120],"right_children":[2,4,6,8,10,12,14,16,18,20,22,24,26,28,30,32,34,36,38,40,42,44,46,48,50,52,54,56,58,60,62,64,66,68,-1,70,72,74,76,78,80,82,84,86,88,90,92,94,96,-1,98,100,102,104,106,108,110,112,114,-1,116,118,120,122,124,-1,126,128,130,132,134,136,138,140,142,144,146,148,150,152,154,156,158,160,-1,162,164,166,-1,168,-1,170,172,174,176,178,180,182,184,186,188,190,192,194,196,198,200,202,204,206,208,210,212,214,216,-1,-1,218,220,222,224,-1,-1,-1,-1,-1,-1,-1,-1,-1,-1,-1,-1,-1,-1,-1,-1,-1,-1,-1,-1,-1,-1,-1,-1,-1,-1,-1,-1,-1,-1,-1,-1,-1,-1,-1,-1,-1,-1,-1,-1,-1,-1,-1,-1,-1,-1,-1,-1,-1,-1,-1,-1,-1,-1,-1,-1,-1,-1,-1,-1,-1,-1,-1,-1,-1,-1,-1,-1,-1,-1,-1,-1,-1,-1,-1,-1,-1,-1,-1,-1,-1,-1,-1,-1,-1,-1,-1,-1,-1,-1,-1,-1,-1,-1,-1,-1,-1,-1,-1,-1,-1,-1,-1,-1],"split_conditions":[2.2E0,4E-1,5.8E0,8.54E1,8.54E1,-5.2335014E0,1.0361098E1,1E-1,8.43E1,5E0,4.931276E0,5.3225E1,8.8E1,9.526935E0,5.9E0,1.0588894E1,1.3214189E1,3.0195E2,2E-1,1E0,8.2E0,3.8123965E-1,1.3852893E1,3.3E0,8.68E0,1E0,3.8610234E0,1.72E2,3.017603E2,1.654E1,7.2316413E0,7.2316413E0,4.3025E1,3.7439722E-1,2.553112E-1,8.81E1,4.176526E1,1.1E3,4.086044E0,-3.940436E0,1.6E0,8.38E1,4.4300275E0,8.81E1,3.0225E2,3.2404227E2,5.3E0,3.861402E0,-3.3010254E0,6.6312397E-1,1.0350303E1,2.488163E0,3.0365E2,3.7E0,8.98E2,3.45E2,4.35E0,7.77E2,2.8611112E0,2.198024E0,3.0125E2,7.77E2,2.892891E2,8.38E1,2E-1,2.8286594E-1,5.381106E0,5.8475E1,8.38E1,2.3767672E0,4.5675E1,4.7E0,4.8075E1,1E-1,3.0165E2,8.81E1,1.6666667E-1,2.2575576E0,3E-1,3.024871E2,8.16E2,-1.2110613E1,3.5437741E0,-8.483403E0,2.691201E-1,1.1E0,8.78E1,3.444456E1,2.8407222E-1,2.9955E2,6.701906E-1,-1.3195161E1,8.65E0,8.54E1,2.9E0,1.24E2,1.2222222E0,2.2354847E-1,1.1911805E1,8.54E1,7.749086E-1,2.2E0,8.54E1,8E-1,3.0169052E2,4.7E0,6.15E2,-4.365554E0,8.68E0,5.1175E1,6.530577E-1,2.8288548E1,2.3080132E0,7.89E1,4.4573717E0,1.8421966E-1,5.029597E-2,1.1111111E-1,3.8181853E-1,1.7844784E1,9.02E1,-1.2869652E-2,-9.50347E-3,-1.8501036E-3,9.752134E-2,-1.2732608E-2,2.176804E-3,-8.150708E-3,8.7277755E-2,-3.069694E-3,2.0817576E-2,3.2757826E-3,2.0302285E-2,-2.0408737E-3,3.7244722E-2,2.2913957E-2,3.1325638E-1,4.398802E-2,9.7177945E-2,-1.033506E-2,8.3418004E-4,1.9363317E-1,-3.7093428E-3,1.0449144E-3,1.691332E-2,2.1064867E-1,4.641039E-2,3.1516678E-3,3.480016E-2,-4.82393E-3,5.354878E-3,3.986913E-3,4.9283996E-2,2.5979148E-2,1.2795742E-1,3.488068E-2,5.9328363E-3,2.8107522E-2,7.1504354E-2,3.159666E-3,-1.16162645E-2,1.3584382E-2,3.0390097E-2,5.0135933E-2,3.5856467E-2,5.19752E-2,7.595493E-2,1.1512729E-1,1.6030043E-3,1.8572922E-1,8.3515845E-2,8.007492E-1,3.5849404E-2,5.5441223E-2,8.08266E-2,1.6262214E-1,4.1898686E-2,8.890708E-2,3.4869954E-2,1.4723365E-1,9.952885E-2,4.6818885E-1,1.3014662E-1,7.5618595E-1,1.9838566E-1,6.5362477E-3,2.923765E-2,9.829676E-3,4.8847485E-2,5.322166E-2,1.2560472E-1,3.6504712E-2,8.912461E-1,5.0431192E-2,6.820042E-2,8.276391E-2,1.6068386E-1,9.406653E-2,1.8547727E-1,1.257665E-1,4.0416458E-1,1.0167856E-1,4.3031327E-2,7.871014E-3,5.1170886E-1,1.4654985E-1,9.524299E-2,2.5751537E-1,1.5009886E-1,1.7087618E-1,2.8099558E-1,2.9426634E-1,4.0674087E-1,-1.650705E-2,4.9126754E-3,6.44166E-2,1.6204046E-1,3.9807674E-1,1.7636707E-1,1.9081831E-1,3.9664814E-1,3.966852E-1,1.7859347E-1,6.26515E-1,2.3798019E-1],"split_indices":[27,27,27,3,3,21,19,27,17,10,42,7,3,27,27,28,28,33,28,28,28,31,12,27,0,28,43,6,13,0,42,42,7,31,0,3,39,23,42,21,27,3,4,3,2,9,28,30,19,0,43,43,13,27,24,9,10,6,41,0,2,6,9,3,28,0,4,25,3,42,25,28,26,27,2,3,40,4,11,33,23,22,42,22,0,27,17,39,0,2,0,5,0,3,28,12,40,30,9,3,29,31,3,28,13,27,6,21,0,26,30,39,8,17,19,0,0,41,11,39,3,0,0,0,0,0,0,0,0,0,0,0,0,0,0,0,0,0,0,0,0,0,0,0,0,0,0,0,0,0,0,0,0,0,0,0,0,0,0,0,0,0,0,0,0,0,0,0,0,0,0,0,0,0,0,0,0,0,0,0,0,0,0,0,0,0,0,0,0,0,0,0,0,0,0,0,0,0,0,0,0,0,0,0,0,0,0,0,0,0,0,0,0,0,0,0,0,0,0,0,0,0,0,0,0],"split_type":[0,0,0,0,0,0,0,0,0,0,0,0,0,0,0,0,0,0,0,0,0,0,0,0,0,0,0,0,0,0,0,0,0,0,0,0,0,0,0,0,0,0,0,0,0,0,0,0,0,0,0,0,0,0,0,0,0,0,0,0,0,0,0,0,0,0,0,0,0,0,0,0,0,0,0,0,0,0,0,0,0,0,0,0,0,0,0,0,0,0,0,0,0,0,0,0,0,0,0,0,0,0,0,0,0,0,0,0,0,0,0,0,0,0,0,0,0,0,0,0,0,0,0,0,0,0,0,0,0,0,0,0,0,0,0,0,0,0,0,0,0,0,0,0,0,0,0,0,0,0,0,0,0,0,0,0,0,0,0,0,0,0,0,0,0,0,0,0,0,0,0,0,0,0,0,0,0,0,0,0,0,0,0,0,0,0,0,0,0,0,0,0,0,0,0,0,0,0,0,0,0,0,0,0,0,0,0,0,0,0,0,0,0,0,0,0,0,0,0,0,0,0,0,0,0],"sum_hessian":[1.62886E5,1.51926E5,1.096E4,1.20709E5,3.1217E4,8.687E3,2.273E3,8.9282E4,3.1427E4,1.4101E4,1.7116E4,2.971E3,5.716E3,1.771E3,5.02E2,7.2523E4,1.6759E4,1.1133E4,2.0294E4,9.796E3,4.305E3,1.6614E4,5.02E2,2.392E3,5.79E2,3.366E3,2.35E3,1.213E3,5.58E2,1.5E1,4.87E2,7.2509E4,1.4E1,1.6754E4,5E0,9.919E3,1.214E3,1.529E4,5.004E3,7.268E3,2.528E3,4.275E3,3E1,1.4832E4,1.782E3,1.8E1,4.84E2,1.194E3,1.198E3,1E1,5.69E2,1.389E3,1.977E3,1.794E3,5.56E2,1.89E2,1.024E3,5E2,5.8E1,5E0,1E1,3.45E2,1.42E2,7.2377E4,1.32E2,5E0,9E0,1.299E4,3.764E3,6.456E3,3.463E3,6.44E2,5.7E2,1.5208E4,8.2E1,4.798E3,2.06E2,9.07E2,6.361E3,2.018E3,5.1E2,2.505E3,1.77E3,1E1,2E1,6.543E3,8.289E3,1.762E3,2E1,1.3E1,5E0,4.66E2,1.8E1,1.091E3,1.03E2,5.63E2,6.35E2,5.19E2,5E1,7.98E2,5.91E2,1.963E3,1.4E1,1.417E3,3.77E2,5.14E2,4.2E1,1.83E2,6E0,3.4E2,6.84E2,3.74E2,1.26E2,2.4E1,3.4E1,5E0,5E0,2.62E2,8.3E1,1.17E2,2.5E1,6.0387E4,1.199E4,1.05E2,2.7E1,8E0,1E0,1.298E4,1E1,2.792E3,9.72E2,4.999E3,1.457E3,1.56E2,3.307E3,6.29E2,1.5E1,1.01E2,4.69E2,1.2029E4,3.179E3,2.7E1,5.5E1,2.61E3,2.188E3,1.5E1,1.91E2,7.61E2,1.46E2,5.727E3,6.34E2,1.959E3,5.9E1,4.99E2,1.1E1,2.86E2,2.219E3,1.571E3,1.99E2,2E0,8E0,3.979E3,2.564E3,3.462E3,4.827E3,8.32E2,9.3E2,1E1,3E0,2.7E1,4.39E2,5E0,1.3E1,3.18E2,7.73E2,7.4E1,2.9E1,5.13E2,5E1,3.86E2,2.49E2,5E0,5.14E2,5E0,4.5E1,5.38E2,2.6E2,1.82E2,4.09E2,1.897E3,6.6E1,9E0,5E0,4.88E2,9.29E2,3.5E2,2.7E1,4.73E2,4.1E1,2.6E1,1.6E1,7.9E1,1.04E2,1E0,5E0,1.22E2,2.18E2,5.3E1,6.31E2,2.82E2,9.2E1,1.01E2,2.5E1,8E0,1.6E1,2.4E1,1E1,1E1,2.52E2,3.8E1,4.5E1,8.2E1,3.5E1,2E1,5E0],"tree_param":{"num_deleted":"0","num_feature":"45","num_nodes":"225","size_leaf_vector":"1"}},{"base_weights":[2.0732106E-1,-1.7171646E-2,3.1262496E0,-2.4345672E-1,6.916086E-1,2.3843982E0,6.2221274E0,-3.650425E-1,1.2451168E-1,1.6933884E-1,1.151178E0,2.068277E0,4.03437E0,5.6082277E0,1.0079227E1,-3.6632314E-1,5.4535174E0,7.3858523E-1,-9.291406E-2,-2.6300712E-2,6.190848E-1,1.0074662E0,2.1028872E0,2.837969E0,1.596671E0,6.0426846E0,3.0421257E0,4.9596114E0,8.188239E0,6.1376793E1,8.852775E0,-3.9644206E-1,-2.0443615E-1,2.9118967E-1,-3.503022E-1,5.719779E-1,1.9282976E0,-2.3759256E-1,3.928588E-1,-1.3698156E-1,1.8520689E-1,5.8741057E-1,5.868272E0,5.7396954E-1,1.354794E0,2.0731924E0,8.210543E0,2.7407584E0,4.8720503E0,7.77707E-1,1.9327896E0,5.3348665E0,1.6510693E1,9.28486E0,2.8349657E0,4.2867584E0,6.400541E0,9.390917E0,3.5140045E0,2.1430736E0,1.5342797E-2,5.772872E0,1.0311187E1,-4.1635296E-1,-2.959904E-1,-2.611945E-1,1.8311968E-1,-4.119579E-1,2.1441516E-3,2.7024707E-1,1.1384525E0,-1.320568E-1,2.2107024E0,-3.3352402E-1,2.3932718E-2,7.8897557E0,3.8187602E-1,-1.7047276E-1,3.3023927E-1,-9.078072E-2,4.0432087E-1,2.6422447E-1,1.0843065E0,2.660784E-1,-3.944066E-1,3.7342152E-1,9.553312E-1,1.0965497E0,1.7075987E0,1.7672397E0,2.5438397E0,2.7016583E-1,-8.0144955E-3,2.5160947E0,3.5250587E0,2.8744664E0,5.4647517E0,2.923824E-1,1.3873652E0,1.6255081E0,2.478859E0,4.9178405E0,1.9520409E1,6.5931582E0,2.5396307E1,2.3438047E1,1.7862263E0,7.56566E0,2.6722894E0,3.6399481E0,5.300838E0,7.188893E0,5.0649247E0,7.2441983E0,1.3299245E1,5.4942975E0,1.9645523E0,2.2254279E0,7.7646585E0,1.0585438E1,-4.576209E-1,-1.2565338E-2,3.2666206E-4,-9.914693E-3,5.7845917E-3,-8.265767E-3,1.7737953E-2,-4.185222E-3,3.1422745E-2,-3.4162062E-3,-1.3148212E-2,6.716068E-3,3.7219293E-2,2.3261866E-2,3.9963454E-2,-1.3139585E-2,6.0566436E-2,1.02383174E-1,4.5845717E-2,-1.1343461E-2,-2.5719088E-3,-5.0214673E-3,2.3510784E-2,-6.07432E-3,2.781662E-1,6.163042E-3,2.5506614E-2,1.0610056E-2,-5.6290813E-3,2.3313213E-2,-4.3263007E-3,-3.2081904E-3,4.582395E-2,5.311099E-3,2.0832738E-2,5.897862E-3,3.872872E-2,2.9637817E-2,1.3789034E-1,1.9858298E-3,-1.3412583E-2,1.5926974E-1,1.0748391E-2,2.3018712E-2,4.729118E-2,4.299511E-2,2.0645194E-2,4.9970478E-2,2.9657853E-1,1.01157896E-1,4.8587788E-2,5.431018E-2,8.981535E-2,7.3146604E-2,1.3480876E-1,8.7856434E-2,1.2233461E-1,5.559743E-2,1.424528E-1,2.1392913E-1,1.3506813E-1,6.2297904E-3,5.646287E-2,5.5547673E-2,3.1021617E-2,3.432868E-2,5.4770835E-2,6.934024E-2,1.07269175E-1,4.26901E-1,1.3370943E-1,8.796711E-1,2.9186657E-1,2.490056E-1,7.094237E-2,8.6411035E-1,4.4750232E-1,4.2012763E-1,8.6896497E-1,7.100313E-2,6.122732E-3,3.59828E-1,8.857561E-2,6.999631E-2,1.06676035E-1,9.1119826E-2,1.385916E-1,1.4940707E-1,3.305315E-1,4.383377E-1,2.0669357E-1,4.074918E-2,1.6217378E-1,4.665257E-1,2.0183629E-1,2.4841349E-1,4.7394142E-1,2.4160294E-2,2.1259266E-1,3.8411386E-2,8.251958E-2,-1.1207226E-2,7.929588E-2,7.1385674E-2,2.6574185E-1,2.931063E-1,4.3985945E-1,-1.4934263E-2,-3.8502202E-3],"categories":[],"categories_nodes":[],"categories_segments":[],"categories_sizes":[],"default_left":[0,0,0,0,0,0,0,0,0,0,0,0,0,0,0,0,0,0,0,0,0,0,0,0,0,0,0,0,0,0,0,0,0,0,0,0,0,0,0,0,0,0,0,0,0,0,0,0,0,0,0,0,0,0,0,0,0,0,0,0,0,0,0,0,0,0,0,0,0,0,0,0,0,0,0,0,0,0,0,0,0,0,0,0,0,0,0,0,0,0,0,0,0,0,0,0,0,0,0,0,0,0,0,0,0,0,0,0,0,0,0,0,0,0,0,0,0,0,0,0,0,0,0,0,0,0,0,0,0,0,0,0,0,0,0,0,0,0,0,0,0,0,0,0,0,0,0,0,0,0,0,0,0,0,0,0,0,0,0,0,0,0,0,0,0,0,0,0,0,0,0,0,0,0,0,0,0,0,0,0,0,0,0,0,0,0,0,0,0,0,0,0,0,0,0,0,0,0,0,0,0,0,0,0,0,0,0,0,0,0,0,0,0,0,0,0,0,0,0,0,0,0,0,0,0,0,0,0,0],"id":3,"left_children":[1,3,5,7,9,11,13,15,17,19,21,23,25,27,29,31,33,35,37,39,41,43,45,47,49,51,53,55,57,59,61,63,65,-1,67,69,71,73,75,77,79,81,83,85,87,89,91,93,95,97,99,101,103,105,107,109,111,113,115,-1,-1,117,119,121,123,125,127,129,-1,131,133,135,137,139,141,143,145,147,149,151,153,155,157,-1,159,161,163,165,167,169,171,-1,-1,173,175,177,179,181,183,185,187,189,191,193,195,197,199,201,203,205,207,209,211,213,215,217,219,221,223,225,227,-1,-1,-1,-1,-1,-1,-1,-1,-1,-1,-1,-1,-1,-1,-1,-1,-1,-1,-1,-1,-1,-1,-1,-1,-1,-1,-1,-1,-1,-1,-1,-1,-1,-1,-1,-1,-1,-1,-1,-1,-1,-1,-1,-1,-1,-1,-1,-1,-1,-1,-1,-1,-1,-1,-1,-1,-1,-1,-1,-1,-1,-1,-1,-1,-1,-1,-1,-1,-1,-1,-1,-1,-1,-1,-1,-1,-1,-1,-1,-1,-1,-1,-1,-1,-1,-1,-1,-1,-1,-1,-1,-1,-1,-1,-1,-1,-1,-1,-1,-1,-1,-1,-1,-1,-1,-1,-1,-1],"loss_changes":[1.06590875E5,2.4226373E4,2.666571E4,5.1225654E3,8.773465E3,4.8805273E3,5.2593516E3,6.432656E2,3.7968462E3,1.5055806E3,2.6572715E3,2.8514844E3,2.9826836E3,3.2041875E3,1.8771248E4,4.1944727E2,4.7236792E2,1.472822E3,1.4761326E3,2.791877E2,8.589635E2,2.5430273E3,4.4545703E2,5.7747656E2,1.342084E3,3.5944102E3,1.2798555E3,1.4772773E3,2.1481797E3,4.249172E3,1.2924961E3,1.449707E2,2.9698566E2,0E0,2.6348627E-1,1.1147935E3,5.315244E2,4.0601514E2,3.9385052E2,1.2256282E2,2.4779356E2,8.2787524E2,5.8612317E2,5.7455347E2,8.5264453E2,3.6111133E2,8.3281494E1,4.9401758E2,1.4412769E2,4.2033862E2,5.765488E2,2.6666523E3,2.5643828E3,3.3542803E3,7.331929E2,6.766328E2,4.8163086E2,2.4878027E3,2.3774408E2,0E0,0E0,6.8223E2,6.04375E2,6.44541E1,2.02495E2,1.4401428E2,4.8115936E2,1.28468275E-2,0E0,1.9135428E2,1.5836108E2,7.392613E1,6.5358765E2,1.3079321E2,6.3154675E2,8.0187225E1,3.976317E2,6.579108E1,1.1120851E2,4.759792E1,1.5047491E2,2.1680626E2,6.832654E2,0E0,2.9650116E-1,3.6638495E2,3.0125342E2,7.4381445E2,1.3417197E3,3.5987988E2,3.2399902E2,0E0,0E0,3.312295E2,1.9677588E2,5.4352875E1,1.3307593E2,1.0641422E2,1.0141516E2,2.1148242E2,2.2029541E2,1.8892607E3,9.624155E2,9.5860535E1,1.4166797E2,1.6795312E2,1.9723976E1,6.183397E2,2.7572705E2,3.7033887E2,6.9842773E2,5.8089844E2,2.276626E2,7.5744727E2,1.2236094E3,2.5558191E2,2.1756058E1,4.11613E1,3.4987402E2,5.147656E2,1.5509248E-2,0E0,0E0,0E0,0E0,0E0,0E0,0E0,0E0,0E0,0E0,0E0,0E0,0E0,0E0,0E0,0E0,0E0,0E0,0E0,0E0,0E0,0E0,0E0,0E0,0E0,0E0,0E0,0E0,0E0,0E0,0E0,0E0,0E0,0E0,0E0,0E0,0E0,0E0,0E0,0E0,0E0,0E0,0E0,0E0,0E0,0E0,0E0,0E0,0E0,0E0,0E0,0E0,0E0,0E0,0E0,0E0,0E0,0E0,0E0,0E0,0E0,0E0,0E0,0E0,0E0,0E0,0E0,0E0,0E0,0E0,0E0,0E0,0E0,0E0,0E0,0E0,0E0,0E0,0E0,0E0,0E0,0E0,0E0,0E0,0E0,0E0,0E0,0E0,0E0,0E0,0E0,0E0,0E0,0E0,0E0,0E0,0E0,0E0,0E0,0E0,0E0,0E0,0E0,0E0,0E0,0E0,0E0,0E0],"parents":[2147483647,0,0,1,1,2,2,3,3,4,4,5,5,6,6,7,7,8,8,9,9,10,10,11,11,12,12,13,13,14,14,15,15,16,16,17,17,18,18,19,19,20,20,21,21,22,22,23,23,24,24,25,25,26,26,27,27,28,28,29,29,30,30,31,31,32,32,34,34,35,35,36,36,37,37,38,38,39,39,40,40,41,41,42,42,43,43,44,44,45,45,46,46,47,47,48,48,49,49,50,50,51,51,52,52,53,53,54,54,55,55,56,56,57,57,58,58,61,61,62,62,63,63,64,64,65,65,66,66,67,67,69,69,70,70,71,71,72,72,73,73,74,74,75,75,76,76,77,77,78,78,79,79,80,80,81,81,82,82,84,84,85,85,86,86,87,87,88,88,89,89,90,90,93,93,94,94,95,95,96,96,97,97,98,98,99,99,100,100,101,101,102,102,103,103,104,104,105,105,106,106,107,107,108,108,109,109,110,110,111,111,112,112,113,113,114,114,115,115,116,116,117,117,118,118,119,119,120,120],"right_children":[2,4,6,8,10,12,14,16,18,20,22,24,26,28,30,32,34,36,38,40,42,44,46,48,50,52,54,56,58,60,62,64,66,-1,68,70,72,74,76,78,80,82,84,86,88,90,92,94,96,98,100,102,104,106,108,110,112,114,116,-1,-1,118,120,122,124,126,128,130,-1,132,134,136,138,140,142,144,146,148,150,152,154,156,158,-1,160,162,164,166,168,170,172,-1,-1,174,176,178,180,182,184,186,188,190,192,194,196,198,200,202,204,206,208,210,212,214,216,218,220,222,224,226,228,-1,-1,-1,-1,-1,-1,-1,-1,-1,-1,-1,-1,-1,-1,-1,-1,-1,-1,-1,-1,-1,-1,-1,-1,-1,-1,-1,-1,-1,-1,-1,-1,-1,-1,-1,-1,-1,-1,-1,-1,-1,-1,-1,-1,-1,-1,-1,-1,-1,-1,-1,-1,-1,-1,-1,-1,-1,-1,-1,-1,-1,-1,-1,-1,-1,-1,-1,-1,-1,-1,-1,-1,-1,-1,-1,-1,-1,-1,-1,-1,-1,-1,-1,-1,-1,-1,-1,-1,-1,-1,-1,-1,-1,-1,-1,-1,-1,-1,-1,-1,-1,-1,-1,-1,-1,-1,-1,-1],"split_conditions":[2.1E0,3E-1,5.7E0,8.54E1,8.54E1,5.3225E1,7.88E2,1.0588894E1,8.38E1,5E0,3.6266172E-1,-4.370098E0,-6.136149E0,1.13E1,5.9E0,1E-1,4.7025E1,6E-1,2E-1,9E-1,8.2E0,8.81E1,3.0205E2,1.0571542E1,8.43E1,8.624851E0,6.4144844E-1,2.9514163E0,1.1161E2,1.654E1,8.922268E0,8.38E1,3.0205E2,2.9118967E-1,4.863684E0,8.81E1,5E0,8.921941E-1,1E-1,3.6904773E-1,4E-1,8.38E1,1.052E1,8E-1,1E0,3.01554E2,1.143E1,4.2E0,8.35E1,1.4E0,1.9E0,4.4722223E0,2.9985E2,4.722222E-1,2.9945E2,7.8E0,3.0024548E2,8.179129E0,3.6290416E-1,2.1430736E0,1.5342797E-2,7.190781E0,3.0152255E2,1.168E3,3.0215E2,5.4825E1,8.38E1,1.0773E2,2.1441516E-3,3.0210303E2,8.97E1,2.3051562E0,2.9955E2,1E-1,8.97E1,2.9805E2,9E-1,-8.305291E0,3.0095E2,1.097E3,2.3032552E-1,2E0,5.5425E1,2.660784E-1,-9.510565E0,-1.1153126E1,1.6E0,8.78E1,4.4722223E0,-1.4109202E1,3E-1,2.7016583E-1,-8.0144955E-3,4.3609514E0,-3.5236583E0,3.068338E2,2.81E2,8.354319E0,1.1898992E0,3E-1,2.1666667E0,1.052E1,2.9975E2,8.81E1,1.1063E2,1.538E1,3.0015E2,3.1476924E0,8.97E1,2.59E2,3.45E2,3.6307955E-1,1.74E2,2.017787E0,3.62E2,2.8E0,5.5825E1,5.4075E1,3.888889E-1,1.1602756E1,7.76E1,-1.2565338E-2,3.2666206E-4,-9.914693E-3,5.7845917E-3,-8.265767E-3,1.7737953E-2,-4.185222E-3,3.1422745E-2,-3.4162062E-3,-1.3148212E-2,6.716068E-3,3.7219293E-2,2.3261866E-2,3.9963454E-2,-1.3139585E-2,6.0566436E-2,1.02383174E-1,4.5845717E-2,-1.1343461E-2,-2.5719088E-3,-5.0214673E-3,2.3510784E-2,-6.07432E-3,2.781662E-1,6.163042E-3,2.5506614E-2,1.0610056E-2,-5.6290813E-3,2.3313213E-2,-4.3263007E-3,-3.2081904E-3,4.582395E-2,5.311099E-3,2.0832738E-2,5.897862E-3,3.872872E-2,2.9637817E-2,1.3789034E-1,1.9858298E-3,-1.3412583E-2,1.5926974E-1,1.0748391E-2,2.3018712E-2,4.729118E-2,4.299511E-2,2.0645194E-2,4.9970478E-2,2.9657853E-1,1.01157896E-1,4.8587788E-2,5.431018E-2,8.981535E-2,7.3146604E-2,1.3480876E-1,8.7856434E-2,1.2233461E-1,5.559743E-2,1.424528E-1,2.1392913E-1,1.3506813E-1,6.2297904E-3,5.646287E-2,5.5547673E-2,3.1021617E-2,3.432868E-2,5.4770835E-2,6.934024E-2,1.07269175E-1,4.26901E-1,1.3370943E-1,8.796711E-1,2.9186657E-1,2.490056E-1,7.094237E-2,8.6411035E-1,4.4750232E-1,4.2012763E-1,8.6896497E-1,7.100313E-2,6.122732E-3,3.59828E-1,8.857561E-2,6.999631E-2,1.06676035E-1,9.1119826E-2,1.385916E-1,1.4940707E-1,3.305315E-1,4.383377E-1,2.0669357E-1,4.074918E-2,1.6217378E-1,4.665257E-1,2.0183629E-1,2.4841349E-1,4.7394142E-1,2.4160294E-2,2.1259266E-1,3.8411386E-2,8.251958E-2,-1.1207226E-2,7.929588E-2,7.1385674E-2,2.6574185E-1,2.931063E-1,4.3985945E-1,-1.4934263E-2,-3.8502202E-3],"split_indices":[27,27,27,3,3,7,6,28,17,10,31,22,5,27,27,27,25,31,28,27,28,3,2,4,3,20,44,8,1,0,27,3,34,0,4,3,38,4,8,32,28,3,0,28,27,34,0,27,35,28,28,40,16,41,2,27,13,4,32,0,0,19,13,6,34,25,3,1,0,34,3,29,2,27,3,2,28,5,2,24,31,14,7,0,5,4,27,17,40,5,28,0,0,30,4,9,9,21,22,28,40,0,2,3,1,0,2,8,3,9,9,11,6,10,24,29,7,25,40,19,3,0,0,0,0,0,0,0,0,0,0,0,0,0,0,0,0,0,0,0,0,0,0,0,0,0,0,0,0,0,0,0,0,0,0,0,0,0,0,0,0,0,0,0,0,0,0,0,0,0,0,0,0,0,0,0,0,0,0,0,0,0,0,0,0,0,0,0,0,0,0,0,0,0,0,0,0,0,0,0,0,0,0,0,0,0,0,0,0,0,0,0,0,0,0,0,0,0,0,0,0,0,0,0,0,0,0,0,0],"split_type":[0,0,0,0,0,0,0,0,0,0,0,0,0,0,0,0,0,0,0,0,0,0,0,0,0,0,0,0,0,0,0,0,0,0,0,0,0,0,0,0,0,0,0,0,0,0,0,0,0,0,0,0,0,0,0,0,0,0,0,0,0,0,0,0,0,0,0,0,0,0,0,0,0,0,0,0,0,0,0,0,0,0,0,0,0,0,0,0,0,0,0,0,0,0,0,0,0,0,0,0,0,0,0,0,0,0,0,0,0,0,0,0,0,0,0,0,0,0,0,0,0,0,0,0,0,0,0,0,0,0,0,0,0,0,0,0,0,0,0,0,0,0,0,0,0,0,0,0,0,0,0,0,0,0,0,0,0,0,0,0,0,0,0,0,0,0,0,0,0,0,0,0,0,0,0,0,0,0,0,0,0,0,0,0,0,0,0,0,0,0,0,0,0,0,0,0,0,0,0,0,0,0,0,0,0,0,0,0,0,0,0,0,0,0,0,0,0,0,0,0,0,0,0,0,0,0,0,0,0],"sum_hessian":[1.62664E5,1.51048E5,1.1616E4,1.14495E5,3.6553E4,9.372E3,2.244E3,8.6059E4,2.8436E4,1.711E4,1.9443E4,7.867E3,1.505E3,1.938E3,3.06E2,8.6041E4,1.8E1,7.435E3,2.1001E4,1.1924E4,5.186E3,1.6894E4,2.549E3,2.987E3,4.88E3,4.96E2,1.009E3,1.551E3,3.87E2,6E0,3E2,7.2543E4,1.3498E4,1E1,8E0,6.523E3,9.12E2,1.6182E4,4.819E3,7.828E3,4.096E3,5.156E3,3E1,7.516E3,9.378E3,2.538E3,1.1E1,2.853E3,1.34E2,1.421E3,3.459E3,4.66E2,3E1,3.1E1,9.78E2,1.06E3,4.91E2,3.07E2,8E1,5E0,1E0,9.8E1,2.02E2,6.054E4,1.2003E4,1.1774E4,1.724E3,7E0,1E0,4.257E3,2.266E3,1.1E2,8.02E2,1.1839E4,4.343E3,6E0,4.813E3,7.305E3,5.23E2,1.813E3,2.283E3,3.125E3,2.031E3,2E1,1E1,4.927E3,2.589E3,5.417E3,3.961E3,1.541E3,9.97E2,1E1,1E0,2.221E3,6.32E2,3.2E1,1.02E2,7.92E2,6.29E2,2.216E3,1.243E3,4.54E2,1.2E1,1.5E1,1.5E1,1E1,2.1E1,3.1E1,9.47E2,6.5E2,4.1E2,3.06E2,1.85E2,2E2,1.07E2,3.4E1,4.6E1,3.6E1,6.2E1,1.97E2,5E0,6.0189E4,3.51E2,1.1212E4,7.91E2,1.158E4,1.94E2,1.256E3,4.68E2,1E0,6E0,4.064E3,1.93E2,7.9E2,1.476E3,9.7E1,1.3E1,2.89E2,5.13E2,1.0033E4,1.806E3,3.47E3,8.73E2,1E0,5E0,3.497E3,1.316E3,2.31E2,7.074E3,2.69E2,2.54E2,1.796E3,1.7E1,1.281E3,1.002E3,2.933E3,1.92E2,1.978E3,5.3E1,1E0,9E0,1.4E1,4.913E3,1.989E3,6E2,2.968E3,2.449E3,3.942E3,1.9E1,1.28E2,1.413E3,3.81E2,6.16E2,2.139E3,8.2E1,3.07E2,3.25E2,2.2E1,1E1,3.5E1,6.7E1,7.53E2,3.9E1,2.7E2,3.59E2,6.53E2,1.563E3,1.081E3,1.62E2,2E1,4.34E2,5E0,7E0,1E1,5E0,1E1,5E0,5E0,5E0,1.5E1,6E0,1.5E1,1.6E1,6.87E2,2.6E2,4.05E2,2.45E2,3.9E2,2E1,1E1,2.96E2,1.6E1,1.69E2,1E1,1.9E2,3.7E1,7E1,9E0,2.5E1,2.6E1,2E1,5E0,3.1E1,1.1E1,5.1E1,1.67E2,3E1,4E0,1E0],"tree_param":{"num_deleted":"0","num_feature":"45","num_nodes":"229","size_leaf_vector":"1"}},{"base_weights":[1.9387734E-1,-1.8462336E-2,2.9688241E0,-2.3873913E-1,6.7486125E-1,2.265589E0,5.8068233E0,-3.4028357E-1,1.8754014E-1,1.5022342E-1,1.1317223E0,3.2458136E0,1.7946067E0,5.1790485E0,9.5292425E0,-3.863178E-1,-1.9764052E-1,-2.5199163E-1,5.065566E-1,-2.0694623E-2,5.5478334E-1,1.0640103E0,3.343058E0,2.6407928E0,4.0176325E0,1.2277297E0,2.3462634E0,4.6637206E0,7.4495535E0,2.0894966E0,8.390002E0,-3.878414E-1,6.7483296E0,-2.595376E-1,5.8254564E-1,-3.4153125E-1,3.7982342E-1,3.3551803E-1,1.6838881E0,-1.4117952E-1,1.5652859E-1,5.278205E-1,7.646599E0,9.2749375E-1,1.9747233E0,5.4306307E0,2.2987247E0,2.4264796E0,3.4710562E0,3.6549678E0,6.1533885E0,6.0719645E-1,1.6987913E0,1.8746126E0,3.103397E0,3.943521E0,6.108891E0,4.7693253E0,9.218511E0,4.2322273E0,9.892078E0,-4.037801E-1,-2.861819E-1,-1.3517576E-2,2.8221235E-1,-2.966405E-1,6.390572E-3,1.0753232E-1,1.5657384E0,-3.455845E-1,1.5604404E-1,2.0524526E-1,1.2854E0,9.1817774E-2,7.6856494E-1,1.1643047E0,2.6245136E0,-1.625878E-1,4.9870425E-1,8.0860466E-1,8.630132E-2,3.1903872E-1,1.2677236E0,2.7236032E-1,6.6303164E-3,6.521812E-1,1.330233E0,1.6497961E0,2.5878937E0,3.0550697E0,1.08663225E1,2.0937307E0,5.312019E0,1.6601418E0,2.6933386E0,4.478646E0,2.8754976E0,3.5609632E0,8.694176E0,3.2040954E0,7.6613884E0,2.3192935E-1,9.704982E-1,1.3242836E0,2.438564E0,1.2005403E0,2.0081131E0,2.3703978E0,3.7904563E0,3.3484635E0,5.057451E0,5.1447062E0,7.333506E0,2.2817535E0,5.6865053E0,4.6826086E0,1.1002661E1,7.3302655E0,2.331022E0,8.394068E0,1.22197E1,-1.2200794E-2,2.1214501E-3,-8.956099E-3,1.2031863E-2,-1.01026585E-2,-4.5552882E-3,-2.594368E-3,2.6692994E-2,-1.1872666E-2,1.4305763E-2,1.6193055E-2,6.358707E-2,7.477995E-3,-1.0825999E-2,-4.1198237E-3,1.3761748E-2,1.0438625E-1,1.2921829E-2,1.2886549E-2,-4.129407E-3,2.1959206E-2,2.5300452E-1,3.314047E-2,1.8629141E-1,6.417115E-2,1.1093991E-1,-5.3749215E-3,2.2436013E-2,4.4274894E-3,6.341064E-2,1.980066E-2,7.896514E-2,1.6683517E-3,4.136903E-2,2.4358362E-3,1.8789679E-2,3.4201548E-2,1.7883244E-1,-4.418292E-3,3.2107406E-3,1.2878698E-2,2.8608525E-2,3.2514762E-2,4.741229E-2,3.9455738E-2,6.329922E-2,2.625191E-1,7.400552E-2,1.3847774E-1,6.506932E-2,7.677026E-1,1.3943945E-1,1.7738758E-1,5.772207E-2,2.1972291E-1,3.4343015E-2,4.1893423E-2,8.321005E-2,7.901492E-2,3.2174054E-1,1.0404581E-1,2.6558766E-1,1.8440557E-1,7.709267E-2,8.6455174E-2,1.2622368E-1,4.0469405E-1,7.6487064E-2,5.3984847E-2,1.3190266E-1,3.623832E-1,1.82276E-1,1.6018493E-3,2.0439638E-2,1.3231112E-2,4.582508E-2,2.703942E-2,4.8988696E-2,6.6495396E-2,1.5415774E-1,2.5056578E-2,4.498794E-2,5.891263E-2,1.0203288E-1,1.04910605E-1,6.0089342E-2,1.1039557E-1,4.3818593E-1,1.5644905E-1,8.8776045E-2,1.4576901E-1,4.906529E-1,1.7661537E-1,8.724983E-2,2.0826831E-1,6.273821E-1,1.1376747E-1,5.016499E-2,2.999326E-1,1.4597984E-1,7.9450846E-2,1.9711572E-1,4.0845293E-1,2.2907744E-1,8.7234125E-2,2.822797E-1,2.101395E-1,5.206431E-2,2.5899243E-1,-5.049634E-3,2.897369E-1,4.532487E-1],"categories":[],"categories_nodes":[],"categories_segments":[],"categories_sizes":[],"default_left":[0,0,0,0,0,0,0,0,0,0,0,0,0,0,0,0,0,0,0,0,0,0,0,0,0,0,0,0,0,0,0,0,0,0,0,0,0,0,0,0,0,0,0,0,0,0,0,0,0,0,0,0,0,0,0,0,0,0,0,0,0,0,0,0,0,0,0,0,0,0,0,0,0,0,0,0,0,0,0,0,0,0,0,0,0,0,0,0,0,0,0,0,0,0,0,0,0,0,0,0,0,0,0,0,0,0,0,0,0,0,0,0,0,0,0,0,0,0,0,0,0,0,0,0,0,0,0,0,0,0,0,0,0,0,0,0,0,0,0,0,0,0,0,0,0,0,0,0,0,0,0,0,0,0,0,0,0,0,0,0,0,0,0,0,0,0,0,0,0,0,0,0,0,0,0,0,0,0,0,0,0,0,0,0,0,0,0,0,0,0,0,0,0,0,0,0,0,0,0,0,0,0,0,0,0,0,0,0,0,0,0,0,0,0,0,0,0,0,0,0,0,0,0,0,0,0,0,0,0,0,0,0,0],"id":4,"left_children":[1,3,5,7,9,11,13,15,17,19,21,23,25,27,29,31,33,35,37,39,41,43,45,47,49,51,53,55,57,-1,59,61,63,65,67,69,71,73,75,77,79,81,83,85,87,89,91,93,95,97,99,101,103,105,107,109,111,113,115,117,119,121,123,-1,-1,125,127,129,131,133,-1,135,137,139,141,143,145,147,149,151,153,155,157,-1,159,161,163,165,167,169,171,173,175,177,179,181,183,185,187,189,191,193,195,197,199,201,203,205,207,209,211,213,215,217,219,221,223,225,227,229,231,-1,-1,-1,-1,-1,-1,-1,-1,-1,-1,-1,-1,-1,-1,-1,-1,-1,-1,-1,-1,-1,-1,-1,-1,-1,-1,-1,-1,-1,-1,-1,-1,-1,-1,-1,-1,-1,-1,-1,-1,-1,-1,-1,-1,-1,-1,-1,-1,-1,-1,-1,-1,-1,-1,-1,-1,-1,-1,-1,-1,-1,-1,-1,-1,-1,-1,-1,-1,-1,-1,-1,-1,-1,-1,-1,-1,-1,-1,-1,-1,-1,-1,-1,-1,-1,-1,-1,-1,-1,-1,-1,-1,-1,-1,-1,-1,-1,-1,-1,-1,-1,-1,-1,-1,-1,-1,-1,-1,-1,-1,-1,-1],"loss_changes":[9.582733E4,2.3072346E4,2.305807E4,4.9627505E3,8.730412E3,4.271996E3,5.313703E3,6.079258E2,3.0929128E3,1.1724609E3,2.9117656E3,1.3930918E3,1.9550684E3,2.265586E3,2.2017953E4,7.6356055E2,1.0911953E3,5.249527E2,2.5731326E3,2.5456787E2,9.5892334E2,2.347084E3,1.2476274E3,2.9193555E2,9.991582E2,9.022041E2,1.1269121E3,1.6464102E3,1.6723516E3,0E0,1.9878555E3,1.1328516E2,2.913404E2,2.0654163E2,7.7556793E2,1.8436578E2,1.8186037E2,1.1777902E3,7.8918115E2,9.7301575E1,2.2088394E2,7.747676E2,2.0781958E2,1.8210986E3,4.8624805E2,2.4460635E3,2.2793054E2,2.7058643E2,1.9354883E2,5.0433105E2,8.204829E2,1.8178244E2,4.8327197E2,1.7369775E2,6.0341016E2,6.9496875E2,5.9043164E2,3.2013135E2,1.7046035E3,5.012334E2,7.2728516E2,8.365137E1,8.068817E1,0E0,0E0,1.0665149E2,2.1042415E2,2.0855742E2,3.0625952E2,7.3914734E1,0E0,8.403265E1,3.4730197E2,5.536273E2,1.1210352E3,3.077975E2,2.9227173E2,1.0378531E2,1.3011075E2,1.2533847E2,1.7277162E2,2.8607962E2,6.5473267E2,0E0,7.756769E-2,6.554756E2,4.095244E2,2.4543701E2,6.1322217E2,1.7670154E2,5.191385E3,2.2448401E2,1.9285168E2,9.889746E1,4.4776904E2,5.2621606E2,2.0324573E2,4.7565723E2,5.549518E2,1.0265198E2,8.0222217E2,5.2756203E1,1.9927673E2,1.5102124E2,3.4174146E2,3.4363647E1,9.416406E1,2.3763623E2,6.9511035E2,4.9533887E2,7.5470215E2,4.8267432E2,1.0873369E3,3.1410645E1,3.2631787E2,2.2454944E2,1.2593242E3,2.760597E2,1.4371149E2,3.043379E2,5.274863E2,0E0,0E0,0E0,0E0,0E0,0E0,0E0,0E0,0E0,0E0,0E0,0E0,0E0,0E0,0E0,0E0,0E0,0E0,0E0,0E0,0E0,0E0,0E0,0E0,0E0,0E0,0E0,0E0,0E0,0E0,0E0,0E0,0E0,0E0,0E0,0E0,0E0,0E0,0E0,0E0,0E0,0E0,0E0,0E0,0E0,0E0,0E0,0E0,0E0,0E0,0E0,0E0,0E0,0E0,0E0,0E0,0E0,0E0,0E0,0E0,0E0,0E0,0E0,0E0,0E0,0E0,0E0,0E0,0E0,0E0,0E0,0E0,0E0,0E0,0E0,0E0,0E0,0E0,0E0,0E0,0E0,0E0,0E0,0E0,0E0,0E0,0E0,0E0,0E0,0E0,0E0,0E0,0E0,0E0,0E0,0E0,0E0,0E0,0E0,0E0,0E0,0E0,0E0,0E0,0E0,0E0,0E0,0E0,0E0,0E0,0E0,0E0],"parents":[2147483647,0,0,1,1,2,2,3,3,4,4,5,5,6,6,7,7,8,8,9,9,10,10,11,11,12,12,13,13,14,14,15,15,16,16,17,17,18,18,19,19,20,20,21,21,22,22,23,23,24,24,25,25,26,26,27,27,28,28,30,30,31,31,32,32,33,33,34,34,35,35,36,36,37,37,38,38,39,39,40,40,41,41,42,42,43,43,44,44,45,45,46,46,47,47,48,48,49,49,50,50,51,51,52,52,53,53,54,54,55,55,56,56,57,57,58,58,59,59,60,60,61,61,62,62,65,65,66,66,67,67,68,68,69,69,71,71,72,72,73,73,74,74,75,75,76,76,77,77,78,78,79,79,80,80,81,81,82,82,84,84,85,85,86,86,87,87,88,88,89,89,90,90,91,91,92,92,93,93,94,94,95,95,96,96,97,97,98,98,99,99,100,100,101,101,102,102,103,103,104,104,105,105,106,106,107,107,108,108,109,109,110,110,111,111,112,112,113,113,114,114,115,115,116,116,117,117,118,118,119,119,120,120],"right_children":[2,4,6,8,10,12,14,16,18,20,22,24,26,28,30,32,34,36,38,40,42,44,46,48,50,52,54,56,58,-1,60,62,64,66,68,70,72,74,76,78,80,82,84,86,88,90,92,94,96,98,100,102,104,106,108,110,112,114,116,118,120,122,124,-1,-1,126,128,130,132,134,-1,136,138,140,142,144,146,148,150,152,154,156,158,-1,160,162,164,166,168,170,172,174,176,178,180,182,184,186,188,190,192,194,196,198,200,202,204,206,208,210,212,214,216,218,220,222,224,226,228,230,232,-1,-1,-1,-1,-1,-1,-1,-1,-1,-1,-1,-1,-1,-1,-1,-1,-1,-1,-1,-1,-1,-1,-1,-1,-1,-1,-1,-1,-1,-1,-1,-1,-1,-1,-1,-1,-1,-1,-1,-1,-1,-1,-1,-1,-1,-1,-1,-1,-1,-1,-1,-1,-1,-1,-1,-1,-1,-1,-1,-1,-1,-1,-1,-1,-1,-1,-1,-1,-1,-1,-1,-1,-1,-1,-1,-1,-1,-1,-1,-1,-1,-1,-1,-1,-1,-1,-1,-1,-1,-1,-1,-1,-1,-1,-1,-1,-1,-1,-1,-1,-1,-1,-1,-1,-1,-1,-1,-1,-1,-1,-1,-1],"split_conditions":[2.1E0,3E-1,5.8E0,8.64E1,8.54E1,-5.143813E0,7.88E2,8.38E1,2.9975E2,5E0,4.931276E0,3.5E0,8.64E1,1.17E1,5.9E0,1.0588894E1,3.0215E2,3E-1,3.5573944E1,8E-1,1.04E1,3.6266172E-1,-5.7222924E0,3.268448E0,7.75E0,1E0,2.9524577E0,2.9514163E0,3.6314428E0,2.0894966E0,6.801508E0,1E-1,1.1192E2,4E-1,4.1254498E1,3.007E2,2.6367722E0,1E-1,3.7439722E-1,3.0255E2,-5.055569E0,8.43E1,1.143E1,8.97E1,3.0209927E2,5.45E2,3.0215E2,8.54E1,5.0325E1,1.034E3,1.86E2,4.3097696E0,2E0,3E-1,3.2998316E0,2.6416476E2,8.81E1,3.4E0,-1.8399546E-1,-9.140371E0,1.13E1,1.168E3,5.4825E1,-1.3517576E-2,2.8221235E-1,1E-1,4.5227692E-1,3.1643312E1,-7.462171E-1,-1.0809832E1,1.5604404E-1,6.7150027E-1,-6.830807E0,8.38E1,1.01E3,5.5125E1,8.81E1,4.931276E0,8.43E1,2.8611112E0,5.5425E1,8E-1,5.4225E1,2.7236032E-1,8.04E1,6E-1,9E-1,1.1E0,3.0142834E2,1.24E0,4.2E0,1.0773E2,1.5852123E-1,3.9118752E0,-2.6222463E0,4.9875E1,2.9925E2,-2.2978847E0,7.530813E1,5.1675E1,6.7150027E-1,6.189417E0,1.2777778E0,2.8E0,2.2E0,8.81E1,2.4722223E0,3.0052054E2,2.2E0,-9.140371E0,1.7E0,-5.822524E0,1.8E0,3.0034924E2,3.8E0,1.45E1,3.006449E2,4.2348263E1,4.4875E1,6.1064825E0,2.43E2,-1.2200794E-2,2.1214501E-3,-8.956099E-3,1.2031863E-2,-1.01026585E-2,-4.5552882E-3,-2.594368E-3,2.6692994E-2,-1.1872666E-2,1.4305763E-2,1.6193055E-2,6.358707E-2,7.477995E-3,-1.0825999E-2,-4.1198237E-3,1.3761748E-2,1.0438625E-1,1.2921829E-2,1.2886549E-2,-4.129407E-3,2.1959206E-2,2.5300452E-1,3.314047E-2,1.8629141E-1,6.417115E-2,1.1093991E-1,-5.3749215E-3,2.2436013E-2,4.4274894E-3,6.341064E-2,1.980066E-2,7.896514E-2,1.6683517E-3,4.136903E-2,2.4358362E-3,1.8789679E-2,3.4201548E-2,1.7883244E-1,-4.418292E-3,3.2107406E-3,1.2878698E-2,2.8608525E-2,3.2514762E-2,4.741229E-2,3.9455738E-2,6.329922E-2,2.625191E-1,7.400552E-2,1.3847774E-1,6.506932E-2,7.677026E-1,1.3943945E-1,1.7738758E-1,5.772207E-2,2.1972291E-1,3.4343015E-2,4.1893423E-2,8.321005E-2,7.901492E-2,3.2174054E-1,1.0404581E-1,2.6558766E-1,1.8440557E-1,7.709267E-2,8.6455174E-2,1.2622368E-1,4.0469405E-1,7.6487064E-2,5.3984847E-2,1.3190266E-1,3.623832E-1,1.82276E-1,1.6018493E-3,2.0439638E-2,1.3231112E-2,4.582508E-2,2.703942E-2,4.8988696E-2,6.6495396E-2,1.5415774E-1,2.5056578E-2,4.498794E-2,5.891263E-2,1.0203288E-1,1.04910605E-1,6.0089342E-2,1.1039557E-1,4.3818593E-1,1.5644905E-1,8.8776045E-2,1.4576901E-1,4.906529E-1,1.7661537E-1,8.724983E-2,2.0826831E-1,6.273821E-1,1.1376747E-1,5.016499E-2,2.999326E-1,1.4597984E-1,7.9450846E-2,1.9711572E-1,4.0845293E-1,2.2907744E-1,8.7234125E-2,2.822797E-1,2.101395E-1,5.206431E-2,2.5899243E-1,-5.049634E-3,2.897369E-1,4.532487E-1],"split_indices":[27,27,27,3,3,21,6,3,15,10,42,27,3,27,27,28,13,28,39,27,28,31,21,30,10,28,43,8,42,0,19,27,1,28,39,36,42,28,31,33,21,3,0,3,33,24,15,3,25,24,24,10,41,28,4,9,3,28,19,21,27,6,25,0,0,27,11,39,19,21,0,44,21,18,6,25,3,42,3,40,25,27,7,0,3,28,27,27,13,30,10,1,31,19,22,25,33,19,12,25,44,4,41,27,31,3,41,13,31,21,31,22,11,33,28,27,13,9,7,22,12,0,0,0,0,0,0,0,0,0,0,0,0,0,0,0,0,0,0,0,0,0,0,0,0,0,0,0,0,0,0,0,0,0,0,0,0,0,0,0,0,0,0,0,0,0,0,0,0,0,0,0,0,0,0,0,0,0,0,0,0,0,0,0,0,0,0,0,0,0,0,0,0,0,0,0,0,0,0,0,0,0,0,0,0,0,0,0,0,0,0,0,0,0,0,0,0,0,0,0,0,0,0,0,0,0,0,0,0,0,0,0,0],"split_type":[0,0,0,0,0,0,0,0,0,0,0,0,0,0,0,0,0,0,0,0,0,0,0,0,0,0,0,0,0,0,0,0,0,0,0,0,0,0,0,0,0,0,0,0,0,0,0,0,0,0,0,0,0,0,0,0,0,0,0,0,0,0,0,0,0,0,0,0,0,0,0,0,0,0,0,0,0,0,0,0,0,0,0,0,0,0,0,0,0,0,0,0,0,0,0,0,0,0,0,0,0,0,0,0,0,0,0,0,0,0,0,0,0,0,0,0,0,0,0,0,0,0,0,0,0,0,0,0,0,0,0,0,0,0,0,0,0,0,0,0,0,0,0,0,0,0,0,0,0,0,0,0,0,0,0,0,0,0,0,0,0,0,0,0,0,0,0,0,0,0,0,0,0,0,0,0,0,0,0,0,0,0,0,0,0,0,0,0,0,0,0,0,0,0,0,0,0,0,0,0,0,0,0,0,0,0,0,0,0,0,0,0,0,0,0,0,0,0,0,0,0,0,0,0,0,0,0,0,0,0,0,0,0],"sum_hessian":[1.6263E5,1.51071E5,1.1559E4,1.14647E5,3.6424E4,9.265E3,2.294E3,9.2591E4,2.2056E4,1.6955E4,1.9469E4,3.005E3,6.26E3,1.965E3,3.29E2,6.9999E4,2.2592E4,9.276E3,1.278E4,1.192E4,5.035E3,1.8892E4,5.77E2,1.687E3,1.318E3,3.089E3,3.171E3,1.604E3,3.61E2,5E0,3.24E2,6.9985E4,1.4E1,2.0932E4,1.66E3,8.125E3,1.151E3,1.116E4,1.62E3,7.096E3,4.824E3,5.017E3,1.8E1,1.6431E4,2.461E3,1.91E2,3.86E2,1.344E3,3.43E2,1.129E3,1.89E2,1.334E3,1.755E3,1.956E3,1.215E3,1.073E3,5.31E2,1.45E2,2.16E2,8.7E1,2.37E2,6.0497E4,9.488E3,4E0,1E1,1.8369E4,2.563E3,1.12E3,5.4E2,8.12E3,5E0,9.66E2,1.85E2,7.142E3,4.018E3,1.045E3,5.75E2,6.867E3,2.29E2,4.68E2,4.356E3,3.914E3,1.103E3,1.5E1,3E0,9.761E3,6.67E3,1.611E3,8.5E2,1.34E2,5.7E1,3.63E2,2.3E1,3.49E2,9.95E2,1.25E2,2.18E2,1.11E3,1.9E1,6.5E1,1.24E2,6.57E2,6.77E2,1.167E3,5.88E2,3.25E2,1.631E3,5.9E2,6.25E2,7.02E2,3.71E2,3E2,2.31E2,4E1,1.05E2,6.2E1,1.54E2,3.2E1,5.5E1,1.47E2,9E1,6.0128E4,3.69E2,9.321E3,1.67E2,1.4383E4,3.986E3,2.32E3,2.43E2,4.74E2,6.46E2,1.9E2,3.5E2,2.03E2,7.917E3,4.11E2,5.55E2,5.1E1,1.34E2,2.889E3,4.253E3,4E3,1.8E1,1.034E3,1.1E1,3.98E2,1.77E2,6.745E3,1.22E2,1.89E2,4E1,4.34E2,3.4E1,4.256E3,1E2,2.207E3,1.707E3,1.075E3,2.8E1,1E0,2E0,5.613E3,4.148E3,3.363E3,3.307E3,9.35E2,6.76E2,1.5E1,8.35E2,4.7E1,8.7E1,1.6E1,4.1E1,1.4E1,3.49E2,1.5E1,8E0,2.84E2,6.5E1,9.89E2,6E0,1.03E2,2.2E1,1.7E1,2.01E2,5.44E2,5.66E2,1E1,9E0,3.1E1,3.4E1,3.1E1,9.3E1,4.71E2,1.86E2,3.48E2,3.29E2,4.94E2,6.73E2,5.45E2,4.3E1,1.48E2,1.77E2,1.583E3,4.8E1,1.43E2,4.47E2,6.2E2,5E0,1.19E2,5.83E2,3.66E2,5E0,2.24E2,7.6E1,2.26E2,5E0,1E1,3E1,1.5E1,9E1,3.1E1,3.1E1,8.5E1,6.9E1,1.1E1,2.1E1,5E0,5E1,1.43E2,4E0,5E1,4E1],"tree_param":{"num_deleted":"0","num_feature":"45","num_nodes":"233","size_leaf_vector":"1"}},{"base_weights":[1.92622E-1,3.902849E-2,4.029018E0,-1.7281163E-1,1.0104959E0,3.3058863E0,7.280206E0,-3.2407418E-1,2.2733939E-1,5.197344E-1,1.5282454E0,2.739932E0,5.058649E0,6.261001E0,9.970307E0,-3.7658864E-1,-1.413577E-1,8.249112E-1,2.3542732E-2,2.636776E-1,1.025274E0,1.3474288E0,2.439352E0,3.3768346E0,2.083932E0,4.555076E0,8.339365E0,9.938042E0,5.815872E0,5.488238E0,1.1714405E1,-4.056763E-1,-3.2401225E-1,-1.4595224E-1,7.214772E0,6.610634E-1,2.0738108E0,-2.3213775E-1,3.880931E-1,1.0487488E-1,6.8021595E-1,7.213891E-1,1.5166991E0,1.0990392E0,1.7570239E0,1.6742886E0,3.0015452E0,2.7532625E0,3.951245E0,1.6500845E0,2.8668969E0,5.9090014E0,3.4301474E0,3.9640255E1,4.9450073E0,5.9629506E-1,8.409053E0,5.1343064E0,7.866033E0,6.5183887E0,1.8421131E0,9.139491E0,1.3420298E1,-4.071024E-1,-1.586774E-1,-3.460295E-1,3.5312552E-2,-2.066775E-1,2.5518104E-1,2.566417E-1,-1.03303075E-1,3.5917178E-1,1.1860634E0,1.9353255E0,3.2395822E-1,-3.095638E-1,9.3275994E-2,1.9042544E-1,8.053621E-1,5.9203547E-3,7.055846E-1,3.369111E-1,1.141528E0,5.851928E-1,2.1720412E0,1.267637E0,2.335823E0,1.6574031E0,9.1295636E-1,2.638168E0,1.5891069E0,1.423546E0,2.554054E0,1.1755694E1,2.9038334E0,2.5683038E0,5.3915453E0,3.148325E0,4.308823E0,8.3535105E-1,1.9254774E0,2.5747795E0,6.746377E0,1.0685141E1,4.9533415E0,2.206848E0,4.111458E0,2.037259E0,2.0617476E1,3.7856197E0,1.1518461E1,2.9693391E0,9.764957E0,4.0082655E0,6.3684487E0,8.59842E0,-3.1566292E-1,2.1361296E0,7.312677E0,2.9578717E-2,7.592412E-2,4.918601E0,1.0318646E1,1.2268191E1,1.8925804E1,-1.2411193E-2,-1.1146862E-2,1.6503607E-1,-1.1272644E-2,-6.6668065E-3,-1.0867516E-2,-3.6872082E-4,1.5154597E-1,-7.1545253E-3,8.303819E-4,-2.2126164E-3,3.1417795E-2,2.811908E-3,-7.460546E-3,8.601249E-3,3.4543734E-2,1.7316496E-2,4.047126E-2,2.3000339E-2,8.2738325E-2,-1.0017264E-2,4.59057E-3,2.2312026E-3,2.8227904E-1,2.8651608E-3,3.504304E-2,2.2447508E-2,1.2848867E-1,-5.937012E-4,3.0325323E-2,1.457248E-2,5.4012958E-2,7.881571E-3,4.7824956E-2,4.3393414E-2,2.2166831E-2,1.6477672E-2,1.6292354E-1,5.7319928E-2,1.3532211E-1,1.19508915E-1,3.6420207E-2,5.031632E-2,1.2172332E-1,4.412687E-2,8.9510426E-2,1.8897237E-2,3.508948E-2,7.635466E-2,2.4317816E-1,3.1672947E-2,5.1442925E-2,3.0437844E-2,6.1506405E-2,2.936045E-1,6.992978E-2,4.1739937E-2,7.6028866E-1,8.06728E-2,1.2889372E-1,8.044669E-2,2.431387E-2,2.5826344E-1,8.754661E-2,8.759334E-2,1.6510239E-1,3.5459352E-1,1.2550151E-1,3.1936155E-3,4.595081E-2,5.5537295E-2,1.979178E-1,1.02464244E-1,6.613808E-2,2.2735624E-1,2.725513E-2,1.5597431E-1,5.4347426E-1,1.3917367E-1,4.7873262E-1,-7.9365205E-3,6.986083E-2,1.0663894E-1,1.9236338E-1,2.8794503E-1,8.460161E-1,3.414042E-1,9.15538E-2,4.429473E-1,7.357536E-2,2.7004449E-2,1.2048471E-1,4.314306E-1,2.5802085E-1,1.0373672E-1,2.3257673E-1,5.928724E-1,1.8104589E-1,2.3629539E-1,4.3642005E-1,-1.6317273E-2,1.5151584E-2,-2.985617E-3,7.045253E-2,1.3517882E-1,2.482385E-1,1.7890574E-1,5.482639E-2,3.5765696E-1,2.1255761E-1,3.8260353E-1,9.502101E-2,3.0520818E-1,6.307504E-1],"categories":[],"categories_nodes":[],"categories_segments":[],"categories_sizes":[],"default_left":[0,0,0,0,0,0,0,0,0,0,0,0,0,0,0,0,0,0,0,0,0,0,0,0,0,0,0,0,0,0,0,0,0,0,0,0,0,0,0,0,0,0,0,0,0,0,0,0,0,0,0,0,0,0,0,0,0,0,0,0,0,0,0,0,0,0,0,0,0,0,0,0,0,0,0,0,0,0,0,0,0,0,0,0,0,0,0,0,0,0,0,0,0,0,0,0,0,0,0,0,0,0,0,0,0,0,0,0,0,0,0,0,0,0,0,0,0,0,0,0,0,0,0,0,0,0,0,0,0,0,0,0,0,0,0,0,0,0,0,0,0,0,0,0,0,0,0,0,0,0,0,0,0,0,0,0,0,0,0,0,0,0,0,0,0,0,0,0,0,0,0,0,0,0,0,0,0,0,0,0,0,0,0,0,0,0,0,0,0,0,0,0,0,0,0,0,0,0,0,0,0,0,0,0,0,0,0,0,0,0,0,0,0,0,0,0,0,0,0,0,0,0,0,0,0,0,0,0,0,0,0,0,0,0,0,0,0,0,0],"id":5,"left_children":[1,3,5,7,9,11,13,15,17,19,21,23,25,27,29,31,33,35,37,39,41,43,45,47,49,51,53,55,57,59,61,63,65,67,69,71,73,75,77,79,81,83,85,87,89,91,93,95,97,99,101,103,105,107,109,-1,111,113,115,117,119,121,123,125,127,129,131,133,135,-1,137,139,141,143,-1,145,147,149,151,153,155,157,159,161,163,165,167,169,171,173,175,177,179,181,183,185,187,189,191,193,195,197,199,201,203,205,207,-1,209,211,213,215,217,219,221,223,225,227,229,-1,-1,231,233,235,237,-1,-1,-1,-1,-1,-1,-1,-1,-1,-1,-1,-1,-1,-1,-1,-1,-1,-1,-1,-1,-1,-1,-1,-1,-1,-1,-1,-1,-1,-1,-1,-1,-1,-1,-1,-1,-1,-1,-1,-1,-1,-1,-1,-1,-1,-1,-1,-1,-1,-1,-1,-1,-1,-1,-1,-1,-1,-1,-1,-1,-1,-1,-1,-1,-1,-1,-1,-1,-1,-1,-1,-1,-1,-1,-1,-1,-1,-1,-1,-1,-1,-1,-1,-1,-1,-1,-1,-1,-1,-1,-1,-1,-1,-1,-1,-1,-1,-1,-1,-1,-1,-1,-1,-1,-1,-1,-1,-1,-1,-1,-1,-1,-1,-1],"loss_changes":[9.580763E4,3.217346E4,1.4691078E4,7.768764E3,7.1107207E3,5.067078E3,3.0577031E3,8.936582E2,4.287843E3,1.8598813E3,2.2403516E3,1.6115527E3,2.025459E3,1.2974355E3,2.3668477E3,1.1051172E2,7.038831E2,1.8308809E3,2.4473704E3,6.30975E2,7.203511E2,1.1544375E3,9.644502E2,6.9259766E2,6.444121E2,1.6322617E3,1.7334635E4,1.1700879E3,9.950293E2,3.222815E2,8.5688086E2,1.6340332E1,2.039187E2,5.063041E2,1.2835992E2,1.2543643E3,1.233272E3,3.8887085E2,8.926167E2,4.1062762E2,4.1660522E2,5.8888074E2,3.7344287E2,7.339053E2,6.304043E2,2.0747339E2,1.0761514E3,4.472876E2,2.7928223E2,2.7481787E2,7.532495E2,2.1881758E3,4.8682715E2,7.203787E3,1.099573E3,0E0,5.463115E2,7.513125E2,1.0992822E3,2.2455298E2,9.886894E0,4.0713867E2,6.050801E2,1.0714844E1,3.3256912E2,4.8690918E1,3.5561792E2,1.3456085E2,7.121396E2,0E0,1.09244496E-1,2.883363E2,2.8599292E2,9.8134766E2,0E0,1.4044922E2,5.2177966E2,6.816051E2,6.8776465E2,1.5328502E2,2.3427573E2,1.4052463E2,1.3680286E2,4.7275665E2,1.4786938E2,2.0156274E2,4.7962964E2,4.329453E2,3.851421E2,3.277412E2,2.3979102E2,1.893584E2,3.1760376E2,1.936266E3,3.727295E2,1.740122E2,4.6027124E2,1.5509424E2,6.1289844E2,1.587039E2,3.0684863E2,1.8977441E2,2.2144409E2,3.207747E3,1.347126E3,6.5359375E1,4.6529297E2,0E0,6.484873E2,6.8419495E2,6.1129614E2,3.3207993E1,2.09521E2,5.811177E2,1.0647646E3,6.069043E2,3.2719061E0,5.9289436E0,1.1930835E2,0E0,0E0,6.0159546E1,2.8358984E2,4.5422656E2,1.7192676E2,0E0,0E0,0E0,0E0,0E0,0E0,0E0,0E0,0E0,0E0,0E0,0E0,0E0,0E0,0E0,0E0,0E0,0E0,0E0,0E0,0E0,0E0,0E0,0E0,0E0,0E0,0E0,0E0,0E0,0E0,0E0,0E0,0E0,0E0,0E0,0E0,0E0,0E0,0E0,0E0,0E0,0E0,0E0,0E0,0E0,0E0,0E0,0E0,0E0,0E0,0E0,0E0,0E0,0E0,0E0,0E0,0E0,0E0,0E0,0E0,0E0,0E0,0E0,0E0,0E0,0E0,0E0,0E0,0E0,0E0,0E0,0E0,0E0,0E0,0E0,0E0,0E0,0E0,0E0,0E0,0E0,0E0,0E0,0E0,0E0,0E0,0E0,0E0,0E0,0E0,0E0,0E0,0E0,0E0,0E0,0E0,0E0,0E0,0E0,0E0,0E0,0E0,0E0,0E0,0E0,0E0,0E0,0E0,0E0,0E0,0E0,0E0,0E0,0E0],"parents":[2147483647,0,0,1,1,2,2,3,3,4,4,5,5,6,6,7,7,8,8,9,9,10,10,11,11,12,12,13,13,14,14,15,15,16,16,17,17,18,18,19,19,20,20,21,21,22,22,23,23,24,24,25,25,26,26,27,27,28,28,29,29,30,30,31,31,32,32,33,33,34,34,35,35,36,36,37,37,38,38,39,39,40,40,41,41,42,42,43,43,44,44,45,45,46,46,47,47,48,48,49,49,50,50,51,51,52,52,53,53,54,54,56,56,57,57,58,58,59,59,60,60,61,61,62,62,63,63,64,64,65,65,66,66,67,67,68,68,70,70,71,71,72,72,73,73,75,75,76,76,77,77,78,78,79,79,80,80,81,81,82,82,83,83,84,84,85,85,86,86,87,87,88,88,89,89,90,90,91,91,92,92,93,93,94,94,95,95,96,96,97,97,98,98,99,99,100,100,101,101,102,102,103,103,104,104,105,105,106,106,108,108,109,109,110,110,111,111,112,112,113,113,114,114,115,115,116,116,117,117,118,118,121,121,122,122,123,123,124,124],"right_children":[2,4,6,8,10,12,14,16,18,20,22,24,26,28,30,32,34,36,38,40,42,44,46,48,50,52,54,56,58,60,62,64,66,68,70,72,74,76,78,80,82,84,86,88,90,92,94,96,98,100,102,104,106,108,110,-1,112,114,116,118,120,122,124,126,128,130,132,134,136,-1,138,140,142,144,-1,146,148,150,152,154,156,158,160,162,164,166,168,170,172,174,176,178,180,182,184,186,188,190,192,194,196,198,200,202,204,206,208,-1,210,212,214,216,218,220,222,224,226,228,230,-1,-1,232,234,236,238,-1,-1,-1,-1,-1,-1,-1,-1,-1,-1,-1,-1,-1,-1,-1,-1,-1,-1,-1,-1,-1,-1,-1,-1,-1,-1,-1,-1,-1,-1,-1,-1,-1,-1,-1,-1,-1,-1,-1,-1,-1,-1,-1,-1,-1,-1,-1,-1,-1,-1,-1,-1,-1,-1,-1,-1,-1,-1,-1,-1,-1,-1,-1,-1,-1,-1,-1,-1,-1,-1,-1,-1,-1,-1,-1,-1,-1,-1,-1,-1,-1,-1,-1,-1,-1,-1,-1,-1,-1,-1,-1,-1,-1,-1,-1,-1,-1,-1,-1,-1,-1,-1,-1,-1,-1,-1,-1,-1,-1,-1,-1,-1,-1,-1],"split_conditions":[3.2E0,6E-1,8.3E0,8.54E1,8.64E1,5.3225E1,1.0584755E1,1E-1,8.38E1,4.95124E0,3.9593182E0,-4.1919656E0,7.2316413E0,2.9835E2,2.5799315E0,8.13E1,1.1542839E1,3.0205E2,1E-1,1.2E0,8.43E1,1.6E0,4.182572E0,-2.93996E0,8.8E1,-6.034135E0,5.3925E1,2E-1,8.53E2,4.526076E-1,5.6925E1,1.168E3,3.0225E2,3.0205E2,1.538E1,8.81E1,6.9E0,3.1996512E0,8.97E1,3.294219E1,1.6E0,3.88E0,2.9572911E0,8.52E1,-7.2046294E0,2.1E0,4.2E0,3.88E0,2.7205174E0,5E-1,6.9E0,8.62E1,3.4E2,8.13E1,1.083812E1,5.9629506E-1,1.6E0,3.948087E0,3.0235E2,2.6E0,8.43E1,2.9925E2,3.3E0,1E-1,6.35E1,7.91E1,7.2316413E0,3.8181853E-1,8.38E1,2.566417E-1,3.0165E2,4.2541927E-1,4.9125E1,4.1254498E1,3.2395822E-1,4E-1,3.0375E2,4.2579386E-1,3.0175E2,5.5425E1,3.0045E2,4.047557E1,1.1898992E0,1.162E3,3.0165E2,7.76E1,3.933937E1,4.0923414E-1,8.97E1,3.0215E2,3E-1,8.97E1,1E-1,3.0025E2,5.0277777E0,3.0035E2,6.7475384E-1,7.4E0,2.760886E0,1.1487916E0,8E0,5.1025E1,8.925E1,2.765043E0,-2.929276E0,1.74E2,1.1598846E1,2.037259E0,1.654E1,8.68E0,3.561547E0,2.9805E2,2.9973032E2,8.975E1,8.4E0,9.9158305E-1,1.5E0,1.538E1,2.9945E2,2.9578717E-2,7.592412E-2,2.9875E2,5.5825E1,1.67E1,1.654E1,-1.2411193E-2,-1.1146862E-2,1.6503607E-1,-1.1272644E-2,-6.6668065E-3,-1.0867516E-2,-3.6872082E-4,1.5154597E-1,-7.1545253E-3,8.303819E-4,-2.2126164E-3,3.1417795E-2,2.811908E-3,-7.460546E-3,8.601249E-3,3.4543734E-2,1.7316496E-2,4.047126E-2,2.3000339E-2,8.2738325E-2,-1.0017264E-2,4.59057E-3,2.2312026E-3,2.8227904E-1,2.8651608E-3,3.504304E-2,2.2447508E-2,1.2848867E-1,-5.937012E-4,3.0325323E-2,1.457248E-2,5.4012958E-2,7.881571E-3,4.7824956E-2,4.3393414E-2,2.2166831E-2,1.6477672E-2,1.6292354E-1,5.7319928E-2,1.3532211E-1,1.19508915E-1,3.6420207E-2,5.031632E-2,1.2172332E-1,4.412687E-2,8.9510426E-2,1.8897237E-2,3.508948E-2,7.635466E-2,2.4317816E-1,3.1672947E-2,5.1442925E-2,3.0437844E-2,6.1506405E-2,2.936045E-1,6.992978E-2,4.1739937E-2,7.6028866E-1,8.06728E-2,1.2889372E-1,8.044669E-2,2.431387E-2,2.5826344E-1,8.754661E-2,8.759334E-2,1.6510239E-1,3.5459352E-1,1.2550151E-1,3.1936155E-3,4.595081E-2,5.5537295E-2,1.979178E-1,1.02464244E-1,6.613808E-2,2.2735624E-1,2.725513E-2,1.5597431E-1,5.4347426E-1,1.3917367E-1,4.7873262E-1,-7.9365205E-3,6.986083E-2,1.0663894E-1,1.9236338E-1,2.8794503E-1,8.460161E-1,3.414042E-1,9.15538E-2,4.429473E-1,7.357536E-2,2.7004449E-2,1.2048471E-1,4.314306E-1,2.5802085E-1,1.0373672E-1,2.3257673E-1,5.928724E-1,1.8104589E-1,2.3629539E-1,4.3642005E-1,-1.6317273E-2,1.5151584E-2,-2.985617E-3,7.045253E-2,1.3517882E-1,2.482385E-1,1.7890574E-1,5.482639E-2,3.5765696E-1,2.1255761E-1,3.8260353E-1,9.502101E-2,3.0520818E-1,6.307504E-1],"split_indices":[27,27,27,3,3,7,19,27,17,10,43,22,42,15,42,3,28,33,27,28,3,27,10,19,3,5,7,28,23,32,7,6,34,34,0,3,28,4,3,39,27,8,42,17,21,27,10,8,43,28,27,17,6,3,19,0,28,42,13,28,3,15,11,28,18,17,42,11,3,0,2,32,25,39,0,28,15,11,15,25,15,39,22,24,16,17,39,11,3,34,28,3,8,15,41,2,44,27,43,29,27,25,35,42,22,6,4,0,0,0,5,2,34,35,27,44,11,0,16,0,0,2,7,28,0,0,0,0,0,0,0,0,0,0,0,0,0,0,0,0,0,0,0,0,0,0,0,0,0,0,0,0,0,0,0,0,0,0,0,0,0,0,0,0,0,0,0,0,0,0,0,0,0,0,0,0,0,0,0,0,0,0,0,0,0,0,0,0,0,0,0,0,0,0,0,0,0,0,0,0,0,0,0,0,0,0,0,0,0,0,0,0,0,0,0,0,0,0,0,0,0,0,0,0,0,0,0,0,0,0,0,0,0,0,0,0,0,0,0],"split_type":[0,0,0,0,0,0,0,0,0,0,0,0,0,0,0,0,0,0,0,0,0,0,0,0,0,0,0,0,0,0,0,0,0,0,0,0,0,0,0,0,0,0,0,0,0,0,0,0,0,0,0,0,0,0,0,0,0,0,0,0,0,0,0,0,0,0,0,0,0,0,0,0,0,0,0,0,0,0,0,0,0,0,0,0,0,0,0,0,0,0,0,0,0,0,0,0,0,0,0,0,0,0,0,0,0,0,0,0,0,0,0,0,0,0,0,0,0,0,0,0,0,0,0,0,0,0,0,0,0,0,0,0,0,0,0,0,0,0,0,0,0,0,0,0,0,0,0,0,0,0,0,0,0,0,0,0,0,0,0,0,0,0,0,0,0,0,0,0,0,0,0,0,0,0,0,0,0,0,0,0,0,0,0,0,0,0,0,0,0,0,0,0,0,0,0,0,0,0,0,0,0,0,0,0,0,0,0,0,0,0,0,0,0,0,0,0,0,0,0,0,0,0,0,0,0,0,0,0,0,0,0,0,0,0,0,0,0,0,0],"sum_hessian":[1.62593E5,1.56335E5,6.258E3,1.28348E5,2.7987E4,5.121E3,1.137E3,9.314E4,3.5208E4,1.4369E4,1.3618E4,3.873E3,1.248E3,8.27E2,3.1E2,7.2346E4,2.0794E4,8.953E3,2.6255E4,9.539E3,4.83E3,1.1365E4,2.253E3,1.963E3,1.91E3,1.084E3,1.64E2,8.7E1,7.4E2,8.8E1,2.22E2,4.6573E4,2.5773E4,2.0782E4,1.2E1,7.916E3,1.037E3,1.5432E4,1.0823E4,6.907E3,2.632E3,2.986E3,1.844E3,7.077E3,4.288E3,9.56E2,1.297E3,9.44E2,1.019E3,1.231E3,6.79E2,4.9E2,5.94E2,1.5E1,1.49E2,1E1,7.7E1,5.58E2,1.82E2,6.8E1,2E1,9.1E1,1.31E2,4.6305E4,2.68E2,2.4285E4,1.488E3,1.805E4,2.732E3,1E1,2E0,5.027E3,2.889E3,1.022E3,1.5E1,1.2466E4,2.966E3,7.345E3,3.478E3,5.931E3,9.76E2,1.51E3,1.122E3,2.731E3,2.55E2,1.416E3,4.28E2,1.767E3,5.31E3,6.84E2,3.604E3,7.46E2,2.1E2,1.3E1,1.284E3,8.84E2,6E1,3.17E2,7.02E2,3.12E2,9.19E2,6.33E2,4.6E1,8E1,4.1E2,2.14E2,3.8E2,5E0,1E1,1.28E2,2.1E1,1.6E1,6.1E1,2.94E2,2.64E2,1.67E2,1.5E1,1.1E1,5.7E1,1E1,1E1,2.1E1,7E1,1.11E2,2E1,3.904E4,7.265E3,9E0,2.59E2,2.815E3,2.147E4,1.475E3,1.3E1,1.5893E4,2.157E3,1.931E3,8.01E2,1E0,1E0,4.607E3,4.2E2,6.11E2,2.278E3,4.23E2,5.99E2,1.1843E4,6.23E2,2.961E3,5E0,6.696E3,6.49E2,3.423E3,5.5E1,5.784E3,1.47E2,8.14E2,1.62E2,1.427E3,8.3E1,6.37E2,4.85E2,2.712E3,1.9E1,2.31E2,2.4E1,2.6E1,1.39E3,3.11E2,1.17E2,1.551E3,2.16E2,2.527E3,2.783E3,6.74E2,1E1,6.89E2,2.915E3,4.53E2,2.93E2,5E0,2.05E2,8E0,5E0,1.115E3,1.69E2,8.3E2,5.4E1,2.5E1,3.5E1,2.91E2,2.6E1,1E1,6.92E2,1.53E2,1.59E2,9.06E2,1.3E1,1.91E2,4.42E2,4E1,6E0,4.7E1,3.3E1,4E2,1E1,1E1,2.04E2,3.08E2,7.2E1,5E0,5E0,1E1,1.18E2,1.5E1,6E0,6E0,1E1,1E1,5.1E1,2.58E2,3.6E1,5E0,2.59E2,1.51E2,1.6E1,1.2E1,3E0,1E0,1E1,1.6E1,4.1E1,1.5E1,6E0,4.5E1,2.5E1,1.05E2,6E0,5E0,1.5E1],"tree_param":{"num_deleted":"0","num_feature":"45","num_nodes":"239","size_leaf_vector":"1"}},{"base_weights":[1.886299E-1,-1.5381795E-2,2.847763E0,-2.2174239E-1,6.3308364E-1,2.1934648E0,5.510896E0,-3.356014E-1,1.1783079E-1,1.621558E-1,1.0475286E0,2.981715E0,1.6176028E0,4.884312E0,9.280435E0,-3.3674827E-1,5.4801106E0,7.156373E-1,-9.888565E-2,-8.902592E-3,5.861137E-1,9.2027545E-1,2.021195E0,2.5883565E0,4.986022E0,1.0222332E0,2.0202527E0,3.829401E0,5.9504433E0,1.9863279E0,8.183987E0,-3.6314636E-1,-1.953145E-1,-3.8840696E-1,2.6149288E-1,5.5103725E-1,1.8956777E0,-1.9051087E-1,5.347096E-1,-9.297364E-2,2.9508182E-1,5.435027E-1,6.51056E0,5.429893E-1,1.2303544E0,1.9528733E0,2.748159E-1,2.333437E0,3.2247987E0,4.6911597E0,1.6266167E1,4.8786524E-1,1.5187106E0,1.9676925E0,9.552044E0,3.4838502E0,6.2145867E0,5.671433E0,1.2168104E1,4.9245424E0,9.558906E0,-3.8572678E-1,-2.9827672E-1,-2.5060412E-1,1.797297E-1,-4.8071873E-1,2.4819553E-3,3.4730008E-1,1.2496045E0,1.0650074E0,2.7864757E0,-2.7757567E-1,1.3923441E-1,8.6548276E-2,8.131262E-1,-5.72327E-4,-2.1462739E-1,2.2374178E-1,2.2457056E0,2.479778E-1,1.014138E0,2.6729524E-1,-3.7862754E-1,3.2322174E-1,8.478968E-1,1.1802708E0,3.2281358E0,1.5736132E0,2.3403716E0,1.8464545E0,2.6128995E0,3.1141357E0,5.631327E0,4.410067E0,1.4551078E1,8.540409E-1,8.131863E0,4.062756E-1,2.483867E0,1.3067434E0,2.570468E0,1.7989997E0,3.3318558E0,2.6571665E0,8.248657E-1,2.6601627E0,3.9777126E0,5.7020497E0,3.2884115E-1,5.128251E0,7.604835E0,6.490127E0,5.179994E-1,2.8094351E0,9.337048E0,8.772763E0,1.4170286E1,-1.1651789E-2,2.0209365E-3,2.4793737E-1,-9.030277E-3,-7.996284E-3,1.873477E-2,3.0279994E-2,-4.411998E-3,-6.116858E-3,-1.7044697E-2,8.291037E-3,3.1866644E-2,3.6440197E-2,1.33651E-1,2.8760312E-2,2.8288126E-1,6.1896686E-2,1.1265404E-1,-9.970597E-3,-1.4309806E-3,-1.1481654E-3,2.6187487E-2,-2.5786408E-3,3.2567352E-2,3.3212353E-2,1.2343855E-2,-8.5320405E-4,1.8696379E-2,-6.866997E-3,2.8543469E-2,4.127288E-2,4.0036505E-3,2.496429E-1,5.4177966E-2,2.7273156E-2,3.6303648E-3,2.7068734E-2,9.616546E-2,1.6607165E-3,-1.2989965E-2,2.1565968E-2,3.471716E-3,2.0419037E-2,4.0161245E-2,2.8495181E-2,4.4962447E-2,6.3608974E-1,7.95603E-2,4.227486E-2,8.572225E-2,1.64926E-1,6.8300925E-2,7.5534195E-2,4.013469E-2,7.323957E-2,1.0765904E-1,1.5860178E-1,8.9803934E-2,1.9875655E-1,4.4153653E-2,4.0035534E-1,1.2258629E-1,2.1483362E-1,8.071744E-1,8.6026266E-2,3.612262E-1,7.226895E-3,3.770737E-2,3.4179702E-2,1.8141687E-1,2.8729504E-2,5.261199E-2,6.113426E-2,1.6261923E-1,5.197038E-2,9.812544E-2,4.0498486E-1,9.436109E-2,1.4768118E-1,3.9088983E-2,4.8603937E-2,1.23495884E-1,1.12717986E-1,1.9506355E-1,1.0622075E-1,1.909373E-1,1.282401E-1,1.9702983E-1,5.498598E-1,2.1724387E-1,2.3622362E-1,5.1533643E-2,2.3052853E-1,5.4581594E-2,8.937064E-2,3.1335503E-1,1.6073585E-1,2.8094313E-1,4.6222383E-1,1.9342445E-1],"categories":[],"categories_nodes":[],"categories_segments":[],"categories_sizes":[],"default_left":[0,0,0,0,0,0,0,0,0,0,0,0,0,0,0,0,0,0,0,0,0,0,0,0,0,0,0,0,0,0,0,0,0,0,0,0,0,0,0,0,0,0,0,0,0,0,0,0,0,0,0,0,0,0,0,0,0,0,0,0,0,0,0,0,0,0,0,0,0,0,0,0,0,0,0,0,0,0,0,0,0,0,0,0,0,0,0,0,0,0,0,0,0,0,0,0,0,0,0,0,0,0,0,0,0,0,0,0,0,0,0,0,0,0,0,0,0,0,0,0,0,0,0,0,0,0,0,0,0,0,0,0,0,0,0,0,0,0,0,0,0,0,0,0,0,0,0,0,0,0,0,0,0,0,0,0,0,0,0,0,0,0,0,0,0,0,0,0,0,0,0,0,0,0,0,0,0,0,0,0,0,0,0,0,0,0,0,0,0,0,0,0,0,0,0,0,0,0,0,0,0,0,0,0,0,0,0,0,0,0,0,0,0,0,0,0,0],"id":6,"left_children":[1,3,5,7,9,11,13,15,17,19,21,23,25,27,29,31,33,35,37,39,41,43,45,47,49,51,53,55,57,-1,59,61,63,65,-1,67,69,71,73,75,77,79,81,83,85,87,-1,89,91,93,95,97,99,101,103,105,107,109,111,113,115,117,119,121,123,125,-1,127,129,131,133,135,137,139,141,143,145,147,149,151,153,-1,155,157,159,161,163,165,167,169,171,173,175,177,179,-1,181,183,185,187,189,191,193,195,-1,197,199,201,-1,203,205,207,-1,209,211,213,215,-1,-1,-1,-1,-1,-1,-1,-1,-1,-1,-1,-1,-1,-1,-1,-1,-1,-1,-1,-1,-1,-1,-1,-1,-1,-1,-1,-1,-1,-1,-1,-1,-1,-1,-1,-1,-1,-1,-1,-1,-1,-1,-1,-1,-1,-1,-1,-1,-1,-1,-1,-1,-1,-1,-1,-1,-1,-1,-1,-1,-1,-1,-1,-1,-1,-1,-1,-1,-1,-1,-1,-1,-1,-1,-1,-1,-1,-1,-1,-1,-1,-1,-1,-1,-1,-1,-1,-1,-1,-1,-1,-1,-1,-1,-1,-1,-1,-1,-1,-1],"loss_changes":[8.8346875E4,2.024007E4,2.0207672E4,4.436208E3,7.126206E3,4.224383E3,5.3587734E3,5.7498145E2,3.7327947E3,1.2396162E3,2.4044434E3,3.087125E3,1.2890967E3,2.1860703E3,1.9745066E4,3.2068555E2,3.2625632E2,1.4879583E3,1.227755E3,3.1130307E2,1.2369845E3,2.0089609E3,1.076669E3,5.260879E2,2.0656934E3,5.7629004E2,1.2527471E3,7.943096E2,1.6224102E3,0E0,1.387E3,1.05930664E2,2.802928E2,3.442124E-1,0E0,9.572648E2,6.9111426E2,5.304699E2,3.333299E2,1.0726116E2,3.667344E2,6.784806E2,5.8189185E2,5.191111E2,9.395205E2,3.231621E2,0E0,3.152666E2,2.3226465E2,1.6791338E3,1.3565605E3,1.6982375E2,2.4789209E2,7.28333E2,2.6487383E3,3.4210547E2,2.3917725E2,9.4292773E2,1.0748638E3,8.7906177E2,6.877324E2,6.489844E1,4.3998572E2,1.6445868E2,4.7106882E2,2.9384732E-2,0E0,2.6396112E2,1.6467017E2,4.240913E2,3.0891675E2,1.8404248E2,5.0273425E2,1.7673738E2,1.9412415E2,9.430593E1,6.876973E1,2.6473553E2,2.3346262E2,2.5162743E2,4.5838318E2,0E0,2.5993276E-1,3.6983804E2,2.6556665E2,6.7366504E2,2.3255974E3,2.3390747E2,2.0821484E2,2.9063818E2,2.4102441E2,2.1986523E2,1.5561426E2,1.7193076E3,1.3594407E3,0E0,1.9183337E2,1.4164084E2,1.8954518E2,1.4499915E2,2.7437E2,2.7314648E2,6.211819E2,4.57418E1,0E0,4.901416E2,2.7607715E2,1.4070825E2,0E0,8.725293E2,6.583135E2,1.25176575E2,0E0,3.0938397E2,1.8729248E2,3.420254E2,1.9684863E2,0E0,0E0,0E0,0E0,0E0,0E0,0E0,0E0,0E0,0E0,0E0,0E0,0E0,0E0,0E0,0E0,0E0,0E0,0E0,0E0,0E0,0E0,0E0,0E0,0E0,0E0,0E0,0E0,0E0,0E0,0E0,0E0,0E0,0E0,0E0,0E0,0E0,0E0,0E0,0E0,0E0,0E0,0E0,0E0,0E0,0E0,0E0,0E0,0E0,0E0,0E0,0E0,0E0,0E0,0E0,0E0,0E0,0E0,0E0,0E0,0E0,0E0,0E0,0E0,0E0,0E0,0E0,0E0,0E0,0E0,0E0,0E0,0E0,0E0,0E0,0E0,0E0,0E0,0E0,0E0,0E0,0E0,0E0,0E0,0E0,0E0,0E0,0E0,0E0,0E0,0E0,0E0,0E0,0E0,0E0,0E0,0E0,0E0,0E0,0E0],"parents":[2147483647,0,0,1,1,2,2,3,3,4,4,5,5,6,6,7,7,8,8,9,9,10,10,11,11,12,12,13,13,14,14,15,15,16,16,17,17,18,18,19,19,20,20,21,21,22,22,23,23,24,24,25,25,26,26,27,27,28,28,30,30,31,31,32,32,33,33,35,35,36,36,37,37,38,38,39,39,40,40,41,41,42,42,43,43,44,44,45,45,47,47,48,48,49,49,50,50,51,51,52,52,53,53,54,54,55,55,56,56,57,57,58,58,59,59,60,60,61,61,62,62,63,63,64,64,65,65,67,67,68,68,69,69,70,70,71,71,72,72,73,73,74,74,75,75,76,76,77,77,78,78,79,79,80,80,82,82,83,83,84,84,85,85,86,86,87,87,88,88,89,89,90,90,91,91,92,92,93,93,94,94,96,96,97,97,98,98,99,99,100,100,101,101,102,102,103,103,105,105,106,106,107,107,109,109,110,110,111,111,113,113,114,114,115,115,116,116],"right_children":[2,4,6,8,10,12,14,16,18,20,22,24,26,28,30,32,34,36,38,40,42,44,46,48,50,52,54,56,58,-1,60,62,64,66,-1,68,70,72,74,76,78,80,82,84,86,88,-1,90,92,94,96,98,100,102,104,106,108,110,112,114,116,118,120,122,124,126,-1,128,130,132,134,136,138,140,142,144,146,148,150,152,154,-1,156,158,160,162,164,166,168,170,172,174,176,178,180,-1,182,184,186,188,190,192,194,196,-1,198,200,202,-1,204,206,208,-1,210,212,214,216,-1,-1,-1,-1,-1,-1,-1,-1,-1,-1,-1,-1,-1,-1,-1,-1,-1,-1,-1,-1,-1,-1,-1,-1,-1,-1,-1,-1,-1,-1,-1,-1,-1,-1,-1,-1,-1,-1,-1,-1,-1,-1,-1,-1,-1,-1,-1,-1,-1,-1,-1,-1,-1,-1,-1,-1,-1,-1,-1,-1,-1,-1,-1,-1,-1,-1,-1,-1,-1,-1,-1,-1,-1,-1,-1,-1,-1,-1,-1,-1,-1,-1,-1,-1,-1,-1,-1,-1,-1,-1,-1,-1,-1,-1,-1,-1,-1,-1,-1,-1],"split_conditions":[2.1E0,3E-1,5.8E0,8.54E1,8.54E1,-3.5471184E0,7.88E2,1.2444314E1,8.38E1,3.2038948E-1,3.8123965E-1,2E0,8.54E1,8E0,5.9E0,1E-1,8.72E2,3.0195E2,4E-1,1.2E0,8.370854E0,8.81E1,3.0205E2,4E0,4.4722223E0,1.2E0,3.0385E2,4.3838787E0,3.45E2,1.9863279E0,6.583548E0,8.24E1,3.0205E2,5.57E2,2.6149288E-1,8.97E1,4.238194E1,3.1996512E0,8.8E1,3.0075E2,5.5125E1,8.38E1,2.0020442E-1,6E-1,4.931276E0,3.6768425E1,2.748159E-1,8.64E1,3.88E0,1.23373165E1,2.9975E2,5.2E0,4.8E0,5.7792864E0,4.2852507E0,8.64E1,3.0175E2,1.1148496E1,2.0277777E0,3E0,1.38E1,1.168E3,8.3E1,5.4825E1,3.0065E2,-2.8095162E0,2.4819553E-3,8E-1,1.1E3,4.7E0,1E0,1E-1,8.97E1,4.5232534E-1,8.62E1,6.3E0,3.45E2,-6.460291E0,-1.0204787E1,-1.1394351E1,6.751088E0,2.6729524E-1,2.1676748E1,8.52E1,1.5E0,2.9995E2,8.65E0,4.640103E0,7.95E1,-8.959083E0,5.2241893E0,8.04E1,4.4703307E0,1.052E1,8.81E1,8.540409E-1,2.013E1,2.1880026E0,3.0235E2,2.9524577E0,3.9772045E1,5.6925E1,4.5974144E-1,3.0015E2,8.248657E-1,2.5810226E2,3.3779355E2,8.64E1,3.2884115E-1,8.85E1,5.5555556E-2,3.0015E2,5.179994E-1,4.5775E1,5.5070567E0,6.528452E0,1.01E3,-1.1651789E-2,2.0209365E-3,2.4793737E-1,-9.030277E-3,-7.996284E-3,1.873477E-2,3.0279994E-2,-4.411998E-3,-6.116858E-3,-1.7044697E-2,8.291037E-3,3.1866644E-2,3.6440197E-2,1.33651E-1,2.8760312E-2,2.8288126E-1,6.1896686E-2,1.1265404E-1,-9.970597E-3,-1.4309806E-3,-1.1481654E-3,2.6187487E-2,-2.5786408E-3,3.2567352E-2,3.3212353E-2,1.2343855E-2,-8.5320405E-4,1.8696379E-2,-6.866997E-3,2.8543469E-2,4.127288E-2,4.0036505E-3,2.496429E-1,5.4177966E-2,2.7273156E-2,3.6303648E-3,2.7068734E-2,9.616546E-2,1.6607165E-3,-1.2989965E-2,2.1565968E-2,3.471716E-3,2.0419037E-2,4.0161245E-2,2.8495181E-2,4.4962447E-2,6.3608974E-1,7.95603E-2,4.227486E-2,8.572225E-2,1.64926E-1,6.8300925E-2,7.5534195E-2,4.013469E-2,7.323957E-2,1.0765904E-1,1.5860178E-1,8.9803934E-2,1.9875655E-1,4.4153653E-2,4.0035534E-1,1.2258629E-1,2.1483362E-1,8.071744E-1,8.6026266E-2,3.612262E-1,7.226895E-3,3.770737E-2,3.4179702E-2,1.8141687E-1,2.8729504E-2,5.261199E-2,6.113426E-2,1.6261923E-1,5.197038E-2,9.812544E-2,4.0498486E-1,9.436109E-2,1.4768118E-1,3.9088983E-2,4.8603937E-2,1.23495884E-1,1.12717986E-1,1.9506355E-1,1.0622075E-1,1.909373E-1,1.282401E-1,1.9702983E-1,5.498598E-1,2.1724387E-1,2.3622362E-1,5.1533643E-2,2.3052853E-1,5.4581594E-2,8.937064E-2,3.1335503E-1,1.6073585E-1,2.8094313E-1,4.6222383E-1,1.9342445E-1],"split_indices":[27,27,27,3,3,21,6,28,17,31,31,14,3,27,27,27,6,33,28,27,28,3,2,27,40,28,34,8,9,0,4,3,34,6,0,3,39,4,3,2,25,3,11,28,42,39,0,3,8,20,2,27,28,43,4,3,16,19,41,14,27,6,3,25,2,4,0,28,23,28,31,27,3,31,17,10,9,21,19,21,43,0,9,17,27,15,0,42,35,21,43,18,43,0,3,0,0,8,16,43,39,7,42,2,0,9,12,3,0,35,40,2,0,7,10,27,6,0,0,0,0,0,0,0,0,0,0,0,0,0,0,0,0,0,0,0,0,0,0,0,0,0,0,0,0,0,0,0,0,0,0,0,0,0,0,0,0,0,0,0,0,0,0,0,0,0,0,0,0,0,0,0,0,0,0,0,0,0,0,0,0,0,0,0,0,0,0,0,0,0,0,0,0,0,0,0,0,0,0,0,0,0,0,0,0,0,0,0,0,0,0,0,0,0,0,0,0],"split_type":[0,0,0,0,0,0,0,0,0,0,0,0,0,0,0,0,0,0,0,0,0,0,0,0,0,0,0,0,0,0,0,0,0,0,0,0,0,0,0,0,0,0,0,0,0,0,0,0,0,0,0,0,0,0,0,0,0,0,0,0,0,0,0,0,0,0,0,0,0,0,0,0,0,0,0,0,0,0,0,0,0,0,0,0,0,0,0,0,0,0,0,0,0,0,0,0,0,0,0,0,0,0,0,0,0,0,0,0,0,0,0,0,0,0,0,0,0,0,0,0,0,0,0,0,0,0,0,0,0,0,0,0,0,0,0,0,0,0,0,0,0,0,0,0,0,0,0,0,0,0,0,0,0,0,0,0,0,0,0,0,0,0,0,0,0,0,0,0,0,0,0,0,0,0,0,0,0,0,0,0,0,0,0,0,0,0,0,0,0,0,0,0,0,0,0,0,0,0,0,0,0,0,0,0,0,0,0,0,0,0,0,0,0,0,0,0,0],"sum_hessian":[1.62852E5,1.51249E5,1.1603E4,1.14737E5,3.6512E4,9.316E3,2.287E3,8.5926E4,2.8811E4,1.7092E4,1.942E4,3.931E3,5.385E3,1.963E3,3.24E2,8.591E4,1.6E1,7.665E3,2.1146E4,1.2179E4,4.913E3,1.7177E4,2.243E3,3.288E3,6.43E2,2.174E3,3.211E3,9.89E2,9.74E2,5E0,3.19E2,7.2396E4,1.3514E4,6E0,1E1,6.728E3,9.37E2,1.8475E4,2.671E3,9.541E3,2.638E3,4.879E3,3.4E1,7.75E3,9.427E3,2.223E3,2E1,2.351E3,9.37E2,6.28E2,1.5E1,1.048E3,1.126E3,3.19E3,2.1E1,8.66E2,1.23E2,9.34E2,4E1,9.6E1,2.23E2,5.3699E4,1.8697E4,1.1778E4,1.736E3,5E0,1E0,5.21E3,1.518E3,4.86E2,4.51E2,1.4616E4,3.859E3,1.024E3,1.647E3,5.423E3,4.118E3,2.546E3,9.2E1,2.998E3,1.881E3,2.5E1,9E0,4.505E3,3.245E3,9.198E3,2.29E2,1.126E3,1.097E3,8.6E2,1.491E3,8.98E2,3.9E1,6.12E2,1.6E1,5E0,1E1,1.008E3,4E1,9.39E2,1.87E2,2.841E3,3.49E2,1.6E1,5E0,3.27E2,5.39E2,1.13E2,1E1,7.32E2,2.02E2,2E1,2E1,6.6E1,3E1,1.93E2,3E1,5.3385E4,3.14E2,5E0,1.8692E4,1.1568E4,2.1E2,4.9E2,1.246E3,2E0,3E0,4.741E3,4.69E2,1.503E3,1.5E1,4.81E2,5E0,2.6E2,1.91E2,1.1803E4,2.813E3,3.108E3,7.51E2,8.74E2,1.5E2,9.5E2,6.97E2,5.192E3,2.31E2,4.069E3,4.9E1,1.84E2,2.362E3,5E0,8.7E1,4.82E2,2.516E3,1.791E3,9E1,1E0,8E0,1.549E3,2.956E3,2.422E3,8.23E2,5.339E3,3.859E3,6E0,2.23E2,1E3,1.26E2,2E1,1.077E3,3.69E2,4.91E2,1.271E3,2.2E2,4.5E1,8.53E2,3.1E1,8E0,2E1,5.92E2,1.1E1,5E0,5E0,5E0,8.45E2,1.63E2,3E1,1E1,5.29E2,4.1E2,1.59E2,2.8E1,2.72E3,1.21E2,5E0,3.44E2,5E0,1.1E1,1.92E2,1.35E2,4.98E2,4.1E1,2.8E1,8.5E1,4.62E2,2.7E2,5E0,1.97E2,1.5E1,5E0,1E1,5.6E1,5E0,2.5E1,3E1,1.63E2,2.5E1,5E0],"tree_param":{"num_deleted":"0","num_feature":"45","num_nodes":"217","size_leaf_vector":"1"}},{"base_weights":[1.8528756E-1,3.3068724E-2,3.5718534E0,-1.5834135E-1,9.3598616E-1,2.9631975E0,6.60999E0,-3.026897E-1,2.2471449E-1,4.839418E-1,1.4198656E0,2.5060706E0,4.7197638E0,5.6567254E0,9.118464E0,-3.0476937E-1,6.177883E0,5.898047E-1,-7.374329E-2,2.399933E-1,1.0868123E0,1.3229847E0,3.4967458E0,3.1031046E0,1.9444596E0,4.156668E0,8.265268E0,9.078343E0,5.254154E0,6.661863E0,1.1823787E1,-3.516082E-1,-1.4250784E-1,-3.3857748E-1,2.6960322E-1,4.8945808E-1,1.9433006E0,-2.7890018E-1,2.450566E-1,9.2526145E-2,6.09634E-1,1.0412959E0,5.875766E0,1.1030686E0,1.6961149E0,1.7804165E1,3.318041E0,2.4615915E0,3.6909275E0,1.3936062E0,2.5244284E0,1.6940603E1,4.0162416E0,4.0242737E1,5.927492E0,5.75597E-1,7.536435E0,4.512621E0,7.8893433E0,3.3783033E0,7.7470183E0,1.2487406E1,2.2425075E0,-3.8135296E-1,-2.981358E-1,-2.0820485E-1,1.7557521E-1,-4.67534E-1,3.5449737E-3,1.9681385E-1,1.0431173E0,1.7911115E0,2.8858966E-1,-2.8366792E-1,6.7722774E0,5.882047E-2,5.9685296E-1,7.389712E-1,3.4476392E-2,3.7173226E-1,1.2372094E0,5.1653194E-1,1.4809213E0,2.6160318E-1,-2.6489773E-1,1.424936E0,8.157776E-1,2.291135E0,1.5275831E0,6.2407887E-1,-2.7993822E-3,7.231073E0,2.7928867E0,2.3449776E0,4.43195E0,2.868461E0,4.2907085E0,5.096117E-1,1.6877177E0,2.2601056E0,4.7409773E0,2.362299E-1,6.9550323E-1,5.0531693E0,3.0713875E0,1.9366697E0,2.7668095E-1,2.3590706E1,5.0520196E0,3.514242E0,9.479951E0,3.197624E0,5.2179227E0,8.386111E0,-2.0965634E-2,5.386315E0,2.5457444E0,8.335246E0,1.4152341E0,9.0000105E0,1.5351625E1,1.8634312E-2,1.047036E-1,-1.1534101E-2,4.50781E-3,-9.578623E-3,3.1364572E-3,-7.1516577E-3,-1.4527147E-3,-2.3589486E-3,2.3570942E-2,-3.8299102E-3,-1.4935478E-2,1.3624585E-3,1.883558E-2,6.7783957E-3,3.3713434E-2,-3.1150696E-3,6.858448E-2,-8.770598E-3,4.0060274E-2,-8.719409E-3,2.752508E-1,2.7062014E-1,1.4385697E-3,1.6749028E-2,2.0537798E-1,1.8897852E-2,8.065367E-2,-2.4585451E-3,7.297842E-3,4.7363915E-2,9.276135E-3,2.6264673E-2,7.0322186E-2,4.63673E-2,8.72103E-3,4.01924E-2,8.542036E-2,-1.296336E-2,6.580869E-3,3.5986047E-2,5.99176E-2,1.835249E-2,3.7369844E-2,7.5959265E-2,5.3034928E-2,4.4486724E-2,1.12522595E-1,1.0331919E-1,5.5169356E-1,6.3659996E-2,1.20352186E-1,4.518133E-2,7.5341515E-2,6.603544E-2,2.5091282E-1,7.827444E-2,1.2494484E-1,1.19449854E-1,1.8465704E-1,-2.4939287E-3,3.901695E-2,4.880052E-2,1.3977583E-1,1.4145902E-1,6.448787E-2,2.0403977E-1,9.995009E-2,1.3025072E-1,2.8214005E-1,7.187883E-2,1.1483378E-1,-2.1045323E-2,8.3268976E-1,1.1343177E-1,3.1823295E-1,3.109345E-2,1.2518485E-1,3.7129223E-1,2.1848705E-1,7.701574E-2,1.3062699E-1,4.9234146E-1,1.499572E-1,2.1288391E-2,2.5901878E-1,1.7663679E-1,-1.9657498E-3,1.7202396E-2,9.164107E-2,2.214689E-1,3.404995E-1,1.385896E-2,6.874525E-2,1.510126E-1,3.1845123E-1,3.4273335E-1,5.2993417E-1],"categories":[],"categories_nodes":[],"categories_segments":[],"categories_sizes":[],"default_left":[0,0,0,0,0,0,0,0,0,0,0,0,0,0,0,0,0,0,0,0,0,0,0,0,0,0,0,0,0,0,0,0,0,0,0,0,0,0,0,0,0,0,0,0,0,0,0,0,0,0,0,0,0,0,0,0,0,0,0,0,0,0,0,0,0,0,0,0,0,0,0,0,0,0,0,0,0,0,0,0,0,0,0,0,0,0,0,0,0,0,0,0,0,0,0,0,0,0,0,0,0,0,0,0,0,0,0,0,0,0,0,0,0,0,0,0,0,0,0,0,0,0,0,0,0,0,0,0,0,0,0,0,0,0,0,0,0,0,0,0,0,0,0,0,0,0,0,0,0,0,0,0,0,0,0,0,0,0,0,0,0,0,0,0,0,0,0,0,0,0,0,0,0,0,0,0,0,0,0,0,0,0,0,0,0,0,0,0,0,0,0,0,0,0,0,0,0,0,0,0,0,0,0,0,0,0,0,0,0,0,0,0,0,0,0,0,0,0,0],"id":7,"left_children":[1,3,5,7,9,11,13,15,17,19,21,23,25,27,29,31,33,35,37,39,41,43,45,47,49,51,53,55,57,59,61,63,65,67,-1,69,71,73,75,77,79,81,83,85,87,89,91,93,95,97,99,101,103,105,107,-1,109,111,113,115,117,119,121,123,125,127,129,131,-1,133,135,137,-1,139,141,143,145,147,149,151,153,155,157,-1,159,161,163,165,167,-1,-1,169,171,173,175,177,179,181,183,185,187,-1,-1,189,191,-1,-1,193,195,197,199,201,203,205,-1,207,209,211,213,215,217,-1,-1,-1,-1,-1,-1,-1,-1,-1,-1,-1,-1,-1,-1,-1,-1,-1,-1,-1,-1,-1,-1,-1,-1,-1,-1,-1,-1,-1,-1,-1,-1,-1,-1,-1,-1,-1,-1,-1,-1,-1,-1,-1,-1,-1,-1,-1,-1,-1,-1,-1,-1,-1,-1,-1,-1,-1,-1,-1,-1,-1,-1,-1,-1,-1,-1,-1,-1,-1,-1,-1,-1,-1,-1,-1,-1,-1,-1,-1,-1,-1,-1,-1,-1,-1,-1,-1,-1,-1,-1,-1,-1,-1,-1,-1,-1,-1,-1],"loss_changes":[8.392623E4,2.6927363E4,1.2930227E4,7.10821E3,5.9602773E3,4.674324E3,2.7413906E3,1.2602471E3,3.8339426E3,2.0720933E3,2.6437031E3,1.547416E3,2.369379E3,1.121752E3,2.047918E3,7.093467E2,5.521637E2,2.148516E3,1.2662897E3,5.46841E2,8.786465E2,1.0301641E3,1.4392104E3,8.371172E2,7.600342E2,1.8007695E3,1.2021472E4,1.2269648E3,1.4534062E3,5.795679E2,9.3210156E2,1.1508984E2,4.3699496E2,6.442467E-1,0E0,2.3872356E3,1.2585073E3,3.9794263E2,4.9665076E2,2.6914832E2,4.2669104E2,9.271084E2,6.660233E2,7.308262E2,4.6400488E2,3.775957E2,1.1716729E3,2.3684082E2,5.6436035E2,3.1841113E2,6.7066846E2,4.400381E2,9.9459766E2,7.7006855E3,2.2622236E3,0E0,5.764263E2,5.3701465E2,7.140742E2,5.9846527E1,4.6121924E2,1.2702383E3,2.0083305E1,7.717432E1,2.2058398E2,8.3572205E1,5.553104E2,1.8868685E-2,0E0,6.2913025E2,3.3558887E2,1.0058489E3,0E0,1.6593823E2,1.3843018E2,4.8247025E2,6.2833734E2,1.23939575E2,1.6004213E2,1.5619815E2,3.1264246E2,4.2598654E2,4.1826025E2,0E0,1.1474665E0,4.7903662E2,3.6629736E2,1.2495996E2,3.5570605E2,0E0,0E0,2.810289E3,4.1097388E2,1.3833447E2,4.9907642E2,1.558706E2,3.6386816E2,1.445083E2,1.5945337E2,2.7231104E2,3.3449097E2,0E0,0E0,1.476206E3,2.6773438E2,0E0,0E0,7.278164E2,1.0049392E3,3.9734802E1,2.4077393E2,1.4267554E2,8.681592E2,2.9258203E2,0E0,3.3200073E1,3.1374878E1,2.494668E2,8.9653E0,3.693379E2,4.8849805E2,0E0,0E0,0E0,0E0,0E0,0E0,0E0,0E0,0E0,0E0,0E0,0E0,0E0,0E0,0E0,0E0,0E0,0E0,0E0,0E0,0E0,0E0,0E0,0E0,0E0,0E0,0E0,0E0,0E0,0E0,0E0,0E0,0E0,0E0,0E0,0E0,0E0,0E0,0E0,0E0,0E0,0E0,0E0,0E0,0E0,0E0,0E0,0E0,0E0,0E0,0E0,0E0,0E0,0E0,0E0,0E0,0E0,0E0,0E0,0E0,0E0,0E0,0E0,0E0,0E0,0E0,0E0,0E0,0E0,0E0,0E0,0E0,0E0,0E0,0E0,0E0,0E0,0E0,0E0,0E0,0E0,0E0,0E0,0E0,0E0,0E0,0E0,0E0,0E0,0E0,0E0,0E0,0E0,0E0,0E0,0E0,0E0,0E0],"parents":[2147483647,0,0,1,1,2,2,3,3,4,4,5,5,6,6,7,7,8,8,9,9,10,10,11,11,12,12,13,13,14,14,15,15,16,16,17,17,18,18,19,19,20,20,21,21,22,22,23,23,24,24,25,25,26,26,27,27,28,28,29,29,30,30,31,31,32,32,33,33,35,35,36,36,37,37,38,38,39,39,40,40,41,41,42,42,43,43,44,44,45,45,46,46,47,47,48,48,49,49,50,50,51,51,52,52,53,53,54,54,56,56,57,57,58,58,59,59,60,60,61,61,62,62,63,63,64,64,65,65,66,66,67,67,69,69,70,70,71,71,73,73,74,74,75,75,76,76,77,77,78,78,79,79,80,80,81,81,82,82,84,84,85,85,86,86,87,87,88,88,91,91,92,92,93,93,94,94,95,95,96,96,97,97,98,98,99,99,100,100,103,103,104,104,107,107,108,108,109,109,110,110,111,111,112,112,113,113,115,115,116,116,117,117,118,118,119,119,120,120],"right_children":[2,4,6,8,10,12,14,16,18,20,22,24,26,28,30,32,34,36,38,40,42,44,46,48,50,52,54,56,58,60,62,64,66,68,-1,70,72,74,76,78,80,82,84,86,88,90,92,94,96,98,100,102,104,106,108,-1,110,112,114,116,118,120,122,124,126,128,130,132,-1,134,136,138,-1,140,142,144,146,148,150,152,154,156,158,-1,160,162,164,166,168,-1,-1,170,172,174,176,178,180,182,184,186,188,-1,-1,190,192,-1,-1,194,196,198,200,202,204,206,-1,208,210,212,214,216,218,-1,-1,-1,-1,-1,-1,-1,-1,-1,-1,-1,-1,-1,-1,-1,-1,-1,-1,-1,-1,-1,-1,-1,-1,-1,-1,-1,-1,-1,-1,-1,-1,-1,-1,-1,-1,-1,-1,-1,-1,-1,-1,-1,-1,-1,-1,-1,-1,-1,-1,-1,-1,-1,-1,-1,-1,-1,-1,-1,-1,-1,-1,-1,-1,-1,-1,-1,-1,-1,-1,-1,-1,-1,-1,-1,-1,-1,-1,-1,-1,-1,-1,-1,-1,-1,-1,-1,-1,-1,-1,-1,-1,-1,-1,-1,-1,-1,-1],"split_conditions":[3E0,6E-1,8.3E0,8.54E1,8.64E1,2E0,1.0584755E1,1.0588894E1,8.52E1,3.3157057E-1,4.640103E0,-4.1919656E0,7.2316413E0,2.9835E2,5.6925E1,1E-1,9.91E2,3.0225E2,1E-1,1.6E0,1.168E3,1.6E0,7.27E1,-3.1927733E0,8.64E1,8.65E0,5.3925E1,5.3337187E-1,8.1E2,8.055556E-1,3.3E0,8.13E1,4.5227692E-1,8.53E2,2.6960322E-1,8.81E1,7.982148E0,3.0375E2,8.97E1,-6.712496E0,1.538E1,8.38E1,1.143E1,8.78E1,-6.356741E0,1.538E1,8.68E0,3.88E0,4.3E0,5E-1,6.1E0,8.54E1,-6.034135E0,8.13E1,1.7E2,5.75597E-1,4.9275E1,2.765043E0,3.0152255E2,1.1150203E1,1.41E1,1.0350303E1,2.013E1,1.168E3,3.0235E2,8.43E1,8.38E1,4.7175E1,3.5449737E-3,2E-1,5E0,3.6398964E1,2.8858966E-1,1.1E3,-9.465633E-1,1E-1,3.0215E2,5.3069143E0,8.43E1,-7.7487726E0,4.9395714E0,-1.1713924E1,3.88E0,2.6160318E-1,8.43E1,4.8724966E0,9.02E1,8.9E1,7.325807E0,6.2407887E-1,-2.7993822E-3,5.79E2,5.8284035E0,1.7E2,1.1192E2,1.1192E2,3.0015E2,1.2284933E0,4.7653034E1,-1.1150203E1,3.0064075E2,2.362299E-1,6.9550323E-1,8.284544E0,8.64E1,1.9366697E0,2.7668095E-1,7.83E1,1.083812E1,8.04E1,2.6998255E0,8.1E0,8.4E0,6.719286E-1,-2.0965634E-2,1.654E1,7.777778E-1,1.2E1,8.13E1,3.6E2,3.0028244E2,1.8634312E-2,1.047036E-1,-1.1534101E-2,4.50781E-3,-9.578623E-3,3.1364572E-3,-7.1516577E-3,-1.4527147E-3,-2.3589486E-3,2.3570942E-2,-3.8299102E-3,-1.4935478E-2,1.3624585E-3,1.883558E-2,6.7783957E-3,3.3713434E-2,-3.1150696E-3,6.858448E-2,-8.770598E-3,4.0060274E-2,-8.719409E-3,2.752508E-1,2.7062014E-1,1.4385697E-3,1.6749028E-2,2.0537798E-1,1.8897852E-2,8.065367E-2,-2.4585451E-3,7.297842E-3,4.7363915E-2,9.276135E-3,2.6264673E-2,7.0322186E-2,4.63673E-2,8.72103E-3,4.01924E-2,8.542036E-2,-1.296336E-2,6.580869E-3,3.5986047E-2,5.99176E-2,1.835249E-2,3.7369844E-2,7.5959265E-2,5.3034928E-2,4.4486724E-2,1.12522595E-1,1.0331919E-1,5.5169356E-1,6.3659996E-2,1.20352186E-1,4.518133E-2,7.5341515E-2,6.603544E-2,2.5091282E-1,7.827444E-2,1.2494484E-1,1.19449854E-1,1.8465704E-1,-2.4939287E-3,3.901695E-2,4.880052E-2,1.3977583E-1,1.4145902E-1,6.448787E-2,2.0403977E-1,9.995009E-2,1.3025072E-1,2.8214005E-1,7.187883E-2,1.1483378E-1,-2.1045323E-2,8.3268976E-1,1.1343177E-1,3.1823295E-1,3.109345E-2,1.2518485E-1,3.7129223E-1,2.1848705E-1,7.701574E-2,1.3062699E-1,4.9234146E-1,1.499572E-1,